{"learner":{"attributes":{"scikit_learn":"{\"_estimator_type\": \"regressor\"}"},"feature_names":["pm25_lag_1","temperature_2m_mean","precipitation_sum","wind_speed_10m_max","wind_direction_10m_dominant"],"feature_types":["float","float","float","float","float"],"gradient_booster":{"model":{"gbtree_model_param":{"num_parallel_tree":"1","num_trees":"100"},"iteration_indptr":[0,1,2,3,4,5,6,7,8,9,10,11,12,13,14,15,16,17,18,19,20,21,22,23,24,25,26,27,28,29,30,31,32,33,34,35,36,37,38,39,40,41,42,43,44,45,46,47,48,49,50,51,52,53,54,55,56,57,58,59,60,61,62,63,64,65,66,67,68,69,70,71,72,73,74,75,76,77,78,79,80,81,82,83,84,85,86,87,88,89,90,91,92,93,94,95,96,97,98,99,100],"tree_info":[0,0,0,0,0,0,0,0,0,0,0,0,0,0,0,0,0,0,0,0,0,0,0,0,0,0,0,0,0,0,0,0,0,0,0,0,0,0,0,0,0,0,0,0,0,0,0,0,0,0,0,0,0,0,0,0,0,0,0,0,0,0,0,0,0,0,0,0,0,0,0,0,0,0,0,0,0,0,0,0,0,0,0,0,0,0,0,0,0,0,0,0,0,0,0,0,0,0,0,0],"trees":[{"base_weights":[2.190676E-8,-6.529944E-1,2.8631294E0,-1.175993E0,3.8951486E-2,2.2457533E0,6.880735E0,-9.0636337E-1,-1.4947658E0,6.355013E-1,-7.166756E-1,3.2190685E0,6.636586E-1,9.0959425E0,2.683392E0,-1.1682507E0,-7.2931623E-1,-1.2513856E0,-1.6114988E0,-1.350402E-1,9.1741914E-1,5.1562E-1,-8.534803E-1,1.3785529E0,3.5565076E0,2.028392E0,4.2338374E-1,1.0993186E1,5.6233606E0,1.757152E0,2.7644212E0,-1.1787975E0,1.3642108E-1,-1.2589741E0,-6.470625E-1,-5.754968E-1,-1.3408496E0,-1.7084676E0,-1.4169493E0,-2.70731E-1,1.1675266E0,1.3436505E0,4.9961653E-1,3.1245643E-1,1.5095792E0,-6.2457484E-1,-1.1335545E0,2.8937974E0,1.8950164E-1,2.55591E0,4.249063E0,1.4128424E0,1.1488817E0,1.0250393E0,-2.0955437E-1,9.158948E-1,1.174774E1,2.2589481E-1,6.4404306E0,3.0655265E0,-9.796023E-2,-2.730112E-1,-3.7307987E-1,-1.24105215E-1,-3.8804546E-1,-1.3861504E-1,-2.6077184E-1,1.01131655E-1,-2.3414731E-1,-4.0726396E-1,1.0192109E-1,-5.159547E-1,-1.391052E-1,-3.1065255E-1,-4.6867728E-1,-1.18497126E-1,2.142202E-1,4.9400762E-1,1.1131633E-2,5.398443E-1,2.3440716E-1,3.8456538E-1,2.4791224E-2,2.9161194E-1,9.900084E-3,5.4689485E-1,2.0789482E-1,-1.4837864E-2,-2.4227713E-1,-2.501714E-1,-4.2586017E-1,9.2731595E-1,4.9421098E-2,1.8625271E-1,-3.427263E-1,3.8370687E-1,9.123254E-1,1.360462E0,1.6148691E-1,5.450384E-1,7.2473764E-2,6.1745238E-2,4.286799E-1,-2.9692098E-1,1.6484803E-1,3.741453E0,1.263895E0,2.1334581E0,-4.057889E-2,1.2302933E0,1.4613166E-1,2.308948E-1,-1.546315E-1],"categories":[],"categories_nodes":[],"categories_segments":[],"categories_sizes":[],"default_left":[0,0,0,0,0,0,0,0,0,0,0,0,0,0,0,0,0,0,0,0,0,0,0,0,0,0,0,0,0,0,0,0,0,0,0,0,0,0,0,0,0,0,0,0,0,0,0,0,0,0,0,0,0,0,0,0,0,0,0,0,0,0,0,0,0,0,0,0,0,0,0,0,0,0,0,0,0,0,0,0,0,0,0,0,0,0,0,0,0,0,0,0,0,0,0,0,0,0,0,0,0,0,0,0,0,0,0,0,0,0,0,0,0],"id":0,"left_children":[1,3,5,7,9,11,13,15,17,19,21,23,25,27,29,31,33,35,37,39,41,43,45,47,49,51,53,55,57,59,-1,61,-1,63,65,67,69,71,73,75,77,79,81,83,85,87,89,91,93,95,97,99,-1,101,103,-1,105,-1,107,109,111,-1,-1,-1,-1,-1,-1,-1,-1,-1,-1,-1,-1,-1,-1,-1,-1,-1,-1,-1,-1,-1,-1,-1,-1,-1,-1,-1,-1,-1,-1,-1,-1,-1,-1,-1,-1,-1,-1,-1,-1,-1,-1,-1,-1,-1,-1,-1,-1,-1,-1,-1,-1],"loss_changes":[3.6644304E3,5.776169E2,8.8740356E2,7.6774414E1,3.105847E2,4.8600464E2,4.2189526E2,2.2099365E1,9.773743E0,8.37572E1,5.168956E1,1.16825195E2,3.9146374E1,1.4241968E2,9.270099E1,3.925293E0,1.2168121E1,7.6333466E0,2.8048706E0,1.8697706E1,4.954741E1,5.7883472E0,1.6858276E1,5.710612E1,1.0347974E2,1.4546631E1,4.019993E1,7.796924E1,4.688321E1,4.156239E1,0E0,2.2992554E0,0E0,6.025963E-1,1.0285797E1,3.6305141E0,3.8845825E0,1.7526245E0,3.8140564E0,1.1907243E1,5.355485E0,3.4221085E1,4.686535E1,4.9446874E0,1.6324997E-2,1.6064075E1,9.270874E0,7.0273056E0,1.1625E1,3.947632E1,9.937427E1,6.6581116E0,0E0,1.7573345E1,3.1338028E1,0E0,4.016577E1,0E0,4.950406E1,2.4700676E1,3.294371E0,0E0,0E0,0E0,0E0,0E0,0E0,0E0,0E0,0E0,0E0,0E0,0E0,0E0,0E0,0E0,0E0,0E0,0E0,0E0,0E0,0E0,0E0,0E0,0E0,0E0,0E0,0E0,0E0,0E0,0E0,0E0,0E0,0E0,0E0,0E0,0E0,0E0,0E0,0E0,0E0,0E0,0E0,0E0,0E0,0E0,0E0,0E0,0E0,0E0,0E0,0E0,0E0],"parents":[2147483647,0,0,1,1,2,2,3,3,4,4,5,5,6,6,7,7,8,8,9,9,10,10,11,11,12,12,13,13,14,14,15,15,16,16,17,17,18,18,19,19,20,20,21,21,22,22,23,23,24,24,25,25,26,26,27,27,28,28,29,29,31,31,33,33,34,34,35,35,36,36,37,37,38,38,39,39,40,40,41,41,42,42,43,43,44,44,45,45,46,46,47,47,48,48,49,49,50,50,51,51,53,53,54,54,56,56,58,58,59,59,60,60],"right_children":[2,4,6,8,10,12,14,16,18,20,22,24,26,28,30,32,34,36,38,40,42,44,46,48,50,52,54,56,58,60,-1,62,-1,64,66,68,70,72,74,76,78,80,82,84,86,88,90,92,94,96,98,100,-1,102,104,-1,106,-1,108,110,112,-1,-1,-1,-1,-1,-1,-1,-1,-1,-1,-1,-1,-1,-1,-1,-1,-1,-1,-1,-1,-1,-1,-1,-1,-1,-1,-1,-1,-1,-1,-1,-1,-1,-1,-1,-1,-1,-1,-1,-1,-1,-1,-1,-1,-1,-1,-1,-1,-1,-1,-1,-1],"split_conditions":[3.65E0,1.7E0,1.052E1,2.5399068E2,2.2464098E2,2.171966E2,1.8880127E2,1.14E0,1.608761E1,9.768497E1,1.2245293E1,5.8719738E1,1.108572E1,9.612334E0,2.705E1,1.4500002E1,4.198713E1,-5.4085E0,1.14E0,3.25E0,1.0458167E1,3.16E0,2.760494E2,1.3679999E1,4.9E0,8.8E0,2.528972E2,9.102666E1,1.3168583E1,2.1E0,2.7644212E0,6.0816664E-1,1.3642108E-1,1.024578E1,1.0889417E1,2.7332245E2,1.1400001E1,1.941025E1,2.694543E2,1.8139416E1,1.8E0,1.7654688E1,1.6345096E2,-4.0522504E0,3.35E0,1.6311613E1,1.7174677E1,2.5E0,4.8E0,1E-1,2.3532547E1,1.024578E1,1.1488817E0,2.3006366E2,5.0831666E0,9.158948E-1,1.8612444E2,2.2589481E-1,1.614E1,2.277856E2,3.7435834E0,-2.730112E-1,-3.7307987E-1,-1.24105215E-1,-3.8804546E-1,-1.3861504E-1,-2.6077184E-1,1.01131655E-1,-2.3414731E-1,-4.0726396E-1,1.0192109E-1,-5.159547E-1,-1.391052E-1,-3.1065255E-1,-4.6867728E-1,-1.18497126E-1,2.142202E-1,4.9400762E-1,1.1131633E-2,5.398443E-1,2.3440716E-1,3.8456538E-1,2.4791224E-2,2.9161194E-1,9.900084E-3,5.4689485E-1,2.0789482E-1,-1.4837864E-2,-2.4227713E-1,-2.501714E-1,-4.2586017E-1,9.2731595E-1,4.9421098E-2,1.8625271E-1,-3.427263E-1,3.8370687E-1,9.123254E-1,1.360462E0,1.6148691E-1,5.450384E-1,7.2473764E-2,6.1745238E-2,4.286799E-1,-2.9692098E-1,1.6484803E-1,3.741453E0,1.263895E0,2.1334581E0,-4.057889E-2,1.2302933E0,1.4613166E-1,2.308948E-1,-1.546315E-1],"split_indices":[0,0,0,4,4,4,4,0,3,4,3,4,3,1,0,2,4,1,0,0,1,0,4,3,0,2,4,4,1,2,0,1,0,3,1,4,2,1,4,1,2,3,4,1,0,3,3,2,2,2,3,3,0,4,1,0,4,0,0,4,1,0,0,0,0,0,0,0,0,0,0,0,0,0,0,0,0,0,0,0,0,0,0,0,0,0,0,0,0,0,0,0,0,0,0,0,0,0,0,0,0,0,0,0,0,0,0,0,0,0,0,0,0],"split_type":[0,0,0,0,0,0,0,0,0,0,0,0,0,0,0,0,0,0,0,0,0,0,0,0,0,0,0,0,0,0,0,0,0,0,0,0,0,0,0,0,0,0,0,0,0,0,0,0,0,0,0,0,0,0,0,0,0,0,0,0,0,0,0,0,0,0,0,0,0,0,0,0,0,0,0,0,0,0,0,0,0,0,0,0,0,0,0,0,0,0,0,0,0,0,0,0,0,0,0,0,0,0,0,0,0,0,0,0,0,0,0,0,0],"sum_hessian":[1.958E3,1.595E3,3.63E2,9.08E2,6.87E2,3.16E2,4.7E1,4.94E2,4.14E2,3.84E2,3.03E2,1.95E2,1.21E2,3E1,1.7E1,1.97E2,2.97E2,1.38E2,2.76E2,1.03E2,2.81E2,3E1,2.73E2,3.1E1,1.64E2,1.7E1,1.04E2,1.8E1,1.2E1,1.6E1,1E0,1.96E2,1E0,3.8E1,2.59E2,1.7E1,1.21E2,1.79E2,9.7E1,9.4E1,9E0,1.38E2,1.43E2,2.6E1,4E0,1.52E2,1.21E2,1.3E1,1.8E1,6.9E1,9.5E1,1.4E1,3E0,5.3E1,5.1E1,2E0,1.6E1,2E0,1E1,9E0,7E0,4.1E1,1.55E2,2E0,3.6E1,1.43E2,1.16E2,3E0,1.4E1,1.2E2,1E0,1.77E2,2E0,2.9E1,6.8E1,8.4E1,1E1,6E0,3E0,7.5E1,6.3E1,4.9E1,9.4E1,7E0,1.9E1,2E0,2E0,3.7E1,1.15E2,6.1E1,6E1,1.2E1,1E0,1.4E1,4E0,2E1,4.9E1,8.8E1,7E0,1E1,4E0,1.8E1,3.5E1,2.5E1,2.6E1,1.4E1,2E0,9E0,1E0,6E0,3E0,2E0,5E0],"tree_param":{"num_deleted":"0","num_feature":"5","num_nodes":"113","size_leaf_vector":"1"}},{"base_weights":[8.593086E-3,-4.579647E-1,2.0542457E0,-8.268188E-1,3.0038763E-2,1.5902071E0,5.076038E0,-6.3419455E-1,-1.0495784E0,4.1099736E-1,-5.721881E-1,2.4418278E0,6.012497E-1,6.6329665E0,2.1126583E0,-7.8095925E-1,-4.549698E-1,-1.1877762E0,-9.197634E-1,-6.298586E-2,5.824461E-1,-1.214179E-1,-8.124191E-1,8.4385806E-1,2.737641E0,5.016505E-1,3.3494554E0,8.537293E0,4.5625043E0,1.3154587E0,2.3497581E0,-7.979632E-1,2.9611418E-1,-1.8501852E-1,-5.9890896E-1,-1.2079637E0,-1.588715E-1,-4.7235852E-1,-9.76995E-1,-2.6627234E-1,1.282904E0,1.3401875E0,3.9522737E-1,3.1631386E-1,-3.1191492E-1,-8.3346987E-1,2.9060483E-1,1.6311054E0,-5.210792E-1,2.911546E0,3.8609794E-1,6.978594E-1,-5.084713E-1,1.9419391E-1,1.1589489E0,1.266421E0,2.7793448E0,6.586657E0,2.4869318E0,2.223008E0,-2.98613E-1,-2.9224765E-1,-2.1749423E-1,2.4542023E-1,-1.3582672E-1,-2.8392175E-1,-1.5558814E-1,-3.669532E-1,-1.8673709E-1,4.060107E-1,-2.6258215E-1,-1.620453E-1,1.9353688E-1,-2.9550245E-1,8.663292E-2,-1.3524355E-1,2.5215488E-2,2.0559281E-1,1.033454E0,1.1336979E0,2.3636778E-1,4.0045768E-1,8.961196E-2,2.5461572E-1,3.2500234E-2,1.8507801E-1,-1.1944891E-1,-2.5701582E-1,-1.5396733E-2,-2.1699894E-2,1.3070853E-1,5.744367E-1,-1.2767258E-1,-3.6984783E-1,8.325428E-2,6.828863E-1,1.1313213E0,-7.530215E-2,1.0135723E0,6.0110345E-2,3.2096303E-1,-2.3361592E-1,4.928523E-1,5.8898807E-1,2.6904051E0,3.0446056E-1,1.1268064E0,9.469064E-1,1.4151637E-1,1.7804414E-2,-1.7457625E-1],"categories":[],"categories_nodes":[],"categories_segments":[],"categories_sizes":[],"default_left":[0,0,0,0,0,0,0,0,0,0,0,0,0,0,0,0,0,0,0,0,0,0,0,0,0,0,0,0,0,0,0,0,0,0,0,0,0,0,0,0,0,0,0,0,0,0,0,0,0,0,0,0,0,0,0,0,0,0,0,0,0,0,0,0,0,0,0,0,0,0,0,0,0,0,0,0,0,0,0,0,0,0,0,0,0,0,0,0,0,0,0,0,0,0,0,0,0,0,0,0,0,0,0,0,0,0,0,0,0,0,0],"id":1,"left_children":[1,3,5,7,9,11,13,15,17,19,21,23,25,27,29,31,33,35,37,39,41,43,45,47,49,51,53,55,57,59,-1,61,-1,63,65,67,69,71,73,75,77,79,81,83,85,87,89,91,93,95,97,99,101,-1,-1,-1,-1,103,105,107,109,-1,-1,-1,-1,-1,-1,-1,-1,-1,-1,-1,-1,-1,-1,-1,-1,-1,-1,-1,-1,-1,-1,-1,-1,-1,-1,-1,-1,-1,-1,-1,-1,-1,-1,-1,-1,-1,-1,-1,-1,-1,-1,-1,-1,-1,-1,-1,-1,-1,-1],"loss_changes":[1.8706401E3,2.8730814E2,5.0233923E2,3.8338562E1,1.580785E2,2.6551447E2,2.0744775E2,1.2533585E1,6.442383E0,3.4330017E1,2.881453E1,7.804895E1,3.8830147E1,8.327649E1,7.1774414E1,8.844559E0,8.554203E0,3.9622803E0,5.1973877E0,3.1258541E1,4.3447975E1,7.937004E0,4.282402E0,3.0937145E1,5.735498E1,2.8894905E1,4.4398766E0,7.9678955E0,5.5041107E1,2.5566263E1,0E0,2.7143097E0,0E0,2.1586893E1,3.5543365E0,9.845276E-1,6.601431E0,2.3938985E0,2.262268E0,6.438104E0,1.7018688E1,7.918589E1,2.2274776E1,3.1192102E0,5.5329523E0,3.0655823E0,2.4215007E-1,1.1316925E1,6.594487E0,6.403674E1,2.1819786E1,2.2179768E1,1.5232643E1,0E0,0E0,0E0,0E0,7.047229E1,1.4869934E1,1.6491207E1,7.444279E-1,0E0,0E0,0E0,0E0,0E0,0E0,0E0,0E0,0E0,0E0,0E0,0E0,0E0,0E0,0E0,0E0,0E0,0E0,0E0,0E0,0E0,0E0,0E0,0E0,0E0,0E0,0E0,0E0,0E0,0E0,0E0,0E0,0E0,0E0,0E0,0E0,0E0,0E0,0E0,0E0,0E0,0E0,0E0,0E0,0E0,0E0,0E0,0E0,0E0,0E0],"parents":[2147483647,0,0,1,1,2,2,3,3,4,4,5,5,6,6,7,7,8,8,9,9,10,10,11,11,12,12,13,13,14,14,15,15,16,16,17,17,18,18,19,19,20,20,21,21,22,22,23,23,24,24,25,25,26,26,27,27,28,28,29,29,31,31,33,33,34,34,35,35,36,36,37,37,38,38,39,39,40,40,41,41,42,42,43,43,44,44,45,45,46,46,47,47,48,48,49,49,50,50,51,51,52,52,57,57,58,58,59,59,60,60],"right_children":[2,4,6,8,10,12,14,16,18,20,22,24,26,28,30,32,34,36,38,40,42,44,46,48,50,52,54,56,58,60,-1,62,-1,64,66,68,70,72,74,76,78,80,82,84,86,88,90,92,94,96,98,100,102,-1,-1,-1,-1,104,106,108,110,-1,-1,-1,-1,-1,-1,-1,-1,-1,-1,-1,-1,-1,-1,-1,-1,-1,-1,-1,-1,-1,-1,-1,-1,-1,-1,-1,-1,-1,-1,-1,-1,-1,-1,-1,-1,-1,-1,-1,-1,-1,-1,-1,-1,-1,-1,-1,-1,-1,-1],"split_conditions":[3.65E0,1.7E0,1.052E1,2.528972E2,2.3677582E2,1.9866467E2,1.8880127E2,1.29E0,1.02E0,1.081073E2,1.5646544E1,4.46016E1,2.1481085E1,4E-1,2.705E1,1.4500002E1,1.48257065E1,3.5807443E2,1.3237038E1,3.16E0,2.8644168E0,1.2245293E1,1.87415E1,1.7035456E1,1.07E1,2.3532547E1,3.97E0,9.102666E1,1.374943E2,2.0150354E1,2.3497581E0,8.7E-1,2.9611418E-1,1.5956669E0,6.1608868E1,1.6506083E1,7E-1,1.7122747E1,1.2E1,2.58E0,9.768497E1,2.02E0,1.294219E2,-4.8980837E0,2.4354498E2,1.2E1,1.73E0,2.5E0,8.454E0,5.97E0,1.1708167E1,4.88E0,8.77E0,1.9419391E-1,1.1589489E0,1.266421E0,2.7793448E0,7.95742E1,2.0380579E1,2.277856E2,2.7E0,-2.9224765E-1,-2.1749423E-1,2.4542023E-1,-1.3582672E-1,-2.8392175E-1,-1.5558814E-1,-3.669532E-1,-1.8673709E-1,4.060107E-1,-2.6258215E-1,-1.620453E-1,1.9353688E-1,-2.9550245E-1,8.663292E-2,-1.3524355E-1,2.5215488E-2,2.0559281E-1,1.033454E0,1.1336979E0,2.3636778E-1,4.0045768E-1,8.961196E-2,2.5461572E-1,3.2500234E-2,1.8507801E-1,-1.1944891E-1,-2.5701582E-1,-1.5396733E-2,-2.1699894E-2,1.3070853E-1,5.744367E-1,-1.2767258E-1,-3.6984783E-1,8.325428E-2,6.828863E-1,1.1313213E0,-7.530215E-2,1.0135723E0,6.0110345E-2,3.2096303E-1,-2.3361592E-1,4.928523E-1,5.8898807E-1,2.6904051E0,3.0446056E-1,1.1268064E0,9.469064E-1,1.4151637E-1,1.7804414E-2,-1.7457625E-1],"split_indices":[0,0,0,4,4,4,4,0,0,4,3,4,1,2,0,2,3,4,3,0,1,3,1,3,2,3,0,4,4,3,0,0,0,1,4,1,0,1,2,0,4,0,4,1,4,2,0,2,1,0,1,0,0,0,0,0,0,4,3,4,2,0,0,0,0,0,0,0,0,0,0,0,0,0,0,0,0,0,0,0,0,0,0,0,0,0,0,0,0,0,0,0,0,0,0,0,0,0,0,0,0,0,0,0,0,0,0,0,0,0,0],"split_type":[0,0,0,0,0,0,0,0,0,0,0,0,0,0,0,0,0,0,0,0,0,0,0,0,0,0,0,0,0,0,0,0,0,0,0,0,0,0,0,0,0,0,0,0,0,0,0,0,0,0,0,0,0,0,0,0,0,0,0,0,0,0,0,0,0,0,0,0,0,0,0,0,0,0,0,0,0,0,0,0,0,0,0,0,0,0,0,0,0,0,0,0,0,0,0,0,0,0,0,0,0,0,0,0,0,0,0,0,0,0,0],"sum_hessian":[1.958E3,1.595E3,3.63E2,9.08E2,6.87E2,3.16E2,4.7E1,4.89E2,4.19E2,4.21E2,2.66E2,1.69E2,1.47E2,3E1,1.7E1,2.67E2,2.22E2,1.99E2,2.2E2,1.12E2,3.09E2,9.3E1,1.73E2,2.7E1,1.42E2,1.43E2,4E0,1.4E1,1.6E1,1.6E1,1E0,2.65E2,2E0,7.8E1,1.44E2,1.95E2,4E0,2.6E1,1.94E2,9.8E1,1.4E1,6E1,2.49E2,2.8E1,6.5E1,1.7E2,3E0,1.7E1,1E1,1.32E2,1E1,1.2E2,2.3E1,1E0,3E0,3E0,1.1E1,7E0,9E0,1E1,6E0,7.4E1,1.91E2,1.6E1,6.2E1,2.5E1,1.19E2,1.89E2,6E0,1E0,3E0,2.5E1,1E0,1.93E2,1E0,6.4E1,3.4E1,1.2E1,2E0,1E1,5E1,2.2E1,2.27E2,7E0,2.1E1,5E0,6E1,1.65E2,5E0,1E0,2E0,1.5E1,2E0,5E0,5E0,7.8E1,5.4E1,9E0,1E0,5.2E1,6.8E1,2.1E1,2E0,3E0,4E0,5E0,4E0,6E0,4E0,3E0,3E0],"tree_param":{"num_deleted":"0","num_feature":"5","num_nodes":"111","size_leaf_vector":"1"}},{"base_weights":[1.5709514E-2,-3.192925E-1,1.4845213E0,-5.6393254E-1,5.573375E-2,1.1286216E0,3.8040147E0,-4.1318062E-1,-7.395023E-1,3.4280652E-1,-3.1955016E-1,1.7264125E0,4.3434405E-1,4.925542E0,1.6611613E0,-4.6477452E-1,4.257334E-2,-3.9137647E-1,-7.748123E-1,3.0052438E0,3.1184158E-1,4.0497597E-2,-4.7894228E-1,1.2456627E0,2.446884E0,3.7166294E-1,1.0020127E0,4.16676E0,2.7016897E0,9.75624E-1,1.9972943E0,-6.672647E-1,-3.756941E-1,4.4324455E-1,-5.167333E-1,1.5060452E-1,-5.3927153E-1,-7.9843444E-1,-2.2520301E-1,1.4524894E0,7.792377E-1,2.8439316E-1,2.649342E0,-2.1836193E-1,4.550145E-1,-3.521174E-1,-6.9132614E-1,4.376102E0,1.0766841E0,3.8214931E0,1.4819732E0,2.4786803E-1,1.4362807E0,1.7305768E0,5.054704E0,2.3842852E0,1.8999143E-1,-2.2179145E-1,-1.3038313E-1,-1.6330053E-1,-7.556453E-2,-6.313153E-2,3.0972072E-1,-9.243527E-2,-2.1489103E-1,1.17472336E-1,-9.26232E-2,-2.0635162E-1,-9.156916E-2,-2.4666035E-1,-1.499234E-1,-1.3083395E-1,1.866033E-1,2.8866768E-1,6.1989285E-2,-7.515798E-2,1.18549846E-1,-2.275178E-1,1.2114154E0,-1.3125527E-1,9.473409E-2,2.9677346E-1,-3.179442E-2,-2.8907934E-1,-7.49287E-2,-2.1377155E-1,1.1619387E-1,1.691582E-1,1.5564592E0,2.5535926E-1,1.0690141E0,7.7663344E-1,3.0787234E0,5.0766575E-1,-5.2356434E-1,1.5618041E-1,-2.2162719E-1,-1.0129715E-1,7.9692703E-1,1.049336E0,-4.058646E-1,2.2903912E0,9.2346895E-1,1.1844549E0,1.845872E-1,1.932045E-1,-1.11410394E-1],"categories":[],"categories_nodes":[],"categories_segments":[],"categories_sizes":[],"default_left":[0,0,0,0,0,0,0,0,0,0,0,0,0,0,0,0,0,0,0,0,0,0,0,0,0,0,0,0,0,0,0,0,0,0,0,0,0,0,0,0,0,0,0,0,0,0,0,0,0,0,0,0,0,0,0,0,0,0,0,0,0,0,0,0,0,0,0,0,0,0,0,0,0,0,0,0,0,0,0,0,0,0,0,0,0,0,0,0,0,0,0,0,0,0,0,0,0,0,0,0,0,0,0,0,0,0,0],"id":2,"left_children":[1,3,5,7,9,11,13,15,17,19,21,23,25,27,29,31,33,35,37,39,41,43,45,47,49,51,-1,53,-1,55,-1,57,59,61,63,65,67,69,71,-1,73,75,77,79,81,83,85,87,89,91,93,95,97,99,101,103,105,-1,-1,-1,-1,-1,-1,-1,-1,-1,-1,-1,-1,-1,-1,-1,-1,-1,-1,-1,-1,-1,-1,-1,-1,-1,-1,-1,-1,-1,-1,-1,-1,-1,-1,-1,-1,-1,-1,-1,-1,-1,-1,-1,-1,-1,-1,-1,-1,-1,-1],"loss_changes":[9.644096E2,1.4645874E2,2.9619122E2,2.5262054E1,6.808957E1,1.3081555E2,1.0717474E2,1.2294159E1,5.1668243E0,2.8577152E1,1.5743921E1,5.583429E1,2.5714218E1,5.8448547E1,5.515964E1,8.209091E0,1.2330335E1,3.5279388E0,5.052307E0,1.2578457E1,2.2023594E1,9.219998E0,4.8743286E0,5.0301956E1,8.32038E1,1.8885956E1,0E0,5.182187E1,0E0,1.8360739E1,0E0,2.0586777E0,6.7114754E0,1.2541176E1,7.368636E-1,1.2277881E0,9.722576E-1,2.3292694E0,3.487616E0,0E0,1.15514874E-1,2.0956638E1,2.1991838E1,6.342354E0,9.994974E0,7.33249E0,1.8801346E0,1.2554092E1,5.3038513E1,1.8780795E2,3.0771912E1,3.5903896E1,3.3363815E1,5.3774155E1,7.84823E1,1.4169876E1,3.2976115E0,0E0,0E0,0E0,0E0,0E0,0E0,0E0,0E0,0E0,0E0,0E0,0E0,0E0,0E0,0E0,0E0,0E0,0E0,0E0,0E0,0E0,0E0,0E0,0E0,0E0,0E0,0E0,0E0,0E0,0E0,0E0,0E0,0E0,0E0,0E0,0E0,0E0,0E0,0E0,0E0,0E0,0E0,0E0,0E0,0E0,0E0,0E0,0E0,0E0,0E0],"parents":[2147483647,0,0,1,1,2,2,3,3,4,4,5,5,6,6,7,7,8,8,9,9,10,10,11,11,12,12,13,13,14,14,15,15,16,16,17,17,18,18,19,19,20,20,21,21,22,22,23,23,24,24,25,25,27,27,29,29,31,31,32,32,33,33,34,34,35,35,36,36,37,37,38,38,40,40,41,41,42,42,43,43,44,44,45,45,46,46,47,47,48,48,49,49,50,50,51,51,52,52,53,53,54,54,55,55,56,56],"right_children":[2,4,6,8,10,12,14,16,18,20,22,24,26,28,30,32,34,36,38,40,42,44,46,48,50,52,-1,54,-1,56,-1,58,60,62,64,66,68,70,72,-1,74,76,78,80,82,84,86,88,90,92,94,96,98,100,102,104,106,-1,-1,-1,-1,-1,-1,-1,-1,-1,-1,-1,-1,-1,-1,-1,-1,-1,-1,-1,-1,-1,-1,-1,-1,-1,-1,-1,-1,-1,-1,-1,-1,-1,-1,-1,-1,-1,-1,-1,-1,-1,-1,-1,-1,-1,-1,-1,-1,-1,-1],"split_conditions":[3.65E0,1.8E0,1.052E1,2.528972E2,2.2317671E2,1.9866467E2,1.8880127E2,1.65E0,-3.8584995E0,7.771331E0,1.5646544E1,1.4630988E2,2.2743582E1,1.926E1,2.705E1,1.0216809E2,1.7906157E1,1.3237038E1,1.7512333E1,2.7E0,3.527449E1,2.47E0,2.760494E2,3.75E0,6.4352508E0,4.8E0,1.0020127E0,4.87275E0,2.7016897E0,1.5546833E1,1.9972943E0,1.8E0,1.14E0,1.3896187E1,2.2682856E1,3.3545114E2,3.112057E2,3.452879E2,1.1E0,1.4524894E0,3.2E0,5.6649995E-1,1.85E0,3.0757883E2,2.7520303E2,2.3006366E2,1.8139416E1,-8.126666E-1,9.1E0,5.826917E0,8.77E0,1.3000001E0,4.97E0,1.656E1,9.612334E0,1.135E1,4.87275E0,-2.2179145E-1,-1.3038313E-1,-1.6330053E-1,-7.556453E-2,-6.313153E-2,3.0972072E-1,-9.243527E-2,-2.1489103E-1,1.17472336E-1,-9.26232E-2,-2.0635162E-1,-9.156916E-2,-2.4666035E-1,-1.499234E-1,-1.3083395E-1,1.866033E-1,2.8866768E-1,6.1989285E-2,-7.515798E-2,1.18549846E-1,-2.275178E-1,1.2114154E0,-1.3125527E-1,9.473409E-2,2.9677346E-1,-3.179442E-2,-2.8907934E-1,-7.49287E-2,-2.1377155E-1,1.1619387E-1,1.691582E-1,1.5564592E0,2.5535926E-1,1.0690141E0,7.7663344E-1,3.0787234E0,5.0766575E-1,-5.2356434E-1,1.5618041E-1,-2.2162719E-1,-1.0129715E-1,7.9692703E-1,1.049336E0,-4.058646E-1,2.2903912E0,9.2346895E-1,1.1844549E0,1.845872E-1,1.932045E-1,-1.11410394E-1],"split_indices":[0,0,0,4,4,4,4,0,1,3,3,4,1,0,0,4,3,3,1,0,3,0,4,0,1,2,0,1,0,3,0,2,0,3,3,4,4,4,2,0,0,1,0,4,4,4,1,1,0,1,0,2,0,3,1,0,1,0,0,0,0,0,0,0,0,0,0,0,0,0,0,0,0,0,0,0,0,0,0,0,0,0,0,0,0,0,0,0,0,0,0,0,0,0,0,0,0,0,0,0,0,0,0,0,0,0,0],"split_type":[0,0,0,0,0,0,0,0,0,0,0,0,0,0,0,0,0,0,0,0,0,0,0,0,0,0,0,0,0,0,0,0,0,0,0,0,0,0,0,0,0,0,0,0,0,0,0,0,0,0,0,0,0,0,0,0,0,0,0,0,0,0,0,0,0,0,0,0,0,0,0,0,0,0,0,0,0,0,0,0,0,0,0,0,0,0,0,0,0,0,0,0,0,0,0,0,0,0,0,0,0,0,0,0,0,0,0],"sum_hessian":[1.958E3,1.595E3,3.63E2,9.65E2,6.3E2,3.16E2,4.7E1,5.21E2,4.44E2,3.57E2,2.73E2,1.69E2,1.47E2,3E1,1.7E1,4.68E2,5.3E1,4.2E1,4.02E2,3E0,3.54E2,8.4E1,1.89E2,1.03E2,6.6E1,1.45E2,2E0,2.7E1,3E0,1.6E1,1E0,1.41E2,3.27E2,3.1E1,2.2E1,9E0,3.3E1,3.85E2,1.7E1,1E0,2E0,3.51E2,3E0,5.2E1,3.2E1,1.2E2,6.9E1,4E0,9.9E1,2.6E1,4E1,1.31E2,1.4E1,8E0,1.9E1,5E0,1.1E1,1.06E2,3.5E1,1.37E2,1.9E2,1.5E1,1.6E1,1.2E1,1E1,6E0,3E0,1.9E1,1.4E1,3.55E2,3E1,1.4E1,3E0,1E0,1E0,6E1,2.91E2,1E0,2E0,3.7E1,1.5E1,1.6E1,1.6E1,1.6E1,1.04E2,6.8E1,1E0,1E0,3E0,9.2E1,7E0,2.3E1,3E0,3.8E1,2E0,1.03E2,2.8E1,6E0,8E0,5E0,3E0,7E0,1.2E1,2E0,3E0,6E0,5E0],"tree_param":{"num_deleted":"0","num_feature":"5","num_nodes":"107","size_leaf_vector":"1"}},{"base_weights":[2.1134736E-2,-1.7157625E-1,1.4564081E0,-3.3260524E-1,3.3547798E-1,1.1057967E0,3.0627737E0,-1.7967278E-1,-4.7798783E-1,9.9407995E-1,1.7130055E-1,1.3418721E0,-1.1651384E-1,4.2016926E0,1.2077303E0,-3.3699495E-1,-1.8817276E-2,-2.931981E-1,-5.449979E-1,3.7510717E0,8.070035E-1,6.2155473E-1,-6.688484E-2,1.8405684E0,4.485231E-1,8.2191455E-1,-8.018551E-1,3.320059E0,2.4000762E0,5.7583845E-1,1.6977001E0,-4.0054837E-1,5.5362725E-1,2.6946507E0,-6.1965436E-2,1.4145022E-2,-4.4954875E-1,-5.504859E-1,1.5991402E-1,4.752209E0,-3.802185E-2,1.5416828E0,1.2307933E-1,5.1058304E-1,1.3893881E0,1.14070624E-1,-5.0014895E-1,6.942279E-1,2.0751555E0,1.7968233E0,1.3668995E-1,1.6659727E0,-5.8115846E-1,-2.4697682E-1,-1.2765479E0,5.8099756E0,1.7707663E0,1.3730503E0,-1.9677639E-1,-1.773152E-1,-7.95835E-2,7.7378494E-1,6.662927E-2,6.44027E-3,2.0081074E0,6.9112405E-2,-1.11329116E-1,-3.195535E-2,1.306364E-1,-1.528129E-1,7.784758E-2,-1.4249386E-1,-1.8795837E-1,4.6820903E-1,2.149012E0,3.3645666E-1,2.5631442E0,-9.9143974E-2,1.9155554E-1,8.3477706E-2,4.25304E-1,1.23125225E-1,-7.121026E-2,-2.833852E-2,-2.8261474E-1,5.651706E-1,-4.7022127E-2,6.888336E-1,2.6728562E-1,7.8152806E-1,-8.067688E-2,1.0867661E-1,-3.8053602E-1,1.7527908E-1,7.243462E-1,-2.7874205E-1,1.7381245E-1,1.4776912E-1,-1.9028671E-1,-1.949877E-1,-4.356704E-1,2.054006E0,5.399685E-1,-3.620917E-1,6.965172E-1,5.777684E-1,1.0161973E-1,7.837132E-2,-8.600487E-2],"categories":[],"categories_nodes":[],"categories_segments":[],"categories_sizes":[],"default_left":[0,0,0,0,0,0,0,0,0,0,0,0,0,0,0,0,0,0,0,0,0,0,0,0,0,0,0,0,0,0,0,0,0,0,0,0,0,0,0,0,0,0,0,0,0,0,0,0,0,0,0,0,0,0,0,0,0,0,0,0,0,0,0,0,0,0,0,0,0,0,0,0,0,0,0,0,0,0,0,0,0,0,0,0,0,0,0,0,0,0,0,0,0,0,0,0,0,0,0,0,0,0,0,0,0,0,0,0,0],"id":3,"left_children":[1,3,5,7,9,11,13,15,17,19,21,23,25,27,29,31,33,35,37,39,41,43,45,47,49,51,53,55,-1,57,-1,59,61,63,65,67,69,71,-1,73,-1,75,77,79,-1,81,83,85,87,89,91,93,95,97,99,101,103,105,107,-1,-1,-1,-1,-1,-1,-1,-1,-1,-1,-1,-1,-1,-1,-1,-1,-1,-1,-1,-1,-1,-1,-1,-1,-1,-1,-1,-1,-1,-1,-1,-1,-1,-1,-1,-1,-1,-1,-1,-1,-1,-1,-1,-1,-1,-1,-1,-1,-1,-1],"loss_changes":[5.4209546E2,1.4120352E2,1.27277954E2,2.9084747E1,4.491892E1,5.5559372E1,8.154797E1,1.6214891E1,8.161438E0,3.978163E1,3.59683E1,7.090155E1,2.1239655E1,5.716217E1,4.455759E1,1.856084E1,3.7398773E1,8.704004E0,3.2042694E0,2.0013405E1,3.9504982E1,4.9251564E1,1.7305384E1,2.6257782E1,2.456063E1,1.7548046E1,4.6892595E0,7.457927E1,0E0,1.0125187E1,0E0,7.651287E0,1.4201578E1,5.3307148E1,2.8462162E1,3.1982415E0,5.222599E0,2.5158234E0,0E0,1.9601189E1,0E0,1.0221467E2,1.0029868E1,2.3629923E1,0E0,1.634444E1,1.1563772E1,1.9530407E1,2.019516E1,1.9067062E1,1.599014E1,5.876381E0,2.961386E0,3.1767583E0,1.5694237E-1,2.0935028E1,2.7411377E1,3.9221697E0,4.454984E-1,0E0,0E0,0E0,0E0,0E0,0E0,0E0,0E0,0E0,0E0,0E0,0E0,0E0,0E0,0E0,0E0,0E0,0E0,0E0,0E0,0E0,0E0,0E0,0E0,0E0,0E0,0E0,0E0,0E0,0E0,0E0,0E0,0E0,0E0,0E0,0E0,0E0,0E0,0E0,0E0,0E0,0E0,0E0,0E0,0E0,0E0,0E0,0E0,0E0,0E0],"parents":[2147483647,0,0,1,1,2,2,3,3,4,4,5,5,6,6,7,7,8,8,9,9,10,10,11,11,12,12,13,13,14,14,15,15,16,16,17,17,18,18,19,19,20,20,21,21,22,22,23,23,24,24,25,25,26,26,27,27,29,29,31,31,32,32,33,33,34,34,35,35,36,36,37,37,39,39,41,41,42,42,43,43,45,45,46,46,47,47,48,48,49,49,50,50,51,51,52,52,53,53,54,54,55,55,56,56,57,57,58,58],"right_children":[2,4,6,8,10,12,14,16,18,20,22,24,26,28,30,32,34,36,38,40,42,44,46,48,50,52,54,56,-1,58,-1,60,62,64,66,68,70,72,-1,74,-1,76,78,80,-1,82,84,86,88,90,92,94,96,98,100,102,104,106,108,-1,-1,-1,-1,-1,-1,-1,-1,-1,-1,-1,-1,-1,-1,-1,-1,-1,-1,-1,-1,-1,-1,-1,-1,-1,-1,-1,-1,-1,-1,-1,-1,-1,-1,-1,-1,-1,-1,-1,-1,-1,-1,-1,-1,-1,-1,-1,-1,-1,-1],"split_conditions":[4.88E0,2.5E0,1.135E1,2.3677582E2,1.2245293E1,2.5969525E2,1.8612444E2,1.7108224E2,1.4917212E1,2.54E0,1.7029991E2,1.4E0,1.3830749E1,1.7255685E2,2.705E1,1.83915E1,1.7255685E2,1.5373335E0,1.37E1,1.5224832E1,1.6498333E0,2.736947E1,1.2000002E0,1.9060832E0,1.1252519E1,3.3191394E2,6.67E0,1.5408671E1,2.4000762E0,2.1E0,1.6977001E0,1E-1,1.8678999E1,1.48E0,1.0889417E1,3E-1,1.7874834E1,2.8303546E2,1.5991402E-1,9.670666E0,-3.802185E-2,4.6E0,2E-1,1.5307991E2,1.3893881E0,2.4354498E2,2.0150354E1,8.470062E1,2.3510258E2,1.7576918E1,2.3665035E1,5.3415E0,1.8678999E1,1.5725037E1,2.7033307E2,8.316501E0,4.87275E0,2.1344545E2,1.2661564E1,-1.773152E-1,-7.95835E-2,7.7378494E-1,6.662927E-2,6.44027E-3,2.0081074E0,6.9112405E-2,-1.11329116E-1,-3.195535E-2,1.306364E-1,-1.528129E-1,7.784758E-2,-1.4249386E-1,-1.8795837E-1,4.6820903E-1,2.149012E0,3.3645666E-1,2.5631442E0,-9.9143974E-2,1.9155554E-1,8.3477706E-2,4.25304E-1,1.23125225E-1,-7.121026E-2,-2.833852E-2,-2.8261474E-1,5.651706E-1,-4.7022127E-2,6.888336E-1,2.6728562E-1,7.8152806E-1,-8.067688E-2,1.0867661E-1,-3.8053602E-1,1.7527908E-1,7.243462E-1,-2.7874205E-1,1.7381245E-1,1.4776912E-1,-1.9028671E-1,-1.949877E-1,-4.356704E-1,2.054006E0,5.399685E-1,-3.620917E-1,6.965172E-1,5.777684E-1,1.0161973E-1,7.837132E-2,-8.600487E-2],"split_indices":[0,0,0,4,3,4,4,4,3,0,4,2,3,4,0,1,4,1,2,1,1,3,2,1,3,4,0,3,0,2,0,2,1,0,1,2,1,4,0,1,0,2,2,4,0,4,3,4,4,1,3,1,1,3,4,1,1,4,3,0,0,0,0,0,0,0,0,0,0,0,0,0,0,0,0,0,0,0,0,0,0,0,0,0,0,0,0,0,0,0,0,0,0,0,0,0,0,0,0,0,0,0,0,0,0,0,0,0,0],"split_type":[0,0,0,0,0,0,0,0,0,0,0,0,0,0,0,0,0,0,0,0,0,0,0,0,0,0,0,0,0,0,0,0,0,0,0,0,0,0,0,0,0,0,0,0,0,0,0,0,0,0,0,0,0,0,0,0,0,0,0,0,0,0,0,0,0,0,0,0,0,0,0,0,0,0,0,0,0,0,0,0,0,0,0,0,0,0,0,0,0,0,0,0,0,0,0,0,0,0,0,0,0,0,0,0,0,0,0,0,0],"sum_hessian":[1.958E3,1.727E3,2.31E2,1.311E3,4.16E2,1.91E2,4E1,6.4E2,6.71E2,8.2E1,3.34E2,1.6E2,3.1E1,2.4E1,1.6E1,3.23E2,3.17E2,1.8E2,4.91E2,4E0,7.8E1,1.15E2,2.19E2,1.02E2,5.8E1,1.3E1,1.8E1,2.1E1,3E0,1.5E1,1E0,3.02E2,2.1E1,4E0,3.13E2,6.1E1,1.19E2,4.89E2,2E0,3E0,1E0,3.7E1,4.1E1,1.13E2,2E0,1.55E2,6.4E1,1.8E1,8.4E1,1E1,4.8E1,8E0,5E0,9E0,9E0,7E0,1.4E1,7E0,8E0,1.24E2,1.78E2,2E0,1.9E1,3E0,1E0,1.61E2,1.52E2,4.8E1,1.3E1,1.1E2,9E0,2.49E2,2.4E2,2E0,1E0,3.6E1,1E0,2.2E1,1.9E1,9.1E1,2.2E1,8.4E1,7.1E1,3.4E1,3E1,7E0,1.1E1,7E1,1.4E1,7E0,3E0,4.2E1,6E0,4E0,4E0,4E0,1E0,3E0,6E0,3E0,6E0,5E0,2E0,2E0,1.2E1,4E0,3E0,1E0,7E0],"tree_param":{"num_deleted":"0","num_feature":"5","num_nodes":"109","size_leaf_vector":"1"}},{"base_weights":[2.4667753E-2,-1.0979231E-1,1.0990015E0,-2.3098752E-1,2.5939077E-1,8.088921E-1,2.331696E0,-3.8098153E-1,-1.4342356E-1,7.818993E-1,1.2687592E-1,9.6140796E-1,-5.1802564E-1,3.1488123E0,8.5815096E-1,-4.7473425E-1,-3.1304768E-1,-6.296739E-3,-2.4192604E-1,1.3932042E-1,1.3258107E0,4.9567163E-1,-4.3274336E-2,1.1756524E0,-1.879923E-1,1.3489002E0,-8.17011E-1,3.5585608E0,-1.1787786E0,-2.499076E-1,3.3458614E0,-4.875734E-1,5.3517324E-1,8.3364266E-1,-3.2417586E-1,-1.6734396E-1,8.736149E-1,-7.953905E-2,-3.4695673E-1,7.2001344E-1,-1.8844683E-1,4.507841E0,9.249743E-1,2.1530773E-1,2.1118302E0,5.5276763E-2,-4.8918572E-1,1.5624665E0,4.868191E-1,6.130632E-1,-7.2696847E-1,-1.3921128E-1,7.462164E-1,3.8377008E-1,-1.1017334E0,-6.9382526E-2,3.7333918E0,-4.4651094E-1,-8.3939485E-2,-4.2445648E-1,1.2456737E-1,-5.6085423E-2,1.2827408E0,-1.5565632E-1,-6.7694075E-2,3.9051953E-1,-1.4969157E-1,3.100378E-2,3.4413543E-1,-8.865889E-2,-1.6135326E-1,-6.842656E-2,1.4097036E-1,7.597809E-1,1.2878541E-2,4.628464E-2,-8.815774E-2,-8.001232E-2,-1.4906059E-1,4.12635E-1,3.9068416E-2,-2.177974E-1,2.2829326E-2,2.007205E0,2.4671546E-1,1.6095175E-1,9.6933377E-1,-6.815734E-2,2.4550828E-1,-3.8577634E-1,8.0672246E-1,3.92822E-3,4.9668014E-1,-1.7959397E-1,2.1831565E-1,2.673269E-1,6.832829E-1,-2.9895353E-1,2.0213352E-1,4.6447453E-1,-1.2728976E-1,-2.7338073E-1,1.6125226E-2,4.396798E-1,-1.3961184E-1,-4.1629604E-1,-9.286406E-2,1.205077E0,1.5126207E-1,2.3393013E-2,-1.9527736E-1],"categories":[],"categories_nodes":[],"categories_segments":[],"categories_sizes":[],"default_left":[0,0,0,0,0,0,0,0,0,0,0,0,0,0,0,0,0,0,0,0,0,0,0,0,0,0,0,0,0,0,0,0,0,0,0,0,0,0,0,0,0,0,0,0,0,0,0,0,0,0,0,0,0,0,0,0,0,0,0,0,0,0,0,0,0,0,0,0,0,0,0,0,0,0,0,0,0,0,0,0,0,0,0,0,0,0,0,0,0,0,0,0,0,0,0,0,0,0,0,0,0,0,0,0,0,0,0,0,0,0,0],"id":4,"left_children":[1,3,5,7,9,11,13,15,17,19,21,23,25,27,29,31,33,35,37,39,41,43,45,47,49,51,53,55,57,59,61,63,65,67,69,71,73,75,77,79,81,83,85,87,89,91,93,95,97,99,101,-1,-1,103,105,-1,107,-1,-1,109,-1,-1,-1,-1,-1,-1,-1,-1,-1,-1,-1,-1,-1,-1,-1,-1,-1,-1,-1,-1,-1,-1,-1,-1,-1,-1,-1,-1,-1,-1,-1,-1,-1,-1,-1,-1,-1,-1,-1,-1,-1,-1,-1,-1,-1,-1,-1,-1,-1,-1,-1],"loss_changes":[2.8310797E2,7.800261E1,7.607425E1,1.7177261E1,2.97433E1,3.6520973E1,4.6664215E1,2.9276047E0,1.1209562E1,3.0222301E1,2.1670437E1,3.9621414E1,1.1707553E1,5.0298553E1,4.4940617E1,2.8671722E0,3.8814926E0,4.9460346E1,8.21027E0,7.9393024E0,5.577762E1,4.893457E1,1.0442019E1,3.5210175E1,1.1671173E1,7.346264E0,6.234929E0,1.676538E1,4.1850567E-1,1.5694218E0,1.7225906E1,1.5133934E0,3.0277255E0,5.682404E-1,1.5609951E0,1.1526384E1,7.430861E1,9.616838E0,3.392353E0,5.61938E0,3.894767E0,3.472152E1,3.678855E1,2.5269857E1,3.483927E1,1.3141985E1,6.1633883E0,3.926169E1,1.4537549E1,1.1328306E1,2.3511744E0,0E0,0E0,4.35656E0,2.7414818E0,0E0,1.9032867E1,0E0,0E0,1.1886075E0,0E0,0E0,0E0,0E0,0E0,0E0,0E0,0E0,0E0,0E0,0E0,0E0,0E0,0E0,0E0,0E0,0E0,0E0,0E0,0E0,0E0,0E0,0E0,0E0,0E0,0E0,0E0,0E0,0E0,0E0,0E0,0E0,0E0,0E0,0E0,0E0,0E0,0E0,0E0,0E0,0E0,0E0,0E0,0E0,0E0,0E0,0E0,0E0,0E0,0E0,0E0],"parents":[2147483647,0,0,1,1,2,2,3,3,4,4,5,5,6,6,7,7,8,8,9,9,10,10,11,11,12,12,13,13,14,14,15,15,16,16,17,17,18,18,19,19,20,20,21,21,22,22,23,23,24,24,25,25,26,26,27,27,28,28,29,29,30,30,31,31,32,32,33,33,34,34,35,35,36,36,37,37,38,38,39,39,40,40,41,41,42,42,43,43,44,44,45,45,46,46,47,47,48,48,49,49,50,50,53,53,54,54,56,56,59,59],"right_children":[2,4,6,8,10,12,14,16,18,20,22,24,26,28,30,32,34,36,38,40,42,44,46,48,50,52,54,56,58,60,62,64,66,68,70,72,74,76,78,80,82,84,86,88,90,92,94,96,98,100,102,-1,-1,104,106,-1,108,-1,-1,110,-1,-1,-1,-1,-1,-1,-1,-1,-1,-1,-1,-1,-1,-1,-1,-1,-1,-1,-1,-1,-1,-1,-1,-1,-1,-1,-1,-1,-1,-1,-1,-1,-1,-1,-1,-1,-1,-1,-1,-1,-1,-1,-1,-1,-1,-1,-1,-1,-1,-1,-1],"split_conditions":[4.97E0,2.5E0,1.135E1,1.2E0,1.2287555E1,2.4014996E1,2.1E0,8.7E-1,2.058001E2,1.5069131E2,1.6212965E2,2.528972E2,5.15E0,2.19718E1,6.2E0,3.5807443E2,8.8E-1,1.9431572E2,1.6394829E1,9.676569E0,1.6116347E2,1.5307991E2,3.4E0,1.4E0,1.3830749E1,5.6649995E-1,3.6748335E0,2.7274993E-1,1.926E1,4.8E0,1.231E1,3.6000001E0,7E-1,-6.0960007E0,2.5331442E1,1.83915E1,8.926918E0,6.139417E0,9.0000004E-1,1.6498333E0,1.024578E1,1E-1,3.3E0,1.002275E1,1.3577776E1,2.8000002E0,1.9264418E1,1.503835E1,4.3264347E1,3.3191394E2,1.6581083E1,-1.3921128E-1,7.462164E-1,6.47E0,2.4112764E2,-6.9382526E-2,2.1507642E2,-4.4651094E-1,-8.3939485E-2,2.7E0,1.2456737E-1,-5.6085423E-2,1.2827408E0,-1.5565632E-1,-6.7694075E-2,3.9051953E-1,-1.4969157E-1,3.100378E-2,3.4413543E-1,-8.865889E-2,-1.6135326E-1,-6.842656E-2,1.4097036E-1,7.597809E-1,1.2878541E-2,4.628464E-2,-8.815774E-2,-8.001232E-2,-1.4906059E-1,4.12635E-1,3.9068416E-2,-2.177974E-1,2.2829326E-2,2.007205E0,2.4671546E-1,1.6095175E-1,9.6933377E-1,-6.815734E-2,2.4550828E-1,-3.8577634E-1,8.0672246E-1,3.92822E-3,4.9668014E-1,-1.7959397E-1,2.1831565E-1,2.673269E-1,6.832829E-1,-2.9895353E-1,2.0213352E-1,4.6447453E-1,-1.2728976E-1,-2.7338073E-1,1.6125226E-2,4.396798E-1,-1.3961184E-1,-4.1629604E-1,-9.286406E-2,1.205077E0,1.5126207E-1,2.3393013E-2,-1.9527736E-1],"split_indices":[0,0,0,0,3,3,2,0,4,4,4,4,0,3,2,4,0,4,3,3,4,4,2,2,3,1,1,1,0,2,0,2,0,1,3,1,1,1,2,1,3,2,2,1,3,2,1,3,4,4,1,0,0,0,4,0,4,0,0,2,0,0,0,0,0,0,0,0,0,0,0,0,0,0,0,0,0,0,0,0,0,0,0,0,0,0,0,0,0,0,0,0,0,0,0,0,0,0,0,0,0,0,0,0,0,0,0,0,0,0,0],"split_type":[0,0,0,0,0,0,0,0,0,0,0,0,0,0,0,0,0,0,0,0,0,0,0,0,0,0,0,0,0,0,0,0,0,0,0,0,0,0,0,0,0,0,0,0,0,0,0,0,0,0,0,0,0,0,0,0,0,0,0,0,0,0,0,0,0,0,0,0,0,0,0,0,0,0,0,0,0,0,0,0,0,0,0,0,0,0,0,0,0,0,0,0,0,0,0,0,0,0,0,0,0,0,0,0,0,0,0,0,0,0,0],"sum_hessian":[1.958E3,1.741E3,2.17E2,1.311E3,4.3E2,1.77E2,4E1,4.82E2,8.29E2,8.6E1,3.44E2,1.59E2,1.8E1,2.5E1,1.5E1,2E2,2.82E2,3.47E2,4.82E2,4E1,4.6E1,1.08E2,2.36E2,1.34E2,2.5E1,2E0,1.6E1,2.3E1,2E0,1.1E1,4E0,1.98E2,2E0,2E0,2.8E2,2.94E2,5.3E1,1.9E2,2.92E2,1.4E1,2.6E1,4E0,4.2E1,9.3E1,1.5E1,1.94E2,4.2E1,8.5E1,4.9E1,1E1,1.5E1,1E0,1E0,3E0,1.3E1,1E0,2.2E1,1E0,1E0,9E0,2E0,1E0,3E0,1.76E2,2.2E1,1E0,1E0,1E0,1E0,2.49E2,3.1E1,2.69E2,2.5E1,1.7E1,3.6E1,9.1E1,9.9E1,1.92E2,1E2,6E0,8E0,8E0,1.8E1,2E0,2E0,3.7E1,5E0,5.4E1,3.9E1,2E0,1.3E1,1.9E2,4E0,3.9E1,3E0,4.5E1,4E1,5E0,4.4E1,5E0,5E0,1.2E1,3E0,1E0,2E0,9E0,4E0,2E1,2E0,3E0,6E0],"tree_param":{"num_deleted":"0","num_feature":"5","num_nodes":"111","size_leaf_vector":"1"}},{"base_weights":[2.1740586E-2,-1.2926848E-1,5.141142E-1,2.6867383E-3,-2.0969042E-1,3.8743132E-1,1.5934038E0,-9.3277775E-2,6.559974E-1,-1.22071244E-1,-3.0127785E-1,6.402885E-1,9.8689094E-2,2.4309192E0,7.2565293E-1,8.830667E-1,-1.0533501E-1,2.244213E0,3.0677113E-1,-2.0246781E-1,7.747442E-2,-5.027832E-1,-2.6018393E-1,-4.985279E-2,7.939301E-1,7.6466674E-1,2.6233047E-2,5.7054067E-1,2.890464E0,2.2249012E0,1.9006325E-2,-3.2982147E-1,-3.7478272E-2,2.300089E0,1.1534039E0,-1.2150011E0,4.9487358E-1,-2.9156914E-1,-1.419344E-1,4.177999E-1,-6.56972E-2,-3.1531867E-1,-8.7259805E-1,7.9791474E-1,-2.764197E-1,5.503456E-1,-5.435014E-1,6.124347E-1,1.8947045E0,9.038444E-1,-2.7889562E-1,2.114262E-1,-2.038323E-1,5.120512E-1,-1.272951E-1,5.4646797E0,2.0662563E0,1.582101E-1,3.4332738E0,-4.7886536E-1,3.2067296E-1,-4.937811E-2,-1.8079625E-1,2.4499657E-4,-1.2883864E-1,7.1518624E-1,7.204034E-2,-1.01055816E-1,-4.49667E-1,4.4416782E-1,2.6468223E-2,-9.196908E-2,8.50912E-2,-5.3384535E-2,3.3855777E-2,-1.4748073E-1,2.1810411E-1,1.5649792E-3,-1.589297E-1,-1.1426491E-1,7.52466E-2,-2.7472043E-2,-2.7039757E-1,4.8682284E-1,-6.0554896E-3,-5.7273038E-2,-1.08409695E-1,-2.671439E-2,3.0703634E-1,1.7577359E-1,-2.669334E-1,2.3198763E-1,3.3010345E-2,1.2537807E0,3.3438E-1,1.6001366E-1,4.070652E-1,-1.3895631E-3,-1.2411347E-1,-8.787956E-2,1.4159748E-1,-1.0927318E-1,2.462749E-1,2.8374925E-1,1.9967057E0,1.6014355E-1,9.596535E-1,1.8429586E-1,-1.8151772E-1,-9.657541E-2,1.3357655E0,2.6790333E-1,-6.1990595E-3],"categories":[],"categories_nodes":[],"categories_segments":[],"categories_sizes":[],"default_left":[0,0,0,0,0,0,0,0,0,0,0,0,0,0,0,0,0,0,0,0,0,0,0,0,0,0,0,0,0,0,0,0,0,0,0,0,0,0,0,0,0,0,0,0,0,0,0,0,0,0,0,0,0,0,0,0,0,0,0,0,0,0,0,0,0,0,0,0,0,0,0,0,0,0,0,0,0,0,0,0,0,0,0,0,0,0,0,0,0,0,0,0,0,0,0,0,0,0,0,0,0,0,0,0,0,0,0,0,0,0,0,0,0],"id":5,"left_children":[1,3,5,7,9,11,13,15,17,19,21,23,25,27,29,-1,31,33,35,37,39,41,43,45,47,49,51,53,55,57,59,61,63,-1,65,67,69,71,73,75,77,79,81,83,85,87,89,91,93,95,97,99,101,-1,-1,103,105,107,109,-1,111,-1,-1,-1,-1,-1,-1,-1,-1,-1,-1,-1,-1,-1,-1,-1,-1,-1,-1,-1,-1,-1,-1,-1,-1,-1,-1,-1,-1,-1,-1,-1,-1,-1,-1,-1,-1,-1,-1,-1,-1,-1,-1,-1,-1,-1,-1,-1,-1,-1,-1,-1,-1],"loss_changes":[1.4572374E2,1.5918709E1,6.227732E1,3.573444E1,7.4423447E0,3.009016E1,3.312023E1,1.850812E1,3.9800755E1,7.684139E0,3.636879E0,2.3367157E1,9.341238E0,1.886911E1,2.644368E1,0E0,7.5431666E0,6.8054306E1,1.8062466E1,1.7978373E0,6.7514915E0,4.9937153E0,6.7485905E0,1.2446884E1,3.4801018E1,3.0116482E0,7.5418444E0,7.5069604E0,2.902066E1,1.9435486E1,9.28253E0,5.0849533E0,5.73455E0,0E0,1.2913416E1,1.2401705E0,2.191477E1,1.2685642E0,1.9011426E0,1.1886588E1,3.2278316E0,2.025704E0,4.783783E-1,4.081505E0,2.6548958E0,5.8386884E0,9.516388E0,1.2522018E1,3.9896767E1,2.1294708E0,1.090091E-1,1.3017247E1,1.328516E1,0E0,0E0,1.523275E1,2.6062485E1,1.7642365E0,2.057127E1,0E0,3.1442106E0,0E0,0E0,0E0,0E0,0E0,0E0,0E0,0E0,0E0,0E0,0E0,0E0,0E0,0E0,0E0,0E0,0E0,0E0,0E0,0E0,0E0,0E0,0E0,0E0,0E0,0E0,0E0,0E0,0E0,0E0,0E0,0E0,0E0,0E0,0E0,0E0,0E0,0E0,0E0,0E0,0E0,0E0,0E0,0E0,0E0,0E0,0E0,0E0,0E0,0E0,0E0,0E0],"parents":[2147483647,0,0,1,1,2,2,3,3,4,4,5,5,6,6,7,7,8,8,9,9,10,10,11,11,12,12,13,13,14,14,16,16,17,17,18,18,19,19,20,20,21,21,22,22,23,23,24,24,25,25,26,26,27,27,28,28,29,29,30,30,31,31,32,32,34,34,35,35,36,36,37,37,38,38,39,39,40,40,41,41,42,42,43,43,44,44,45,45,46,46,47,47,48,48,49,49,50,50,51,51,52,52,55,55,56,56,57,57,58,58,60,60],"right_children":[2,4,6,8,10,12,14,16,18,20,22,24,26,28,30,-1,32,34,36,38,40,42,44,46,48,50,52,54,56,58,60,62,64,-1,66,68,70,72,74,76,78,80,82,84,86,88,90,92,94,96,98,100,102,-1,-1,104,106,108,110,-1,112,-1,-1,-1,-1,-1,-1,-1,-1,-1,-1,-1,-1,-1,-1,-1,-1,-1,-1,-1,-1,-1,-1,-1,-1,-1,-1,-1,-1,-1,-1,-1,-1,-1,-1,-1,-1,-1,-1,-1,-1,-1,-1,-1,-1,-1,-1,-1,-1,-1,-1,-1,-1],"split_conditions":[3.17E0,2.058001E2,1.052E1,1.9431572E2,1.8E1,2.0203426E2,4E-1,7.771331E0,1.964286E2,1.85E0,2.312503E2,5.8719738E1,1.024578E1,2.4144166E0,1.374943E2,8.830667E-1,4.3264347E1,1.0935835E0,-4.9183333E-1,1.05E0,2.3677582E2,1.95E0,2.3266536E2,1.3679999E1,7.37E0,3.328001E2,8.316501E0,1.2081473E1,3.24775E0,7.95742E1,1.2000002E0,5.506084E0,1.8740364E2,2.300089E0,8.004001E0,1.01E0,8.926918E0,3.5807443E2,1.7322748E1,2.1344545E2,2.88E0,1.7060251E1,2.0647989E2,7.729E0,2.760494E2,4.19E0,3.9E0,1.898552E1,7.9E0,4.5E0,4.19E0,1.5546833E1,4.4999995E0,5.120512E-1,-1.272951E-1,1.135E1,7.8227506E0,1.231E1,1.135E1,-4.7886536E-1,1.8149202E2,-4.937811E-2,-1.8079625E-1,2.4499657E-4,-1.2883864E-1,7.1518624E-1,7.204034E-2,-1.01055816E-1,-4.49667E-1,4.4416782E-1,2.6468223E-2,-9.196908E-2,8.50912E-2,-5.3384535E-2,3.3855777E-2,-1.4748073E-1,2.1810411E-1,1.5649792E-3,-1.589297E-1,-1.1426491E-1,7.52466E-2,-2.7472043E-2,-2.7039757E-1,4.8682284E-1,-6.0554896E-3,-5.7273038E-2,-1.08409695E-1,-2.671439E-2,3.0703634E-1,1.7577359E-1,-2.669334E-1,2.3198763E-1,3.3010345E-2,1.2537807E0,3.3438E-1,1.6001366E-1,4.070652E-1,-1.3895631E-3,-1.2411347E-1,-8.787956E-2,1.4159748E-1,-1.0927318E-1,2.462749E-1,2.8374925E-1,1.9967057E0,1.6014355E-1,9.596535E-1,1.8429586E-1,-1.8151772E-1,-9.657541E-2,1.3357655E0,2.6790333E-1,-6.1990595E-3],"split_indices":[0,4,0,4,3,4,2,3,4,0,4,4,3,1,4,0,4,1,1,0,4,0,4,3,0,4,1,3,1,4,2,1,4,0,1,0,1,4,1,4,0,1,4,1,4,0,0,3,0,0,0,3,2,0,0,0,1,0,0,0,4,0,0,0,0,0,0,0,0,0,0,0,0,0,0,0,0,0,0,0,0,0,0,0,0,0,0,0,0,0,0,0,0,0,0,0,0,0,0,0,0,0,0,0,0,0,0,0,0,0,0,0,0],"split_type":[0,0,0,0,0,0,0,0,0,0,0,0,0,0,0,0,0,0,0,0,0,0,0,0,0,0,0,0,0,0,0,0,0,0,0,0,0,0,0,0,0,0,0,0,0,0,0,0,0,0,0,0,0,0,0,0,0,0,0,0,0,0,0,0,0,0,0,0,0,0,0,0,0,0,0,0,0,0,0,0,0,0,0,0,0,0,0,0,0,0,0,0,0,0,0,0,0,0,0,0,0,0,0,0,0,0,0,0,0,0,0,0,0],"sum_hessian":[1.958E3,1.499E3,4.59E2,5.68E2,9.31E2,4.12E2,4.7E1,4.96E2,7.2E1,4.77E2,4.54E2,2.19E2,1.93E2,2.3E1,2.4E1,1E0,4.95E2,1.2E1,6E1,3.4E2,1.37E2,7.5E1,3.79E2,4E1,1.79E2,1.8E1,1.75E2,5E0,1.8E1,7E0,1.7E1,1.14E2,3.81E2,1E0,1.1E1,6E0,5.4E1,1.36E2,2.04E2,4E1,9.7E1,5.1E1,2.4E1,5E0,3.74E2,1.8E1,2.2E1,1.55E2,2.4E1,1.6E1,2E0,9.7E1,7.8E1,2E0,3E0,3E0,1.5E1,3E0,4E0,2E0,1.5E1,7.2E1,4.2E1,3.48E2,3.3E1,4E0,7E0,2E0,4E0,1.5E1,3.9E1,1.33E2,3E0,1.79E2,2.5E1,1E1,3E1,8.5E1,1.2E1,4.6E1,5E0,1E0,2.3E1,2E0,3E0,1.88E2,1.86E2,8E0,1E1,5E0,1.7E1,1.17E2,3.8E1,5E0,1.9E1,1E1,6E0,1E0,1E0,3.3E1,6.4E1,6.8E1,1E1,1E0,2E0,7E0,8E0,2E0,1E0,1E0,3E0,5E0,1E1],"tree_param":{"num_deleted":"0","num_feature":"5","num_nodes":"113","size_leaf_vector":"1"}},{"base_weights":[2.0772772E-2,-5.0748553E-2,5.9219193E-1,-1.17375195E-1,1.5218626E-1,5.148888E-1,2.1486075E0,-1.2437951E-1,5.920851E-1,4.7320414E-1,5.503574E-2,9.129087E-2,8.5371053E-1,2.7939346E0,-8.65403E-2,-7.711309E-2,-2.0631148E-1,-2.4884261E-1,1.6146413E0,2.6657615E0,3.5407922E-1,3.1741092E-1,-6.1056484E-2,7.410813E-1,-1.5488075E-1,2.8210154E0,6.415024E-1,3.7419214E0,-3.335023E-2,3.8648124E-3,-1.9521736E-1,2.1753061E-1,-2.2155985E-1,1.1593967E-1,-3.948103E-1,7.060566E-1,6.8636215E-1,3.4263654E0,-5.6498125E-2,7.5924516E-1,-3.3858344E-2,1.2006749E-1,1.6592183E0,5.2175935E-2,-5.573325E-1,1.3299625E-1,2.092648E0,-5.172465E-2,-3.688197E-1,1.3174752E0,1.9173892E0,7.8797615E-1,-2.9963666E-1,1.6986345E-1,4.263821E0,4.886041E-2,-6.3868016E-2,4.148319E-2,-3.7248723E-2,-7.419769E-2,1.3125427E-2,1.161433E-1,-8.009136E-2,5.76459E-2,-6.936058E-2,-1.1213625E-2,-1.5909216E-1,4.9124017E-2,2.496733E-1,1.0190077E-1,1.3026123E0,1.4493594E-1,1.0820439E0,-3.4477912E-2,2.7814668E-1,-7.26451E-2,2.3524635E-1,8.486541E-1,-2.3338701E-1,-1.0467633E-2,1.6012636E-1,-1.9472483E-1,4.944262E-1,2.0312336E-1,-1.6403092E-1,7.1595335E-1,5.3410293E-3,6.778695E-3,-4.711308E-1,6.241196E-1,-2.705513E-1,3.470055E-1,3.7494663E-2,6.1304426E-1,-1.8388954E-1,1.5973645E0,5.34546E-1],"categories":[],"categories_nodes":[],"categories_segments":[],"categories_sizes":[],"default_left":[0,0,0,0,0,0,0,0,0,0,0,0,0,0,0,0,0,0,0,0,0,0,0,0,0,0,0,0,0,0,0,0,0,0,0,0,0,0,0,0,0,0,0,0,0,0,0,0,0,0,0,0,0,0,0,0,0,0,0,0,0,0,0,0,0,0,0,0,0,0,0,0,0,0,0,0,0,0,0,0,0,0,0,0,0,0,0,0,0,0,0,0,0,0,0,0,0],"id":6,"left_children":[1,3,5,7,9,11,13,15,17,19,21,23,25,27,-1,29,31,33,35,37,39,41,43,45,47,49,51,53,55,57,59,61,63,-1,65,67,-1,69,-1,71,73,75,77,79,81,83,85,87,-1,89,-1,91,93,-1,95,-1,-1,-1,-1,-1,-1,-1,-1,-1,-1,-1,-1,-1,-1,-1,-1,-1,-1,-1,-1,-1,-1,-1,-1,-1,-1,-1,-1,-1,-1,-1,-1,-1,-1,-1,-1,-1,-1,-1,-1,-1,-1],"loss_changes":[8.009175E1,2.3571209E1,2.5122536E1,6.593342E0,1.3415576E1,2.9918617E1,1.653307E1,5.0185127E0,1.1580437E1,2.5174929E1,1.0132006E1,1.5151014E1,4.6617775E1,2.1566616E1,0E0,7.900483E0,3.1180744E0,8.944561E-1,2.0547638E0,1.1499432E1,1.5114899E1,2.6810062E1,1.3010017E1,2.1090242E1,7.584585E0,5.0628296E1,1.4848434E1,7.5301895E0,1.4036244E-1,8.46652E0,4.1947765E0,1.5003848E0,1.8753967E0,0E0,3.1919384E-1,1.3745427E-1,0E0,9.830795E0,0E0,3.521291E1,4.0019298E0,2.1838854E1,3.9258392E1,7.9434133E0,9.770692E0,7.3973207E0,4.83527E0,7.259234E0,0E0,1.7114674E1,0E0,2.234499E1,1.2265063E1,0E0,3.6762543E0,0E0,0E0,0E0,0E0,0E0,0E0,0E0,0E0,0E0,0E0,0E0,0E0,0E0,0E0,0E0,0E0,0E0,0E0,0E0,0E0,0E0,0E0,0E0,0E0,0E0,0E0,0E0,0E0,0E0,0E0,0E0,0E0,0E0,0E0,0E0,0E0,0E0,0E0,0E0,0E0,0E0,0E0],"parents":[2147483647,0,0,1,1,2,2,3,3,4,4,5,5,6,6,7,7,8,8,9,9,10,10,11,11,12,12,13,13,15,15,16,16,17,17,18,18,19,19,20,20,21,21,22,22,23,23,24,24,25,25,26,26,27,27,28,28,29,29,30,30,31,31,32,32,34,34,35,35,37,37,39,39,40,40,41,41,42,42,43,43,44,44,45,45,46,46,47,47,49,49,51,51,52,52,54,54],"right_children":[2,4,6,8,10,12,14,16,18,20,22,24,26,28,-1,30,32,34,36,38,40,42,44,46,48,50,52,54,56,58,60,62,64,-1,66,68,-1,70,-1,72,74,76,78,80,82,84,86,88,-1,90,-1,92,94,-1,96,-1,-1,-1,-1,-1,-1,-1,-1,-1,-1,-1,-1,-1,-1,-1,-1,-1,-1,-1,-1,-1,-1,-1,-1,-1,-1,-1,-1,-1,-1,-1,-1,-1,-1,-1,-1,-1,-1,-1,-1,-1,-1],"split_conditions":[4.97E0,2.5E0,1.926E1,2.0939419E1,1.2864649E1,5.1540008E0,2.0883102E1,2.620882E2,1.5182015E1,2.54E0,1.6116347E2,1.3009903E1,6.4352508E0,2.1507642E2,-8.65403E-2,1.0889417E1,-8.381416E0,2.111025E1,2.13E0,1.5224832E1,2.4144166E0,1.5307991E2,4.22E0,1.1966953E1,8.900001E0,6.139417E0,2.4149532E1,2.1206667E0,3.7435834E0,1.7748037E1,1.7874834E1,3.2637296E2,1.0163227E1,1.1593967E-1,1.62E0,1.42E0,6.8636215E-1,8.145667E0,-5.6498125E-2,4.299999E0,4.88E0,2.3000002E0,1.3264416E1,3.7E0,2.0541502E1,1.7498335E0,2E-1,1.614E1,-3.688197E-1,1.9E0,1.9173892E0,2.0647989E2,5.15E0,1.6986345E-1,3.24775E0,4.886041E-2,-6.3868016E-2,4.148319E-2,-3.7248723E-2,-7.419769E-2,1.3125427E-2,1.161433E-1,-8.009136E-2,5.76459E-2,-6.936058E-2,-1.1213625E-2,-1.5909216E-1,4.9124017E-2,2.496733E-1,1.0190077E-1,1.3026123E0,1.4493594E-1,1.0820439E0,-3.4477912E-2,2.7814668E-1,-7.26451E-2,2.3524635E-1,8.486541E-1,-2.3338701E-1,-1.0467633E-2,1.6012636E-1,-1.9472483E-1,4.944262E-1,2.0312336E-1,-1.6403092E-1,7.1595335E-1,5.3410293E-3,6.778695E-3,-4.711308E-1,6.241196E-1,-2.705513E-1,3.470055E-1,3.7494663E-2,6.1304426E-1,-1.8388954E-1,1.5973645E0,5.34546E-1],"split_indices":[0,0,0,1,3,1,3,4,3,0,4,3,1,4,0,1,1,1,0,1,1,4,0,3,2,1,3,1,1,3,1,4,3,0,0,0,0,1,0,2,0,2,1,0,1,1,2,0,0,2,0,4,0,0,1,0,0,0,0,0,0,0,0,0,0,0,0,0,0,0,0,0,0,0,0,0,0,0,0,0,0,0,0,0,0,0,0,0,0,0,0,0,0,0,0,0,0],"split_type":[0,0,0,0,0,0,0,0,0,0,0,0,0,0,0,0,0,0,0,0,0,0,0,0,0,0,0,0,0,0,0,0,0,0,0,0,0,0,0,0,0,0,0,0,0,0,0,0,0,0,0,0,0,0,0,0,0,0,0,0,0,0,0,0,0,0,0,0,0,0,0,0,0,0,0,0,0,0,0,0,0,0,0,0,0,0,0,0,0,0,0,0,0,0,0,0,0],"sum_hessian":[1.958E3,1.741E3,2.17E2,1.311E3,4.3E2,2.08E2,9E0,1.299E3,1.2E1,9.9E1,3.31E2,9.3E1,1.15E2,7E0,2E0,8.25E2,4.74E2,7E0,5E0,4E0,9.5E1,1.01E2,2.3E2,2.5E1,6.8E1,1E1,1.05E2,5E0,2E0,4.9E2,3.35E2,1.6E1,4.58E2,1E0,6E0,3E0,2E0,3E0,1E0,4.6E1,4.9E1,8.9E1,1.2E1,1.88E2,4.2E1,1.8E1,7E0,6.3E1,5E0,8E0,2E0,9.1E1,1.4E1,1E0,4E0,1E0,1E0,2.39E2,2.51E2,2.75E2,6E1,1.2E1,4E0,1E1,4.48E2,2E0,4E0,1E0,2E0,1E0,2E0,4.3E1,3E0,4.6E1,3E0,5.8E1,3.1E1,8E0,4E0,1.6E2,2.8E1,4.1E1,1E0,1E1,8E0,6E0,1E0,6.1E1,2E0,6E0,2E0,5.8E1,3.3E1,1E0,1.3E1,2E0,2E0],"tree_param":{"num_deleted":"0","num_feature":"5","num_nodes":"97","size_leaf_vector":"1"}},{"base_weights":[1.9725341E-2,-1.0203163E-2,9.060491E-1,-8.1477955E-2,1.4966474E-1,1.5793327E0,2.6552427E-1,-8.918357E-2,3.3577293E-1,2.3914447E-1,-1.11420766E-1,2.4079148E-1,2.0344431E0,1.2133889E0,-1.2424257E-1,-2.1158366E-1,-6.664302E-2,-6.4077884E-1,9.644226E-1,2.7078155E-1,-6.6685444E-1,-6.0819212E-2,-1.1364497E0,5.7769966E-1,-3.681711E-1,1.2778915E0,1.6196798E0,-5.285877E-1,2.4628048E0,-9.551382E-1,2.5194678E-1,-2.2045435E-1,4.4441015E-1,-5.4537117E-2,-2.8507918E-1,-8.8121784E-1,-5.9815943E-2,3.3228853E-1,1.3489243E0,2.2145559E-1,9.841998E-1,-8.67202E-1,4.2360297E-1,-9.458233E-2,1.1445355E0,-2.2589475E-2,-3.902276E-1,9.3189096E-1,-9.697485E-2,2.237071E0,3.3678514E-1,3.7352753E-1,-3.7635213E-1,-8.3105855E-2,9.198521E-1,-4.5653167E-1,-8.06129E-3,4.5823357E-1,-2.955854E-3,-9.846798E-2,-5.394648E-2,3.2958198E-1,-1.2959741E-1,-1.2758172E-2,-1.502658E-1,-1.3293564E-1,8.517305E-2,-2.9220378E-1,-4.8667397E-2,3.3017352E-2,-8.5415594E-2,-2.5228627E-2,1.2471054E-1,4.9751854E-1,5.3155355E-2,-6.353551E-3,1.1685707E-1,7.5966045E-2,7.254071E-1,-3.5439152E-1,-1.2876387E-1,1.5531826E-1,3.5303093E-2,-4.3090142E-2,1.9223957E-1,8.69206E-1,-1.2165645E-1,-4.0897682E-2,3.518398E-1,-7.106829E-3,7.847516E-1,-6.251186E-1,2.940745E-1,3.5056116E-3,1.6458178E-1,-7.3427014E-2,4.5726825E-2,-5.866392E-2,8.177872E-2],"categories":[],"categories_nodes":[],"categories_segments":[],"categories_sizes":[],"default_left":[0,0,0,0,0,0,0,0,0,0,0,0,0,0,0,0,0,0,0,0,0,0,0,0,0,0,0,0,0,0,0,0,0,0,0,0,0,0,0,0,0,0,0,0,0,0,0,0,0,0,0,0,0,0,0,0,0,0,0,0,0,0,0,0,0,0,0,0,0,0,0,0,0,0,0,0,0,0,0,0,0,0,0,0,0,0,0,0,0,0,0,0,0,0,0,0,0,0,0],"id":7,"left_children":[1,3,5,7,9,11,13,15,17,19,21,23,25,27,29,31,33,35,37,39,41,43,45,47,-1,-1,49,51,53,55,57,59,61,63,65,67,69,71,73,75,77,79,81,83,85,-1,-1,87,-1,89,91,93,-1,-1,-1,-1,95,-1,97,-1,-1,-1,-1,-1,-1,-1,-1,-1,-1,-1,-1,-1,-1,-1,-1,-1,-1,-1,-1,-1,-1,-1,-1,-1,-1,-1,-1,-1,-1,-1,-1,-1,-1,-1,-1,-1,-1,-1,-1],"loss_changes":[5.1974354E1,2.1616266E1,2.7180958E1,4.2482567E0,1.3693335E1,1.8394836E1,1.27119255E1,3.5422068E0,1.5351795E1,1.26777E1,7.7110906E0,5.1602917E0,1.4328125E1,2.3066343E1,8.054996E0,1.261796E0,2.8668127E0,1.3441505E0,3.1976175E0,1.46322365E1,3.6444063E0,5.9685535E0,1.122551E0,2.8541002E0,0E0,0E0,1.5879597E1,3.7429078E0,1.0768135E1,4.2809E0,5.856817E0,8.0803585E-1,2.1946049E0,5.521554E0,5.251408E0,3.090229E-1,1.8415579E-1,2.7808207E-1,2.9697304E0,1.6156738E1,2.7686302E1,1.2814274E0,2.546078E-2,5.1781235E0,1.2042809E1,0E0,0E0,1.7039366E0,0E0,1.2050201E1,1.4502664E1,1.8364158E-1,0E0,0E0,0E0,0E0,1.8924983E-1,0E0,9.024032E-1,0E0,0E0,0E0,0E0,0E0,0E0,0E0,0E0,0E0,0E0,0E0,0E0,0E0,0E0,0E0,0E0,0E0,0E0,0E0,0E0,0E0,0E0,0E0,0E0,0E0,0E0,0E0,0E0,0E0,0E0,0E0,0E0,0E0,0E0,0E0,0E0,0E0,0E0,0E0,0E0],"parents":[2147483647,0,0,1,1,2,2,3,3,4,4,5,5,6,6,7,7,8,8,9,9,10,10,11,11,12,12,13,13,14,14,15,15,16,16,17,17,18,18,19,19,20,20,21,21,22,22,23,23,26,26,27,27,28,28,29,29,30,30,31,31,32,32,33,33,34,34,35,35,36,36,37,37,38,38,39,39,40,40,41,41,42,42,43,43,44,44,47,47,49,49,50,50,51,51,56,56,58,58],"right_children":[2,4,6,8,10,12,14,16,18,20,22,24,26,28,30,32,34,36,38,40,42,44,46,48,-1,-1,50,52,54,56,58,60,62,64,66,68,70,72,74,76,78,80,82,84,86,-1,-1,88,-1,90,92,94,-1,-1,-1,-1,96,-1,98,-1,-1,-1,-1,-1,-1,-1,-1,-1,-1,-1,-1,-1,-1,-1,-1,-1,-1,-1,-1,-1,-1,-1,-1,-1,-1,-1,-1,-1,-1,-1,-1,-1,-1,-1,-1,-1,-1,-1,-1],"split_conditions":[9.64E0,2.5E0,4E-1,1.9904E1,2.4677873E2,2.712333E0,1.374943E2,8.7E-1,1.5141414E1,1.3399999E1,7.9E0,2.6373334E0,3.24775E0,7.95742E1,1.6614655E2,3.5807443E2,2.33E0,1.9431572E2,1.83E0,7.6000004E0,1.80625E2,7.53E0,2.2102497E0,2.0380579E1,-3.681711E-1,1.2778915E0,1.7414476E1,2.6999998E0,3.7435834E0,1.5678998E1,1.8149202E2,1.5496736E1,7E-1,3.0903435E1,3.6000001E0,2.13E0,1.4003028E1,1.9262683E2,2.29E0,1.4630988E2,1.64165E1,1.9201874E1,4.3E0,1.9781088E1,2.5074368E2,-2.2589475E-2,-3.902276E-1,2.7274993E-1,-9.697485E-2,1.2864649E1,4.87275E0,1.135E1,-3.7635213E-1,-8.3105855E-2,9.198521E-1,-4.5653167E-1,1.941025E1,4.5823357E-1,1.614E1,-9.846798E-2,-5.394648E-2,3.2958198E-1,-1.2959741E-1,-1.2758172E-2,-1.502658E-1,-1.3293564E-1,8.517305E-2,-2.9220378E-1,-4.8667397E-2,3.3017352E-2,-8.5415594E-2,-2.5228627E-2,1.2471054E-1,4.9751854E-1,5.3155355E-2,-6.353551E-3,1.1685707E-1,7.5966045E-2,7.254071E-1,-3.5439152E-1,-1.2876387E-1,1.5531826E-1,3.5303093E-2,-4.3090142E-2,1.9223957E-1,8.69206E-1,-1.2165645E-1,-4.0897682E-2,3.518398E-1,-7.106829E-3,7.847516E-1,-6.251186E-1,2.940745E-1,3.5056116E-3,1.6458178E-1,-7.3427014E-2,4.5726825E-2,-5.866392E-2,8.177872E-2],"split_indices":[0,0,2,1,4,1,4,0,3,2,0,1,1,4,4,4,0,4,0,2,4,0,1,3,0,0,3,2,1,1,4,3,0,3,2,0,3,4,0,4,1,3,0,1,4,0,0,1,0,3,1,0,0,0,0,0,1,0,0,0,0,0,0,0,0,0,0,0,0,0,0,0,0,0,0,0,0,0,0,0,0,0,0,0,0,0,0,0,0,0,0,0,0,0,0,0,0,0,0],"split_type":[0,0,0,0,0,0,0,0,0,0,0,0,0,0,0,0,0,0,0,0,0,0,0,0,0,0,0,0,0,0,0,0,0,0,0,0,0,0,0,0,0,0,0,0,0,0,0,0,0,0,0,0,0,0,0,0,0,0,0,0,0,0,0,0,0,0,0,0,0,0,0,0,0,0,0,0,0,0,0,0,0,0,0,0,0,0,0,0,0,0,0,0,0,0,0,0,0,0,0],"sum_hessian":[1.958E3,1.895E3,6.3E1,1.311E3,5.84E2,3E1,3.3E1,1.288E3,2.3E1,4.35E2,1.49E2,8E0,2.2E1,9E0,2.4E1,1.99E2,1.089E3,9E0,1.4E1,4.21E2,1.4E1,1.43E2,6E0,7E0,1E0,2E0,2E1,4E0,5E0,7E0,1.7E1,1.97E2,2E0,1.033E3,5.6E1,6E0,3E0,6E0,8E0,3.95E2,2.6E1,1.2E1,2E0,1.4E2,3E0,1E0,5E0,5E0,2E0,1.3E1,7E0,2E0,2E0,1E0,4E0,4E0,3E0,2E0,1.5E1,5.2E1,1.45E2,1E0,1E0,1.007E3,2.6E1,4.4E1,1.2E1,5E0,1E0,2E0,1E0,1E0,5E0,6E0,2E0,1.62E2,2.33E2,1.8E1,8E0,6E0,6E0,1E0,1E0,1.32E2,8E0,1E0,2E0,1E0,4E0,2E0,1.1E1,1E0,6E0,1E0,1E0,1E0,2E0,9E0,6E0],"tree_param":{"num_deleted":"0","num_feature":"5","num_nodes":"99","size_leaf_vector":"1"}},{"base_weights":[1.5539631E-2,-2.0796876E-2,4.160376E-1,-2.6390307E-2,1.2333324E0,1.8034159E0,3.32796E-1,-8.1609055E-2,5.243318E-2,6.1974776E-1,5.0759405E-1,4.7461042E-1,2.7715383E0,-5.4832584E-1,4.453134E-1,-2.5459185E-1,-4.150134E-2,2.5641662E-1,-6.374515E-2,3.2801166E-2,2.1600483E-1,2.83386E-1,-1.536026E-1,3.5541272E0,-5.3822566E-2,9.55766E-2,-1.2028478E0,8.296182E-1,1.35017745E-2,-3.116114E-1,2.9899302E-1,4.1037294E-1,-7.915267E-2,1.0945699E0,3.485323E-2,1.6575135E-1,-1.4093025E-1,-2.678148E-1,1.9869362E-1,3.1739646E-1,1.2100532E0,-8.586444E-1,6.2719196E-1,-2.838983E-1,-1.6150063E0,1.3052434E0,6.2971696E-2,-1.3820174E-1,1.3118888E0,-6.9606684E-2,-1.808753E-1,-1.3137732E-1,1.7803743E-1,-8.789198E-4,3.7113345E-1,-1.3053706E-1,-1.8033838E-2,2.7205738E-1,1.7128098E0,-1.8971655E-1,3.2182224E-2,-4.29479E-3,3.7409922E-1,-5.1529E-2,2.8014636E-1,-7.056756E-2,-2.9641274E-1,2.704408E-1,-1.5277076E-1,-1.2655988E-1,1.950084E-2,-1.04310684E-1,-5.39678E-1,2.2770469E-1,9.423417E-1,-2.0385627E-1,1.8811679E-1,-1.6616234E-1,1.3976851E-1,7.183377E-1,1.1999065E-1],"categories":[],"categories_nodes":[],"categories_segments":[],"categories_sizes":[],"default_left":[0,0,0,0,0,0,0,0,0,0,0,0,0,0,0,0,0,0,0,0,0,0,0,0,0,0,0,0,0,0,0,0,0,0,0,0,0,0,0,0,0,0,0,0,0,0,0,0,0,0,0,0,0,0,0,0,0,0,0,0,0,0,0,0,0,0,0,0,0,0,0,0,0,0,0,0,0,0,0,0,0],"id":8,"left_children":[1,3,5,7,9,11,13,15,17,19,-1,21,23,25,27,29,31,33,35,-1,-1,-1,37,39,-1,41,43,45,47,49,51,53,55,57,59,61,63,-1,-1,-1,-1,65,67,69,71,73,75,77,79,-1,-1,-1,-1,-1,-1,-1,-1,-1,-1,-1,-1,-1,-1,-1,-1,-1,-1,-1,-1,-1,-1,-1,-1,-1,-1,-1,-1,-1,-1,-1,-1],"loss_changes":[2.8517384E1,1.2638291E1,1.8224304E1,7.7953157E0,1.2027531E0,1.0262615E1,1.5611111E1,7.295091E0,1.7505806E1,1.7716563E-1,0E0,1.6214266E0,1.2184528E1,7.7010345E0,2.2889524E1,6.343072E0,1.4596181E1,4.9730545E1,8.366516E0,0E0,0E0,0E0,2.4004169E0,5.190277E-1,0E0,5.6113205E0,2.9502773E0,2.6536263E1,1.3181316E1,4.033375E0,4.382823E0,2.2555378E1,5.334958E0,4.3332573E1,1.0360468E1,2.31868E1,1.1858078E1,0E0,0E0,0E0,0E0,9.026432E-2,2.640935E0,2.1997121E-1,7.7300835E-1,4.2742584E1,1.257212E1,1.5324438E1,5.952815E0,0E0,0E0,0E0,0E0,0E0,0E0,0E0,0E0,0E0,0E0,0E0,0E0,0E0,0E0,0E0,0E0,0E0,0E0,0E0,0E0,0E0,0E0,0E0,0E0,0E0,0E0,0E0,0E0,0E0,0E0,0E0,0E0],"parents":[2147483647,0,0,1,1,2,2,3,3,4,4,5,5,6,6,7,7,8,8,9,9,11,11,12,12,13,13,14,14,15,15,16,16,17,17,18,18,22,22,23,23,25,25,26,26,27,27,28,28,29,29,30,30,31,31,32,32,33,33,34,34,35,35,36,36,41,41,42,42,43,43,44,44,45,45,46,46,47,47,48,48],"right_children":[2,4,6,8,10,12,14,16,18,20,-1,22,24,26,28,30,32,34,36,-1,-1,-1,38,40,-1,42,44,46,48,50,52,54,56,58,60,62,64,-1,-1,-1,-1,66,68,70,72,74,76,78,80,-1,-1,-1,-1,-1,-1,-1,-1,-1,-1,-1,-1,-1,-1,-1,-1,-1,-1,-1,-1,-1,-1,-1,-1,-1,-1,-1,-1,-1,-1,-1,-1],"split_conditions":[5.97E0,2.2743582E1,6.1E0,5E-1,3.7E0,2.983167E0,8.470062E1,1.2381581E2,1.6394829E1,2.02E0,5.0759405E-1,2.254E0,1.8993586E1,1.662249E1,1.9262683E2,1.8276918E1,1.6345096E2,1.6498333E0,1.1E0,3.2801166E-2,2.1600483E-1,2.83386E-1,2.712333E0,5.826917E0,-5.3822566E-2,3.1730822E1,3.770912E1,1.6000001E0,6.2E0,2.83E0,1.2768586E1,1.5408606E2,1.8149202E2,1.6311613E1,4.183166E0,3.53E0,1.9264418E1,-2.678148E-1,1.9869362E-1,3.1739646E-1,1.2100532E0,6.47E0,1.231E1,8.454E0,1E-1,1.7865529E2,8.13E0,9.64E0,6.47E0,-6.9606684E-2,-1.808753E-1,-1.3137732E-1,1.7803743E-1,-8.789198E-4,3.7113345E-1,-1.3053706E-1,-1.8033838E-2,2.7205738E-1,1.7128098E0,-1.8971655E-1,3.2182224E-2,-4.29479E-3,3.7409922E-1,-5.1529E-2,2.8014636E-1,-7.056756E-2,-2.9641274E-1,2.704408E-1,-1.5277076E-1,-1.2655988E-1,1.950084E-2,-1.04310684E-1,-5.39678E-1,2.2770469E-1,9.423417E-1,-2.0385627E-1,1.8811679E-1,-1.6616234E-1,1.3976851E-1,7.183377E-1,1.1999065E-1],"split_indices":[0,1,0,2,0,1,4,4,3,0,0,1,1,3,4,1,4,1,2,0,0,0,1,1,0,4,4,2,2,0,3,4,4,3,1,0,1,0,0,0,0,0,0,1,2,4,0,0,0,0,0,0,0,0,0,0,0,0,0,0,0,0,0,0,0,0,0,0,0,0,0,0,0,0,0,0,0,0,0,0,0],"split_type":[0,0,0,0,0,0,0,0,0,0,0,0,0,0,0,0,0,0,0,0,0,0,0,0,0,0,0,0,0,0,0,0,0,0,0,0,0,0,0,0,0,0,0,0,0,0,0,0,0,0,0,0,0,0,0,0,0,0,0,0,0,0,0,0,0,0,0,0,0,0,0,0,0,0,0,0,0,0,0,0,0],"sum_hessian":[1.958E3,1.796E3,1.62E2,1.789E3,7E0,8E0,1.54E2,1.052E3,7.37E2,4E0,3E0,4E0,4E0,1.7E1,1.37E2,1.97E2,8.55E2,2.67E2,4.7E2,1E0,3E0,2E0,2E0,3E0,1E0,9E0,8E0,7.2E1,6.5E1,1.79E2,1.8E1,6.5E1,7.9E2,5.5E1,2.12E2,1.18E2,3.52E2,1E0,1E0,1E0,2E0,3E0,6E0,3E0,5E0,4.4E1,2.8E1,5.9E1,6E0,1.42E2,3.7E1,5E0,1.3E1,4.4E1,2.1E1,3.9E1,7.51E2,5.4E1,1E0,2E1,1.92E2,1.02E2,1.6E1,3.43E2,9E0,1E0,2E0,5E0,1E0,2E0,1E0,1E0,4E0,3.5E1,9E0,1.2E1,1.6E1,3.5E1,2.4E1,2E0,4E0],"tree_param":{"num_deleted":"0","num_feature":"5","num_nodes":"81","size_leaf_vector":"1"}},{"base_weights":[1.3865889E-2,-2.2774437E-2,2.3550317E-1,-1.3506501E-2,-6.125512E-1,4.587615E-1,7.280731E-2,-7.364671E-2,5.2588698E-2,-8.5253036E-1,1.5114661E0,3.5408366E-1,1.2955475E0,-6.880089E-1,1.6089682E-1,-7.6536894E-2,4.4050735E-1,1.6174577E-1,-4.2499706E-2,-1.4316863E0,-4.095911E-1,5.5296665E-1,1.2719315E-1,1.2356128E-1,7.372011E-1,-1.2701403E0,3.250559E-1,1.6300375E0,5.2485842E-2,-6.6125594E-2,-2.0141712E-1,3.1508675E-1,-3.1611025E-1,1.3328737E-2,1.1751189E0,-6.204274E-1,-2.12004E-2,-5.1338345E-1,-5.844791E-1,6.9837056E-2,-6.562889E-1,5.503841E-1,-8.378491E-2,1.0342562E0,-3.4650645E-1,-6.093141E-1,-2.9754356E-1,4.351652E-1,-4.1525206E-1,-6.570581E-1,2.7040868E0,2.3167923E-1,-3.0704194E-1,-2.5206158E-2,1.3459466E-1,-8.859662E-2,7.372959E-2,2.112009E-2,-1.6336972E-1,1.7053032E-2,-1.8392664E-1,9.536287E-1,1.1920015E-1,-9.189935E-2,-3.1215504E-1,1.1888139E-2,-5.607028E-2,-1.4833618E-2,-2.2390257E-1,-2.548224E-2,7.587855E-2,-2.0645429E-1,-5.5389155E-2,3.2105934E-2,3.481177E-1,-1.6639236E-1,1.3482583E-1,4.0579504E-1,-5.0881427E-2,-4.644123E-1,4.4214696E-2,-2.6284814E-1,1.7193805E-1,-1.9879244E-1,8.614583E-2,1.981745E-2,-2.760349E-1,-7.7899836E-2,1.1824564E0,-4.253231E-2,1.3288891E-1,-4.256281E-2,-3.221537E-1],"categories":[],"categories_nodes":[],"categories_segments":[],"categories_sizes":[],"default_left":[0,0,0,0,0,0,0,0,0,0,0,0,0,0,0,0,0,0,0,0,0,0,0,0,0,0,0,0,0,0,0,0,0,0,0,0,0,0,0,0,0,0,0,0,0,0,0,0,0,0,0,0,0,0,0,0,0,0,0,0,0,0,0,0,0,0,0,0,0,0,0,0,0,0,0,0,0,0,0,0,0,0,0,0,0,0,0,0,0,0,0,0,0],"id":9,"left_children":[1,3,5,7,9,11,13,15,17,19,21,23,-1,25,27,29,31,33,35,37,39,-1,-1,41,43,45,47,49,51,53,55,-1,57,59,61,63,65,-1,67,69,71,73,75,77,79,-1,81,-1,83,85,87,89,91,-1,-1,-1,-1,-1,-1,-1,-1,-1,-1,-1,-1,-1,-1,-1,-1,-1,-1,-1,-1,-1,-1,-1,-1,-1,-1,-1,-1,-1,-1,-1,-1,-1,-1,-1,-1,-1,-1,-1,-1],"loss_changes":[1.5914132E1,9.18556E0,1.0064449E1,6.590413E0,1.4541291E1,4.5742195E1,1.0967928E1,1.323565E0,8.206736E0,5.5703354E0,3.0085897E-1,1.0065383E1,0E0,1.0438392E1,2.316801E1,1.1100249E0,2.6388655E0,5.5332214E1,5.193748E0,1.368515E0,1.8199415E0,0E0,0E0,6.5066204E0,1.4200975E1,7.5362835E0,6.4348326E0,2.6341278E1,8.897361E0,7.3979673E0,2.8440938E0,0E0,3.032389E-1,8.812045E0,7.198195E1,1.6604843E0,4.12978E0,0E0,3.095051E-1,1.9151494E-1,2.336216E-2,6.366756E0,1.2802396E1,1.3261677E1,6.1623983E0,0E0,3.5248582E0,0E0,1.0591168E0,8.216677E-1,2.6695625E1,7.322032E0,5.6735396E0,0E0,0E0,0E0,0E0,0E0,0E0,0E0,0E0,0E0,0E0,0E0,0E0,0E0,0E0,0E0,0E0,0E0,0E0,0E0,0E0,0E0,0E0,0E0,0E0,0E0,0E0,0E0,0E0,0E0,0E0,0E0,0E0,0E0,0E0,0E0,0E0,0E0,0E0,0E0,0E0],"parents":[2147483647,0,0,1,1,2,2,3,3,4,4,5,5,6,6,7,7,8,8,9,9,10,10,11,11,13,13,14,14,15,15,16,16,17,17,18,18,19,19,20,20,23,23,24,24,25,25,26,26,27,27,28,28,29,29,30,30,32,32,33,33,34,34,35,35,36,36,38,38,39,39,40,40,41,41,42,42,43,43,44,44,46,46,48,48,49,49,50,50,51,51,52,52],"right_children":[2,4,6,8,10,12,14,16,18,20,22,24,-1,26,28,30,32,34,36,38,40,-1,-1,42,44,46,48,50,52,54,56,-1,58,60,62,64,66,-1,68,70,72,74,76,78,80,-1,82,-1,84,86,88,90,92,-1,-1,-1,-1,-1,-1,-1,-1,-1,-1,-1,-1,-1,-1,-1,-1,-1,-1,-1,-1,-1,-1,-1,-1,-1,-1,-1,-1,-1,-1,-1,-1,-1,-1,-1,-1,-1,-1,-1,-1],"split_conditions":[4.32E0,4.22E0,1.6212965E2,1.65E0,4.1E0,1.6116347E2,1.80625E2,1.85E1,2.0647989E2,1.9866467E2,4.28E0,1.2381581E2,1.2955475E0,1.4039416E1,1.8422476E2,5.799999E0,1.21E0,1.9431572E2,2.0996344E2,1.6739416E1,3.5623333E0,5.5296665E-1,1.2719315E-1,1.4706668E0,1.8553999E1,1.8043148E1,1E-1,1.405845E1,1.9296133E1,4.6E0,1.4903999E1,3.1508675E-1,1.48E0,3.83E0,1.980458E2,2.04E0,2.167487E1,-5.1338345E-1,4.28E0,2E-1,2.5177876E2,5.3524995E-1,1.3168583E1,5.5000005E0,1.097262E1,-6.093141E-1,1.2000002E0,4.351652E-1,4.9E0,4.97E0,5.49E0,5.4E0,1.4903999E1,-2.5206158E-2,1.3459466E-1,-8.859662E-2,7.372959E-2,2.112009E-2,-1.6336972E-1,1.7053032E-2,-1.8392664E-1,9.536287E-1,1.1920015E-1,-9.189935E-2,-3.1215504E-1,1.1888139E-2,-5.607028E-2,-1.4833618E-2,-2.2390257E-1,-2.548224E-2,7.587855E-2,-2.0645429E-1,-5.5389155E-2,3.2105934E-2,3.481177E-1,-1.6639236E-1,1.3482583E-1,4.0579504E-1,-5.0881427E-2,-4.644123E-1,4.4214696E-2,-2.6284814E-1,1.7193805E-1,-1.9879244E-1,8.614583E-2,1.981745E-2,-2.760349E-1,-7.7899836E-2,1.1824564E0,-4.253231E-2,1.3288891E-1,-4.256281E-2,-3.221537E-1],"split_indices":[0,0,4,0,2,4,4,2,4,4,0,4,0,1,4,2,0,4,4,1,1,0,0,1,1,3,2,3,3,2,1,0,0,0,4,0,3,0,0,2,4,1,1,2,3,0,2,0,2,0,0,0,1,0,0,0,0,0,0,0,0,0,0,0,0,0,0,0,0,0,0,0,0,0,0,0,0,0,0,0,0,0,0,0,0,0,0,0,0,0,0,0,0],"split_type":[0,0,0,0,0,0,0,0,0,0,0,0,0,0,0,0,0,0,0,0,0,0,0,0,0,0,0,0,0,0,0,0,0,0,0,0,0,0,0,0,0,0,0,0,0,0,0,0,0,0,0,0,0,0,0,0,0,0,0,0,0,0,0,0,0,0,0,0,0,0,0,0,0,0,0,0,0,0,0,0,0,0,0,0,0,0,0,0,0,0,0,0,0],"sum_hessian":[1.958E3,1.681E3,2.77E2,1.656E3,2.5E1,1.16E2,1.61E2,8.67E2,7.89E2,2.3E1,2E0,1.14E2,2E0,1.6E1,1.45E2,8.63E2,4E0,3.67E2,4.22E2,9E0,1.4E1,1E0,1E0,7.2E1,4.2E1,1E1,6E0,9E0,1.36E2,7.98E2,6.5E1,2E0,2E0,3.21E2,4.6E1,1.4E1,4.08E2,6E0,3E0,5E0,9E0,2.3E1,4.9E1,3.3E1,9E0,5E0,5E0,2E0,4E0,3E0,6E0,9.1E1,4.5E1,7.72E2,2.6E1,5.4E1,1.1E1,1E0,1E0,3.01E2,2E1,1.2E1,3.4E1,9E0,5E0,2.99E2,1.09E2,1E0,2E0,3E0,2E0,8E0,1E0,1.4E1,9E0,2.6E1,2.3E1,2.6E1,7E0,2E0,7E0,3E0,2E0,3E0,1E0,1E0,2E0,2E0,4E0,3.3E1,5.8E1,3.8E1,7E0],"tree_param":{"num_deleted":"0","num_feature":"5","num_nodes":"93","size_leaf_vector":"1"}},{"base_weights":[1.0837763E-2,-3.0876832E-2,1.349442E-1,8.506229E-1,-3.3868372E-2,2.1914333E-1,-8.106757E-2,-2.523762E-2,6.531098E-1,-1.0668013E-2,-8.709022E-2,3.6803776E-1,6.0375564E-2,2.7580938E-1,-1.7766067E-1,-4.902976E-2,5.8402065E-2,2.4719277E-2,-1.1637352E-1,-1.6984873E-1,-4.3122796E-3,2.269195E-1,1.2114472E0,-8.847349E-2,6.098876E-1,-8.783322E-2,1.4831825E0,-3.5413212E-1,8.511214E-2,9.5270695E-3,6.926159E-1,-1.3213243E-1,9.09471E-1,-1.3332137E-1,-3.6790222E-1,-3.6759056E-2,2.2296916E-1,8.520704E-2,8.047349E-1,4.02952E0,5.159103E-1,-1.6876492E-1,1.0722007E0,1.843749E0,-1.3527688E-1,1.1279593E-1,-8.727831E-1,7.332994E-1,1.829571E-1,-6.328716E-1,-1.5712963E-1,1.5066701E0,-5.230082E-2,-6.4491895E-3,9.467582E-2,6.5363455E-1,2.0320669E-2,-1.0610728E-2,-7.979683E-2,4.542266E-1,6.0970668E-2,-4.4477828E-2,5.4573756E-2,6.035217E-2,-1.4188674E-1,1.1653755E-1,-1.6368957E-2,1.634031E-1,2.0115659E-2,1.5610892E-1,-5.7386015E-2,3.170539E-1,-2.1528423E-1,2.9587463E-1,1.3631327E0,3.0593193E-1,-1.479963E-1,-8.530751E-2,7.750585E-2,3.589604E-1,1.1629343E-2,9.0754396E-1,6.9056325E-2,-1.2862657E-1,2.4498521E-1,-7.1909264E-2,8.429574E-2,-3.2147664E-1,-1.1634064E-2,-4.1611913E-1,-8.986538E-2,-7.199704E-2,2.8344393E-1,-1.9210124E-2,6.154748E-1,9.801799E-2,-1.2351673E-1],"categories":[],"categories_nodes":[],"categories_segments":[],"categories_sizes":[],"default_left":[0,0,0,0,0,0,0,0,0,0,0,0,0,0,0,0,0,0,0,0,0,0,0,0,0,0,0,0,0,0,0,0,0,0,0,0,0,0,0,0,0,0,0,0,0,0,0,0,0,0,0,0,0,0,0,0,0,0,0,0,0,0,0,0,0,0,0,0,0,0,0,0,0,0,0,0,0,0,0,0,0,0,0,0,0,0,0,0,0,0,0,0,0,0,0,0,0],"id":10,"left_children":[1,3,5,7,9,11,13,15,-1,17,19,21,23,25,27,-1,-1,29,31,33,35,37,39,41,43,45,47,49,51,53,55,57,59,61,63,65,67,69,71,73,75,77,79,81,83,85,87,-1,-1,89,91,93,95,-1,-1,-1,-1,-1,-1,-1,-1,-1,-1,-1,-1,-1,-1,-1,-1,-1,-1,-1,-1,-1,-1,-1,-1,-1,-1,-1,-1,-1,-1,-1,-1,-1,-1,-1,-1,-1,-1,-1,-1,-1,-1,-1,-1],"loss_changes":[1.0146006E1,3.8973486E0,8.984452E0,5.8636923E0,1.8055333E0,8.36985E0,4.840587E0,1.5337838E-1,0E0,3.8183203E0,3.0409245E0,2.1505848E1,1.420438E1,1.3301842E1,5.1310487E0,0E0,0E0,7.7557216E0,4.2587156E0,1.5569801E0,1.6527208E0,1.2869047E1,4.888305E1,1.2948277E1,3.4268314E1,3.8780584E0,4.3850775E0,3.5247746E0,8.869122E0,7.118753E0,1.5639909E1,3.267562E0,1.4002934E0,9.169662E-1,2.1277847E0,1.505039E0,1.3679497E0,1.5500232E1,1.2656258E1,3.3438034E0,1.1690384E1,6.4424543E0,1.1100378E0,2.599125E1,7.0547767E0,1.2530682E0,7.8746605E-1,0E0,0E0,6.37197E0,3.8790464E0,3.5549564E0,5.8562083E0,0E0,0E0,0E0,0E0,0E0,0E0,0E0,0E0,0E0,0E0,0E0,0E0,0E0,0E0,0E0,0E0,0E0,0E0,0E0,0E0,0E0,0E0,0E0,0E0,0E0,0E0,0E0,0E0,0E0,0E0,0E0,0E0,0E0,0E0,0E0,0E0,0E0,0E0,0E0,0E0,0E0,0E0,0E0,0E0],"parents":[2147483647,0,0,1,1,2,2,3,3,4,4,5,5,6,6,7,7,9,9,10,10,11,11,12,12,13,13,14,14,17,17,18,18,19,19,20,20,21,21,22,22,23,23,24,24,25,25,26,26,27,27,28,28,29,29,30,30,31,31,32,32,33,33,34,34,35,35,36,36,37,37,38,38,39,39,40,40,41,41,42,42,43,43,44,44,45,45,46,46,49,49,50,50,51,51,52,52],"right_children":[2,4,6,8,10,12,14,16,-1,18,20,22,24,26,28,-1,-1,30,32,34,36,38,40,42,44,46,48,50,52,54,56,58,60,62,64,66,68,70,72,74,76,78,80,82,84,86,88,-1,-1,90,92,94,96,-1,-1,-1,-1,-1,-1,-1,-1,-1,-1,-1,-1,-1,-1,-1,-1,-1,-1,-1,-1,-1,-1,-1,-1,-1,-1,-1,-1,-1,-1,-1,-1,-1,-1,-1,-1,-1,-1,-1,-1,-1,-1,-1,-1],"split_conditions":[3.03E0,7.771331E0,2.3677582E2,1.75E0,2.7033307E2,8.316501E0,1.2768586E1,1.65E0,6.531098E-1,2.1000001E0,3.1005508E2,6.139417E0,4.7000003E0,1.8678999E1,5E-1,-4.902976E-2,5.8402065E-2,1.9000001E0,1.9629E1,1.99E0,2.22E0,2.0996344E2,6.4352508E0,2.2743582E1,1.2009584E2,6.47E0,1.9629E1,2.6285236E2,6E-1,2.4967499E1,8.6025E-1,1.83E0,2.1E0,4.7000003E0,2.760494E2,1.097262E1,-3.6501665E0,1.4706668E0,4.9185834E0,3.47E0,1E0,2.0883102E1,1.8129137E1,1.8899143E1,2.0126079E2,3.97E0,8.77E0,7.332994E-1,1.829571E-1,1.6981165E1,9.64E0,3.47E0,7.3581676E0,-6.4491895E-3,9.467582E-2,6.5363455E-1,2.0320669E-2,-1.0610728E-2,-7.979683E-2,4.542266E-1,6.0970668E-2,-4.4477828E-2,5.4573756E-2,6.035217E-2,-1.4188674E-1,1.1653755E-1,-1.6368957E-2,1.634031E-1,2.0115659E-2,1.5610892E-1,-5.7386015E-2,3.170539E-1,-2.1528423E-1,2.9587463E-1,1.3631327E0,3.0593193E-1,-1.479963E-1,-8.530751E-2,7.750585E-2,3.589604E-1,1.1629343E-2,9.0754396E-1,6.9056325E-2,-1.2862657E-1,2.4498521E-1,-7.1909264E-2,8.429574E-2,-3.2147664E-1,-1.1634064E-2,-4.1611913E-1,-8.986538E-2,-7.199704E-2,2.8344393E-1,-1.9210124E-2,6.154748E-1,9.801799E-2,-1.2351673E-1],"split_indices":[0,3,4,0,4,1,3,0,0,2,4,1,2,1,2,0,0,2,1,0,0,4,1,1,4,0,1,4,2,3,1,0,0,2,4,3,1,1,1,0,2,3,3,3,4,0,0,0,0,3,0,0,1,0,0,0,0,0,0,0,0,0,0,0,0,0,0,0,0,0,0,0,0,0,0,0,0,0,0,0,0,0,0,0,0,0,0,0,0,0,0,0,0,0,0,0,0],"split_type":[0,0,0,0,0,0,0,0,0,0,0,0,0,0,0,0,0,0,0,0,0,0,0,0,0,0,0,0,0,0,0,0,0,0,0,0,0,0,0,0,0,0,0,0,0,0,0,0,0,0,0,0,0,0,0,0,0,0,0,0,0,0,0,0,0,0,0,0,0,0,0,0,0,0,0,0,0,0,0,0,0,0,0,0,0,0,0,0,0,0,0,0,0,0,0,0,0],"sum_hessian":[1.958E3,1.466E3,4.92E2,4E0,1.462E3,3.54E2,1.38E2,3E0,1E0,1.019E3,4.43E2,1.82E2,1.72E2,2.9E1,1.09E2,2E0,1E0,7.64E2,2.55E2,2.21E2,2.22E2,1.57E2,2.5E1,1.36E2,3.6E1,2.3E1,6E0,6.5E1,4.4E1,7.48E2,1.6E1,2.52E2,3E0,1.88E2,3.3E1,1.95E2,2.7E1,1.27E2,3E1,4E0,2.1E1,1.28E2,8E0,1.3E1,2.3E1,1.9E1,4E0,2E0,4E0,2.6E1,3.9E1,3E0,4.1E1,6.8E2,6.8E1,4E0,1.2E1,1.47E2,1.05E2,1E0,2E0,1.8E2,8E0,5E0,2.8E1,7E0,1.88E2,8E0,1.9E1,4.9E1,7.8E1,2.6E1,4E0,1E0,3E0,1.4E1,7E0,1.01E2,2.7E1,7E0,1E0,7E0,6E0,1.8E1,5E0,6E0,1.3E1,3E0,1E0,7E0,1.9E1,3.7E1,2E0,1E0,2E0,2E1,2.1E1],"tree_param":{"num_deleted":"0","num_feature":"5","num_nodes":"97","size_leaf_vector":"1"}},{"base_weights":[1.0856812E-2,-2.5796527E-2,9.4925635E-2,-1.9736841E-2,-2.9479468E-1,1.2371899E-1,-2.5974244E-1,-2.70201E-2,3.6327812E-1,-4.9994028E-1,2.3942725E-1,-2.833601E-1,1.4770313E-1,-3.17909E-1,3.4493804E-1,7.367992E-3,-9.268643E-2,2.3484123E0,-1.4167994E-2,1.1366892E-1,-6.028085E-1,-1.7163932E-1,4.123884E-1,2.8296545E-1,-5.665135E-1,7.9743725E-1,1.1609404E-1,6.936811E-2,-4.1947648E-1,-4.354649E-2,8.528586E-2,-1.6116524E-1,5.7439427E-3,3.4152412E-1,1.2553616E0,1.2083756E-1,-1.9557072E-1,-3.0397298E-2,6.5732434E-2,-3.46014E-1,-3.7909746E-1,-1.575805E-2,5.7611465E-1,-6.252488E-2,3.6753443E-1,-2.876912E-1,-3.2491776E-1,7.8043044E-3,2.112625E0,1.831161E-1,-4.0617913E-2,2.4327226E-1,-1.252497E-1,-5.1105314E-1,2.321941E-1,-1.4190191E-2,2.8685462E-1,5.3254604E-2,-2.9252628E-2,-4.207956E-2,-2.0465401E-1,-1.1250997E-2,2.091534E-1,2.0124787E-1,-4.7562007E-2,-1.23338355E-2,4.553916E-1,4.711303E-2,-1.7650035E-1,1.8018115E-2,2.0019403E-1,4.5538373E-2,-1.6252859E-1,9.7566895E-2,-1.404065E-1,1.0999749E-1,-1.9541863E-1,3.1016845E-1,1.61137E0,1.0646195E-1,1.2908659E-3,1.5717553E-1,-7.520002E-2,2.2029705E-2,1.5055841E-1,-9.248516E-2,-2.7181208E-1,4.699016E-3,1.11398034E-1],"categories":[],"categories_nodes":[],"categories_segments":[],"categories_sizes":[],"default_left":[0,0,0,0,0,0,0,0,0,0,0,0,0,0,0,0,0,0,0,0,0,0,0,0,0,0,0,0,0,0,0,0,0,0,0,0,0,0,0,0,0,0,0,0,0,0,0,0,0,0,0,0,0,0,0,0,0,0,0,0,0,0,0,0,0,0,0,0,0,0,0,0,0,0,0,0,0,0,0,0,0,0,0,0,0,0,0,0,0],"id":11,"left_children":[1,3,5,7,9,11,13,15,17,19,21,23,25,27,-1,29,31,33,35,37,39,-1,41,43,45,47,49,51,53,55,57,59,61,63,-1,65,-1,-1,-1,-1,67,-1,69,71,-1,73,-1,75,77,79,81,83,-1,85,87,-1,-1,-1,-1,-1,-1,-1,-1,-1,-1,-1,-1,-1,-1,-1,-1,-1,-1,-1,-1,-1,-1,-1,-1,-1,-1,-1,-1,-1,-1,-1,-1,-1,-1],"loss_changes":[6.0389175E0,2.2191923E0,6.1083236E0,3.7367187E0,3.4074974E0,5.421508E0,4.0549836E0,2.9633625E0,1.8765303E1,1.4571805E0,1.4992528E0,5.1313705E0,1.0607459E1,1.7598276E0,0E0,3.4233954E0,3.0408442E0,1.3310474E1,1.9729233E0,1.12875834E-1,1.9029651E0,0E0,6.392119E-1,3.6571383E0,2.7129264E0,2.4907883E1,5.2380095E0,9.4824797E-1,2.207387E0,2.0043607E0,5.766247E0,2.8008504E0,5.588035E0,6.003692E-1,0E0,4.3614693E0,0E0,0E0,0E0,0E0,1.7751019E0,0E0,2.4230218E-1,1.0066249E0,0E0,1.810118E0,0E0,4.0237417E0,2.6083138E1,1.07171135E1,1.7918356E1,3.1449717E-1,0E0,2.2035112E0,1.4481628E-1,0E0,0E0,0E0,0E0,0E0,0E0,0E0,0E0,0E0,0E0,0E0,0E0,0E0,0E0,0E0,0E0,0E0,0E0,0E0,0E0,0E0,0E0,0E0,0E0,0E0,0E0,0E0,0E0,0E0,0E0,0E0,0E0,0E0,0E0],"parents":[2147483647,0,0,1,1,2,2,3,3,4,4,5,5,6,6,7,7,8,8,9,9,10,10,11,11,12,12,13,13,15,15,16,16,17,17,18,18,19,19,20,20,22,22,23,23,24,24,25,25,26,26,27,27,28,28,29,29,30,30,31,31,32,32,33,33,35,35,40,40,42,42,43,43,45,45,47,47,48,48,49,49,50,50,51,51,53,53,54,54],"right_children":[2,4,6,8,10,12,14,16,18,20,22,24,26,28,-1,30,32,34,36,38,40,-1,42,44,46,48,50,52,54,56,58,60,62,64,-1,66,-1,-1,-1,-1,68,-1,70,72,-1,74,-1,76,78,80,82,84,-1,86,88,-1,-1,-1,-1,-1,-1,-1,-1,-1,-1,-1,-1,-1,-1,-1,-1,-1,-1,-1,-1,-1,-1,-1,-1,-1,-1,-1,-1,-1,-1,-1,-1,-1,-1],"split_conditions":[2.67E0,2.58E0,3.0199872E2,2.5E0,2.3608005E2,-1.3459998E0,7.9E0,1.0889417E1,1.1874544E1,3.770912E1,2.6E0,6.679103E1,-2.100002E-2,-1.8334998E0,3.4493804E-1,1.48E0,5E-1,1.1252519E1,1.5578999E1,-1.3459998E0,3.8644161E0,-1.7163932E-1,-7.87725E0,4.3264347E1,-2.8751667E0,1.5307991E2,2.1E0,1E-1,1.941025E1,1.4500002E1,2.620882E2,2.38E0,1.8993586E1,9.670666E0,1.2553616E0,1.3710248E1,-1.9557072E-1,-3.0397298E-2,6.5732434E-2,-3.46014E-1,1.2043584E1,-1.575805E-2,2.3908356E2,3.770912E1,3.6753443E-1,1.024578E1,-3.2491776E-1,1.3009903E1,4.6E0,8.454E0,1.294219E2,4.32E0,-1.252497E-1,5.15E0,1.420062E1,-1.4190191E-2,2.8685462E-1,5.3254604E-2,-2.9252628E-2,-4.207956E-2,-2.0465401E-1,-1.1250997E-2,2.091534E-1,2.0124787E-1,-4.7562007E-2,-1.23338355E-2,4.553916E-1,4.711303E-2,-1.7650035E-1,1.8018115E-2,2.0019403E-1,4.5538373E-2,-1.6252859E-1,9.7566895E-2,-1.404065E-1,1.0999749E-1,-1.9541863E-1,3.1016845E-1,1.61137E0,1.0646195E-1,1.2908659E-3,1.5717553E-1,-7.520002E-2,2.2029705E-2,1.5055841E-1,-9.248516E-2,-2.7181208E-1,4.699016E-3,1.11398034E-1],"split_indices":[0,0,4,0,4,1,0,1,3,4,0,4,1,1,0,0,2,3,1,1,1,0,1,4,1,4,2,2,1,2,4,0,1,1,0,1,0,0,0,0,1,0,4,4,0,3,0,3,2,1,4,0,0,0,3,0,0,0,0,0,0,0,0,0,0,0,0,0,0,0,0,0,0,0,0,0,0,0,0,0,0,0,0,0,0,0,0,0,0],"split_type":[0,0,0,0,0,0,0,0,0,0,0,0,0,0,0,0,0,0,0,0,0,0,0,0,0,0,0,0,0,0,0,0,0,0,0,0,0,0,0,0,0,0,0,0,0,0,0,0,0,0,0,0,0,0,0,0,0,0,0,0,0,0,0,0,0,0,0,0,0,0,0,0,0,0,0,0,0,0,0,0,0,0,0,0,0,0,0,0,0],"sum_hessian":[1.958E3,1.364E3,5.94E2,1.335E3,2.9E1,5.5E2,4.4E1,1.311E3,2.4E1,2.1E1,8E0,3E1,5.2E2,4.3E1,1E0,8.61E2,4.5E2,3E0,2.1E1,3E0,1.8E1,1E0,7E0,1E1,2E1,2.3E1,4.97E2,9E0,3.4E1,5.21E2,3.4E2,2.65E2,1.85E2,2E0,1E0,1.8E1,3E0,1E0,2E0,4E0,1.4E1,2E0,5E0,8E0,2E0,1.4E1,6E0,1.5E1,8E0,3.48E2,1.49E2,7E0,2E0,3E1,4E0,5.2E2,1E0,2.26E2,1.14E2,2.56E2,9E0,1.75E2,1E1,1E0,1E0,1.7E1,1E0,4E0,1E1,1E0,4E0,6E0,2E0,3E0,1.1E1,1E1,5E0,7E0,1E0,1.77E2,1.71E2,4E1,1.09E2,5E0,2E0,2.1E1,9E0,2E0,2E0],"tree_param":{"num_deleted":"0","num_feature":"5","num_nodes":"89","size_leaf_vector":"1"}},{"base_weights":[9.41081E-3,5.691352E-3,7.33764E-1,4.233479E-3,4.270629E-1,2.6453024E-1,1.0024981E0,-1.022409E-1,2.0684384E-2,1.03213176E-1,-8.028675E-3,3.5702285E-1,9.691287E-3,6.29953E-1,-1.4944765E-1,1.2240896E-1,-2.2074414E-2,-6.323171E-2,9.507854E-1,-1.267391E-1,-8.091849E-1,6.4085215E-2,9.73391E-1,-1.1881074E-2,-3.3078092E-1,4.4188164E-2,-6.1595395E-2,-6.9708616E-2,4.270533E-1,-5.2511923E-2,2.9247804E-2,-1.3022624E-1,-5.152301E-1,-2.9444182E-3,1.4563654E-1,-9.993113E-2,6.024178E-1,4.137627E-3,-3.757357E-2,-3.27191E-1,-2.7539456E-2],"categories":[],"categories_nodes":[],"categories_segments":[],"categories_sizes":[],"default_left":[0,0,0,0,0,0,0,0,0,0,0,0,0,0,0,0,0,0,0,0,0,0,0,0,0,0,0,0,0,0,0,0,0,0,0,0,0,0,0,0,0],"id":12,"left_children":[1,3,5,7,-1,9,11,13,15,-1,-1,-1,-1,17,19,21,23,25,27,29,31,33,35,37,39,-1,-1,-1,-1,-1,-1,-1,-1,-1,-1,-1,-1,-1,-1,-1,-1],"loss_changes":[5.2737637E0,4.024717E0,9.958005E-1,3.415983E0,0E0,1.2501606E-1,1.0534763E0,9.115479E0,7.349211E0,0E0,0E0,0E0,0E0,3.6184573E0,3.5829382E0,2.4753845E1,3.7407036E0,2.0971885E-1,6.483115E0,2.605564E0,1.9799385E0,1.4609056E1,4.392614E1,3.3574376E0,6.800393E0,0E0,0E0,0E0,0E0,0E0,0E0,0E0,0E0,0E0,0E0,0E0,0E0,0E0,0E0,0E0,0E0],"parents":[2147483647,0,0,1,1,2,2,3,3,5,5,6,6,7,7,8,8,13,13,14,14,15,15,16,16,17,17,18,18,19,19,20,20,21,21,22,22,23,23,24,24],"right_children":[2,4,6,8,-1,10,12,14,16,-1,-1,-1,-1,18,20,22,24,26,28,30,32,34,36,38,40,-1,-1,-1,-1,-1,-1,-1,-1,-1,-1,-1,-1,-1,-1,-1,-1],"split_conditions":[2.2743582E1,2.705E1,3.7E0,8.1320404E1,4.270629E-1,3.5E0,2E-1,9.676569E0,1.9866467E2,1.03213176E-1,-8.028675E-3,3.5702285E-1,9.691287E-3,8.287822E0,7.95742E1,1.9431572E2,7.9E0,-2.9183337E-1,1.01E0,1.4993584E1,1.85E0,6.2E0,6E-1,2.3665035E1,8.77E0,4.4188164E-2,-6.1595395E-2,-6.9708616E-2,4.270533E-1,-5.2511923E-2,2.9247804E-2,-1.3022624E-1,-5.152301E-1,-2.9444182E-3,1.4563654E-1,-9.993113E-2,6.024178E-1,4.137627E-3,-3.757357E-2,-3.27191E-1,-2.7539456E-2],"split_indices":[1,0,0,4,0,0,2,3,4,0,0,0,0,3,4,4,0,1,0,1,0,0,2,3,0,0,0,0,0,0,0,0,0,0,0,0,0,0,0,0,0],"split_type":[0,0,0,0,0,0,0,0,0,0,0,0,0,0,0,0,0,0,0,0,0,0,0,0,0,0,0,0,0,0,0,0,0,0,0,0,0,0,0,0,0],"sum_hessian":[1.958E3,1.949E3,9E0,1.948E3,1E0,4E0,5E0,2.6E2,1.688E3,3E0,1E0,4E0,1E0,1.5E1,2.45E2,4.99E2,1.189E3,5E0,1E1,2.38E2,7E0,4.68E2,3.1E1,1.152E3,3.7E1,2E0,3E0,3E0,7E0,1.96E2,4.2E1,6E0,1E0,3.99E2,6.9E1,1.4E1,1.7E1,9.4E2,2.12E2,8E0,2.9E1],"tree_param":{"num_deleted":"0","num_feature":"5","num_nodes":"41","size_leaf_vector":"1"}},{"base_weights":[7.004738E-3,4.1661724E-3,5.598245E-1,2.926636E-3,3.6300346E-1,2.0420799E-1,7.628675E-1,2.6608622E-2,-3.8991947E-2,9.4723515E-2,2.4601618E-2,9.0445757E-1,8.2376E-3,8.743564E-2,-5.2302666E-2,-7.993869E-2,1.37403E-1,1.7895127E-2,-6.8243984E-3,6.3029766E-2,3.076567E-1,4.1804027E-2,3.3346632E-1,-7.168709E-2,2.815606E-1,-3.7804082E-2,-2.911008E-1,6.219878E-1,-2.2287134E-2,2.3051059E-2,-5.4435506E-2,7.036807E-2,6.026236E-1,2.8424818E-4,-5.1811278E-2,1.416162E-1,-4.3989476E-2,-1.4927207E-2,3.3087808E-1,-4.261992E-2,-2.8996468E-1,-7.367409E-3,3.299048E-1,3.0266383E-1,-2.2563087E-2],"categories":[],"categories_nodes":[],"categories_segments":[],"categories_sizes":[],"default_left":[0,0,0,0,0,0,0,0,0,0,0,0,0,0,0,0,0,0,0,0,0,0,0,0,0,0,0,0,0,0,0,0,0,0,0,0,0,0,0,0,0,0,0,0,0],"id":13,"left_children":[1,3,5,7,-1,9,11,13,15,-1,17,19,-1,21,23,25,27,-1,-1,-1,-1,29,31,33,35,37,39,41,43,-1,-1,-1,-1,-1,-1,-1,-1,-1,-1,-1,-1,-1,-1,-1,-1],"loss_changes":[3.07176E0,2.911103E0,5.662708E-1,1.9358397E0,0E0,9.2395976E-2,5.999241E-1,5.9852967E0,5.095833E0,0E0,6.335569E-3,2.048502E-1,0E0,7.88971E0,3.5343435E0,5.078212E0,1.0305856E1,0E0,0E0,0E0,0E0,4.6676035E0,1.775531E1,3.7715561E0,2.516251E0,6.5726314E0,9.42586E0,1.0219107E1,5.587709E0,0E0,0E0,0E0,0E0,0E0,0E0,0E0,0E0,0E0,0E0,0E0,0E0,0E0,0E0,0E0,0E0],"parents":[2147483647,0,0,1,1,2,2,3,3,5,5,6,6,7,7,8,8,10,10,11,11,13,13,14,14,15,15,16,16,21,21,22,22,23,23,24,24,25,25,26,26,27,27,28,28],"right_children":[2,4,6,8,-1,10,12,14,16,-1,18,20,-1,22,24,26,28,-1,-1,-1,-1,30,32,34,36,38,40,42,44,-1,-1,-1,-1,-1,-1,-1,-1,-1,-1,-1,-1,-1,-1,-1,-1],"split_conditions":[2.2743582E1,2.705E1,3.7E0,1.0668584E1,3.6300346E-1,1.081073E2,2E-1,1.836353E1,3.7E0,9.4723515E-2,2.02E0,1.15199995E1,8.2376E-3,1.7283749E1,9.483167E0,3.75E0,1.3603615E2,1.7895127E-2,-6.8243984E-3,6.3029766E-2,3.076567E-1,1.6394829E1,7.37E0,1.1E0,2.427265E1,3.7E0,2.2406927E1,1.4576915E1,3.8E0,2.3051059E-2,-5.4435506E-2,7.036807E-2,6.026236E-1,2.8424818E-4,-5.1811278E-2,1.416162E-1,-4.3989476E-2,-1.4927207E-2,3.3087808E-1,-4.261992E-2,-2.8996468E-1,-7.367409E-3,3.299048E-1,3.0266383E-1,-2.2563087E-2],"split_indices":[1,0,0,1,0,4,2,3,2,0,0,3,0,3,1,0,4,0,0,0,0,3,0,2,3,0,3,1,2,0,0,0,0,0,0,0,0,0,0,0,0,0,0,0,0],"split_type":[0,0,0,0,0,0,0,0,0,0,0,0,0,0,0,0,0,0,0,0,0,0,0,0,0,0,0,0,0,0,0,0,0,0,0,0,0,0,0,0,0,0,0,0,0],"sum_hessian":[1.958E3,1.949E3,9E0,1.948E3,1E0,4E0,5E0,1.245E3,7.03E2,2E0,2E0,4E0,1E0,7.03E2,5.42E2,5.71E2,1.32E2,1E0,1E0,1E0,3E0,5.94E2,1.09E2,5.13E2,2.9E1,4.77E2,9.4E1,3.2E1,1E2,5.14E2,8E1,1.04E2,5E0,2.99E2,2.14E2,2E1,9E0,4.73E2,4E0,7.8E1,1.6E1,1.4E1,1.8E1,4E0,9.6E1],"tree_param":{"num_deleted":"0","num_feature":"5","num_nodes":"45","size_leaf_vector":"1"}},{"base_weights":[5.986215E-3,-1.1451758E-1,1.575349E-2,-9.036643E-2,-3.730951E-1,3.1614692E-3,1.504271E-1,-3.6574423E-2,-4.9323717E-1,5.843777E-3,-5.511303E-1,-2.4203949E-1,2.627073E-1,1.00221194E-1,-1.4626291E-1,-2.1851198E-1,-7.74989E-1,3.8433824E-2,-2.7030565E-2,-1.3775042E0,2.201949E-1,2.2578664E-2,-7.5110584E-1,1.4972547E0,1.9658668E-1,-9.684451E-4,5.3266495E-1,-1.7055546E-1,2.1336833E-1,-1.4245252E-2,-4.1992965E-1,-6.7896634E-2,-2.760473E-1,-3.978056E-1,6.394794E-2,-3.086401E-2,1.0310658E0,-4.8531735E-1,-9.852655E-2,-1.4959688E-1,5.245718E-1,-5.488905E-1,4.0205285E-1,-4.491012E-1,-3.7285197E-1,6.955933E-1,5.06899E-1,-3.107074E-1,3.465906E-1,1.861313E-2,-1.6658466E-1,7.13732E-2,2.967022E-1,-3.6309607E-2,-1.5805572E-1,-7.0690155E-2,1.7737433E-1,-7.390487E-2,8.999269E-2,-1.4576897E-1,-2.3409337E-2,4.424191E-2,-2.08061E-1,1.5241443E-1,5.1035974E-3,-6.891678E-3,-2.220968E-1,4.1869226E-1,4.528735E-2,5.5361032E-2,2.3170152E-1,9.6597865E-2,-2.4205814E-1,-1.4028396E-1,2.2824161E-1,6.228247E-2,-1.9991724E-1,1.9012485E-1,1.8952131E-2,-2.4449903E-1,1.8842526E-1,2.569921E-1,1.9223716E-2],"categories":[],"categories_nodes":[],"categories_segments":[],"categories_sizes":[],"default_left":[0,0,0,0,0,0,0,0,0,0,0,0,0,0,0,0,0,0,0,0,0,0,0,0,0,0,0,0,0,0,0,0,0,0,0,0,0,0,0,0,0,0,0,0,0,0,0,0,0,0,0,0,0,0,0,0,0,0,0,0,0,0,0,0,0,0,0,0,0,0,0,0,0,0,0,0,0,0,0,0,0,0,0],"id":14,"left_children":[1,3,5,7,-1,9,11,13,15,17,19,21,23,25,27,29,31,33,35,37,39,41,43,45,47,49,51,53,55,57,59,-1,-1,61,63,65,67,-1,-1,-1,69,71,73,75,-1,-1,77,79,81,-1,-1,-1,-1,-1,-1,-1,-1,-1,-1,-1,-1,-1,-1,-1,-1,-1,-1,-1,-1,-1,-1,-1,-1,-1,-1,-1,-1,-1,-1,-1,-1,-1,-1],"loss_changes":[2.307535E0,3.8962839E0,3.0740337E0,3.1242876E0,0E0,2.4697907E0,6.8938503E0,1.9502914E0,1.1465292E0,1.7709527E0,5.4025435E0,4.731746E0,9.582775E0,2.538528E0,6.6540897E-1,4.054473E-1,4.2894173E-1,9.263557E0,3.370038E0,4.767475E-1,1.3555893E0,5.4252696E0,1.2239103E0,3.7054873E0,8.934836E0,1.7110213E0,1.244302E0,1.1360978E0,9.876613E-1,5.11491E-1,7.485479E-2,0E0,0E0,7.5200453E0,1.6354101E1,4.5796657E0,7.519133E-1,0E0,0E0,0E0,1.9447243E-1,2.5064204E0,5.0356855E0,1.4226134E0,0E0,0E0,1.8511069E-1,1.3294297E1,1.2913652E1,0E0,0E0,0E0,0E0,0E0,0E0,0E0,0E0,0E0,0E0,0E0,0E0,0E0,0E0,0E0,0E0,0E0,0E0,0E0,0E0,0E0,0E0,0E0,0E0,0E0,0E0,0E0,0E0,0E0,0E0,0E0,0E0,0E0,0E0],"parents":[2147483647,0,0,1,1,2,2,3,3,5,5,6,6,7,7,8,8,9,9,10,10,11,11,12,12,13,13,14,14,15,15,16,16,17,17,18,18,19,19,20,20,21,21,22,22,23,23,24,24,25,25,26,26,27,27,28,28,29,29,30,30,33,33,34,34,35,35,36,36,40,40,41,41,42,42,43,43,46,46,47,47,48,48],"right_children":[2,4,6,8,-1,10,12,14,16,18,20,22,24,26,28,30,32,34,36,38,40,42,44,46,48,50,52,54,56,58,60,-1,-1,62,64,66,68,-1,-1,-1,70,72,74,76,-1,-1,78,80,82,-1,-1,-1,-1,-1,-1,-1,-1,-1,-1,-1,-1,-1,-1,-1,-1,-1,-1,-1,-1,-1,-1,-1,-1,-1,-1,-1,-1,-1,-1,-1,-1,-1,-1],"split_conditions":[4.3264347E1,8.77E0,5.97E0,4.0296288E1,-3.730951E-1,5.75E0,2.712333E0,1.4565548E1,4.7602506E0,2.3677582E2,1.1165805E1,2.3602502E0,6.1E0,1.3237038E1,1.5514416E1,9.0000004E-1,1.75E0,-1.3459998E0,5.6E0,1.5E0,4.099833E0,7.05E0,2.6373334E0,1.272283E1,1.3577776E1,1.3089354E1,2.6E0,3.9E0,1.7E0,1.2768586E1,5.25E0,-6.7896634E-2,-2.760473E-1,7.499381E1,1.0935835E0,5.15E0,5.4685836E0,-4.8531735E-1,-9.852655E-2,-1.4959688E-1,2.2E0,6.47E0,5.3524995E-1,1.5111424E1,-3.7285197E-1,6.955933E-1,5.826917E0,8.000001E-1,3E-1,1.861313E-2,-1.6658466E-1,7.13732E-2,2.967022E-1,-3.6309607E-2,-1.5805572E-1,-7.0690155E-2,1.7737433E-1,-7.390487E-2,8.999269E-2,-1.4576897E-1,-2.3409337E-2,4.424191E-2,-2.08061E-1,1.5241443E-1,5.1035974E-3,-6.891678E-3,-2.220968E-1,4.1869226E-1,4.528735E-2,5.5361032E-2,2.3170152E-1,9.6597865E-2,-2.4205814E-1,-1.4028396E-1,2.2824161E-1,6.228247E-2,-1.9991724E-1,1.9012485E-1,1.8952131E-2,-2.4449903E-1,1.8842526E-1,2.569921E-1,1.9223716E-2],"split_indices":[4,0,0,4,0,0,1,3,1,4,3,1,0,3,1,2,0,1,0,2,1,0,1,3,3,3,0,0,0,3,0,0,0,4,1,0,1,0,0,0,2,0,1,3,0,0,1,2,2,0,0,0,0,0,0,0,0,0,0,0,0,0,0,0,0,0,0,0,0,0,0,0,0,0,0,0,0,0,0,0,0,0,0],"split_type":[0,0,0,0,0,0,0,0,0,0,0,0,0,0,0,0,0,0,0,0,0,0,0,0,0,0,0,0,0,0,0,0,0,0,0,0,0,0,0,0,0,0,0,0,0,0,0,0,0,0,0,0,0,0,0,0,0,0,0,0,0,0,0,0,0,0,0,0,0,0,0,0,0,0,0,0,0,0,0,0,0,0,0],"sum_hessian":[1.958E3,1.46E2,1.812E3,1.44E2,2E0,1.658E3,1.54E2,1.28E2,1.6E1,1.651E3,7E0,3.4E1,1.2E2,5.7E1,7.1E1,9E0,7E0,8.29E2,8.22E2,3E0,4E0,2.3E1,1.1E1,5E0,1.15E2,4.7E1,1E1,6.7E1,4E0,5E0,4E0,2E0,5E0,4.5E1,7.84E2,8.2E2,2E0,2E0,1E0,1E0,3E0,9E0,1.4E1,8E0,3E0,2E0,3E0,2.6E1,8.9E1,4.3E1,4E0,7E0,3E0,6E1,7E0,2E0,2E0,3E0,2E0,3E0,1E0,1.6E1,2.9E1,7.4E1,7.1E2,8.12E2,8E0,1E0,1E0,2E0,1E0,2E0,7E0,4E0,1E1,2E0,6E0,2E0,1E0,1.7E1,9E0,3.1E1,5.8E1],"tree_param":{"num_deleted":"0","num_feature":"5","num_nodes":"83","size_leaf_vector":"1"}},{"base_weights":[3.9869105E-3,-8.4205404E-2,1.5767384E-2,3.7152448E-1,-1.130862E-1,4.137031E-1,1.2043498E-2,9.037759E-2,8.5951334E-1,-8.810494E-2,-4.22968E-1,7.0004344E-1,-5.4454923E-2,-4.4686055E-1,1.635805E-2,3.6933374E-1,-2.5528163E-2,-7.2823524E-2,1.1957643E0,-1.1188097E-1,1.9676992E-1,-6.487229E-1,4.1647738E-1,9.55643E-1,-6.4470984E-2,-4.3193302E-1,1.7784807E-1,-5.170196E-1,9.0828896E-2,6.516294E-2,-1.50930295E-2,1.3126996E-1,3.493023E-2,-1.04322806E-1,7.890516E-2,1.7519474E-3,4.7713774E-1,-8.411234E-2,-4.2653838E-1,5.338457E-1,-3.1287697E-1,-1.444638E-1,-2.5703597E-1,1.9613107E-1,1.1945637E-1,3.8388154E-1,5.341855E-1,-2.5809808E-2,-1.4906998E-1,-3.3227837E-1,-9.419886E-1,-5.6114376E-1,8.742985E-2,-3.263823E-2,1.5281457E-1,-5.0916426E-2,4.3210316E-2,6.941974E-2,-3.5258226E-2,-2.3690067E-2,-4.087855E-1,-4.213506E-2,2.1599281E-1,-1.751557E-1,1.9694625E-1,-1.0195338E-1,2.9721476E-2,6.7323805E-3,4.7022987E-2,2.5953558E-1,-2.1904994E-2,-3.0496968E-2,-1.1047113E-1,-3.4788114E-1,-4.3371465E-2,6.529712E-2,-2.2096723E-1,1.8652527E-1,1.1833798E-2,-9.475309E-2,-6.4875395E-3,6.2302023E-2,-1.7700535E-1],"categories":[],"categories_nodes":[],"categories_segments":[],"categories_sizes":[],"default_left":[0,0,0,0,0,0,0,0,0,0,0,0,0,0,0,0,0,0,0,0,0,0,0,0,0,0,0,0,0,0,0,0,0,0,0,0,0,0,0,0,0,0,0,0,0,0,0,0,0,0,0,0,0,0,0,0,0,0,0,0,0,0,0,0,0,0,0,0,0,0,0,0,0,0,0,0,0,0,0,0,0,0,0],"id":15,"left_children":[1,3,5,7,9,11,13,15,17,19,21,23,25,27,29,31,33,-1,35,37,39,41,43,45,-1,47,-1,49,-1,51,53,-1,-1,55,-1,-1,-1,57,59,61,63,65,-1,-1,67,69,-1,-1,-1,71,73,75,77,79,81,-1,-1,-1,-1,-1,-1,-1,-1,-1,-1,-1,-1,-1,-1,-1,-1,-1,-1,-1,-1,-1,-1,-1,-1,-1,-1,-1,-1],"loss_changes":[2.0366254E0,3.0823998E0,2.5571656E0,1.8430707E0,1.6503239E0,2.1829605E0,3.4009693E0,3.3275467E-1,2.1434429E0,1.3969729E0,3.3023207E0,2.543971E0,1.9664046E0,9.980216E-1,2.6088915E0,8.2045794E-4,2.0932531E-1,0E0,1.86934E0,1.6067927E0,2.9156625E0,1.2401595E0,2.0382684E-1,3.0899668E0,0E0,6.9610715E-2,0E0,8.646369E-1,0E0,9.33704E0,3.051123E0,0E0,0E0,1.381412E-1,0E0,0E0,0E0,1.8616499E0,4.7727184E0,1.3561895E0,2.2220085E0,2.7157962E-1,0E0,0E0,7.334668E-3,1.3824263E0,0E0,0E0,0E0,6.208062E-2,5.264747E-1,3.3024E0,1.6486853E1,2.9156435E0,4.1161203E0,0E0,0E0,0E0,0E0,0E0,0E0,0E0,0E0,0E0,0E0,0E0,0E0,0E0,0E0,0E0,0E0,0E0,0E0,0E0,0E0,0E0,0E0,0E0,0E0,0E0,0E0,0E0,0E0],"parents":[2147483647,0,0,1,1,2,2,3,3,4,4,5,5,6,6,7,7,8,8,9,9,10,10,11,11,12,12,13,13,14,14,15,15,16,16,18,18,19,19,20,20,21,21,22,22,23,23,25,25,27,27,29,29,30,30,33,33,37,37,38,38,39,39,40,40,41,41,44,44,45,45,49,49,50,50,51,51,52,52,53,53,54,54],"right_children":[2,4,6,8,10,12,14,16,18,20,22,24,26,28,30,32,34,-1,36,38,40,42,44,46,-1,48,-1,50,-1,52,54,-1,-1,56,-1,-1,-1,58,60,62,64,66,-1,-1,68,70,-1,-1,-1,72,74,76,78,80,82,-1,-1,-1,-1,-1,-1,-1,-1,-1,-1,-1,-1,-1,-1,-1,-1,-1,-1,-1,-1,-1,-1,-1,-1,-1,-1,-1,-1],"split_conditions":[6.958441E1,9.565437E0,7.499381E1,4.46016E1,6.3757046E1,4.833167E0,8.1320404E1,-2.9183337E-1,7.2E-1,5.8719738E1,1.9134262E1,1.8345877E1,1.5281989E1,1.7060251E1,2.171966E2,1.05E0,1.1274834E1,-7.2823524E-2,-5.4085E0,5.370899E1,6E-1,1.7E0,-2.2168334E0,1.4706668E0,-6.4470984E-2,8.2E-1,1.7784807E-1,2.35E0,9.0828896E-2,-1.3459998E0,1.7122747E1,1.3126996E-1,3.493023E-2,9.000001E-1,7.890516E-2,1.7519474E-3,4.7713774E-1,1.0799999E1,2.83E0,1.191812E1,5.49E0,1.01E0,-2.5703597E-1,1.9613107E-1,1.73E0,1.5546833E1,5.341855E-1,-2.5809808E-2,-1.4906998E-1,-2.62725E0,6.89E0,1.14E0,1.0935835E0,2.2117912E2,6.67E0,-5.0916426E-2,4.3210316E-2,6.941974E-2,-3.5258226E-2,-2.3690067E-2,-4.087855E-1,-4.213506E-2,2.1599281E-1,-1.751557E-1,1.9694625E-1,-1.0195338E-1,2.9721476E-2,6.7323805E-3,4.7022987E-2,2.5953558E-1,-2.1904994E-2,-3.0496968E-2,-1.1047113E-1,-3.4788114E-1,-4.3371465E-2,6.529712E-2,-2.2096723E-1,1.8652527E-1,1.1833798E-2,-9.475309E-2,-6.4875395E-3,6.2302023E-2,-1.7700535E-1],"split_indices":[4,3,4,4,4,1,4,1,0,4,3,3,3,1,4,0,1,0,1,4,2,0,1,1,0,0,0,0,0,1,1,0,0,2,0,0,0,3,0,3,0,0,0,0,0,3,0,0,0,1,0,0,1,4,0,0,0,0,0,0,0,0,0,0,0,0,0,0,0,0,0,0,0,0,0,0,0,0,0,0,0,0,0],"split_type":[0,0,0,0,0,0,0,0,0,0,0,0,0,0,0,0,0,0,0,0,0,0,0,0,0,0,0,0,0,0,0,0,0,0,0,0,0,0,0,0,0,0,0,0,0,0,0,0,0,0,0,0,0,0,0,0,0,0,0,0,0,0,0,0,0,0,0,0,0,0,0,0,0,0,0,0,0,0,0,0,0,0,0],"sum_hessian":[1.958E3,2.3E2,1.728E3,1.3E1,2.17E2,1.5E1,1.713E3,9E0,4E0,2.02E2,1.5E1,9E0,6E0,1.5E1,1.698E3,2E0,7E0,1E0,3E0,1.87E2,1.5E1,1.2E1,3E0,7E0,2E0,4E0,2E0,1.4E1,1E0,6.65E2,1.033E3,1E0,1E0,6E0,1E0,1E0,2E0,1.73E2,1.4E1,9E0,6E0,4E0,8E0,1E0,2E0,5E0,2E0,1E0,3E0,1.1E1,3E0,2.2E1,6.43E2,9.36E2,9.7E1,5E0,1E0,1.6E1,1.57E2,1.1E1,3E0,2E0,7E0,5E0,1E0,2E0,2E0,1E0,1E0,2E0,3E0,2E0,9E0,2E0,1E0,4E0,1.8E1,5.2E1,5.91E2,3.4E1,9.02E2,9.1E1,6E0],"tree_param":{"num_deleted":"0","num_feature":"5","num_nodes":"83","size_leaf_vector":"1"}},{"base_weights":[3.0241401E-3,2.0646766E-2,-5.396094E-2,-1.4289719E-2,1.3102752E-1,-1.9928235E-1,6.744925E-2,-2.8404817E-2,2.7520624E-1,-2.8439004E-2,2.517385E-1,-1.3382556E-1,-3.8250843E-1,1.0541238E0,2.6735334E-2,-1.8841473E-2,-4.9006644E-1,5.8553773E-1,-4.790315E-1,1.4476883E-1,-7.789667E-2,6.0412216E-1,3.0557036E-2,-2.6400834E-1,-5.6981284E-2,-8.315791E-1,-1.9331746E-1,1.2250031E0,2.6383898E-1,-9.044306E-3,7.854354E-1,-2.4628678E-2,8.593716E-1,-7.863666E-2,-1.3604678E0,2.155573E0,3.374285E-1,-6.7341727E-1,5.877793E-1,-3.9600305E-2,9.61998E-1,-2.0341887E-1,-6.9995387E-3,3.715376E-1,3.3719776E0,1.8894807E-1,-2.8325215E-1,-3.7724587E-1,2.0150594E-1,1.5729268E-1,-1.555289E-1,-4.173965E-1,-1.6593014E0,8.585899E-1,-4.424672E-1,7.1222943E-1,-2.3731928E-1,2.0238838E-1,-9.687449E-2,5.3212595E-1,3.6872554E-1,-5.796041E-3,-2.4590006E-1,3.5374954E-1,-1.5890844E-1,-1.4093073E-1,5.318581E-1,-1.9053487E-1,-5.237108E-1,2.2837344E-1,8.494131E-1,-4.3703023E-1,1.4852692E-1,-2.5099772E-1,6.120663E-2,8.2058795E-3,2.5629482E-1,-1.0792398E-1,4.5413118E-2,-7.400655E-2,2.485762E-1,3.1543994E-1,-2.3241185E-2,5.173555E-2,3.4293348E-1,1.4945246E0,3.0487157E-2,-1.5972774E-1,8.124319E-2,-1.1331664E-1,7.696612E-2,-6.723681E-2,-1.9797431E-1,2.1422726E-1,8.273964E-3,1.8718705E-2,4.6486497E-1,-3.2639265E-2,-1.4947672E-1,1.8615031E-1,-1.70448E-1,-6.3493085E-1,2.5385464E-2,1.0971365E-1,6.463101E-1,-6.164397E-2,-2.3737708E-1,2.830942E-1,-3.2016277E-2,2.8175928E-2,-1.03082694E-1,2.81613E-2,5.826984E-1,-1.2709981E-1,4.2193296E-5,2.4125288E-1,3.882862E-2],"categories":[],"categories_nodes":[],"categories_segments":[],"categories_sizes":[],"default_left":[0,0,0,0,0,0,0,0,0,0,0,0,0,0,0,0,0,0,0,0,0,0,0,0,0,0,0,0,0,0,0,0,0,0,0,0,0,0,0,0,0,0,0,0,0,0,0,0,0,0,0,0,0,0,0,0,0,0,0,0,0,0,0,0,0,0,0,0,0,0,0,0,0,0,0,0,0,0,0,0,0,0,0,0,0,0,0,0,0,0,0,0,0,0,0,0,0,0,0,0,0,0,0,0,0,0,0,0,0,0,0,0,0,0,0,0,0],"id":16,"left_children":[1,3,5,7,9,11,13,15,17,19,21,23,25,27,29,31,33,35,37,39,41,43,45,47,49,51,53,-1,55,57,59,61,63,65,67,69,71,73,75,77,-1,79,81,83,85,87,89,91,93,95,97,99,101,103,105,107,109,111,113,-1,115,-1,-1,-1,-1,-1,-1,-1,-1,-1,-1,-1,-1,-1,-1,-1,-1,-1,-1,-1,-1,-1,-1,-1,-1,-1,-1,-1,-1,-1,-1,-1,-1,-1,-1,-1,-1,-1,-1,-1,-1,-1,-1,-1,-1,-1,-1,-1,-1,-1,-1,-1,-1,-1,-1,-1,-1],"loss_changes":[1.9683944E0,5.774777E0,8.182382E0,4.6579847E0,6.9369287E0,2.479416E0,1.0135178E1,4.785487E0,1.2685867E1,1.3476441E0,1.5959389E1,1.5555532E0,4.512047E0,2.2862118E1,6.630731E0,5.4339204E0,7.7714167E0,1.4075175E1,3.7137868E0,1.9885122E1,1.084274E0,4.9604248E1,6.3659987E0,3.1334105E0,2.1360826E0,4.7926645E0,1.0863195E1,0E0,2.1914568E0,4.3650265E0,3.8762317E0,4.4536676E0,3.734099E0,1.2419722E1,8.4729004E-1,2.5560913E0,1.0338984E1,2.175983E0,4.247545E-1,2.133241E0,0E0,2.1692014E0,5.9741654E0,1.1169963E1,3.1080864E1,5.1637344E0,2.2897105E0,1.8864036E0,1.0501279E0,4.1311874E0,1.0509008E0,2.2302687E0,4.165118E0,4.3213983E0,2.5651512E0,1.0483055E0,2.0830816E-1,1.2845816E1,5.262878E0,0E0,8.337343E-1,0E0,0E0,0E0,0E0,0E0,0E0,0E0,0E0,0E0,0E0,0E0,0E0,0E0,0E0,0E0,0E0,0E0,0E0,0E0,0E0,0E0,0E0,0E0,0E0,0E0,0E0,0E0,0E0,0E0,0E0,0E0,0E0,0E0,0E0,0E0,0E0,0E0,0E0,0E0,0E0,0E0,0E0,0E0,0E0,0E0,0E0,0E0,0E0,0E0,0E0,0E0,0E0,0E0,0E0,0E0,0E0],"parents":[2147483647,0,0,1,1,2,2,3,3,4,4,5,5,6,6,7,7,8,8,9,9,10,10,11,11,12,12,13,13,14,14,15,15,16,16,17,17,18,18,19,19,20,20,21,21,22,22,23,23,24,24,25,25,26,26,28,28,29,29,30,30,31,31,32,32,33,33,34,34,35,35,36,36,37,37,38,38,39,39,41,41,42,42,43,43,44,44,45,45,46,46,47,47,48,48,49,49,50,50,51,51,52,52,53,53,54,54,55,55,56,56,57,57,58,58,60,60],"right_children":[2,4,6,8,10,12,14,16,18,20,22,24,26,28,30,32,34,36,38,40,42,44,46,48,50,52,54,-1,56,58,60,62,64,66,68,70,72,74,76,78,-1,80,82,84,86,88,90,92,94,96,98,100,102,104,106,108,110,112,114,-1,116,-1,-1,-1,-1,-1,-1,-1,-1,-1,-1,-1,-1,-1,-1,-1,-1,-1,-1,-1,-1,-1,-1,-1,-1,-1,-1,-1,-1,-1,-1,-1,-1,-1,-1,-1,-1,-1,-1,-1,-1,-1,-1,-1,-1,-1,-1,-1,-1,-1,-1,-1,-1,-1,-1,-1,-1],"split_conditions":[2.1E0,5E-1,4.6E0,7.37E0,1.65E0,3.47E0,4.7000003E0,6.1E0,2.277856E2,1.24833286E-1,1.9866467E2,1.6831684E1,4.28E0,-2.9183337E-1,1.9556084E1,5.97E0,1.4316499E1,7.9E0,3.1005508E2,7.691669E-2,2.0203426E2,1.9262683E2,1.933639E1,1.6074835E1,2.0150354E1,3.9E0,4.8E0,1.2250031E0,1.15E0,1.294219E2,1.1273606E2,5.6E0,1E-1,8.664416E0,1.9264418E1,1.2808092E2,1.0636766E1,2.1897945E1,7.9E0,1.980458E2,9.61998E-1,1.8000001E0,2.1507642E2,1.6614655E2,4.19E0,2.0996344E2,2.9500786E1,1.79E0,1.5307991E2,2.0015642E1,1.6506083E1,7.499381E1,2.5161398E1,2.4149532E1,3.4E0,2.5399068E2,1.27E0,8.13E0,2.82275E0,5.3212595E-1,1.9629E1,-5.796041E-3,-2.4590006E-1,3.5374954E-1,-1.5890844E-1,-1.4093073E-1,5.318581E-1,-1.9053487E-1,-5.237108E-1,2.2837344E-1,8.494131E-1,-4.3703023E-1,1.4852692E-1,-2.5099772E-1,6.120663E-2,8.2058795E-3,2.5629482E-1,-1.0792398E-1,4.5413118E-2,-7.400655E-2,2.485762E-1,3.1543994E-1,-2.3241185E-2,5.173555E-2,3.4293348E-1,1.4945246E0,3.0487157E-2,-1.5972774E-1,8.124319E-2,-1.1331664E-1,7.696612E-2,-6.723681E-2,-1.9797431E-1,2.1422726E-1,8.273964E-3,1.8718705E-2,4.6486497E-1,-3.2639265E-2,-1.4947672E-1,1.8615031E-1,-1.70448E-1,-6.3493085E-1,2.5385464E-2,1.0971365E-1,6.463101E-1,-6.164397E-2,-2.3737708E-1,2.830942E-1,-3.2016277E-2,2.8175928E-2,-1.03082694E-1,2.81613E-2,5.826984E-1,-1.2709981E-1,4.2193296E-5,2.4125288E-1,3.882862E-2],"split_indices":[2,2,2,0,0,0,2,0,4,1,4,3,0,1,1,0,1,0,4,1,4,4,3,1,3,0,0,0,0,4,4,0,2,1,1,4,3,3,0,4,0,2,4,4,0,4,3,0,4,3,1,4,3,3,2,4,0,0,1,0,1,0,0,0,0,0,0,0,0,0,0,0,0,0,0,0,0,0,0,0,0,0,0,0,0,0,0,0,0,0,0,0,0,0,0,0,0,0,0,0,0,0,0,0,0,0,0,0,0,0,0,0,0,0,0,0,0],"split_type":[0,0,0,0,0,0,0,0,0,0,0,0,0,0,0,0,0,0,0,0,0,0,0,0,0,0,0,0,0,0,0,0,0,0,0,0,0,0,0,0,0,0,0,0,0,0,0,0,0,0,0,0,0,0,0,0,0,0,0,0,0,0,0,0,0,0,0,0,0,0,0,0,0,0,0,0,0,0,0,0,0,0,0,0,0,0,0,0,0,0,0,0,0,0,0,0,0,0,0,0,0,0,0,0,0,0,0,0,0,0,0,0,0,0,0,0,0],"sum_hessian":[1.958E3,1.496E3,4.62E2,1.137E3,3.59E2,2.1E2,2.52E2,1.085E3,5.2E1,1.55E2,2.04E2,1.56E2,5.4E1,9E0,2.43E2,1.064E3,2.1E1,3.7E1,1.5E1,3.4E1,1.21E2,7.8E1,1.26E2,5.7E1,9.9E1,1.5E1,3.9E1,1E0,8E0,2.33E2,1E1,1.058E3,6E0,1.5E1,6E0,4E0,3.3E1,1.3E1,2E0,3.3E1,1E0,4.3E1,7.8E1,7.3E1,5E0,8.4E1,4.2E1,4.6E1,1.1E1,3.1E1,6.8E1,1.1E1,4E0,7E0,3.2E1,4E0,4E0,6.8E1,1.65E2,2E0,8E0,1.052E3,6E0,5E0,1E0,1.3E1,2E0,3E0,3E0,2E0,2E0,2E0,3.1E1,1.1E1,2E0,1E0,1E0,1.2E1,2.1E1,4.2E1,1E0,4E0,7.4E1,5.9E1,1.4E1,3E0,2E0,8E0,7.6E1,3.6E1,6E0,3.1E1,1.5E1,2E0,9E0,3E1,1E0,6.1E1,7E0,1E0,1E1,3E0,1E0,6E0,1E0,2E1,1.2E1,3E0,1E0,1E0,3E0,6.5E1,3E0,3.7E1,1.28E2,2E0,6E0],"tree_param":{"num_deleted":"0","num_feature":"5","num_nodes":"117","size_leaf_vector":"1"}},{"base_weights":[5.4216427E-3,8.66405E-3,-3.09363E-1,-2.355858E-3,8.901584E-2,-1.0792471E0,-4.943902E-2,1.6894212E-2,-1.3891983E-1,7.711526E-1,4.5400776E-2,-3.5718825E-1,-9.5058925E-2,2.3378414E-1,-2.234904E-1,-9.577677E-3,1.0052787E-1,-1.6782317E-1,1.0463019E-1,1.0412526E0,2.9649633E-1,1.0434632E-2,5.6165487E-1,-2.4505381E-1,-5.6527298E-2,-1.0570652E-1,1.8302914E-2,1.12926655E-1,-1.0311962E0,-4.2134415E-2,-2.577075E-1,-5.1402763E-2,2.7952093E-1,5.402883E-1,2.1044204E-2,-6.782451E-3,3.5675883E-1,4.4652805E-1,1.7358732E-1,-2.9993886E-1,3.4423667E-1,-1.5655499E-2,-3.3063996E-1,1.689845E-1,-1.4563679E-3,8.245387E-2,5.695981E-3,-4.4374368E-1,4.6897747E-2,-3.2299675E-2,2.8870988E-1,-1.7731494E-1,-3.58262E-2,2.5505183E-2,-5.4143865E-2,1.1916327E-1,1.7655242E-2,-3.1965187E-1,6.500572E-2,-1.3083777E-2,7.4961856E-2,1.01729535E-1,-2.7853705E-2,-3.2157313E-2,-1.3976668E-1,-1.14368916E-1,1.862732E-1],"categories":[],"categories_nodes":[],"categories_segments":[],"categories_sizes":[],"default_left":[0,0,0,0,0,0,0,0,0,0,0,0,0,0,0,0,0,0,0,0,0,0,0,0,0,0,0,0,0,0,0,0,0,0,0,0,0,0,0,0,0,0,0,0,0,0,0,0,0,0,0,0,0,0,0,0,0,0,0,0,0,0,0,0,0,0,0],"id":17,"left_children":[1,3,5,7,9,11,13,15,17,19,21,-1,-1,-1,23,25,27,29,31,-1,33,35,37,-1,39,41,43,45,47,49,51,53,55,-1,57,59,-1,-1,61,63,65,-1,-1,-1,-1,-1,-1,-1,-1,-1,-1,-1,-1,-1,-1,-1,-1,-1,-1,-1,-1,-1,-1,-1,-1,-1,-1],"loss_changes":[2.0021536E0,1.7180203E0,3.9488704E0,4.4898214E0,6.926826E0,4.7306538E-2,2.4819977E0,3.315232E0,1.5028744E0,1.691085E1,3.9835017E0,0E0,0E0,0E0,1.3407845E0,3.0519216E0,5.1679735E0,2.1243596E0,6.4200854E-1,0E0,5.3494043E0,4.229391E0,4.776729E0,0E0,1.2738569E0,1.3595037E1,1.1146487E1,5.425014E0,2.359027E0,5.3697023E0,5.0000706E0,2.4425644E-1,2.6230103E-1,0E0,2.7817724E0,1.9581434E0,0E0,0E0,5.165576E-1,2.05953E-1,1.240298E0,0E0,0E0,0E0,0E0,0E0,0E0,0E0,0E0,0E0,0E0,0E0,0E0,0E0,0E0,0E0,0E0,0E0,0E0,0E0,0E0,0E0,0E0,0E0,0E0,0E0,0E0],"parents":[2147483647,0,0,1,1,2,2,3,3,4,4,5,5,6,6,7,7,8,8,9,9,10,10,14,14,15,15,16,16,17,17,18,18,20,20,21,21,22,22,24,24,25,25,26,26,27,27,28,28,29,29,30,30,31,31,32,32,34,34,35,35,38,38,39,39,40,40],"right_children":[2,4,6,8,10,12,14,16,18,20,22,-1,-1,-1,24,26,28,30,32,-1,34,36,38,-1,40,42,44,46,48,50,52,54,56,-1,58,60,-1,-1,62,64,66,-1,-1,-1,-1,-1,-1,-1,-1,-1,-1,-1,-1,-1,-1,-1,-1,-1,-1,-1,-1,-1,-1,-1,-1,-1,-1],"split_conditions":[1.76E1,4.6E0,3.9123333E0,2.1E0,4.7999997E0,3.4789994E0,1.21E0,5E-1,2.9180145E2,1.1252519E1,1.8870668E1,-3.5718825E-1,-9.5058925E-2,2.3378414E-1,8.9956665E0,1.4630988E2,1.231E1,1.8612444E2,1.67E0,1.0412526E0,8.837608E1,3.527449E1,1.1273606E2,-2.4505381E-1,1.8422476E2,1.4249365E2,1.6212965E2,1.9866467E2,1.926E1,2.736947E1,2.0996344E2,3.9123333E0,2.0948164E1,5.402883E-1,1.4538046E2,4.9E0,3.5675883E-1,4.4652805E-1,2.4158144E2,3.14E0,1.73E0,-1.5655499E-2,-3.3063996E-1,1.689845E-1,-1.4563679E-3,8.245387E-2,5.695981E-3,-4.4374368E-1,4.6897747E-2,-3.2299675E-2,2.8870988E-1,-1.7731494E-1,-3.58262E-2,2.5505183E-2,-5.4143865E-2,1.1916327E-1,1.7655242E-2,-3.1965187E-1,6.500572E-2,-1.3083777E-2,7.4961856E-2,1.01729535E-1,-2.7853705E-2,-3.2157313E-2,-1.3976668E-1,-1.14368916E-1,1.862732E-1],"split_indices":[2,2,1,2,2,1,0,2,4,3,1,0,0,0,1,4,0,4,0,0,4,3,4,0,4,4,4,4,0,3,4,1,3,0,4,0,0,0,4,0,0,0,0,0,0,0,0,0,0,0,0,0,0,0,0,0,0,0,0,0,0,0,0,0,0,0,0],"split_type":[0,0,0,0,0,0,0,0,0,0,0,0,0,0,0,0,0,0,0,0,0,0,0,0,0,0,0,0,0,0,0,0,0,0,0,0,0,0,0,0,0,0,0,0,0,0,0,0,0,0,0,0,0,0,0,0,0,0,0,0,0,0,0,0,0,0,0],"sum_hessian":[1.958E3,1.939E3,1.9E1,1.706E3,2.33E2,4E0,1.5E1,1.496E3,2.1E2,1.3E1,2.2E2,3E0,1E0,2E0,1.3E1,1.137E3,3.59E2,1.88E2,2.2E1,1E0,1.2E1,2.07E2,1.3E1,2E0,1.1E1,2.55E2,8.82E2,3.56E2,3E0,7.9E1,1.09E2,1.2E1,1E1,1E0,1.1E1,2.05E2,2E0,3E0,1E1,7E0,4E0,2.43E2,1.2E1,3.5E1,8.47E2,1.3E2,2.26E2,2E0,1E0,7.5E1,4E0,3.1E1,7.8E1,6E0,6E0,6E0,4E0,1E0,1E1,1.8E2,2.5E1,6E0,4E0,4E0,3E0,1E0,3E0],"tree_param":{"num_deleted":"0","num_feature":"5","num_nodes":"67","size_leaf_vector":"1"}},{"base_weights":[4.492631E-3,3.6567617E-3,2.4616872E-1,6.5577924E-3,-3.2795843E-1,-5.5234893E-3,8.438981E-2,-1.5505213E0,4.477083E-2,1.9237818E-3,-4.7993138E-1,-3.4458656E-2,1.7823936E-1,-6.527286E-1,4.878016E-2,-4.229802E-1,3.516303E-1,-5.359621E-2,1.9113287E-2,-6.114411E-1,2.19637E-1,2.7975777E-1,-1.9724046E-1,9.233651E-1,7.288662E-2,-1.5651101E-1,-4.510677E-2,1.1968133E0,-2.7043012E-1,-4.863954E-3,-2.7932525E-1,4.0967083E-1,4.129059E-3,-2.9145926E-1,-9.9185556E-2,3.8530556E-3,2.7044624E-1,-2.2617371E-1,-1.847062E-2,-2.1027075E-1,3.5106146E-1,-1.533568E-1,3.6285672E-2,5.9162754E-1,8.430701E-2,-2.6988217E-1,8.071807E-2],"categories":[],"categories_nodes":[],"categories_segments":[],"categories_sizes":[],"default_left":[0,0,0,0,0,0,0,0,0,0,0,0,0,0,0,0,0,0,0,0,0,0,0,0,0,0,0,0,0,0,0,0,0,0,0,0,0,0,0,0,0,0,0,0,0,0,0],"id":18,"left_children":[1,3,-1,5,7,9,11,13,15,17,19,21,23,-1,-1,25,27,29,31,33,-1,35,37,39,41,-1,-1,43,45,-1,-1,-1,-1,-1,-1,-1,-1,-1,-1,-1,-1,-1,-1,-1,-1,-1,-1],"loss_changes":[1.3332875E0,1.8857974E0,0E0,1.8265494E0,7.816062E0,5.943504E0,2.917303E0,4.638234E0,2.1582065E0,1.5824008E0,4.5919704E0,5.9884305E0,1.139385E1,0E0,0E0,8.304477E-2,5.0554485E0,1.2843741E1,9.100474E0,2.1057062E0,0E0,6.626362E0,5.768979E0,8.037011E0,3.6833718E0,0E0,0E0,2.2857652E0,2.2786582E0,0E0,0E0,0E0,0E0,0E0,0E0,0E0,0E0,0E0,0E0,0E0,0E0,0E0,0E0,0E0,0E0,0E0,0E0],"parents":[2147483647,0,0,1,1,3,3,4,4,5,5,6,6,7,7,8,8,9,9,10,10,11,11,12,12,15,15,16,16,17,17,18,18,19,19,21,21,22,22,23,23,24,24,27,27,28,28],"right_children":[2,4,-1,6,8,10,12,14,16,18,20,22,24,-1,-1,26,28,30,32,34,-1,36,38,40,42,-1,-1,44,46,-1,-1,-1,-1,-1,-1,-1,-1,-1,-1,-1,-1,-1,-1,-1,-1,-1,-1],"split_conditions":[2.705E1,1.614E1,2.4616872E-1,4.32E0,1.4538046E2,4.22E0,5.1540008E0,1.926E1,1.7748037E1,1.5408606E2,4.1E0,1.3708391E1,6.808167E0,-6.527286E-1,4.878016E-2,1E-1,2.0883102E1,3.75E0,1.565914E2,1.9866467E2,2.19637E-1,1.2429127E1,1.5408671E1,1.1553159E2,8.145667E0,-1.5651101E-1,-4.510677E-2,1E-1,1.2000002E0,-4.863954E-3,-2.7932525E-1,4.0967083E-1,4.129059E-3,-2.9145926E-1,-9.9185556E-2,3.8530556E-3,2.7044624E-1,-2.2617371E-1,-1.847062E-2,-2.1027075E-1,3.5106146E-1,-1.533568E-1,3.6285672E-2,5.9162754E-1,8.430701E-2,-2.6988217E-1,8.071807E-2],"split_indices":[0,0,0,0,4,0,1,0,3,4,2,3,1,0,0,2,3,0,4,4,0,3,3,4,1,0,0,2,2,0,0,0,0,0,0,0,0,0,0,0,0,0,0,0,0,0,0],"split_type":[0,0,0,0,0,0,0,0,0,0,0,0,0,0,0,0,0,0,0,0,0,0,0,0,0,0,0,0,0,0,0,0,0,0,0,0,0,0,0,0,0,0,0,0,0,0,0],"sum_hessian":[1.958E3,1.957E3,1E0,1.941E3,1.6E1,1.681E3,2.6E2,3E0,1.3E1,1.656E3,2.5E1,1.15E2,1.45E2,2E0,1E0,5E0,8E0,3.91E2,1.265E3,2.3E1,2E0,3.9E1,7.6E1,1.7E1,1.28E2,3E0,2E0,3E0,5E0,3.76E2,1.5E1,4E0,1.261E3,9E0,1.4E1,2.8E1,1.1E1,1.4E1,6.2E1,2E0,1.5E1,9E0,1.19E2,1E0,2E0,2E0,3E0],"tree_param":{"num_deleted":"0","num_feature":"5","num_nodes":"47","size_leaf_vector":"1"}},{"base_weights":[3.1138703E-3,5.7300096E-3,-2.5080734E-1,2.4776334E-2,-3.0824639E-2,5.00422E-1,-4.128138E-1,1.8601865E-2,8.919376E-1,-3.3937278E-1,-1.2105444E-2,1.880001E-1,1.8253077E-2,-8.853421E-1,-7.458544E-2,-7.889755E-2,4.3707162E-2,2.078721E-1,2.190778E0,-1.867428E-1,-3.928146E-1,3.5956252E-1,-2.682929E-2,-1.04125336E-1,-3.093685E-1,-2.9264277E-1,2.4561194E-1,-1.8694447E-2,-2.7085754E-1,1.0491148E0,3.5636336E-2,3.2139271E-1,-5.0619643E-2,9.317538E-1,5.409633E-2,-2.2849298E-1,1.7865191E-1,-7.1939886E-2,1.4177741E0,1.6863279E-1,-6.680099E-2,-1.318858E-1,-1.1407173E-1,-9.783293E-2,1.4102094E-1,1.1491546E-2,-5.5456843E-2,-1.0342596E-1,3.8920233E-1,-7.846626E-2,5.6634814E-1,3.5406817E-2,-4.4657784E-3,-4.865593E-3,1.6556194E-1,-2.8107764E-4,-2.2497762E-2,-1.7445015E-2,-1.4582579E-1,4.258138E-2,-1.2849315E-1,5.2080417E-1,1.2443495E-1,9.953147E-3,1.2594277E-1,-4.176829E-2,6.5618814E-3,-4.821991E-2,-6.8016173E-3],"categories":[],"categories_nodes":[],"categories_segments":[],"categories_sizes":[],"default_left":[0,0,0,0,0,0,0,0,0,0,0,0,0,0,0,0,0,0,0,0,0,0,0,0,0,0,0,0,0,0,0,0,0,0,0,0,0,0,0,0,0,0,0,0,0,0,0,0,0,0,0,0,0,0,0,0,0,0,0,0,0,0,0,0,0,0,0,0,0],"id":19,"left_children":[1,3,5,7,9,11,13,15,17,19,21,-1,-1,23,25,27,29,31,33,35,-1,37,39,-1,-1,41,43,45,47,49,51,53,55,-1,-1,57,-1,59,61,63,65,67,-1,-1,-1,-1,-1,-1,-1,-1,-1,-1,-1,-1,-1,-1,-1,-1,-1,-1,-1,-1,-1,-1,-1,-1,-1,-1,-1],"loss_changes":[1.3027877E0,1.3514532E0,2.6406612E0,6.815446E0,3.8367803E0,1.8384945E-1,2.650949E0,3.1071975E0,7.541026E0,5.381476E0,3.4463024E0,0E0,0E0,1.9174671E-1,8.399118E-1,2.9996495E0,8.150114E0,2.2167775E-1,4.9590645E0,1.2464763E0,0E0,1.1060895E1,4.7381005E0,0E0,0E0,4.8423827E-2,7.9493153E-1,1.8918399E0,7.6320105E0,9.287961E0,4.172428E0,3.9801472E-1,3.5624723E-3,0E0,0E0,1.4197454E0,0E0,1.4327492E0,1.5142708E0,3.4904675E0,3.23349E0,8.957908E-3,0E0,0E0,0E0,0E0,0E0,0E0,0E0,0E0,0E0,0E0,0E0,0E0,0E0,0E0,0E0,0E0,0E0,0E0,0E0,0E0,0E0,0E0,0E0,0E0,0E0,0E0,0E0],"parents":[2147483647,0,0,1,1,2,2,3,3,4,4,5,5,6,6,7,7,8,8,9,9,10,10,13,13,14,14,15,15,16,16,17,17,18,18,19,19,21,21,22,22,25,25,26,26,27,27,28,28,29,29,30,30,31,31,32,32,35,35,37,37,38,38,39,39,40,40,41,41],"right_children":[2,4,6,8,10,12,14,16,18,20,22,-1,-1,24,26,28,30,32,34,36,-1,38,40,-1,-1,42,44,46,48,50,52,54,56,-1,-1,58,-1,60,62,64,66,68,-1,-1,-1,-1,-1,-1,-1,-1,-1,-1,-1,-1,-1,-1,-1,-1,-1,-1,-1,-1,-1,-1,-1,-1,-1,-1,-1],"split_conditions":[1.76E1,1.1274834E1,1.43E0,1.1143584E1,1.1962333E1,1.21E0,8.9956665E0,1.2381581E2,4.57E0,3.5E0,1.2368581E1,1.880001E-1,1.8253077E-2,1.85E0,1.8422476E2,8.837608E1,1.2588224E2,2.41E0,7.05E0,2.9500786E1,-3.928146E-1,2.2077717E1,1.1553159E2,-1.04125336E-1,-3.093685E-1,3.14E0,1.73E0,4.833167E0,1.002275E1,1.6394829E1,2.3677582E2,1.01E0,2.58E0,9.317538E-1,5.409633E-2,1.1708167E1,1.7865191E-1,1.731746E1,2.3665035E1,8.648759E1,2.286858E2,2.67E0,-1.1407173E-1,-9.783293E-2,1.4102094E-1,1.1491546E-2,-5.5456843E-2,-1.0342596E-1,3.8920233E-1,-7.846626E-2,5.6634814E-1,3.5406817E-2,-4.4657784E-3,