{"learner":{"attributes":{"scikit_learn":"{\"_estimator_type\": \"regressor\"}"},"feature_names":["pm25_rolling_3d","temperature_2m_mean","precipitation_sum","wind_speed_10m_max","wind_direction_10m_dominant"],"feature_types":["float","float","float","float","float"],"gradient_booster":{"model":{"gbtree_model_param":{"num_parallel_tree":"1","num_trees":"100"},"iteration_indptr":[0,1,2,3,4,5,6,7,8,9,10,11,12,13,14,15,16,17,18,19,20,21,22,23,24,25,26,27,28,29,30,31,32,33,34,35,36,37,38,39,40,41,42,43,44,45,46,47,48,49,50,51,52,53,54,55,56,57,58,59,60,61,62,63,64,65,66,67,68,69,70,71,72,73,74,75,76,77,78,79,80,81,82,83,84,85,86,87,88,89,90,91,92,93,94,95,96,97,98,99,100],"tree_info":[0,0,0,0,0,0,0,0,0,0,0,0,0,0,0,0,0,0,0,0,0,0,0,0,0,0,0,0,0,0,0,0,0,0,0,0,0,0,0,0,0,0,0,0,0,0,0,0,0,0,0,0,0,0,0,0,0,0,0,0,0,0,0,0,0,0,0,0,0,0,0,0,0,0,0,0,0,0,0,0,0,0,0,0,0,0,0,0,0,0,0,0,0,0,0,0,0,0,0,0],"trees":[{"base_weights":[-2.2068497E-7,-1.6778456E0,6.3708286E0,2.732342E-1,-3.8162506E0,1.0074859E1,-3.1266046E-1,-9.082986E-1,2.161924E0,-1.0249581E0,-4.4269185E0,7.8123746E0,3.3840603E1,-9.0902704E-1,7.9797306E0,-2.846403E0,-1.4530648E-1,2.8447883E0,-4.4881096E-1,5.852831E0,-1.924914E0,-5.4981823E0,-3.9266567E0,1.4934257E0,9.63085E0,1.1093159E1,3.7119958E-1,1.1402179E-1,-4.3050027E0,2.6567993E0,6.7119956E-1,-2.9814909E0,9.711996E-1,1.9400204E0,-1.1104962E0,-2.4612373E-2,3.9412405E0,-1.9105482E0,2.2684417E0,1.9006279E0,3.7119958E-1,-2.7588398E0,1.0121877E0,-1.6657592E0,-6.0506725E-1,-4.027663E0,9.7973096E-1,3.9233656E0,-3.2728026E0,1.2680473E1,4.883225E0,2.9407592E0,-8.539866E-1,-1.4320581E0,-6.835575E-1,-1.0480676E0,-5.1861906E-1,2.4495993E0,2.7155113E-1,1.0839993E0,-4.681531E-1,1.8539194E0,-3.073557E-1,1.3260283E0,-4.3790078E-1,1.6866595E-1,-8.0127144E-1,1.3995993E0,-6.060807E-1,-1.268408E-1,-9.9029565E-1,1.0739193E0,-1.118408E-1,-9.797293E-1,-1.3478621E0,-2.0506726E-1,6.9493276E-1,-4.2608073E-1,1.6329058E0,-1.2400897E0,6.7119956E-1,5.050449E0,2.0567033E0,2.1815696E0,-2.6946747E-1,2.2649136E0,-4.3790078E-1,1.168666E0,-4.865564E-1,5.211996E-1,-8.288005E-1],"categories":[],"categories_nodes":[],"categories_segments":[],"categories_sizes":[],"default_left":[0,0,0,0,0,0,0,0,0,0,0,0,0,0,0,0,0,0,0,0,0,0,0,0,0,0,0,0,0,0,0,0,0,0,0,0,0,0,0,0,0,0,0,0,0,0,0,0,0,0,0,0,0,0,0,0,0,0,0,0,0,0,0,0,0,0,0,0,0,0,0,0,0,0,0,0,0,0,0,0,0,0,0,0,0,0,0,0,0,0,0],"id":0,"left_children":[1,3,5,7,9,11,13,15,17,19,21,23,25,27,29,31,33,35,37,39,41,43,45,47,49,-1,-1,51,53,-1,-1,55,-1,57,59,61,63,65,67,-1,-1,69,71,-1,-1,73,75,77,79,81,83,85,87,-1,89,-1,-1,-1,-1,-1,-1,-1,-1,-1,-1,-1,-1,-1,-1,-1,-1,-1,-1,-1,-1,-1,-1,-1,-1,-1,-1,-1,-1,-1,-1,-1,-1,-1,-1,-1,-1],"loss_changes":[1.0357898E4,3.2011194E3,5.00383E3,8.990464E2,6.193291E2,6.725673E3,3.6826108E2,3.663185E2,2.7760736E2,4.259765E2,1.3918408E2,1.364519E3,1.0791426E3,2.4021405E2,5.345581E0,6.7180786E1,3.6243414E2,3.870747E2,1.3540698E2,9.980316E0,1.4975192E2,6.3969727E0,1.07025635E2,3.3712653E2,1.2845762E3,0E0,0E0,1.5027187E2,2.3884766E1,0E0,0E0,3.8223938E1,0E0,3.5981793E2,2.6711066E2,2.23463E2,2.3662793E2,4.28657E1,1.3277998E2,0E0,0E0,5.812854E1,5.111885E1,0E0,0E0,5.7634033E1,1.2700106E1,1.6201959E2,5.6681183E1,1.2396895E3,5.3131146E2,2.949592E2,1.5584584E2,0E0,1.9899563E1,0E0,0E0,0E0,0E0,0E0,0E0,0E0,0E0,0E0,0E0,0E0,0E0,0E0,0E0,0E0,0E0,0E0,0E0,0E0,0E0,0E0,0E0,0E0,0E0,0E0,0E0,0E0,0E0,0E0,0E0,0E0,0E0,0E0,0E0,0E0,0E0],"parents":[2147483647,0,0,1,1,2,2,3,3,4,4,5,5,6,6,7,7,8,8,9,9,10,10,11,11,12,12,13,13,14,14,15,15,16,16,17,17,18,18,19,19,20,20,21,21,22,22,23,23,24,24,27,27,28,28,31,31,33,33,34,34,35,35,36,36,37,37,38,38,41,41,42,42,45,45,46,46,47,47,48,48,49,49,50,50,51,51,52,52,54,54],"right_children":[2,4,6,8,10,12,14,16,18,20,22,24,26,28,30,32,34,36,38,40,42,44,46,48,50,-1,-1,52,54,-1,-1,56,-1,58,60,62,64,66,68,-1,-1,70,72,-1,-1,74,76,78,80,82,84,86,88,-1,90,-1,-1,-1,-1,-1,-1,-1,-1,-1,-1,-1,-1,-1,-1,-1,-1,-1,-1,-1,-1,-1,-1,-1,-1,-1,-1,-1,-1,-1,-1,-1,-1,-1,-1,-1,-1],"split_conditions":[9.666667E0,2.391873E2,2.282045E2,4.5E0,1.3363711E1,3E1,1.8826918E1,1.02034836E2,2.1770541E2,-8.3376665E0,1.8333334E0,7.722532E1,6.2333332E1,2.2682856E1,1.3276144E1,1.6504E1,4.6540008E0,9.442327E1,2.3079347E2,1.3276144E1,6.1666665E0,1.6504E1,1.17E1,1.7035456E1,1.9352162E2,1.1093159E1,3.7119958E-1,1.2666667E1,3.7999997E0,2.6567993E0,6.7119956E-1,1.8E0,9.711996E-1,1.405845E1,1.2276044E2,8.688613E0,2.4192429E1,2.2060648E2,6.6666665E0,1.9006279E0,3.7119958E-1,1.0086427E1,1.1901798E1,-1.6657592E0,-6.0506725E-1,1.747484E1,3E0,1.0333333E1,1.9E1,1.4000001E0,2.0880001E1,2.5258282E2,-1.8230833E0,-1.4320581E0,1.4666667E1,-1.0480676E0,-5.1861906E-1,2.4495993E0,2.7155113E-1,1.0839993E0,-4.681531E-1,1.8539194E0,-3.073557E-1,1.3260283E0,-4.3790078E-1,1.6866595E-1,-8.0127144E-1,1.3995993E0,-6.060807E-1,-1.268408E-1,-9.9029565E-1,1.0739193E0,-1.118408E-1,-9.797293E-1,-1.3478621E0,-2.0506726E-1,6.9493276E-1,-4.2608073E-1,1.6329058E0,-1.2400897E0,6.7119956E-1,5.050449E0,2.0567033E0,2.1815696E0,-2.6946747E-1,2.2649136E0,-4.3790078E-1,1.168666E0,-4.865564E-1,5.211996E-1,-8.288005E-1],"split_indices":[0,4,4,0,3,0,1,4,4,1,0,4,0,3,3,1,1,4,4,3,0,1,2,3,4,0,0,0,2,0,0,2,0,3,4,3,3,4,0,0,0,3,3,0,0,3,0,0,0,2,3,4,1,0,0,0,0,0,0,0,0,0,0,0,0,0,0,0,0,0,0,0,0,0,0,0,0,0,0,0,0,0,0,0,0,0,0,0,0,0,0],"split_type":[0,0,0,0,0,0,0,0,0,0,0,0,0,0,0,0,0,0,0,0,0,0,0,0,0,0,0,0,0,0,0,0,0,0,0,0,0,0,0,0,0,0,0,0,0,0,0,0,0,0,0,0,0,0,0,0,0,0,0,0,0,0,0,0,0,0,0,0,0,0,0,0,0,0,0,0,0,0,0,0,0,0,0,0,0,0,0,0,0,0,0],"sum_hessian":[9.67E2,7.66E2,2.01E2,4.01E2,3.65E2,1.29E2,7.2E1,2.47E2,1.54E2,6.6E1,2.99E2,1.19E2,1E1,6.8E1,4E0,6.9E1,1.78E2,1.22E2,3.2E1,7E0,5.9E1,9.2E1,2.07E2,2.7E1,9.2E1,9E0,1E0,5.3E1,1.5E1,3E0,1E0,6.8E1,1E0,5.6E1,1.22E2,3.4E1,8.8E1,2.1E1,1.1E1,6E0,1E0,4.6E1,1.3E1,9E1,2E0,2.03E2,4E0,1.8E1,9E0,5.5E1,3.7E1,1.3E1,4E1,1.3E1,2E0,4.7E1,2.1E1,7E0,4.9E1,1E1,1.12E2,4E0,3E1,8.1E1,7E0,5E0,1.6E1,7E0,4E0,9E0,3.7E1,4E0,9E0,8E1,1.23E2,2E0,2E0,4E0,1.4E1,8E0,1E0,3.1E1,2.4E1,2.6E1,1.1E1,6E0,7E0,5E0,3.5E1,1E0,1E0],"tree_param":{"num_deleted":"0","num_feature":"5","num_nodes":"91","size_leaf_vector":"1"}},{"base_weights":[2.9508531E-2,-4.8203167E-1,1.1909292E1,1.0501789E0,-2.5744364E0,1.6596853E1,8.9690745E-1,-1.08595654E-1,4.068388E0,2.1316457E0,-2.7798183E0,2.2065287E1,6.1397038E0,-1.6872314E0,5.368976E0,-2.2016609E0,5.84701E-1,4.726103E0,-1.6942511E0,3.9193995E0,-9.8220295E-1,-1.9500027E0,-3.3695939E0,5.4840726E-1,2.4720621E1,3.0819197E0,3.9799466E0,-2.143288E0,2.9418305E-1,2.3162746E0,-6.0581696E-1,-2.3392324E0,1.581691E0,1.1531329E0,-1.4269238E0,4.226309E0,3.6208708E0,2.57213E-1,-1.921518E0,-3.7969914E-1,5.212265E0,8.300166E-1,-2.5488718E0,-3.7859883E-2,-2.3584158E0,-2.820315E0,-3.767668E0,-3.2373634E-1,5.705196E-1,2.622843E1,3.1551963E-1,2.4195104E0,-7.5380963E-1,-3.838034E-2,-2.4129193E0,-1.8368061E-1,-8.0568963E-1,-6.3900477E-3,9.5859975E-1,-2.5144735E-1,5.4537314E-1,2.4940166E-1,-8.0501556E-1,1.060697E0,2.63902E0,-1.0462668E0,-3.1049973E-1,1.7101647E0,1.9589968E-1,3.014069E-1,4.5899678E-2,-8.796992E-1,-2.0977436E-1,8.9351755E-1,-1.9187875E-1,-7.56405E-1,6.755376E-1,-9.211224E-1,-1.8259463E-1,-1.164075E0,-2.7205467E-1,8.996202E0,3.8139446E0,-1.1740283E0,5.4130685E-1,-7.925828E-1,-1.5581697E-1],"categories":[],"categories_nodes":[],"categories_segments":[],"categories_sizes":[],"default_left":[0,0,0,0,0,0,0,0,0,0,0,0,0,0,0,0,0,0,0,0,0,0,0,0,0,0,0,0,0,0,0,0,0,0,0,0,0,0,0,0,0,0,0,0,0,0,0,0,0,0,0,0,0,0,0,0,0,0,0,0,0,0,0,0,0,0,0,0,0,0,0,0,0,0,0,0,0,0,0,0,0,0,0,0,0,0,0],"id":1,"left_children":[1,3,5,7,9,11,13,15,17,19,21,23,25,27,29,31,33,35,37,39,41,43,45,47,49,51,-1,53,-1,-1,-1,55,57,59,61,63,-1,-1,65,-1,67,69,71,73,75,77,79,-1,-1,81,-1,-1,83,-1,85,-1,-1,-1,-1,-1,-1,-1,-1,-1,-1,-1,-1,-1,-1,-1,-1,-1,-1,-1,-1,-1,-1,-1,-1,-1,-1,-1,-1,-1,-1,-1,-1],"loss_changes":[5.888264E3,2.981082E3,2.049963E3,1.8785581E3,3.8577734E2,1.4656836E3,1.5929251E2,5.6577106E2,5.7274316E2,9.848515E1,1.7793481E2,1.01486426E3,1.9882758E2,1.3051907E1,1.02476456E2,5.4186737E1,3.3668265E2,4.407998E2,1.0925873E1,8.033647E1,2.198964E1,1.2408087E2,3.7259277E1,8.659923E0,5.434248E2,1.7810437E2,0E0,4.038521E0,0E0,0E0,0E0,5.4588318E1,1.0414674E1,3.0466592E2,1.8666309E2,3.6978296E2,0E0,0E0,1.7215214E1,0E0,1.6313461E1,3.193102E-1,7.865925E-1,5.4539585E1,1.0407947E2,5.1231018E1,3.64187E1,0E0,0E0,3.8080762E2,0E0,0E0,5.5558174E1,0E0,1.6634369E0,0E0,0E0,0E0,0E0,0E0,0E0,0E0,0E0,0E0,0E0,0E0,0E0,0E0,0E0,0E0,0E0,0E0,0E0,0E0,0E0,0E0,0E0,0E0,0E0,0E0,0E0,0E0,0E0,0E0,0E0,0E0,0E0],"parents":[2147483647,0,0,1,1,2,2,3,3,4,4,5,5,6,6,7,7,8,8,9,9,10,10,11,11,12,12,13,13,14,14,15,15,16,16,17,17,18,18,19,19,20,20,21,21,22,22,23,23,24,24,25,25,27,27,31,31,32,32,33,33,34,34,35,35,38,38,40,40,41,41,42,42,43,43,44,44,45,45,46,46,49,49,52,52,54,54],"right_children":[2,4,6,8,10,12,14,16,18,20,22,24,26,28,30,32,34,36,38,40,42,44,46,48,50,52,-1,54,-1,-1,-1,56,58,60,62,64,-1,-1,66,-1,68,70,72,74,76,78,80,-1,-1,82,-1,-1,84,-1,86,-1,-1,-1,-1,-1,-1,-1,-1,-1,-1,-1,-1,-1,-1,-1,-1,-1,-1,-1,-1,-1,-1,-1,-1,-1,-1,-1,-1,-1,-1,-1,-1],"split_conditions":[2.1666666E1,2.4426709E2,2.1602725E2,8.333333E0,9.565437E0,6E-1,2.6306747E2,2.3333333E0,2.4192429E1,-1.896E0,1.6363178E1,5.373333E-1,6.9999995E0,5.0666668E1,3.7666668E1,6.9E0,2.0880001E1,2.01415E1,-3.4085E0,4.8333335E0,2.7861404E2,-3.4085E0,2.752384E2,2.2E1,6.2333332E1,2.4666666E1,3.9799466E0,2.2233557E2,2.9418305E-1,2.3162746E0,-6.0581696E-1,1.2066665E-1,7.6E0,9.768213E1,1.4E0,2.1746502E1,3.6208708E0,2.57213E-1,1.8590604E2,-3.7969914E-1,1.4333333E1,1.0666667E1,9.587333E0,-9.075166E0,1.622498E1,2.730441E2,8.099999E0,-3.2373634E-1,5.705196E-1,9.587333E0,3.1551963E-1,2.4195104E0,2.5666666E1,-3.838034E-2,3.5E1,-1.8368061E-1,-8.0568963E-1,-6.3900477E-3,9.5859975E-1,-2.5144735E-1,5.4537314E-1,2.4940166E-1,-8.0501556E-1,1.060697E0,2.63902E0,-1.0462668E0,-3.1049973E-1,1.7101647E0,1.9589968E-1,3.014069E-1,4.5899678E-2,-8.796992E-1,-2.0977436E-1,8.9351755E-1,-1.9187875E-1,-7.56405E-1,6.755376E-1,-9.211224E-1,-1.8259463E-1,-1.164075E0,-2.7205467E-1,8.996202E0,3.8139446E0,-1.1740283E0,5.4130685E-1,-7.925828E-1,-1.5581697E-1],"split_indices":[0,4,4,0,3,2,4,0,3,1,3,1,2,0,0,2,3,1,1,0,4,1,4,0,0,0,0,4,0,0,0,1,2,4,2,3,0,0,4,0,0,0,1,1,3,4,2,0,0,1,0,0,0,0,0,0,0,0,0,0,0,0,0,0,0,0,0,0,0,0,0,0,0,0,0,0,0,0,0,0,0,0,0,0,0,0,0],"split_type":[0,0,0,0,0,0,0,0,0,0,0,0,0,0,0,0,0,0,0,0,0,0,0,0,0,0,0,0,0,0,0,0,0,0,0,0,0,0,0,0,0,0,0,0,0,0,0,0,0,0,0,0,0,0,0,0,0,0,0,0,0,0,0,0,0,0,0,0,0,0,0,0,0,0,0,0,0,0,0,0,0,0,0,0,0,0,0],"sum_hessian":[9.67E2,9.28E2,3.9E1,5.36E2,3.92E2,2.7E1,1.2E1,3.88E2,1.48E2,1.6E1,3.76E2,1.7E1,1E1,8E0,4E0,9.6E1,2.92E2,1.33E2,1.5E1,1E1,6E0,1.58E2,2.18E2,2E0,1.5E1,8E0,2E0,7E0,1E0,3E0,1E0,9.3E1,3E0,2.28E2,6.4E1,1.26E2,7E0,1E0,1.4E1,2E0,8E0,3E0,3E0,2.8E1,1.3E2,9.5E1,1.23E2,1E0,1E0,1.4E1,1E0,3E0,5E0,1E0,6E0,1.6E1,7.7E1,2E0,1E0,5.7E1,1.71E2,2.3E1,4.1E1,1.11E2,1.5E1,4E0,1E1,7E0,1E0,2E0,1E0,2E0,1E0,4E0,2.4E1,1.26E2,4E0,8.5E1,1E1,1.18E2,5E0,1E1,4E0,2E0,3E0,5E0,1E0],"tree_param":{"num_deleted":"0","num_feature":"5","num_nodes":"87","size_leaf_vector":"1"}},{"base_weights":[4.6424896E-2,-4.6126047E-1,6.772573E0,6.441262E-1,-1.7457958E0,1.0735686E1,7.275662E-1,-3.7772828E-1,1.9184622E0,-4.680332E-2,-2.13043E0,1.5364541E1,5.1071615E0,3.5260253E0,-1.5916548E0,-2.080981E0,1.8833619E-2,-2.0561416E-1,2.5429254E0,-1.0855321E0,1.9554447E0,-2.852431E0,-1.7388312E0,5.754486E0,2.0444965E1,-8.3301586E-1,6.1374106E0,-1.9043237E0,4.686482E0,-2.0693831E0,8.3614045E-1,-6.62422E-1,-2.2554016E0,-1.2285187E0,5.160764E-1,2.1772597E0,-1.2890532E0,1.6965533E0,4.667778E0,1.9154027E0,-1.5949086E0,1.2913069E0,6.838112E0,-2.9352741E0,-3.9312238E-1,-1.1358024E0,-2.305448E0,2.8050108E0,2.2659192E0,-4.151403E-1,2.2230547E1,8.470168E0,6.020133E-2,8.194614E-3,-8.651403E-1,-4.986292E-1,6.6932273E0,-9.9000823E-1,-8.670256E-1,-4.6502876E-1,1.1725721E-1,-7.484846E-1,-4.995866E-1,4.6107554E-1,-4.6397427E-1,4.883163E-1,-2.4018057E-1,9.0370286E-1,-7.871747E-2,1.6975505E0,-6.3516444E-1,9.239805E-1,1.249066E-1,1.9340645E0,4.105834E-3,1.2568188E-2,1.5071858E0,-6.3172626E-1,3.092914E-1,6.727079E-1,-4.4237828E-1,2.6635752E0,4.135752E-1,-9.017581E-1,-4.280723E-1,-2.3823074E-1,1.8161967E-1,-5.3808296E-1,-8.4228385E-3,-7.487228E-1,-1.9050768E-1,-2.7517593E-1,1.1894671E0,7.6315603E0,9.173246E-1,2.9188728E0,-9.964105E-1,-4.122714E-1,1.0848597E0,3.746815E-1,-4.4923937E-1,2.2233765E0,2.5005555E-1,-4.2101014E-1,5.001364E-2],"categories":[],"categories_nodes":[],"categories_segments":[],"categories_sizes":[],"default_left":[0,0,0,0,0,0,0,0,0,0,0,0,0,0,0,0,0,0,0,0,0,0,0,0,0,0,0,0,0,0,0,0,0,0,0,0,0,0,0,0,0,0,0,0,0,0,0,0,0,0,0,0,0,0,0,0,0,0,0,0,0,0,0,0,0,0,0,0,0,0,0,0,0,0,0,0,0,0,0,0,0,0,0,0,0,0,0,0,0,0,0,0,0,0,0,0,0,0,0,0,0,0,0,0,0],"id":2,"left_children":[1,3,5,7,9,11,13,15,17,19,21,23,25,27,29,31,33,35,37,39,41,43,45,47,49,-1,51,53,55,57,-1,59,61,63,65,67,69,71,73,75,77,79,81,83,85,87,89,91,-1,-1,93,95,97,-1,-1,99,101,103,-1,-1,-1,-1,-1,-1,-1,-1,-1,-1,-1,-1,-1,-1,-1,-1,-1,-1,-1,-1,-1,-1,-1,-1,-1,-1,-1,-1,-1,-1,-1,-1,-1,-1,-1,-1,-1,-1,-1,-1,-1,-1,-1,-1,-1,-1,-1],"loss_changes":[3.3086184E3,1.2804619E3,1.6212681E3,6.3228485E2,2.7240588E2,9.89729E2,1.873391E2,1.8240936E2,2.8702692E2,1.6434653E2,9.116992E1,9.564595E2,1.7948901E2,9.0846466E1,3.92376E1,1.112471E1,1.3708614E2,1.3189153E2,2.9241626E2,8.254239E1,7.872452E1,2.2887024E1,7.3577515E1,2.6557312E1,5.764414E2,0E0,2.5466986E2,5.7547617E0,1.1779462E2,1.042646E1,0E0,7.150646E0,2.2063904E0,5.7790543E1,2.3256433E2,3.3387398E1,2.1335966E2,2.1300891E2,3.890769E2,4.638069E1,6.2534843E1,6.906952E1,2.1180191E1,7.8484497E0,2.4826841E0,8.010339E1,3.4652588E1,2.522369E1,0E0,0E0,7.2179395E2,2.253703E2,3.55747E1,0E0,0E0,8.852369E0,2.7482025E1,4.0590825E0,0E0,0E0,0E0,0E0,0E0,0E0,0E0,0E0,0E0,0E0,0E0,0E0,0E0,0E0,0E0,0E0,0E0,0E0,0E0,0E0,0E0,0E0,0E0,0E0,0E0,0E0,0E0,0E0,0E0,0E0,0E0,0E0,0E0,0E0,0E0,0E0,0E0,0E0,0E0,0E0,0E0,0E0,0E0,0E0,0E0,0E0,0E0],"parents":[2147483647,0,0,1,1,2,2,3,3,4,4,5,5,6,6,7,7,8,8,9,9,10,10,11,11,12,12,13,13,14,14,15,15,16,16,17,17,18,18,19,19,20,20,21,21,22,22,23,23,24,24,26,26,27,27,28,28,29,29,31,31,32,32,33,33,34,34,35,35,36,36,37,37,38,38,39,39,40,40,41,41,42,42,43,43,44,44,45,45,46,46,47,47,50,50,51,51,52,52,55,55,56,56,57,57],"right_children":[2,4,6,8,10,12,14,16,18,20,22,24,26,28,30,32,34,36,38,40,42,44,46,48,50,-1,52,54,56,58,-1,60,62,64,66,68,70,72,74,76,78,80,82,84,86,88,90,92,-1,-1,94,96,98,-1,-1,100,102,104,-1,-1,-1,-1,-1,-1,-1,-1,-1,-1,-1,-1,-1,-1,-1,-1,-1,-1,-1,-1,-1,-1,-1,-1,-1,-1,-1,-1,-1,-1,-1,-1,-1,-1,-1,-1,-1,-1,-1,-1,-1,-1,-1,-1,-1,-1,-1],"split_conditions":[1.7333334E1,2.3700116E2,2.143514E2,4.8333335E0,1.3363711E1,6E-1,2E-1,1.6666666E0,8.905462E1,6.1666665E0,2.3333333E0,1.2859091E2,3.705662E1,1.8333334E1,5.8E0,-1.2272501E0,1.09053E2,1.1304229E1,1.1E1,-5.060583E0,1.6797749E1,1.6797749E1,1.835647E1,7.0061134E1,1.7206668E0,-8.3301586E-1,1.8184198E2,1.7666666E1,4.0956674E0,2.5988608E2,8.3614045E-1,9E-1,1.3333334E0,1.0239453E1,2.0193353E2,5.361558E1,-2.3397498E0,1.8510356E2,1.8913708E1,1E-1,1.2904882E1,5.358167E0,1.1E1,3.4661154E2,3.7999997E0,2E-1,4.3E0,1.1119281E1,2.2659192E0,-4.151403E-1,4.9333332E1,1.0500001E1,1.4399999E1,8.194614E-3,-8.651403E-1,1.9333334E1,3.7666668E1,8.000001E-1,-8.670256E-1,-4.6502876E-1,1.1725721E-1,-7.484846E-1,-4.995866E-1,4.6107554E-1,-4.6397427E-1,4.883163E-1,-2.4018057E-1,9.0370286E-1,-7.871747E-2,1.6975505E0,-6.3516444E-1,9.239805E-1,1.249066E-1,1.9340645E0,4.105834E-3,1.2568188E-2,1.5071858E0,-6.3172626E-1,3.092914E-1,6.727079E-1,-4.4237828E-1,2.6635752E0,4.135752E-1,-9.017581E-1,-4.280723E-1,-2.3823074E-1,1.8161967E-1,-5.3808296E-1,-8.4228385E-3,-7.487228E-1,-1.9050768E-1,-2.7517593E-1,1.1894671E0,7.6315603E0,9.173246E-1,2.9188728E0,-9.964105E-1,-4.122714E-1,1.0848597E0,3.746815E-1,-4.4923937E-1,2.2233765E0,2.5005555E-1,-4.2101014E-1,5.001364E-2],"split_indices":[0,4,4,0,3,2,2,0,4,0,0,4,4,0,2,1,4,3,0,1,1,1,3,4,1,0,4,0,1,4,0,2,0,3,4,4,1,4,3,2,3,1,0,4,2,2,2,3,0,0,0,2,2,0,0,0,0,2,0,0,0,0,0,0,0,0,0,0,0,0,0,0,0,0,0,0,0,0,0,0,0,0,0,0,0,0,0,0,0,0,0,0,0,0,0,0,0,0,0,0,0,0,0,0,0],"split_type":[0,0,0,0,0,0,0,0,0,0,0,0,0,0,0,0,0,0,0,0,0,0,0,0,0,0,0,0,0,0,0,0,0,0,0,0,0,0,0,0,0,0,0,0,0,0,0,0,0,0,0,0,0,0,0,0,0,0,0,0,0,0,0,0,0,0,0,0,0,0,0,0,0,0,0,0,0,0,0,0,0,0,0,0,0,0,0,0,0,0,0,0,0,0,0,0,0,0,0,0,0,0,0,0,0],"sum_hessian":[9.67E2,9E2,6.7E1,4.84E2,4.16E2,4E1,2.7E1,2.69E2,2.15E2,7.7E1,3.39E2,2.1E1,1.9E1,1.2E1,1.5E1,5E1,2.19E2,4.9E1,1.66E2,5.1E1,2.6E1,1.17E2,2.22E2,8E0,1.3E1,2E0,1.7E1,2E0,1E1,1.4E1,1E0,6E0,4.4E1,6.2E1,1.57E2,1.5E1,3.4E1,1.2E2,4.6E1,7E0,4.4E1,2.4E1,2E0,1.13E2,4E0,1.09E2,1.13E2,4E0,4E0,1E0,1.2E1,1.2E1,5E0,1E0,1E0,3E0,7E0,7E0,7E0,3E0,3E0,2.9E1,1.5E1,6E0,5.6E1,8.5E1,7.2E1,1.1E1,4E0,3E0,3.1E1,5.7E1,6.3E1,3.3E1,1.3E1,5E0,2E0,3.7E1,7E0,1.8E1,6E0,1E0,1E0,1.07E2,6E0,3E0,1E0,6.8E1,4.1E1,1.01E2,1.2E1,1E0,3E0,1E1,2E0,1.1E1,1E0,4E0,1E0,1E0,2E0,6E0,1E0,5E0,2E0],"tree_param":{"num_deleted":"0","num_feature":"5","num_nodes":"105","size_leaf_vector":"1"}},{"base_weights":[5.2510317E-2,-3.1715932E-1,4.9498606E0,3.531498E-1,-1.4189959E0,7.833907E0,5.500123E-1,1.03433635E-2,2.47578E0,1.5339155E0,-1.5690897E0,1.1616628E1,3.6781433E0,2.8016448E0,-1.0717291E0,-1.0725832E-1,3.6945064E0,4.3298464E0,-9.896897E-1,2.9460402E0,-4.229796E-1,1.863956E0,-1.6285559E0,4.381497E0,1.5731977E1,8.874817E-1,5.6971827E0,-1.6186752E0,3.8475764E0,-1.4348451E0,7.1071935E-1,-1.1941152E0,2.0867069E-1,-5.72968E-1,5.2984033E0,6.0910445E-1,6.914062E0,-1.4841009E0,1.853912E0,1.1013395E0,3.992284E0,-1.2496603E0,7.161161E-1,1.1681143E0,-1.2435174E-1,-1.1637317E0,-1.8345499E0,2.2646399E0,3.041984E0,-3.5286927E-1,1.7239014E1,-1.982542E0,8.245051E0,2.1201537E0,1.02809925E1,6.9654468E-3,-7.353693E-1,-3.6767995E-1,5.7066407E0,-6.5622455E-1,-6.394313E-1,-1.2421637E-1,-4.6232203E-1,-1.5536666E-1,1.8528992E-1,-3.1817454E-1,3.1690553E-2,2.0467515E-1,1.8745228E0,1.0589833E0,-3.9362574E-1,2.649757E0,8.392206E-1,-1.0098027E0,-2.3583807E-1,-5.806053E-2,4.4203258E-1,1.4109789E0,6.560855E-2,-5.774141E-1,-4.7416072E-2,-8.354924E-2,3.4214592E-1,-4.277005E-1,2.3539296E-1,-4.0295044E-1,2.4592437E-1,-6.2333316E-1,-4.224135E-1,1.5973972E-1,1.3323607E0,5.9858875E0,7.338598E-1,2.7932826E-1,-7.595368E-1,6.3787025E-1,3.072403E0,-8.1469387E-1,1.2554085E0,3.9738286E0,1.1666679E0,3.184793E-1,-3.593915E-1,1.9264752E0,2.1254726E-1,-2.7026275E-1,4.001093E-2],"categories":[],"categories_nodes":[],"categories_segments":[],"categories_sizes":[],"default_left":[0,0,0,0,0,0,0,0,0,0,0,0,0,0,0,0,0,0,0,0,0,0,0,0,0,0,0,0,0,0,0,0,0,0,0,0,0,0,0,0,0,0,0,0,0,0,0,0,0,0,0,0,0,0,0,0,0,0,0,0,0,0,0,0,0,0,0,0,0,0,0,0,0,0,0,0,0,0,0,0,0,0,0,0,0,0,0,0,0,0,0,0,0,0,0,0,0,0,0,0,0,0,0,0,0,0,0],"id":3,"left_children":[1,3,5,7,9,11,13,15,17,19,21,23,25,27,29,31,33,35,37,39,41,43,45,47,49,51,53,55,57,59,-1,61,63,65,67,69,71,73,-1,75,77,79,81,-1,83,85,87,-1,89,-1,91,93,95,97,99,-1,-1,101,103,105,-1,-1,-1,-1,-1,-1,-1,-1,-1,-1,-1,-1,-1,-1,-1,-1,-1,-1,-1,-1,-1,-1,-1,-1,-1,-1,-1,-1,-1,-1,-1,-1,-1,-1,-1,-1,-1,-1,-1,-1,-1,-1,-1,-1,-1,-1,-1],"loss_changes":[1.7540388E3,6.659537E2,8.5856824E2,4.081868E2,1.5354279E2,6.0179614E2,1.0524643E2,2.1009593E2,5.0545157E2,4.822357E1,6.938434E1,5.563474E2,1.13267426E2,6.1708214E1,2.4639168E1,1.6163287E2,1.05704636E2,4.8616382E2,1.08420944E2,1.4903206E1,8.428248E0,2.4698896E1,2.8505432E1,1.5220444E1,3.5153394E2,2.2751016E2,1.7495975E2,4.157817E0,8.046254E1,7.2794E0,0E0,2.805066E1,1.08774315E2,1.7665161E0,4.3976135E1,1.2808434E2,2.1222144E2,3.281901E1,0E0,2.6942925E0,1.5069084E1,3.3802557E0,2.0059602E0,0E0,5.850201E0,3.7047806E1,1.9896667E1,0E0,2.572612E1,0E0,4.3295337E2,1.5159786E1,1.4869324E1,9.1233795E1,4.325348E1,0E0,0E0,6.018633E0,2.0464111E1,1.8587265E0,0E0,0E0,0E0,0E0,0E0,0E0,0E0,0E0,0E0,0E0,0E0,0E0,0E0,0E0,0E0,0E0,0E0,0E0,0E0,0E0,0E0,0E0,0E0,0E0,0E0,0E0,0E0,0E0,0E0,0E0,0E0,0E0,0E0,0E0,0E0,0E0,0E0,0E0,0E0,0E0,0E0,0E0,0E0,0E0,0E0,0E0,0E0],"parents":[2147483647,0,0,1,1,2,2,3,3,4,4,5,5,6,6,7,7,8,8,9,9,10,10,11,11,12,12,13,13,14,14,15,15,16,16,17,17,18,18,19,19,20,20,21,21,22,22,23,23,24,24,25,25,26,26,27,27,28,28,29,29,31,31,32,32,33,33,34,34,35,35,36,36,37,37,39,39,40,40,41,41,42,42,44,44,45,45,46,46,48,48,50,50,51,51,52,52,53,53,54,54,57,57,58,58,59,59],"right_children":[2,4,6,8,10,12,14,16,18,20,22,24,26,28,30,32,34,36,38,40,42,44,46,48,50,52,54,56,58,60,-1,62,64,66,68,70,72,74,-1,76,78,80,82,-1,84,86,88,-1,90,-1,92,94,96,98,100,-1,-1,102,104,106,-1,-1,-1,-1,-1,-1,-1,-1,-1,-1,-1,-1,-1,-1,-1,-1,-1,-1,-1,-1,-1,-1,-1,-1,-1,-1,-1,-1,-1,-1,-1,-1,-1,-1,-1,-1,-1,-1,-1,-1,-1,-1,-1,-1,-1,-1,-1],"split_conditions":[1.7333334E1,2.5448679E2,2.143514E2,1.0666667E1,1.0086427E1,4E-1,1E-1,1.9843584E1,1.8218275E1,-1.896E0,-9.075166E0,1.2859091E2,1.3616497E1,1.8333334E1,5.8E0,2.3333333E0,1.4019216E1,1.2245294E1,1.4903999E1,2.870977E2,9.587333E0,1.3276144E1,1.5021105E1,1.7666666E1,1.7206668E0,3E1,5.8000007E0,1.7666666E1,4.0956674E0,2.5988608E2,7.1071935E-1,1.477755E1,1.5238425E2,2.1018583E1,3.6666667E0,9.768213E1,8.301917E0,8.444011E1,1.853912E0,4.8333335E0,1.4333333E1,6.1666665E0,1.8333334E0,1.1681143E0,1E0,1.477755E1,4E-1,2.2646399E0,2.2E1,-3.5286927E-1,4.9333332E1,5.373333E-1,4.8166668E1,1.6637335E1,7.900001E0,6.9654468E-3,-7.353693E-1,1.9333334E1,3.7666668E1,8.000001E-1,-6.394313E-1,-1.2421637E-1,-4.6232203E-1,-1.5536666E-1,1.8528992E-1,-3.1817454E-1,3.1690553E-2,2.0467515E-1,1.8745228E0,1.0589833E0,-3.9362574E-1,2.649757E0,8.392206E-1,-1.0098027E0,-2.3583807E-1,-5.806053E-2,4.4203258E-1,1.4109789E0,6.560855E-2,-5.774141E-1,-4.7416072E-2,-8.354924E-2,3.4214592E-1,-4.277005E-1,2.3539296E-1,-4.0295044E-1,2.4592437E-1,-6.2333316E-1,-4.224135E-1,1.5973972E-1,1.3323607E0,5.9858875E0,7.338598E-1,2.7932826E-1,-7.595368E-1,6.3787025E-1,3.072403E0,-8.1469387E-1,1.2554085E0,3.9738286E0,1.1666679E0,3.184793E-1,-3.593915E-1,1.9264752E0,2.1254726E-1,-2.7026275E-1,4.001093E-2],"split_indices":[0,4,4,0,3,2,2,1,3,1,1,4,1,0,2,0,3,3,1,4,1,3,3,0,1,0,2,0,1,4,0,3,4,1,0,4,1,4,0,0,0,0,0,0,0,3,2,0,0,0,0,1,0,1,2,0,0,0,0,2,0,0,0,0,0,0,0,0,0,0,0,0,0,0,0,0,0,0,0,0,0,0,0,0,0,0,0,0,0,0,0,0,0,0,0,0,0,0,0,0,0,0,0,0,0,0,0],"split_type":[0,0,0,0,0,0,0,0,0,0,0,0,0,0,0,0,0,0,0,0,0,0,0,0,0,0,0,0,0,0,0,0,0,0,0,0,0,0,0,0,0,0,0,0,0,0,0,0,0,0,0,0,0,0,0,0,0,0,0,0,0,0,0,0,0,0,0,0,0,0,0,0,0,0,0,0,0,0,0,0,0,0,0,0,0,0,0,0,0,0,0,0,0,0,0,0,0,0,0,0,0,0,0,0,0,0,0],"sum_hessian":[9.67E2,9E2,6.7E1,5.6E2,3.4E2,4E1,2.7E1,4.83E2,7.7E1,1.6E1,3.24E2,2E1,2E1,1.1E1,1.6E1,4.69E2,1.4E1,5E1,2.7E1,9E0,7E0,5E0,3.19E2,8E0,1.2E1,9E0,1.1E1,2E0,9E0,1.5E1,1E0,1.05E2,3.64E2,4E0,1E1,2.1E1,2.9E1,2.6E1,1E0,4E0,5E0,4E0,3E0,2E0,3E0,1E2,2.19E2,1E0,7E0,1E0,1.1E1,7E0,2E0,7E0,4E0,1E0,1E0,3E0,6E0,8E0,7E0,3.3E1,7.2E1,1.31E2,2.33E2,2E0,2E0,2E0,8E0,8E0,1.3E1,1.9E1,1E1,6E0,2E1,1E0,3E0,4E0,1E0,2E0,2E0,1E0,2E0,1E0,2E0,9.2E1,8E0,1.37E2,8.2E1,3E0,4E0,9E0,2E0,1E0,6E0,1E0,1E0,2E0,5E0,2E0,2E0,1E0,2E0,5E0,1E0,6E0,2E0],"tree_param":{"num_deleted":"0","num_feature":"5","num_nodes":"107","size_leaf_vector":"1"}},{"base_weights":[6.507506E-2,-2.1394709E-1,3.7611616E0,5.3861225E-1,-7.9720384E-1,5.945561E0,4.2824936E-1,4.2138106E-1,5.506683E0,-9.7893333E-1,7.487985E-1,8.866164E0,2.741836E0,2.0752935E0,-7.595611E-1,3.2097214E-1,5.12558E0,4.160717E0,-9.860132E-1,-5.994589E-1,-1.4863734E0,2.792824E0,-5.357113E-1,2.5204816E0,1.1858971E1,-5.43094E-1,4.0920143E0,-1.3758739E0,2.9031143E0,-1.0587468E0,6.0411143E-1,-5.662367E-1,7.2921866E-1,-1.005764E-2,1.7602154E0,3.6785018E-1,-1.6736827E0,8.288533E-3,-9.686324E-1,-1.5078816E0,3.9970604E-1,5.3233476E0,8.407246E-3,9.8419434E-1,-1.3054137E0,1.9249438E0,1.0472708E0,1.423092E1,2.3713686E0,-2.2573657E0,2.4950569E0,1.8414768E0,8.224793E0,5.920601E-3,-6.250639E-1,4.7011247E0,1.6487923E-1,-4.8494074E-1,-1.5719353E0,3.6047697E-1,-2.993399E-1,4.1273364E-1,-1.2247088E-1,-7.8895134E-1,-4.7890045E-2,-4.3608002E-2,2.2829244E0,-5.606342E-1,-1.952417E-1,-7.867752E-1,-4.2979136E-1,-6.468031E-1,2.5192823E0,7.2112525E-1,-7.1650124E-1,-6.323635E-2,2.1193497E0,-4.5763358E-1,5.302919E-1,7.1000236E-1,-1.6018517E-1,5.7445997E-1,4.5813117E0,9.3487155E-1,2.0513965E-2,-2.0459476E-1,-7.442148E-1,1.0759764E-1,1.015178E0,-6.51755E-1,8.9245987E-1,3.1790626E0,9.333343E-1,2.7070743E-1,1.5841218E0,-2.8751317E-1,3.6995277E-1,-2.0573047E-1,4.359107E-2,-5.104193E-1,-9.985478E-2],"categories":[],"categories_nodes":[],"categories_segments":[],"categories_sizes":[],"default_left":[0,0,0,0,0,0,0,0,0,0,0,0,0,0,0,0,0,0,0,0,0,0,0,0,0,0,0,0,0,0,0,0,0,0,0,0,0,0,0,0,0,0,0,0,0,0,0,0,0,0,0,0,0,0,0,0,0,0,0,0,0,0,0,0,0,0,0,0,0,0,0,0,0,0,0,0,0,0,0,0,0,0,0,0,0,0,0,0,0,0,0,0,0,0,0,0,0,0,0,0,0],"id":4,"left_children":[1,3,5,7,9,11,13,15,17,19,21,23,25,27,29,31,33,-1,35,37,39,41,43,45,47,49,51,53,55,57,-1,59,61,-1,-1,-1,63,65,67,69,-1,71,73,75,77,-1,79,81,83,85,87,89,91,-1,-1,93,95,97,99,-1,-1,-1,-1,-1,-1,-1,-1,-1,-1,-1,-1,-1,-1,-1,-1,-1,-1,-1,-1,-1,-1,-1,-1,-1,-1,-1,-1,-1,-1,-1,-1,-1,-1,-1,-1,-1,-1,-1,-1,-1,-1],"loss_changes":[9.9909344E2,3.9591013E2,4.925218E2,2.2715028E2,1.4345776E2,3.593197E2,5.6354843E1,1.8067938E2,5.0232416E2,8.672403E1,1.4327696E2,3.6892908E2,9.53624E1,3.8277695E1,1.6237267E1,1.3768666E2,3.081308E1,0E0,1.11797085E1,5.8791466E1,1.3770416E1,1.479219E2,4.106053E1,3.9197212E1,2.813109E2,4.208976E1,1.2436882E2,3.0040216E0,4.845864E1,3.949234E0,0E0,9.275034E1,1.9177425E2,0E0,0E0,0E0,6.8185186E0,1.17901474E2,4.5416626E1,1.2430542E1,0E0,2.7103375E2,6.889226E1,8.867938E1,1.8248314E1,0E0,1.5867571E1,1.1166968E2,6.648617E0,6.750679E-2,4.483265E0,5.650654E1,2.7682251E1,0E0,0E0,8.438507E0,7.1817036E0,1.2387781E0,7.170105E-1,0E0,0E0,0E0,0E0,0E0,0E0,0E0,0E0,0E0,0E0,0E0,0E0,0E0,0E0,0E0,0E0,0E0,0E0,0E0,0E0,0E0,0E0,0E0,0E0,0E0,0E0,0E0,0E0,0E0,0E0,0E0,0E0,0E0,0E0,0E0,0E0,0E0,0E0,0E0,0E0,0E0,0E0],"parents":[2147483647,0,0,1,1,2,2,3,3,4,4,5,5,6,6,7,7,8,8,9,9,10,10,11,11,12,12,13,13,14,14,15,15,16,16,18,18,19,19,20,20,21,21,22,22,23,23,24,24,25,25,26,26,27,27,28,28,29,29,31,31,32,32,36,36,37,37,38,38,39,39,41,41,42,42,43,43,44,44,46,46,47,47,48,48,49,49,50,50,51,51,52,52,55,55,56,56,57,57,58,58],"right_children":[2,4,6,8,10,12,14,16,18,20,22,24,26,28,30,32,34,-1,36,38,40,42,44,46,48,50,52,54,56,58,-1,60,62,-1,-1,-1,64,66,68,70,-1,72,74,76,78,-1,80,82,84,86,88,90,92,-1,-1,94,96,98,100,-1,-1,-1,-1,-1,-1,-1,-1,-1,-1,-1,-1,-1,-1,-1,-1,-1,-1,-1,-1,-1,-1,-1,-1,-1,-1,-1,-1,-1,-1,-1,-1,-1,-1,-1,-1,-1,-1,-1,-1,-1,-1],"split_conditions":[1.7333334E1,2.1507642E2,2.143514E2,2.1326042E2,1E1,8.301917E0,1E-1,2.1389418E1,4.7769165E0,1.8416384E1,2.5258282E2,1.7206668E0,1.3616497E1,1.8333334E1,5.8E0,8.905462E1,3.6666667E0,4.160717E0,2.1409769E2,2.4706666E0,1.79E1,1.7709658E1,1.3830749E1,1.7666666E1,2.0929594E1,2.9333334E1,5.8000007E0,1.7666666E1,3.0666666E1,2.5988608E2,6.0411143E-1,1.0594036E1,1.2218583E1,-1.005764E-2,1.7602154E0,3.6785018E-1,2.143514E2,2.4144166E0,6.531084E0,2.1957893E2,3.9970604E-1,2.2376671E2,2.6123335E0,1.354911E1,3.378087E2,1.9249438E0,6.1136833E1,8.905462E1,6.2333332E1,1.7666666E1,3E1,1.6637335E1,7.900001E0,5.920601E-3,-6.250639E-1,1.9333334E1,3.5E1,2.4871432E2,1.0337335E1,3.6047697E-1,-2.993399E-1,4.1273364E-1,-1.2247088E-1,-7.8895134E-1,-4.7890045E-2,-4.3608002E-2,2.2829244E0,-5.606342E-1,-1.952417E-1,-7.867752E-1,-4.2979136E-1,-6.468031E-1,2.5192823E0,7.2112525E-1,-7.1650124E-1,-6.323635E-2,2.1193497E0,-4.5763358E-1,5.302919E-1,7.1000236E-1,-1.6018517E-1,5.7445997E-1,4.5813117E0,9.3487155E-1,2.0513965E-2,-2.0459476E-1,-7.442148E-1,1.0759764E-1,1.015178E0,-6.51755E-1,8.9245987E-1,3.1790626E0,9.333343E-1,2.7070743E-1,1.5841218E0,-2.8751317E-1,3.6995277E-1,-2.0573047E-1,4.359107E-2,-5.104193E-1,-9.985478E-2],"split_indices":[0,4,4,4,0,1,2,1,1,3,4,1,1,0,2,4,0,0,4,1,2,3,3,0,3,0,2,0,0,4,0,3,1,0,0,0,4,1,1,4,0,4,1,3,4,0,4,4,0,0,0,1,2,0,0,0,0,4,1,0,0,0,0,0,0,0,0,0,0,0,0,0,0,0,0,0,0,0,0,0,0,0,0,0,0,0,0,0,0,0,0,0,0,0,0,0,0,0,0,0,0],"split_type":[0,0,0,0,0,0,0,0,0,0,0,0,0,0,0,0,0,0,0,0,0,0,0,0,0,0,0,0,0,0,0,0,0,0,0,0,0,0,0,0,0,0,0,0,0,0,0,0,0,0,0,0,0,0,0,0,0,0,0,0,0,0,0,0,0,0,0,0,0,0,0,0,0,0,0,0,0,0,0,0,0,0,0,0,0,0,0,0,0,0,0,0,0,0,0,0,0,0,0,0,0],"sum_hessian":[9.67E2,9E2,6.7E1,3.93E2,5.07E2,4E1,2.7E1,3.85E2,8E0,4.54E2,5.3E1,2E1,2E1,1.1E1,1.6E1,3.78E2,7E0,3E0,5E0,2.61E2,1.93E2,2E1,3.3E1,7E0,1.3E1,6E0,1.4E1,2E0,9E0,1.5E1,1E0,1.19E2,2.59E2,1E0,6E0,1E0,4E0,9.9E1,1.62E2,1.92E2,1E0,1E1,1E1,1.1E1,2.2E1,1E0,6E0,1E1,3E0,4E0,2E0,1E1,4E0,1E0,1E0,5E0,4E0,8E0,7E0,2.3E1,9.6E1,1.65E2,9.4E1,2E0,2E0,9.8E1,1E0,4.1E1,1.21E2,1E1,1.82E2,3E0,7E0,5E0,5E0,1E1,1E0,2.1E1,1E0,3E0,3E0,1E0,9E0,2E0,1E0,1E0,3E0,1E0,1E0,2E0,8E0,2E0,2E0,1E0,4E0,2E0,2E0,6E0,2E0,6E0,1E0],"tree_param":{"num_deleted":"0","num_feature":"5","num_nodes":"101","size_leaf_vector":"1"}},{"base_weights":[7.1098566E-2,-2.662586E-1,1.8287926E0,-3.7343857E-1,1.528969E0,3.4736774E0,1.815798E-1,1.21517E-1,-7.1053416E-1,5.7182813E0,3.55399E-1,6.759E-1,5.405264E0,-2.8779333E0,6.160591E-1,-1.5177417E-1,2.4366689E0,-5.502832E-1,-1.6515621E0,2.3165061E0,6.5116155E-1,3.9296526E-2,1.7602633E0,-6.17177E-2,1.8117174E0,8.669245E0,2.31675E0,-3.64743E0,6.071304E-1,3.4221978E0,-8.3976E-2,1.0933826E0,-5.2577144E-1,5.276312E0,-5.463076E-1,-7.0850885E-1,1.2518959E0,-2.2976365E0,-1.174173E0,-5.1159424E-1,3.5571382E0,1.5949408E0,-1.2547646E0,1.012605E1,1.6908963E0,4.3019476E0,4.496699E-1,-1.4189714E0,9.41542E-2,1.1119107E1,3.1221268E-1,3.0622663E0,-3.1547588E-1,8.379984E-2,1.0706856E0,-3.7815562E-1,-4.9458507E-2,1.9595945E-1,2.5341516E0,-2.711689E-1,-9.310024E-3,-1.3303778E-1,-4.577177E-1,-2.4378033E-1,3.1000452E0,-7.87251E-1,-2.9694065E-1,-4.7480115E-1,-1.7609166E-1,-4.317805E-1,2.351803E-1,1.2158165E0,2.3622079E-1,-3.3807058E-2,2.1973822E0,-6.687865E-1,3.1974933E-1,3.686722E0,6.133128E-1,-4.9540862E-1,1.3408568E0,1.6617161E0,6.4250004E-1,4.719216E-1,-8.2563096E-1,-1.6895564E-1,2.1132503E-1,-2.759112E-1,4.631584E0,-1.6056931E0,4.241688E-1,1.203113E0,3.269048E-2,-3.1856093E-1,8.176623E-2],"categories":[],"categories_nodes":[],"categories_segments":[],"categories_sizes":[],"default_left":[0,0,0,0,0,0,0,0,0,0,0,0,0,0,0,0,0,0,0,0,0,0,0,0,0,0,0,0,0,0,0,0,0,0,0,0,0,0,0,0,0,0,0,0,0,0,0,0,0,0,0,0,0,0,0,0,0,0,0,0,0,0,0,0,0,0,0,0,0,0,0,0,0,0,0,0,0,0,0,0,0,0,0,0,0,0,0,0,0,0,0,0,0,0,0],"id":5,"left_children":[1,3,5,7,9,11,13,15,17,19,21,23,25,27,29,31,33,35,37,-1,-1,39,-1,41,-1,43,45,47,-1,49,51,53,55,57,59,61,63,65,67,69,71,73,75,77,79,81,83,-1,85,87,89,91,93,-1,-1,-1,-1,-1,-1,-1,-1,-1,-1,-1,-1,-1,-1,-1,-1,-1,-1,-1,-1,-1,-1,-1,-1,-1,-1,-1,-1,-1,-1,-1,-1,-1,-1,-1,-1,-1,-1,-1,-1,-1,-1],"loss_changes":[5.7448254E2,1.5700229E2,4.2204736E2,1.2822511E2,2.2412447E2,4.1787036E2,1.06787285E2,1.977755E2,6.8007065E1,5.431546E1,6.423833E1,1.309194E2,4.4363464E2,4.5099976E1,1.3779507E2,1.3096675E2,2.8241187E2,1.1266614E2,1.7658478E1,0E0,0E0,7.1585884E1,0E0,6.129541E1,0E0,2.0653198E2,9.072861E1,3.6896873E1,0E0,3.3165033E2,4.2482292E1,1.2999347E2,5.707052E1,2.4368942E2,3.1043043E0,7.751709E1,6.083621E2,8.932983E0,8.665817E0,3.9586792E1,3.6720467E0,1.2801945E2,4.308261E1,2.8953198E2,5.3815235E1,2.0207153E1,5.468555E1,0E0,1.6001667E0,2.2220575E2,7.621323E1,1.0763203E1,2.3990124E1,0E0,0E0,0E0,0E0,0E0,0E0,0E0,0E0,0E0,0E0,0E0,0E0,0E0,0E0,0E0,0E0,0E0,0E0,0E0,0E0,0E0,0E0,0E0,0E0,0E0,0E0,0E0,0E0,0E0,0E0,0E0,0E0,0E0,0E0,0E0,0E0,0E0,0E0,0E0,0E0,0E0,0E0],"parents":[2147483647,0,0,1,1,2,2,3,3,4,4,5,5,6,6,7,7,8,8,9,9,10,10,11,11,12,12,13,13,14,14,15,15,16,16,17,17,18,18,21,21,23,23,25,25,26,26,27,27,29,29,30,30,31,31,32,32,33,33,34,34,35,35,36,36,37,37,38,38,39,39,40,40,41,41,42,42,43,43,44,44,45,45,46,46,48,48,49,49,50,50,51,51,52,52],"right_children":[2,4,6,8,10,12,14,16,18,20,22,24,26,28,30,32,34,36,38,-1,-1,40,-1,42,-1,44,46,48,-1,50,52,54,56,58,60,62,64,66,68,70,72,74,76,78,80,82,84,-1,86,88,90,92,94,-1,-1,-1,-1,-1,-1,-1,-1,-1,-1,-1,-1,-1,-1,-1,-1,-1,-1,-1,-1,-1,-1,-1,-1,-1,-1,-1,-1,-1,-1,-1,-1,-1,-1,-1,-1,-1,-1,-1,-1,-1,-1],"split_conditions":[1.1333333E1,1.8576918E1,2.0193353E2,3.2706668E0,1.4727365E2,1.1684467E2,2.1124214E2,2.2560835E0,2.3588242E1,6.6666665E0,8.833333E0,1.7833166E1,5E-1,3.7999997E0,2.282045E2,1.3608762E1,2.361312E2,2.1746502E1,2.282045E2,2.3165061E0,6.5116155E-1,3.7E0,1.7602633E0,1.3708391E1,1.8117174E0,1.8576918E1,1.6512428E2,2.1261345E1,6.071304E-1,4.6540008E0,1.1666667E1,7E-1,2.3333333E0,1.6188174E2,2.2007162E1,1.835647E1,7.8333335E0,1.5914416E1,8.985251E0,1.9843584E1,6.2000003E0,1.2413476E1,1.9E1,2.095203E1,1.9531084E1,1.1831082E1,1.3699833E1,-1.4189714E0,1.4E1,1.7206668E0,5.358167E0,5.4685836E0,2.6939374E2,8.379984E-2,1.0706856E0,-3.7815562E-1,-4.9458507E-2,1.9595945E-1,2.5341516E0,-2.711689E-1,-9.310024E-3,-1.3303778E-1,-4.577177E-1,-2.4378033E-1,3.1000452E0,-7.87251E-1,-2.9694065E-1,-4.7480115E-1,-1.7609166E-1,-4.317805E-1,2.351803E-1,1.2158165E0,2.3622079E-1,-3.3807058E-2,2.1973822E0,-6.687865E-1,3.1974933E-1,3.686722E0,6.133128E-1,-4.9540862E-1,1.3408568E0,1.6617161E0,6.4250004E-1,4.719216E-1,-8.2563096E-1,-1.6895564E-1,2.1132503E-1,-2.759112E-1,4.631584E0,-1.6056931E0,4.241688E-1,1.203113E0,3.269048E-2,-3.1856093E-1,8.176623E-2],"split_indices":[0,1,4,1,4,4,4,1,3,0,0,1,2,2,4,3,4,3,4,0,0,2,0,3,0,1,4,3,0,1,0,2,0,4,3,3,0,1,1,1,2,3,0,3,1,1,1,0,0,1,1,1,4,0,0,0,0,0,0,0,0,0,0,0,0,0,0,0,0,0,0,0,0,0,0,0,0,0,0,0,0,0,0,0,0,0,0,0,0,0,0,0,0,0,0],"split_type":[0,0,0,0,0,0,0,0,0,0,0,0,0,0,0,0,0,0,0,0,0,0,0,0,0,0,0,0,0,0,0,0,0,0,0,0,0,0,0,0,0,0,0,0,0,0,0,0,0,0,0,0,0,0,0,0,0,0,0,0,0,0,0,0,0,0,0,0,0,0,0,0,0,0,0,0,0,0,0,0,0,0,0,0,0,0,0,0,0,0,0,0,0,0,0],"sum_hessian":[9.67E2,8.12E2,1.55E2,7.67E2,4.5E1,7.7E1,7.8E1,3.11E2,4.56E2,9E0,3.6E1,3.2E1,4.5E1,9E0,6.9E1,2.79E2,3.2E1,3.91E2,6.5E1,5E0,4E0,3.5E1,1E0,2.9E1,3E0,2.1E1,2.4E1,8E0,1E0,1.3E1,5.6E1,6.4E1,2.15E2,1.6E1,1.6E1,3.6E2,3.1E1,2.6E1,3.9E1,3.1E1,4E0,1.2E1,1.7E1,1.7E1,4E0,1.1E1,1.3E1,6E0,2E0,3E0,1E1,3E0,5.3E1,4.9E1,1.5E1,7E1,1.45E2,7E0,9E0,9E0,7E0,2.73E2,8.7E1,2.6E1,5E0,2E1,6E0,2.2E1,1.7E1,1.8E1,1.3E1,3E0,1E0,1E1,2E0,1.2E1,5E0,1.3E1,4E0,2E0,2E0,6E0,5E0,1E1,3E0,1E0,1E0,1E0,2E0,1E0,9E0,2E0,1E0,2.3E1,3E1],"tree_param":{"num_deleted":"0","num_feature":"5","num_nodes":"95","size_leaf_vector":"1"}},{"base_weights":[7.4372515E-2,-6.845319E-2,2.4016135E0,4.5733055E-1,-4.007014E-1,3.3937485E0,2.909429E-1,1.5419708E-1,2.0341103E0,-7.127773E-1,-9.272324E-2,5.307379E0,1.7607728E0,-3.4354392E-1,1.2063053E0,-4.1293475E-1,1.07319E0,5.667645E0,-7.802072E-1,-1.9216597E0,-5.8042574E-1,4.340406E-1,-5.693702E-1,1.963377E-1,6.864904E0,-6.2912285E-1,2.6963038E0,3.8372904E-2,-8.8590205E-1,1.5926136E0,-2.2467789E-1,8.525129E-1,-1.0577337E0,1.1920759E-1,2.025081E0,-2.2394605E0,8.282492E0,-1.1979499E0,3.7965364E0,-5.218134E-1,-2.3855152E0,-6.7884934E-1,1.141265E0,1.3494233E0,-4.8772505E-1,4.3166864E-1,-8.1488514E-1,2.8253996E-1,-6.145703E-1,8.775359E0,2.0531032E0,-1.5905371E0,7.7090436E-1,6.060465E0,1.0698781E0,-4.7318918E-1,4.39948E-1,-3.1366706E-1,-3.7092447E-2,3.4992773E-2,6.625991E-1,3.0650353E-2,2.0522034E0,-1.4301307E-1,-8.773839E-1,-4.214242E-2,8.6998063E-1,2.0874982E0,3.9247844E-1,-8.733919E-1,-3.0232492E-1,3.952614E0,7.6840633E-1,1.8239342E-1,-6.2606007E-1,2.3876138E-1,1.4696801E0,-6.754022E-1,1.4064605E-2,-1.5218517E-1,-8.470104E-1,-2.1452543E-1,4.8862475E-1,-4.4661924E-1,5.110976E-1,1.7616443E-1,5.300462E0,-2.3215063E-1,1.2850502E0,-4.137934E-1,3.1284195E-1,-2.8371245E-1,2.7110323E-1,-2.2876154E-1,-4.7795106E-2,1.4884315E0,3.6907206E0,-3.497246E-1,1.3762763E0,-1.438753E-1,-7.6248854E-1,1.1880971E-2,2.266734E0,-4.7081587E-1,5.2640086E-1,-4.5948746E-3,-1.8621242E-1,9.12695E-3,1.6041702E-1,2.1783644E-1,-2.0208968E-1],"categories":[],"categories_nodes":[],"categories_segments":[],"categories_sizes":[],"default_left":[0,0,0,0,0,0,0,0,0,0,0,0,0,0,0,0,0,0,0,0,0,0,0,0,0,0,0,0,0,0,0,0,0,0,0,0,0,0,0,0,0,0,0,0,0,0,0,0,0,0,0,0,0,0,0,0,0,0,0,0,0,0,0,0,0,0,0,0,0,0,0,0,0,0,0,0,0,0,0,0,0,0,0,0,0,0,0,0,0,0,0,0,0,0,0,0,0,0,0,0,0,0,0,0,0,0,0,0,0,0,0],"id":6,"left_children":[1,3,5,7,9,11,13,15,17,19,21,23,25,27,29,31,33,35,37,39,41,43,45,47,49,51,53,55,57,59,-1,61,63,65,67,69,71,73,75,77,79,81,83,85,87,89,91,-1,93,95,97,99,-1,101,103,105,107,-1,-1,109,-1,-1,-1,-1,-1,-1,-1,-1,-1,-1,-1,-1,-1,-1,-1,-1,-1,-1,-1,-1,-1,-1,-1,-1,-1,-1,-1,-1,-1,-1,-1,-1,-1,-1,-1,-1,-1,-1,-1,-1,-1,-1,-1,-1,-1,-1,-1,-1,-1,-1,-1],"loss_changes":[3.2191776E2,1.5967587E2,1.1628052E2,1.6888937E2,5.375695E1,1.0940155E2,1.1449342E1,1.5575781E2,5.872994E2,4.3363937E1,7.130289E1,1.3398193E2,5.0884384E1,2.5196228E0,7.235327E0,1.518542E2,1.0328055E2,5.3544507E2,6.76408E1,1.6287025E1,4.3477425E1,1.1456688E2,3.697149E1,3.6013079E0,1.0148877E2,2.5614803E1,8.1060974E1,1.8516233E0,4.7921848E-1,6.639717E0,0E0,2.8237207E2,1.3202396E2,4.22895E1,1.924628E2,2.8587685E0,4.9811816E2,5.103369E1,6.024849E0,7.9741416E0,1.5015518E1,2.114907E1,2.3243584E1,8.3543036E2,9.614133E1,3.4641106E1,2.7833916E1,0E0,8.060372E-2,6.0029175E1,4.613862E1,5.12078E0,0E0,4.4716187E1,2.4441902E1,2.6067275E-1,1.7779636E-1,0E0,0E0,1.958392E0,0E0,0E0,0E0,0E0,0E0,0E0,0E0,0E0,0E0,0E0,0E0,0E0,0E0,0E0,0E0,0E0,0E0,0E0,0E0,0E0,0E0,0E0,0E0,0E0,0E0,0E0,0E0,0E0,0E0,0E0,0E0,0E0,0E0,0E0,0E0,0E0,0E0,0E0,0E0,0E0,0E0,0E0,0E0,0E0,0E0,0E0,0E0,0E0,0E0,0E0,0E0],"parents":[2147483647,0,0,1,1,2,2,3,3,4,4,5,5,6,6,7,7,8,8,9,9,10,10,11,11,12,12,13,13,14,14,15,15,16,16,17,17,18,18,19,19,20,20,21,21,22,22,23,23,24,24,25,25,26,26,27,27,28,28,29,29,31,31,32,32,33,33,34,34,35,35,36,36,37,37,38,38,39,39,40,40,41,41,42,42,43,43,44,44,45,45,46,46,48,48,49,49,50,50,51,51,53,53,54,54,55,55,56,56,59,59],"right_children":[2,4,6,8,10,12,14,16,18,20,22,24,26,28,30,32,34,36,38,40,42,44,46,48,50,52,54,56,58,60,-1,62,64,66,68,70,72,74,76,78,80,82,84,86,88,90,92,-1,94,96,98,100,-1,102,104,106,108,-1,-1,110,-1,-1,-1,-1,-1,-1,-1,-1,-1,-1,-1,-1,-1,-1,-1,-1,-1,-1,-1,-1,-1,-1,-1,-1,-1,-1,-1,-1,-1,-1,-1,-1,-1,-1,-1,-1,-1,-1,-1,-1,-1,-1,-1,-1,-1,-1,-1,-1,-1,-1,-1],"split_conditions":[1.8333334E1,2.0619711E2,2.2463037E2,1.9207652E2,3.6666667E0,8.301917E0,2.6403915E2,5.5E0,9.8915E0,2.1878435E2,1.6363178E1,5.373333E-1,1.2941501E1,2.5988608E2,3.7666668E1,1.3608762E1,1.5158522E1,3.7333343E-2,1.9843584E1,2.1054317E2,1.7718582E1,4.6540008E0,2.2463037E2,2.1666666E1,1.8184198E2,3E1,2.0666666E1,1.3776762E1,1.0337335E1,2.0666666E1,-2.2467789E-1,4.8333335E0,1.7455977E2,1.9531084E1,1.5561413E1,2.0192118E1,6.1666665E0,1.9921053E2,3.1666667E0,2.0672937E2,1.6666666E0,8.899999E0,1E0,4.6060834E0,1.61198E1,4.031083E0,4.3E0,2.8253996E-1,2.2E1,2.6477501E0,1E-1,1.1626916E1,7.7090436E-1,1.2413476E1,1.6637335E1,2.2666666E1,1.9333334E1,-3.1366706E-1,-3.7092447E-2,1.9333334E1,6.625991E-1,3.0650353E-2,2.0522034E0,-1.4301307E-1,-8.773839E-1,-4.214242E-2,8.6998063E-1,2.0874982E0,3.9247844E-1,-8.733919E-1,-3.0232492E-1,3.952614E0,7.6840633E-1,1.8239342E-1,-6.2606007E-1,2.3876138E-1,1.4696801E0,-6.754022E-1,1.4064605E-2,-1.5218517E-1,-8.470104E-1,-2.1452543E-1,4.8862475E-1,-4.4661924E-1,5.110976E-1,1.7616443E-1,5.300462E0,-2.3215063E-1,1.2850502E0,-4.137934E-1,3.1284195E-1,-2.8371245E-1,2.7110323E-1,-2.2876154E-1,-4.7795106E-2,1.4884315E0,3.6907206E0,-3.497246E-1,1.3762763E0,-1.438753E-1,-7.6248854E-1,1.1880971E-2,2.266734E0,-4.7081587E-1,5.2640086E-1,-4.5948746E-3,-1.8621242E-1,9.12695E-3,1.6041702E-1,2.1783644E-1,-2.0208968E-1],"split_indices":[0,4,4,4,0,1,4,0,1,4,3,1,1,4,0,3,3,1,1,4,1,1,4,0,4,0,0,3,1,0,0,0,4,1,3,3,0,4,0,4,0,2,0,1,3,1,2,0,0,1,2,1,0,3,1,0,0,0,0,0,0,0,0,0,0,0,0,0,0,0,0,0,0,0,0,0,0,0,0,0,0,0,0,0,0,0,0,0,0,0,0,0,0,0,0,0,0,0,0,0,0,0,0,0,0,0,0,0,0,0,0],"split_type":[0,0,0,0,0,0,0,0,0,0,0,0,0,0,0,0,0,0,0,0,0,0,0,0,0,0,0,0,0,0,0,0,0,0,0,0,0,0,0,0,0,0,0,0,0,0,0,0,0,0,0,0,0,0,0,0,0,0,0,0,0,0,0,0,0,0,0,0,0,0,0,0,0,0,0,0,0,0,0,0,0,0,0,0,0,0,0,0,0,0,0,0,0,0,0,0,0,0,0,0,0,0,0,0,0,0,0,0,0,0,0],"sum_hessian":[9.67E2,9.12E2,5.5E1,3.53E2,5.59E2,3.7E1,1.8E1,2.97E2,5.6E1,2.77E2,2.82E2,1.6E1,2.1E1,1.1E1,7E0,1.84E2,1.13E2,2.4E1,3.2E1,2.6E1,2.51E2,1.34E2,1.48E2,4E0,1.2E1,6E0,1.5E1,7E0,4E0,6E0,1E0,6.2E1,1.22E2,5.7E1,5.6E1,6E0,1.8E1,3E1,2E0,7E0,1.9E1,2.38E2,1.3E1,6.7E1,6.7E1,2.9E1,1.19E2,2E0,2E0,8E0,4E0,5E0,1E0,4E0,1.1E1,3E0,4E0,3E0,1E0,2E0,4E0,5.6E1,6E0,9.4E1,2.8E1,5.3E1,4E0,6E0,5E1,3E0,3E0,9E0,9E0,1E1,2E1,1E0,1E0,1E0,6E0,4E0,1.5E1,2.35E2,3E0,2E0,1.1E1,6.5E1,2E0,6.4E1,3E0,7E0,2.2E1,1.11E2,8E0,1E0,1E0,5E0,3E0,2E0,2E0,3E0,2E0,1E0,3E0,2E0,9E0,1E0,2E0,1E0,3E0,1E0,1E0],"tree_param":{"num_deleted":"0","num_feature":"5","num_nodes":"111","size_leaf_vector":"1"}},{"base_weights":[7.557981E-2,-4.5074895E-2,1.6731433E0,3.465788E-1,-2.5619692E-1,2.8498075E0,3.388082E-1,5.8530018E-2,4.8461556E0,-5.574806E-1,4.2891297E-2,5.11087E0,1.1786373E0,-1.3470392E0,1.0271276E0,2.227078E-1,-2.2346764E0,1.3508932E1,7.873835E-1,-1.4329925E0,-3.963696E-1,3.5193834E-1,-5.632698E-1,7.4978447E-1,7.216434E0,1.59029E0,-5.8757776E-1,-1.8442173E0,4.6913454E-1,2.7473319E0,3.0109665E-1,1.4303834E-2,2.6565948E0,-3.5873535E0,-1.0339457E0,6.9048853E0,3.001185E0,-8.753483E-1,1.5489151E0,-1.6038475E0,9.12695E-1,1.180609E0,-4.7454417E-1,1.4390066E0,-1.2671885E-1,-1.1042131E0,4.290798E-1,-1.944473E-1,1.1590044E0,3.4735663E0,3.6928751E0,3.3646386E0,7.745311E-1,-3.000062E0,-7.6628464E-1,1.5585606E0,-3.8737106E-1,-1.6265808E-1,9.0112233E-1,-1.1146823E-1,5.2634853E-1,2.0568758E-1,2.7662299E0,-1.156279E0,-2.1781154E-1,6.0583717E-1,-5.539716E-1,1.5737292E0,1.5132123E-1,-1.1373396E-1,-6.2168133E-1,-3.3596057E-1,-8.015423E-1,8.5479367E-1,-1.2550995E-1,-1.6334088E-1,2.6457906E-1,2.0000734E0,2.527578E-1,1.0521874E-1,-2.0792937E-1,-2.7306324E-1,-7.744892E-1,6.101732E-2,1.249228E0,4.5493957E-1,-4.062581E-2,1.2998734E0,-2.210126E-2,-1.2918878E-2,1.5237767E0,-1.2913668E-2,1.217756E0,-2.609492E-1,-1.0260587E0,-1.7267097E-2,-2.6895565E-1,-2.381012E-1,1.24729164E-1,-8.345594E-2,1.4889386E-1,3.6352086E-1,-1.9097622E-1],"categories":[],"categories_nodes":[],"categories_segments":[],"categories_sizes":[],"default_left":[0,0,0,0,0,0,0,0,0,0,0,0,0,0,0,0,0,0,0,0,0,0,0,0,0,0,0,0,0,0,0,0,0,0,0,0,0,0,0,0,0,0,0,0,0,0,0,0,0,0,0,0,0,0,0,0,0,0,0,0,0,0,0,0,0,0,0,0,0,0,0,0,0,0,0,0,0,0,0,0,0,0,0,0,0,0,0,0,0,0,0,0,0,0,0,0,0,0,0,0,0,0,0],"id":7,"left_children":[1,3,5,7,9,11,13,15,17,19,21,23,25,27,29,31,33,35,37,39,41,43,45,47,49,51,-1,53,-1,55,57,59,61,63,65,-1,67,69,-1,71,-1,73,75,77,79,81,83,-1,85,-1,87,89,91,93,95,-1,97,99,101,-1,-1,-1,-1,-1,-1,-1,-1,-1,-1,-1,-1,-1,-1,-1,-1,-1,-1,-1,-1,-1,-1,-1,-1,-1,-1,-1,-1,-1,-1,-1,-1,-1,-1,-1,-1,-1,-1,-1,-1,-1,-1,-1,-1],"loss_changes":[1.8666084E2,7.458952E1,1.0579884E2,4.092832E2,5.2828598E1,1.3000647E2,3.9676826E1,1.1269275E2,6.574077E2,4.0619926E1,5.5461258E1,1.3232736E2,3.1526606E1,1.7355919E1,2.9146908E1,1.4147963E2,2.8774895E1,5.30329E2,1.0637731E2,3.9287735E1,3.1133598E1,1.0216762E2,5.415429E1,4.183612E0,1.1094379E2,2.6342793E1,0E0,8.914398E0,0E0,5.5725887E1,5.15534E0,1.7389328E2,2.783092E2,4.0750656E0,3.350438E1,0E0,1.9770905E1,5.747882E0,0E0,1.9750221E1,0E0,3.321064E1,2.2960121E1,1.8148355E2,3.729015E1,1.6280624E1,2.9499275E1,0E0,2.518887E0,0E0,1.7194283E1,3.527613E1,4.0456596E1,6.049385E-1,5.022023E-1,0E0,1.6352332E0,9.754958E-1,4.5924473E0,0E0,0E0,0E0,0E0,0E0,0E0,0E0,0E0,0E0,0E0,0E0,0E0,0E0,0E0,0E0,0E0,0E0,0E0,0E0,0E0,0E0,0E0,0E0,0E0,0E0,0E0,0E0,0E0,0E0,0E0,0E0,0E0,0E0,0E0,0E0,0E0,0E0,0E0,0E0,0E0,0E0,0E0,0E0,0E0],"parents":[2147483647,0,0,1,1,2,2,3,3,4,4,5,5,6,6,7,7,8,8,9,9,10,10,11,11,12,12,13,13,14,14,15,15,16,16,17,17,18,18,19,19,20,20,21,21,22,22,23,23,24,24,25,25,27,27,29,29,30,30,31,31,32,32,33,33,34,34,36,36,37,37,39,39,41,41,42,42,43,43,44,44,45,45,46,46,48,48,50,50,51,51,52,52,53,53,54,54,56,56,57,57,58,58],"right_children":[2,4,6,8,10,12,14,16,18,20,22,24,26,28,30,32,34,36,38,40,42,44,46,48,50,52,-1,54,-1,56,58,60,62,64,66,-1,68,70,-1,72,-1,74,76,78,80,82,84,-1,86,-1,88,90,92,94,96,-1,98,100,102,-1,-1,-1,-1,-1,-1,-1,-1,-1,-1,-1,-1,-1,-1,-1,-1,-1,-1,-1,-1,-1,-1,-1,-1,-1,-1,-1,-1,-1,-1,-1,-1,-1,-1,-1,-1,-1,-1,-1,-1,-1,-1,-1,-1],"split_conditions":[1.7333334E1,1.9921053E2,1.9352162E2,1.9352162E2,3.6666667E0,7.7498336E0,1.8666666E1,1.8781992E2,3.1666667E0,2.1998477E2,1.05789995E1,7.0061134E1,1.0500001E1,3.7999997E0,2.2463037E2,1.8293228E2,8.145667E0,2.9331663E0,1.9823343E2,7.1000004E0,2.2717769E2,2.3700116E2,1.6637335E1,1.1119281E1,2.2E1,2.0666666E1,-5.8757776E-1,2.1602725E2,4.6913454E-1,3E-1,2.6306747E2,1.4260249E1,9.333333E0,9.333333E0,1.1591499E1,6.9048853E0,9.77275E0,2.9427662E1,1.5489151E0,3E0,9.12695E-1,1E-1,1.7718582E1,4E0,1.7377226E1,3.6E0,2.1389418E1,-1.944473E-1,1.6610792E1,3.4735663E0,6.2333332E1,1.02034836E2,3.0333334E1,1.8E1,1.354911E1,1.5585606E0,2.2E1,5.0666668E1,3.7666668E1,-1.1146823E-1,5.2634853E-1,2.0568758E-1,2.7662299E0,-1.156279E0,-2.1781154E-1,6.0583717E-1,-5.539716E-1,1.5737292E0,1.5132123E-1,-1.1373396E-1,-6.2168133E-1,-3.3596057E-1,-8.015423E-1,8.5479367E-1,-1.2550995E-1,-1.6334088E-1,2.6457906E-1,2.0000734E0,2.527578E-1,1.0521874E-1,-2.0792937E-1,-2.7306324E-1,-7.744892E-1,6.101732E-2,1.249228E0,4.5493957E-1,-4.062581E-2,1.2998734E0,-2.210126E-2,-1.2918878E-2,1.5237767E0,-1.2913668E-2,1.217756E0,-2.609492E-1,-1.0260587E0,-1.7267097E-2,-2.6895565E-1,-2.381012E-1,1.24729164E-1,-8.345594E-2,1.4889386E-1,3.6352086E-1,-1.9097622E-1],"split_indices":[0,4,4,4,0,1,0,4,0,4,1,4,2,2,4,4,1,1,4,2,4,4,1,3,0,0,0,4,0,2,4,1,0,0,1,0,1,3,0,0,0,2,1,0,3,2,1,0,3,0,0,4,0,0,3,0,0,0,0,0,0,0,0,0,0,0,0,0,0,0,0,0,0,0,0,0,0,0,0,0,0,0,0,0,0,0,0,0,0,0,0,0,0,0,0,0,0,0,0,0,0,0,0],"split_type":[0,0,0,0,0,0,0,0,0,0,0,0,0,0,0,0,0,0,0,0,0,0,0,0,0,0,0,0,0,0,0,0,0,0,0,0,0,0,0,0,0,0,0,0,0,0,0,0,0,0,0,0,0,0,0,0,0,0,0,0,0,0,0,0,0,0,0,0,0,0,0,0,0,0,0,0,0,0,0,0,0,0,0,0,0,0,0,0,0,0,0,0,0,0,0,0,0,0,0,0,0,0,0],"sum_hessian":[9.67E2,9E2,6.7E1,3.15E2,5.85E2,3.5E1,3.2E1,2.97E2,1.8E1,2.91E2,2.94E2,1.4E1,2.1E1,9E0,2.3E1,2.78E2,1.9E1,5E0,1.3E1,4.4E1,2.47E2,1.95E2,9.9E1,5E0,9E0,1.9E1,2E0,8E0,1E0,6E0,1.7E1,2.57E2,2.1E1,8E0,1.1E1,2E0,3E0,1E1,3E0,4.3E1,1E0,1.1E1,2.36E2,5.9E1,1.36E2,6.4E1,3.5E1,1E0,4E0,3E0,6E0,5E0,1.4E1,3E0,5E0,3E0,3E0,1E1,7E0,2.11E2,4.6E1,1.7E1,4E0,7E0,1E0,2E0,9E0,1E0,2E0,8E0,2E0,3.1E1,1.2E1,5E0,6E0,2.25E2,1.1E1,5E0,5.4E1,7.4E1,6.2E1,5.8E1,6E0,3.4E1,1E0,3E0,1E0,5E0,1E0,2E0,3E0,1.2E1,2E0,1E0,2E0,1E0,4E0,2E0,1E0,9E0,1E0,6E0,1E0],"tree_param":{"num_deleted":"0","num_feature":"5","num_nodes":"103","size_leaf_vector":"1"}},{"base_weights":[7.5844854E-2,-8.739368E-3,1.4535154E0,3.232131E-1,-1.8755427E-1,2.3324225E0,4.9130735E-1,9.778439E-2,3.8893318E0,-3.3307472E-1,1.5994929E-1,1.3636025E0,3.082299E0,1.1121619E0,-3.106143E-1,2.9518306E-1,-1.7706647E0,1.0894574E1,6.0927546E-1,9.2773616E-1,-3.7894902E-1,2.2600746E0,-1.5474443E-1,3.8466159E-1,4.105625E0,-9.209277E-1,1.4683839E0,-5.2944976E-1,3.4731174E-1,1.3854791E-1,2.277522E0,-7.020796E-1,-2.1443124E0,5.523908E0,2.5320919E0,-6.795998E-1,1.2004092E0,1.5698472E-1,2.0576992E0,-3.2705462E-1,-1.4765089E0,3.8758755E0,-1.2540362E0,-2.0202354E-1,1.0618439E0,-3.9607745E-1,1.4696555E0,1.6109645E0,5.444887E-1,-3.9563143E-1,-1.878605E-2,1.2078844E0,4.0474987E-1,6.782603E-2,-2.509698E-1,-4.325633E-2,5.4248786E-1,2.5126786E0,2.1261293E-1,4.2819813E-2,-3.4448236E-1,-3.565833E-1,-7.3420566E-1,1.3376697E0,1.2105694E-1,-8.340493E-2,-4.973451E-1,-1.9697565E-1,3.305616E-1,1.3519038E0,2.0001023E-1,-2.111969E-2,-1.6260594E-1,-5.7150024E-1,3.9028513E-1,5.27816E-1,3.7382593E0,1.5613127E-1,-5.796801E-1,-4.3459335E-1,8.90277E-3,1.4812432E-1,-4.5494944E-1,1.2573409E-1,5.775223E-1,-7.0408024E-2,2.0216334E-1,-1.7993957E-1,1.1540455E-1],"categories":[],"categories_nodes":[],"categories_segments":[],"categories_sizes":[],"default_left":[0,0,0,0,0,0,0,0,0,0,0,0,0,0,0,0,0,0,0,0,0,0,0,0,0,0,0,0,0,0,0,0,0,0,0,0,0,0,0,0,0,0,0,0,0,0,0,0,0,0,0,0,0,0,0,0,0,0,0,0,0,0,0,0,0,0,0,0,0,0,0,0,0,0,0,0,0,0,0,0,0,0,0,0,0,0,0,0,0],"id":8,"left_children":[1,3,5,7,9,11,13,15,17,19,21,23,-1,25,27,29,31,33,35,37,39,41,43,45,47,49,51,53,-1,55,57,59,61,-1,63,65,-1,67,69,71,73,75,77,79,-1,81,83,-1,-1,-1,-1,-1,85,87,-1,-1,-1,-1,-1,-1,-1,-1,-1,-1,-1,-1,-1,-1,-1,-1,-1,-1,-1,-1,-1,-1,-1,-1,-1,-1,-1,-1,-1,-1,-1,-1,-1,-1,-1],"loss_changes":[1.1281296E2,5.4254513E1,4.621279E1,2.5686945E2,3.009119E1,2.09124E2,1.4286001E1,1.1190914E2,4.2993634E2,2.4586021E1,1.1666747E2,7.089623E1,0E0,1.2939972E1,4.790114E0,8.476256E1,1.0073479E1,3.3061407E2,6.392703E1,1.2740782E1,2.2584766E1,1.3545685E2,2.7612635E1,1.8371138E1,1.0525757E1,9.418349E-1,3.6459698E1,2.2579372E0,0E0,1.2064533E2,1.8539874E2,3.5564547E0,3.1729813E0,0E0,1.4606096E1,3.8602924E0,0E0,8.410794E0,1.7432E1,2.1368591E1,2.3900448E1,2.6879706E2,1.0633646E1,4.4235718E1,0E0,1.3709488E1,3.4991035E0,0E0,0E0,0E0,0E0,0E0,2.051167E0,1.2884352E0,0E0,0E0,0E0,0E0,0E0,0E0,0E0,0E0,0E0,0E0,0E0,0E0,0E0,0E0,0E0,0E0,0E0,0E0,0E0,0E0,0E0,0E0,0E0,0E0,0E0,0E0,0E0,0E0,0E0,0E0,0E0,0E0,0E0,0E0,0E0],"parents":[2147483647,0,0,1,1,2,2,3,3,4,4,5,5,6,6,7,7,8,8,9,9,10,10,11,11,13,13,14,14,15,15,16,16,17,17,18,18,19,19,20,20,21,21,22,22,23,23,24,24,25,25,26,26,27,27,29,29,30,30,31,31,32,32,34,34,35,35,37,37,38,38,39,39,40,40,41,41,42,42,43,43,45,45,46,46,52,52,53,53],"right_children":[2,4,6,8,10,12,14,16,18,20,22,24,-1,26,28,30,32,34,36,38,40,42,44,46,48,50,52,54,-1,56,58,60,62,-1,64,66,-1,68,70,72,74,76,78,80,-1,82,84,-1,-1,-1,-1,-1,86,88,-1,-1,-1,-1,-1,-1,-1,-1,-1,-1,-1,-1,-1,-1,-1,-1,-1,-1,-1,-1,-1,-1,-1,-1,-1,-1,-1,-1,-1,-1,-1,-1,-1,-1,-1],"split_conditions":[1.8333334E1,1.9921053E2,1.8184198E2,1.9352162E2,6E0,1.791882E2,3E-1,2.3675303E1,3.1666667E0,1.0086427E1,6.6666665E0,3E1,3.082299E0,1.898657E2,5.8E0,2.1746502E1,-1.1730832E0,2.9331663E0,1.9823343E2,1E-1,5.5E0,8.806085E0,2.01415E1,1.7833166E1,1.536364E2,3.0333334E1,2.2463037E2,4.7769165E0,3.4731174E-1,1.0666667E1,1.4E0,7.1310363E0,2.3333333E0,5.523908E0,9.77275E0,2.9427662E1,1.2004092E0,6.8310833E0,3E-1,2.6244183E2,1.6504E1,6.6685834E0,2.0619711E2,2.1124214E2,1.0618439E0,2.6999998E0,6E-1,1.6109645E0,5.444887E-1,-3.9563143E-1,-1.878605E-2,1.2078844E0,1.3776762E1,1.8666666E1,-2.509698E-1,-4.325633E-2,5.4248786E-1,2.5126786E0,2.1261293E-1,4.2819813E-2,-3.4448236E-1,-3.565833E-1,-7.3420566E-1,1.3376697E0,1.2105694E-1,-8.340493E-2,-4.973451E-1,-1.9697565E-1,3.305616E-1,1.3519038E0,2.0001023E-1,-2.111969E-2,-1.6260594E-1,-5.7150024E-1,3.9028513E-1,5.27816E-1,3.7382593E0,1.5613127E-1,-5.796801E-1,-4.3459335E-1,8.90277E-3,1.4812432E-1,-4.5494944E-1,1.2573409E-1,5.775223E-1,-7.0408024E-2,2.0216334E-1,-1.7993957E-1,1.1540455E-1],"split_indices":[0,4,4,4,0,4,2,3,0,3,0,0,0,4,2,3,1,1,4,2,0,1,1,1,4,0,4,1,0,0,2,4,0,0,1,3,0,1,2,4,1,1,4,4,0,2,2,0,0,0,0,0,3,0,0,0,0,0,0,0,0,0,0,0,0,0,0,0,0,0,0,0,0,0,0,0,0,0,0,0,0,0,0,0,0,0,0,0,0],"split_type":[0,0,0,0,0,0,0,0,0,0,0,0,0,0,0,0,0,0,0,0,0,0,0,0,0,0,0,0,0,0,0,0,0,0,0,0,0,0,0,0,0,0,0,0,0,0,0,0,0,0,0,0,0,0,0,0,0,0,0,0,0,0,0,0,0,0,0,0,0,0,0,0,0,0,0,0,0,0,0,0,0,0,0,0,0,0,0,0,0],"sum_hessian":[9.67E2,9.12E2,5.5E1,3.19E2,5.93E2,2.8E1,2.7E1,3.01E2,1.8E1,4.18E2,1.75E2,2.6E1,2E0,1.5E1,1.2E1,2.73E2,2.8E1,5E0,1.3E1,1.4E1,4.04E2,2.2E1,1.53E2,2E1,6E0,2E0,1.3E1,1.1E1,1E0,2.54E2,1.9E1,8E0,2E1,2E0,3E0,1E1,3E0,9E0,5E0,3.87E2,1.7E1,1.5E1,7E0,1.52E2,1E0,1.2E1,8E0,3E0,3E0,1E0,1E0,3E0,1E1,4E0,7E0,2.18E2,3.6E1,3E0,1.6E1,3E0,5E0,6E0,1.4E1,1E0,2E0,8E0,2E0,5E0,4E0,1E0,4E0,1.77E2,2.1E2,1.5E1,2E0,1.3E1,2E0,2E0,5E0,2.3E1,1.29E2,7E0,5E0,3E0,5E0,3E0,7E0,1E0,3E0],"tree_param":{"num_deleted":"0","num_feature":"5","num_nodes":"89","size_leaf_vector":"1"}},{"base_weights":[7.563771E-2,1.056768E-2,1.1351609E0,1.7792308E-1,-2.5057387E-1,2.3130357E0,6.478156E-1,3.9642593E-1,-2.4621885E-1,-1.3440229E-1,-1.033073E0,9.5002806E-1,2.3708181E0,3.2579267E-1,1.7565868E0,-2.2799075E-1,6.334824E-1,1.5683469E0,-3.4511077E-1,-2.0222394E-1,2.0755908E0,-1.435616E0,3.782565E-1,1.576368E-2,1.4673123E0,7.288154E-2,1.4517459E0,4.9506523E-2,3.1123497E0,-9.2474866E-1,2.0750036E0,-9.4364214E-1,8.221984E-1,2.178003E0,-5.80185E-1,5.24984E-1,-4.9444914E-1,3.393007E-1,-3.9524925E-1,4.3167314E-1,-1.7507166E0,1.8024547E0,-1.6912723E0,1.292184E-1,-1.6283298E-1,2.5645423E0,7.661982E-2,-3.3362922E-1,6.4269835E-1,2.8096938E-1,7.586598E-1,-1.079541E0,6.848545E-1,1.1908022E0,3.6537266E-1,6.2065173E-2,-5.0988716E-1,7.317499E-1,-9.451105E-1,1.823752E-1,-6.2238616E-1,1.6809265E-1,6.4525664E-1,7.7563006E-1,-1.0110155E-1,-2.7052808E-1,9.4448095E-3,-1.459668E-1,4.9552867E-1,-1.8933773E-1,9.521876E-2,-1.8437425E-2,2.4508386E0,-1.0102078E-1,-8.8478947E-1,2.6833463E-1,-6.9980444E-3,-9.0889716E-1,-3.7543696E-1,-2.23409E-1,7.053288E-1,-5.9324116E-1,-8.197196E-2,5.289774E-2,9.352546E-1,1.2797128E-1,-3.5253204E-2,-3.430171E-1,1.0443394E-3,2.5151578E-1,-2.2647972E-1,1.2329631E-1,-1.6362835E-2,4.0703095E-2,-4.5895183E-1],"categories":[],"categories_nodes":[],"categories_segments":[],"categories_sizes":[],"default_left":[0,0,0,0,0,0,0,0,0,0,0,0,0,0,0,0,0,0,0,0,0,0,0,0,0,0,0,0,0,0,0,0,0,0,0,0,0,0,0,0,0,0,0,0,0,0,0,0,0,0,0,0,0,0,0,0,0,0,0,0,0,0,0,0,0,0,0,0,0,0,0,0,0,0,0,0,0,0,0,0,0,0,0,0,0,0,0,0,0,0,0,0,0,0,0],"id":9,"left_children":[1,3,5,7,9,11,13,15,17,19,21,23,-1,25,27,29,31,33,35,37,-1,39,41,43,45,47,49,51,53,55,57,59,61,63,65,67,69,71,73,75,77,79,81,-1,-1,83,85,87,89,91,-1,93,-1,-1,-1,-1,-1,-1,-1,-1,-1,-1,-1,-1,-1,-1,-1,-1,-1,-1,-1,-1,-1,-1,-1,-1,-1,-1,-1,-1,-1,-1,-1,-1,-1,-1,-1,-1,-1,-1,-1,-1,-1,-1,-1],"loss_changes":[6.672503E1,3.994583E1,3.0647362E1,5.1718258E1,3.231393E1,1.14392845E2,1.4066757E1,5.4616535E1,3.463597E1,1.5064392E2,2.6676601E1,6.742795E0,0E0,9.291476E0,2.067548E1,1.6559106E2,8.02427E1,1.4362303E1,2.3778454E1,3.2537777E1,0E0,2.1937553E1,3.547005E1,1.6244346E0,1.3536692E1,6.700249E0,6.8558664E0,1.5072174E1,3.2832985E0,6.962465E1,5.3353508E1,5.2149815E1,8.195764E1,9.068832E0,6.184814E-1,3.1577766E1,1.7399147E1,2.5781854E2,3.3229958E1,1.2842416E0,1.6002754E1,1.1533159E1,1.4888668E0,0E0,0E0,6.053398E0,3.898075E-1,4.64462E0,3.9149113E0,1.9690731E-1,0E0,2.3964067E0,0E0,0E0,0E0,0E0,0E0,0E0,0E0,0E0,0E0,0E0,0E0,0E0,0E0,0E0,0E0,0E0,0E0,0E0,0E0,0E0,0E0,0E0,0E0,0E0,0E0,0E0,0E0,0E0,0E0,0E0,0E0,0E0,0E0,0E0,0E0,0E0,0E0,0E0,0E0,0E0,0E0,0E0,0E0],"parents":[2147483647,0,0,1,1,2,2,3,3,4,4,5,5,6,6,7,7,8,8,9,9,10,10,11,11,13,13,14,14,15,15,16,16,17,17,18,18,19,19,21,21,22,22,23,23,24,24,25,25,26,26,27,27,28,28,29,29,30,30,31,31,32,32,33,33,34,34,35,35,36,36,37,37,38,38,39,39,40,40,41,41,42,42,45,45,46,46,47,47,48,48,49,49,51,51],"right_children":[2,4,6,8,10,12,14,16,18,20,22,24,-1,26,28,30,32,34,36,38,-1,40,42,44,46,48,50,52,54,56,58,60,62,64,66,68,70,72,74,76,78,80,82,-1,-1,84,86,88,90,92,-1,94,-1,-1,-1,-1,-1,-1,-1,-1,-1,-1,-1,-1,-1,-1,-1,-1,-1,-1,-1,-1,-1,-1,-1,-1,-1,-1,-1,-1,-1,-1,-1,-1,-1,-1,-1,-1,-1,-1,-1,-1,-1,-1,-1],"split_conditions":[1.8333334E1,1.8416384E1,3.2706668E0,2.6185944E2,6.2000003E0,2.7373335E0,5.8000007E0,1.09053E2,8.688613E0,6.2E0,1.4399999E1,5.373333E-1,2.3708181E0,4.3666668E1,1.2941501E1,1.4E0,1.097262E1,3.3386517E2,-4.860584E0,1.1102501E0,2.0755908E0,-9.314167E-1,2.255106E1,2.1666666E1,1.5894662E2,1.6637335E1,6.47275E0,2.9333334E1,2.0666666E1,1.4685835E0,1.4260249E1,4.3333335E0,1E1,1.4333333E1,6.666667E-1,3.0866837E2,1.731746E1,1.0373334E0,5.5000005E0,-3.9647503E0,1.26361374E2,3.915001E-1,1.2435249E1,1.292184E-1,-1.6283298E-1,2.4E1,1.6512428E2,1.898657E2,2.4609364E1,2.109305E1,7.586598E-1,8.454E0,6.848545E-1,1.1908022E0,3.6537266E-1,6.2065173E-2,-5.0988716E-1,7.317499E-1,-9.451105E-1,1.823752E-1,-6.2238616E-1,1.6809265E-1,6.4525664E-1,7.7563006E-1,-1.0110155E-1,-2.7052808E-1,9.4448095E-3,-1.459668E-1,4.9552867E-1,-1.8933773E-1,9.521876E-2,-1.8437425E-2,2.4508386E0,-1.0102078E-1,-8.8478947E-1,2.6833463E-1,-6.9980444E-3,-9.0889716E-1,-3.7543696E-1,-2.23409E-1,7.053288E-1,-5.9324116E-1,-8.197196E-2,5.289774E-2,9.352546E-1,1.2797128E-1,-3.5253204E-2,-3.430171E-1,1.0443394E-3,2.5151578E-1,-2.2647972E-1,1.2329631E-1,-1.6362835E-2,4.0703095E-2,-4.5895183E-1],"split_indices":[0,3,1,4,2,1,2,4,3,2,2,1,0,0,1,2,3,4,1,1,0,1,3,0,4,1,1,0,0,1,1,0,0,0,0,4,3,1,2,1,4,1,1,0,0,0,4,4,3,3,0,1,0,0,0,0,0,0,0,0,0,0,0,0,0,0,0,0,0,0,0,0,0,0,0,0,0,0,0,0,0,0,0,0,0,0,0,0,0,0,0,0,0,0,0],"split_type":[0,0,0,0,0,0,0,0,0,0,0,0,0,0,0,0,0,0,0,0,0,0,0,0,0,0,0,0,0,0,0,0,0,0,0,0,0,0,0,0,0,0,0,0,0,0,0,0,0,0,0,0,0,0,0,0,0,0,0,0,0,0,0,0,0,0,0,0,0,0,0,0,0,0,0,0,0,0,0,0,0,0,0,0,0,0,0,0,0,0,0,0,0,0,0],"sum_hessian":[9.67E2,9.12E2,5.5E1,5.56E2,3.56E2,1.5E1,4E1,3.67E2,1.89E2,3.11E2,4.5E1,1.3E1,2E0,3.2E1,8E0,1.01E2,2.66E2,9E0,1.8E2,3.09E2,2E0,3.5E1,1E1,5E0,8E0,2.7E1,5E0,4E0,4E0,7.8E1,2.3E1,2.8E1,2.38E2,7E0,2E0,2.6E1,1.54E2,8.1E1,2.28E2,5E0,3E1,6E0,4E0,3E0,2E0,4E0,4E0,1.6E1,1.1E1,3E0,2E0,3E0,1E0,2E0,2E0,3.2E1,4.6E1,2.2E1,1E0,1.2E1,1.6E1,2E2,3.8E1,6E0,1E0,1E0,1E0,1.4E1,1.2E1,1.32E2,2.2E1,7.8E1,3E0,2.24E2,4E0,2E0,3E0,7E0,2.3E1,1E0,5E0,3E0,1E0,1E0,3E0,1E0,3E0,4E0,1.2E1,1E1,1E0,2E0,1E0,1E0,2E0],"tree_param":{"num_deleted":"0","num_feature":"5","num_nodes":"95","size_leaf_vector":"1"}},{"base_weights":[6.170305E-2,1.0340341E-2,8.979968E-1,-3.4759673E-1,9.810374E-2,1.4670901E0,2.7650732E-1,3.3350855E-1,-5.32213E-1,3.6658097E-2,7.5196666E-1,7.944017E-1,2.109677E0,6.685987E-1,-2.2733648E-1,-7.876888E-2,2.4000077E0,-1.4962243E0,-4.478468E-1,1.7192332E-1,-4.4341555E-1,4.808921E0,1.5897386E-1,1.6078463E-1,2.5817668E0,-6.566985E-1,9.048339E-1,-7.361817E-1,1.8271446E-1,-2.3946206E-1,1.0296985E0,-6.9502515E-1,-5.5642897E-1,-1.3688357E0,-3.3573174E-1,-2.4181528E-1,3.8848785E-1,-1.9852163E0,-1.8699968E-1,2.1888769E0,2.7637665E0,-1.3939077E0,4.4682717E-1,3.709522E-1,-3.6716142E-1,1.0700898E0,2.8533784E-1,-2.848343E-1,-1.0680056E-2,7.205715E-1,2.7818677E-1,-2.5946203E-1,-1.3908435E-2,2.0849891E-1,-2.6365393E-1,3.0805326E-1,-1.3275932E-1,-7.172395E-2,4.2199895E-1,-2.6749516E-1,1.3721395E-2,-4.7941616E-1,-1.1888307E-1,-6.468696E-2,-2.4830386E-1,-4.2526525E-2,-6.41498E-1,1.0594543E0,8.523731E-2,-9.265713E-1,-5.1270727E-2,3.0065227E0,-1.7914033E-1,9.5697796E-1,9.494505E-2,-5.537646E-1,3.76004E-2,1.4787958E0,1.1536195E-2,-1.3944727E-2,2.2538748E-1,1.593905E-1,-8.92769E-2,2.2914123E-2,-1.547411E-1],"categories":[],"categories_nodes":[],"categories_segments":[],"categories_sizes":[],"default_left":[0,0,0,0,0,0,0,0,0,0,0,0,0,0,0,0,0,0,0,0,0,0,0,0,0,0,0,0,0,0,0,0,0,0,0,0,0,0,0,0,0,0,0,0,0,0,0,0,0,0,0,0,0,0,0,0,0,0,0,0,0,0,0,0,0,0,0,0,0,0,0,0,0,0,0,0,0,0,0,0,0,0,0,0,0],"id":10,"left_children":[1,3,5,7,9,11,13,15,17,19,21,23,-1,25,27,29,-1,31,33,35,37,39,41,43,45,47,49,51,53,55,57,59,-1,61,63,65,67,69,71,-1,73,75,77,79,-1,-1,-1,-1,-1,-1,81,-1,-1,-1,83,-1,-1,-1,-1,-1,-1,-1,-1,-1,-1,-1,-1,-1,-1,-1,-1,-1,-1,-1,-1,-1,-1,-1,-1,-1,-1,-1,-1,-1,-1],"loss_changes":[4.1570488E1,2.8714876E1,1.940073E1,2.2811258E1,2.9462374E1,1.0297864E2,5.6834755E0,1.2389871E2,1.0878777E1,4.3714073E1,1.5079741E2,3.0162527E1,0E0,5.6035137E0,2.8469925E0,7.015253E0,0E0,1.8707638E0,1.31703205E1,4.7134525E1,5.8139404E1,2.0530731E1,2.5654955E1,6.5652027E0,7.852909E0,5.116774E-1,1.2465716E1,4.92548E-1,2.0125704E0,9.197424E0,2.7277274E0,7.6904607E-1,0E0,2.4877224E0,6.8529034E0,3.4044403E1,1.1216257E2,4.151062E1,5.419151E2,0E0,5.248047E0,6.411276E0,8.7675865E1,3.051491E0,0E0,0E0,0E0,0E0,0E0,0E0,1.7612233E0,0E0,0E0,0E0,4.6809512E-1,0E0,0E0,0E0,0E0,0E0,0E0,0E0,0E0,0E0,0E0,0E0,0E0,0E0,0E0,0E0,0E0,0E0,0E0,0E0,0E0,0E0,0E0,0E0,0E0,0E0,0E0,0E0,0E0,0E0,0E0],"parents":[2147483647,0,0,1,1,2,2,3,3,4,4,5,5,6,6,7,7,8,8,9,9,10,10,11,11,13,13,14,14,15,15,17,17,18,18,19,19,20,20,21,21,22,22,23,23,24,24,25,25,26,26,27,27,28,28,29,29,30,30,31,31,33,33,34,34,35,35,36,36,37,37,38,38,40,40,41,41,42,42,43,43,50,50,54,54],"right_children":[2,4,6,8,10,12,14,16,18,20,22,24,-1,26,28,30,-1,32,34,36,38,40,42,44,46,48,50,52,54,56,58,60,-1,62,64,66,68,70,72,-1,74,76,78,80,-1,-1,-1,-1,-1,-1,82,-1,-1,-1,84,-1,-1,-1,-1,-1,-1,-1,-1,-1,-1,-1,-1,-1,-1,-1,-1,-1,-1,-1,-1,-1,-1,-1,-1,-1,-1,-1,-1,-1,-1],"split_conditions":[1.8333334E1,1.8333334E0,1.8184198E2,1.2066665E-1,1.7960249E1,1.791882E2,3E-1,7.900004E-2,1.1252519E1,1.2218583E1,1.2276044E2,3E1,2.109677E0,1.898657E2,8.000001E-1,3.2908484E2,2.4000077E0,9.422101E0,1.5748333E0,7.3525006E-1,1.5238425E2,1E-1,1.2594856E1,1.6512428E2,1.536364E2,3.0333334E1,2.2463037E2,2.4666666E1,2.109305E1,2.2806551E1,6.666667E-1,1.6666666E0,-5.5642897E-1,2.8522928E2,1.2806084E1,1.5E1,1.1102501E0,1.0000001E0,1.6707675E2,2.1888769E0,7.3333335E0,2.1054317E2,1.2984975E1,1.5561413E1,-3.6716142E-1,1.0700898E0,2.8533784E-1,-2.848343E-1,-1.0680056E-2,7.205715E-1,1E-1,-2.5946203E-1,-1.3908435E-2,2.0849891E-1,2.7E0,3.0805326E-1,-1.3275932E-1,-7.172395E-2,4.2199895E-1,-2.6749516E-1,1.3721395E-2,-4.7941616E-1,-1.1888307E-1,-6.468696E-2,-2.4830386E-1,-4.2526525E-2,-6.41498E-1,1.0594543E0,8.523731E-2,-9.265713E-1,-5.1270727E-2,3.0065227E0,-1.7914033E-1,9.5697796E-1,9.494505E-2,-5.537646E-1,3.76004E-2,1.4787958E0,1.1536195E-2,-1.3944727E-2,2.2538748E-1,1.593905E-1,-8.92769E-2,2.2914123E-2,-1.547411E-1],"split_indices":[0,0,4,1,1,4,2,1,3,1,4,0,0,4,2,4,0,3,1,1,4,2,3,4,4,0,4,0,3,4,0,0,0,4,1,0,1,2,4,0,0,4,3,3,0,0,0,0,0,0,2,0,0,0,2,0,0,0,0,0,0,0,0,0,0,0,0,0,0,0,0,0,0,0,0,0,0,0,0,0,0,0,0,0,0],"split_type":[0,0,0,0,0,0,0,0,0,0,0,0,0,0,0,0,0,0,0,0,0,0,0,0,0,0,0,0,0,0,0,0,0,0,0,0,0,0,0,0,0,0,0,0,0,0,0,0,0,0,0,0,0,0,0,0,0,0,0,0,0,0,0,0,0,0,0,0,0,0,0,0,0,0,0,0,0,0,0,0,0,0,0,0,0],"sum_hessian":[9.67E2,9.12E2,5.5E1,1.79E2,7.33E2,2.8E1,2.7E1,3.8E1,1.41E2,6.71E2,6.2E1,2.6E1,2E0,1.5E1,1.2E1,3.7E1,1E0,1E1,1.31E2,5.24E2,1.47E2,7E0,5.5E1,2E1,6E0,2E0,1.3E1,5E0,7E0,3.3E1,4E0,4E0,6E0,1.3E1,1.18E2,1.8E2,3.44E2,2E1,1.27E2,2E0,5E0,8E0,4.7E1,1.8E1,2E0,3E0,3E0,1E0,1E0,3E0,1E1,4E0,1E0,3E0,4E0,4E0,2.9E1,1E0,3E0,3E0,1E0,1E1,3E0,9.6E1,2.2E1,1.72E2,8E0,1E1,3.34E2,1.2E1,8E0,4E0,1.23E2,4E0,1E0,6E0,2E0,3E0,4.4E1,9E0,9E0,7E0,3E0,2E0,2E0],"tree_param":{"num_deleted":"0","num_feature":"5","num_nodes":"85","size_leaf_vector":"1"}},{"base_weights":[5.490399E-2,7.894317E-2,-1.2182162E0,1.4580171E-2,5.9738624E-1,1.5585949E-1,-1.3509973E0,3.4979127E-2,-2.1291327E0,-7.747854E-1,8.9018935E-1,-1.7608365E0,-6.698239E-1,1.898791E-2,2.2545934E0,-5.167161E0,2.2006857E0,-1.4990304E0,6.8092453E-1,2.1447754E0,1.9225335E-1,-1.2858054E-1,-5.583721E-1,8.040583E-2,-2.52627E-1,-1.6700301E0,3.5283994E-2,-2.5441983E0,3.937283E0,-1.7888312E0,-2.9770818E-1,9.4330883E-1,-9.455181E-2,-2.3273993E-1,-3.478547E0,7.974232E-1,-9.161377E-2,4.0932736E0,8.684374E-1,1.3579558E0,-8.466113E-2,3.2529905E-2,-5.8187604E-1,7.2999366E-2,-2.788159E-2,-1.0737413E0,-1.9835795E-1,6.2885E-2,-2.5142696E-1,-1.1774318E0,-2.5404656E-1,7.2331816E-2,-1.5141068E-1,5.3644586E-1,2.0888438E0,8.8510543E-1,-7.036522E-2,1.8225018E0,8.362511E-2,-5.57154E-1,9.796575E-2],"categories":[],"categories_nodes":[],"categories_segments":[],"categories_sizes":[],"default_left":[0,0,0,0,0,0,0,0,0,0,0,0,0,0,0,0,0,0,0,0,0,0,0,0,0,0,0,0,0,0,0,0,0,0,0,0,0,0,0,0,0,0,0,0,0,0,0,0,0,0,0,0,0,0,0,0,0,0,0,0,0],"id":11,"left_children":[1,3,5,7,9,-1,11,13,15,17,19,21,23,25,27,29,31,33,35,37,39,-1,-1,-1,-1,41,43,45,-1,-1,-1,-1,-1,47,49,-1,51,53,55,57,59,-1,-1,-1,-1,-1,-1,-1,-1,-1,-1,-1,-1,-1,-1,-1,-1,-1,-1,-1,-1],"loss_changes":[2.9721582E1,3.1724781E1,4.8552074E0,3.711336E1,4.287621E1,0E0,3.5664692E0,2.9772427E1,1.1660418E2,2.105225E1,7.576666E1,5.3987885E-1,1.5181651E0,2.304178E1,3.4635883E2,1.0690338E1,1.0487648E1,3.177676E1,1.0935501E1,7.3540436E1,1.851456E1,0E0,0E0,0E0,0E0,4.0454884E0,2.2110643E1,7.3774757E0,0E0,0E0,0E0,0E0,0E0,2.5857022E0,2.5481377E0,0E0,9.463431E-1,6.6925064E1,4.661853E1,5.4303917E1,3.486401E1,0E0,0E0,0E0,0E0,0E0,0E0,0E0,0E0,0E0,0E0,0E0,0E0,0E0,0E0,0E0,0E0,0E0,0E0,0E0,0E0],"parents":[2147483647,0,0,1,1,2,2,3,3,4,4,6,6,7,7,8,8,9,9,10,10,11,11,12,12,13,13,14,14,15,15,16,16,17,17,18,18,19,19,20,20,25,25,26,26,27,27,33,33,34,34,36,36,37,37,38,38,39,39,40,40],"right_children":[2,4,6,8,10,-1,12,14,16,18,20,22,24,26,28,30,32,34,36,38,40,-1,-1,-1,-1,42,44,46,-1,-1,-1,-1,-1,48,50,-1,52,54,56,58,60,-1,-1,-1,-1,-1,-1,-1,-1,-1,-1,-1,-1,-1,-1,-1,-1,-1,-1,-1,-1],"split_conditions":[3.0441296E1,1.4333333E1,7.1310363E0,1.4E1,6.0816664E-1,1.5585949E-1,3.5706663E0,1.3666667E1,2.2960727E2,1.7333334E1,5.0790005E0,1.6666666E0,3.1394394E1,3.8642662E0,7.7498336E0,6.8977504E0,1.6081667E0,1.5666667E1,1.7666666E1,1.7666666E1,1.3830749E1,-1.2858054E-1,-5.583721E-1,8.040583E-2,-2.52627E-1,1.1570515E1,3.2706668E0,1.5315873E1,3.937283E0,-1.7888312E0,-2.9770818E-1,9.4330883E-1,-9.455181E-2,2.9428488E2,1E-1,7.974232E-1,2.1666666E1,3.4331665E0,1.8184198E2,1.5E1,1.6333334E1,3.2529905E-2,-5.8187604E-1,7.2999366E-2,-2.788159E-2,-1.0737413E0,-1.9835795E-1,6.2885E-2,-2.5142696E-1,-1.1774318E0,-2.5404656E-1,7.2331816E-2,-1.5141068E-1,5.3644586E-1,2.0888438E0,8.8510543E-1,-7.036522E-2,1.8225018E0,8.362511E-2,-5.57154E-1,9.796575E-2],"split_indices":[3,0,4,0,1,0,1,0,4,0,1,0,3,4,1,1,1,0,0,0,3,0,0,0,0,3,1,3,0,0,0,0,0,4,2,0,0,1,4,0,0,0,0,0,0,0,0,0,0,0,0,0,0,0,0,0,0,0,0,0,0],"split_type":[0,0,0,0,0,0,0,0,0,0,0,0,0,0,0,0,0,0,0,0,0,0,0,0,0,0,0,0,0,0,0,0,0,0,0,0,0,0,0,0,0,0,0,0,0,0,0,0,0,0,0,0,0,0,0,0,0,0,0,0,0],"sum_hessian":[9.67E2,9.5E2,1.7E1,8.46E2,1.04E2,1E0,1.6E1,8.39E2,7E0,1.8E1,8.6E1,9E0,7E0,8.34E2,5E0,4E0,3E0,1.2E1,6E0,3E1,5.6E1,1E0,8E0,1E0,6E0,7E0,8.27E2,4E0,1E0,3E0,1E0,2E0,1E0,8E0,4E0,1E0,5E0,1.1E1,1.9E1,1E1,4.6E1,1E0,6E0,3.15E2,5.12E2,2E0,2E0,5E0,3E0,3E0,1E0,3E0,2E0,7E0,4E0,6E0,1.3E1,1E0,9E0,8E0,3.8E1],"tree_param":{"num_deleted":"0","num_feature":"5","num_nodes":"61","size_leaf_vector":"1"}},{"base_weights":[4.2776976E-2,2.4709857E-1,-7.385831E-2,1.0107665E-1,2.6660085E0,1.9140191E-2,-4.8436174E-1,-6.0866036E-2,9.577713E-1,7.854665E0,4.128122E-1,-1.24928E0,7.1406715E-2,-6.2853515E-1,1.2674986E0,-4.2856565E-1,5.595501E-1,4.55837E0,4.877429E-1,3.4296618E0,1.3991661E-1,-4.5195806E-1,8.71176E-1,-1.719087E0,1.9859892E0,4.859414E0,4.1519694E-2,-1.2988443E0,-3.3415607E-1,2.0649576E0,-1.0157384E0,-2.0670842E-1,-3.7578013E0,2.0243843E0,-2.6036382E-2,-3.1869268E-1,2.8624992E0,-1.0111338E0,1.0154555E0,-9.518643E-1,4.3828353E-1,-7.416567E-1,-2.2736647E0,1.04341514E-1,7.8935367E-1,-3.3990684E-1,2.5266433E0,1.8709585E-2,1.8518051E0,-2.049943E0,3.2142946E-1,1.3946512E0,-5.6139654E-1,7.059884E-1,2.6882303E-1,-8.339289E-2,-3.736894E-1,-1.348762E-2,-8.225048E-1,-1.0806774E-1,-1.4960592E0,-2.1707563E-1,1.0960193E0,-9.6559334E-1,1.1906927E-1,-3.3475477E-1,3.1091654E-1,-5.0873166E-1,5.508754E-1,1.421152E-1,8.556974E-1,-3.8495877E-1,8.426094E-3,2.5401837E-1,-1.7932406E-1,4.6654144E-1,-3.8757986E-1,-2.4688087E-1,-8.955271E-1,1.6758999E-1,-1.4980951E-2,8.717071E-1,-5.119305E-2,-1.3375324E-1,-6.839268E-1,-1.01979785E-1,2.2437374E-1,-3.393736E-1,6.8338275E-1,-2.9715824E-1,-6.837132E-2],"categories":[],"categories_nodes":[],"categories_segments":[],"categories_sizes":[],"default_left":[0,0,0,0,0,0,0,0,0,0,0,0,0,0,0,0,0,0,0,0,0,0,0,0,0,0,0,0,0,0,0,0,0,0,0,0,0,0,0,0,0,0,0,0,0,0,0,0,0,0,0,0,0,0,0,0,0,0,0,0,0,0,0,0,0,0,0,0,0,0,0,0,0,0,0,0,0,0,0,0,0,0,0,0,0,0,0,0,0,0,0],"id":12,"left_children":[1,3,5,7,9,11,13,15,17,19,21,23,25,27,29,31,33,35,37,-1,-1,39,-1,41,43,45,47,49,51,53,55,57,59,61,63,65,-1,67,69,71,73,75,77,-1,-1,-1,-1,79,81,83,85,87,89,-1,-1,-1,-1,-1,-1,-1,-1,-1,-1,-1,-1,-1,-1,-1,-1,-1,-1,-1,-1,-1,-1,-1,-1,-1,-1,-1,-1,-1,-1,-1,-1,-1,-1,-1,-1,-1,-1],"loss_changes":[2.3086763E1,1.240618E2,2.356399E1,4.6257195E1,2.3057872E2,3.3502346E1,2.9589836E1,6.434343E1,8.747302E1,1.5325931E2,3.3625988E1,3.3813137E1,6.920137E1,2.0482433E1,1.8484547E1,1.2995808E2,9.012035E1,1.4886386E2,3.899362E1,0E0,0E0,5.757635E0,0E0,8.07082E0,2.255682E0,7.359078E1,1.9909782E1,3.9602436E1,3.0247072E1,2.504921E-1,1.6256309E-1,6.835196E1,4.4137756E1,1.369379E2,1.038974E2,5.4773E0,0E0,2.845644E1,3.447248E1,2.6335516E0,2.6219323E0,1.2120105E1,8.8964E0,0E0,0E0,0E0,0E0,1.774432E1,1.3284407E1,7.0937347E0,3.356896E0,2.2656824E1,9.362741E0,0E0,0E0,0E0,0E0,0E0,0E0,0E0,0E0,0E0,0E0,0E0,0E0,0E0,0E0,0E0,0E0,0E0,0E0,0E0,0E0,0E0,0E0,0E0,0E0,0E0,0E0,0E0,0E0,0E0,0E0,0E0,0E0,0E0,0E0,0E0,0E0,0E0,0E0],"parents":[2147483647,0,0,1,1,2,2,3,3,4,4,5,5,6,6,7,7,8,8,9,9,10,10,11,11,12,12,13,13,14,14,15,15,16,16,17,17,18,18,21,21,23,23,24,24,25,25,26,26,27,27,28,28,29,29,30,30,31,31,32,32,33,33,34,34,35,35,37,37,38,38,39,39,40,40,41,41,42,42,47,47,48,48,49,49,50,50,51,51,52,52],"right_children":[2,4,6,8,10,12,14,16,18,20,22,24,26,28,30,32,34,36,38,-1,-1,40,-1,42,44,46,48,50,52,54,56,58,60,62,64,66,-1,68,70,72,74,76,78,-1,-1,-1,-1,80,82,84,86,88,90,-1,-1,-1,-1,-1,-1,-1,-1,-1,-1,-1,-1,-1,-1,-1,-1,-1,-1,-1,-1,-1,-1,-1,-1,-1,-1,-1,-1,-1,-1,-1,-1,-1,-1,-1,-1,-1,-1],"split_conditions":[1.9921053E2,1.9352162E2,1.8000002E0,1.3E1,3.1666667E0,2.0385556E2,1.17E1,9.206084E0,1.4E1,9.77275E0,1.9823343E2,1.2E1,2.0555989E2,1.675064E1,3.1966693E2,8.326918E0,1.2218583E1,3.3539994E0,1.7333334E1,3.4296618E0,1.3991661E-1,3.1E0,8.71176E-1,1.6946787E1,1.5333333E1,6E0,1.8000001E0,1.3489415E1,2.0619711E2,1.5081084E1,2.6666667E0,1.8720517E2,4.3333335E0,3.1666667E0,1.3058166E1,2.82275E0,2.8624992E0,2.9331663E0,1.791882E2,8.833333E0,1.3666667E1,1.8977499E0,2.3333333E0,1.04341514E-1,7.8935367E-1,-3.3990684E-1,2.5266433E0,2.2184917E2,1.6299694E1,-4.1474977E-1,2.4070164E2,3E0,2.4250787E2,7.059884E-1,2.6882303E-1,-8.339289E-2,-3.736894E-1,-1.348762E-2,-8.225048E-1,-1.0806774E-1,-1.4960592E0,-2.1707563E-1,1.0960193E0,-9.6559334E-1,1.1906927E-1,-3.3475477E-1,3.1091654E-1,-5.0873166E-1,5.508754E-1,1.421152E-1,8.556974E-1,-3.8495877E-1,8.426094E-3,2.5401837E-1,-1.7932406E-1,4.6654144E-1,-3.8757986E-1,-2.4688087E-1,-8.955271E-1,1.6758999E-1,-1.4980951E-2,8.717071E-1,-5.119305E-2,-1.3375324E-1,-6.839268E-1,-1.01979785E-1,2.2437374E-1,-3.393736E-1,6.8338275E-1,-2.9715824E-1,-6.837132E-2],"split_indices":[4,4,2,0,0,4,2,1,0,1,4,0,4,3,4,1,1,1,0,0,0,2,0,3,0,0,2,1,4,1,0,4,0,0,1,1,0,1,4,0,0,1,0,0,0,0,0,4,3,1,4,0,4,0,0,0,0,0,0,0,0,0,0,0,0,0,0,0,0,0,0,0,0,0,0,0,0,0,0,0,0,0,0,0,0,0,0,0,0,0,0],"split_type":[0,0,0,0,0,0,0,0,0,0,0,0,0,0,0,0,0,0,0,0,0,0,0,0,0,0,0,0,0,0,0,0,0,0,0,0,0,0,0,0,0,0,0,0,0,0,0,0,0,0,0,0,0,0,0,0,0,0,0,0,0,0,0,0,0,0,0,0,0,0,0,0,0,0,0,0,0,0,0,0,0,0,0,0,0,0,0,0,0,0,0],"sum_hessian":[9.67E2,3.51E2,6.16E2,3.32E2,1.9E1,5.03E2,1.13E2,2.8E2,5.2E1,5E0,1.4E1,1.9E1,4.84E2,1.05E2,8E0,1.76E2,1.04E2,5E0,4.7E1,3E0,2E0,1.1E1,3E0,1.7E1,2E0,2E0,4.82E2,3.1E1,7.4E1,6E0,2E0,1.66E2,1E1,2.9E1,7.5E1,3E0,2E0,1.2E1,3.5E1,7E0,4E0,7E0,1E1,1E0,1E0,1E0,1E0,4.77E2,5E0,2.1E1,1E1,8E0,6.6E1,4E0,2E0,1E0,1E0,1.57E2,9E0,3E0,7E0,1.1E1,1.8E1,8E0,6.7E1,2E0,1E0,1E1,2E0,2.8E1,7E0,5E0,2E0,3E0,1E0,1E0,6E0,4E0,6E0,5.3E1,4.24E2,3E0,2E0,3E0,1.8E1,4E0,6E0,2E0,6E0,2.8E1,3.8E1],"tree_param":{"num_deleted":"0","num_feature":"5","num_nodes":"91","size_leaf_vector":"1"}},{"base_weights":[3.8622487E-2,7.474101E-2,-3.7445742E-1,5.0289523E-2,4.397488E0,-2.5819836E-2,-6.7267483E-1,1.963315E-3,4.2635325E-1,8.412665E0,-3.2505566E-1,-2.2946718E-1,1.0958228E0,-8.1965023E-1,1.792948E-1,1.2331388E0,-2.0308545E-2,7.5491285E-1,-1.8784922E-1,-4.2670816E-2,3.8283703E0,-1.3325095E-2,-3.9238706E-1,1.764093E-1,-8.7667054E-1,7.340886E-1,-4.2032272E-1,-1.9386035E-1,3.1681144E0,1.1705951E-3,-2.3739758E0,-4.2926472E-1,1.2791045E0,-7.076936E-1,5.871124E-1,4.036336E-1,-3.3688602E-1,-6.874358E-1,-1.2270522E0,2.865672E-1,1.0602344E-2,4.9559213E-2,-2.0116857E-1,-2.4377978E-1,3.9434513E-1,2.2861157E-1,1.2541928E0,-3.0878544E-1,7.7601103E-3,-1.18803E0,3.1826675E-1,1.6301867E-1,-3.208874E-1,1.5836222E0,1.6415718E-1,1.804938E-1,-3.3845535E-1,-7.7328086E-2,4.7685125E-1,-5.565468E-2,3.057855E-1,3.2706076E-1,-1.4548859E-1,-2.2596264E-1,1.3790655E-2,-4.7270873E-1,-6.6900626E-2],"categories":[],"categories_nodes":[],"categories_segments":[],"categories_sizes":[],"default_left":[0,0,0,0,0,0,0,0,0,0,0,0,0,0,0,0,0,0,0,0,0,0,0,0,0,0,0,0,0,0,0,0,0,0,0,0,0,0,0,0,0,0,0,0,0,0,0,0,0,0,0,0,0,0,0,0,0,0,0,0,0,0,0,0,0,0,0],"id":13,"left_children":[1,3,5,7,9,11,13,15,17,19,-1,21,-1,23,25,27,29,31,33,-1,-1,35,-1,-1,37,39,41,43,45,47,49,51,53,55,57,59,61,63,65,-1,-1,-1,-1,-1,-1,-1,-1,-1,-1,-1,-1,-1,-1,-1,-1,-1,-1,-1,-1,-1,-1,-1,-1,-1,-1,-1,-1],"loss_changes":[1.4470391E1,9.395543E1,8.092277E0,1.6119263E1,1.1915137E2,2.8555975E1,5.4061375E0,2.160503E1,2.0523827E1,1.13419846E2,0E0,8.374424E0,0E0,3.4051018E0,2.6372027E0,3.927109E1,3.9132156E1,4.1517647E1,1.4918434E1,0E0,0E0,4.318236E0,0E0,0E0,1.4771347E0,5.8431244E-1,6.968551E-1,9.467588E0,1.1431507E1,1.957113E1,4.233807E1,1.3661133E1,1.3177141E2,1.27912035E1,1.31131115E1,5.2670407E0,4.3324213E0,1.2405777E0,3.4992294E0,0E0,0E0,0E0,0E0,0E0,0E0,0E0,0E0,0E0,0E0,0E0,0E0,0E0,0E0,0E0,0E0,0E0,0E0,0E0,0E0,0E0,0E0,0E0,0E0,0E0,0E0,0E0,0E0],"parents":[2147483647,0,0,1,1,2,2,3,3,4,4,5,5,6,6,7,7,8,8,9,9,11,11,13,13,14,14,15,15,16,16,17,17,18,18,21,21,24,24,25,25,26,26,27,27,28,28,29,29,30,30,31,31,32,32,33,33,34,34,35,35,36,36,37,37,38,38],"right_children":[2,4,6,8,10,12,14,16,18,20,-1,22,-1,24,26,28,30,32,34,-1,-1,36,-1,-1,38,40,42,44,46,48,50,52,54,56,58,60,62,64,66,-1,-1,-1,-1,-1,-1,-1,-1,-1,-1,-1,-1,-1,-1,-1,-1,-1,-1,-1,-1,-1,-1,-1,-1,-1,-1,-1,-1],"split_conditions":[2.628E1,2.6109928E1,9.000001E-1,1.4333333E1,1.1102501E0,9E-1,1.1591499E1,8.311245E0,7E-1,2.3333333E0,-3.2505566E-1,1.2806084E1,1.0958228E0,-8.114751E0,2.819285E1,6.6666665E0,1.4E1,1.7373334E0,1.3616497E1,-4.2670816E-2,3.8283703E0,2.653782E2,-3.9238706E-1,1.764093E-1,6.7E0,5.5E0,1.6043585E1,1.3058166E1,-9.075166E0,1.1741974E1,2.2960727E2,8.648759E1,1.6E1,1.5124284E1,1.7035456E1,2.5121727E2,-4.191833E0,6.1999993E0,2.1957893E2,2.865672E-1,1.0602344E-2,4.9559213E-2,-2.0116857E-1,-2.4377978E-1,3.9434513E-1,2.2861157E-1,1.2541928E0,-3.0878544E-1,7.7601103E-3,-1.18803E0,3.1826675E-1,1.6301867E-1,-3.208874E-1,1.5836222E0,1.6415718E-1,1.804938E-1,-3.3845535E-1,-7.7328086E-2,4.7685125E-1,-5.565468E-2,3.057855E-1,3.2706076E-1,-1.4548859E-1,-2.2596264E-1,1.3790655E-2,-4.7270873E-1,-6.6900626E-2],"split_indices":[3,3,2,0,1,2,1,3,2,0,0,1,0,1,3,0,0,1,1,0,0,4,0,0,2,0,1,1,1,4,4,4,0,3,3,4,1,2,4,0,0,0,0,0,0,0,0,0,0,0,0,0,0,0,0,0,0,0,0,0,0,0,0,0,0,0,0],"split_type":[0,0,0,0,0,0,0,0,0,0,0,0,0,0,0,0,0,0,0,0,0,0,0,0,0,0,0,0,0,0,0,0,0,0,0,0,0,0,0,0,0,0,0,0,0,0,0,0,0,0,0,0,0,0,0,0,0,0,0,0,0,0,0,0,0,0,0],"sum_hessian":[9.67E2,8.9E2,7.7E1,8.86E2,4E0,3.6E1,4.1E1,7.86E2,1E2,2E0,2E0,3.5E1,1E0,3.5E1,6E0,1.3E1,7.73E2,6.5E1,3.5E1,1E0,1E0,3E1,5E0,1E0,3.4E1,3E0,3E0,8E0,5E0,7.67E2,6E0,2E1,4.5E1,2.1E1,1.4E1,1.3E1,1.7E1,2.4E1,1E1,2E0,1E0,1E0,2E0,6E0,2E0,2E0,3E0,1.7E1,7.5E2,4E0,2E0,8E0,1.2E1,6E0,3.9E1,5E0,1.6E1,8E0,6E0,7E0,6E0,1E0,1.6E1,2.2E1,2E0,7E0,3E0],"tree_param":{"num_deleted":"0","num_feature":"5","num_nodes":"67","size_leaf_vector":"1"}},{"base_weights":[3.3709325E-2,1.0487766E-1,-1.733313E-1,-3.6039492E-1,1.7096888E-1,1.2133392E0,-2.3062576E-1,3.9489907E-1,-8.4821653E-1,5.135748E-1,-3.188314E-3,1.774077E0,5.4383457E-1,9.300981E-1,-2.8537396E-1,-2.1015571E-1,2.931577E0,4.3146017E-1,-1.1421771E0,3.146948E-1,4.137126E0,-1.1171216E0,8.228786E-2,1.16730124E-1,7.7030843E-1,7.158995E-4,6.51647E-1,1.6844968E0,2.068313E-2,-4.8785874E-1,-4.581273E-2,4.4495493E-1,-7.372965E-1,2.7906E-1,4.8511996E0,-9.169284E-1,1.0517219E0,-5.110812E-1,-1.5439788E0,5.421267E-1,-5.971614E-1,-6.47429E-1,5.7758527E0,-2.3248768E0,8.88251E-1,8.818937E-1,-2.425594E-2,7.511155E-1,3.806591E-2,-4.312849E-2,2.0789008E0,-2.8565198E-1,7.451546E-1,-3.293982E-1,-8.378116E-1,7.826673E-1,-2.4758328E-1,2.573782E-1,-2.405873E-1,-3.070839E-1,1.3474053E-1,-1.096294E-1,3.318801E-1,2.0386405E-1,1.8045706E0,-4.009287E-1,5.123599E-2,1.3268323E-1,5.760111E-1,1.2239533E-1,-1.9296171E-1,-5.9108055E-1,-2.2344182E-1,-8.7996475E-2,3.0567104E-1,1.4689764E-1,-2.7543944E-1,3.2143595E0,4.562275E-1,-2.2071014E-1,-9.0052515E-1,1.0341525E-2,1.0314295E0,9.75098E-2,3.8910964E0,-3.8142708E-1,1.9305728E-2,4.2635538E-2,2.7202252E-1,7.2833717E-1,1.025013E-1,1.6928531E-2,2.8677616E-1,-1.6373393E-1,-6.671965E-3,2.821251E-2,-3.5219252E-1,4.385252E-2,6.1043096E-1,-1.3950254E-1,7.342605E-2],"categories":[],"categories_nodes":[],"categories_segments":[],"categories_sizes":[],"default_left":[0,0,0,0,0,0,0,0,0,0,0,0,0,0,0,0,0,0,0,0,0,0,0,0,0,0,0,0,0,0,0,0,0,0,0,0,0,0,0,0,0,0,0,0,0,0,0,0,0,0,0,0,0,0,0,0,0,0,0,0,0,0,0,0,0,0,0,0,0,0,0,0,0,0,0,0,0,0,0,0,0,0,0,0,0,0,0,0,0,0,0,0,0,0,0,0,0,0,0,0,0],"id":14,"left_children":[1,3,5,7,9,11,13,15,17,19,21,23,25,27,29,31,33,35,37,39,41,43,45,-1,-1,-1,47,49,51,53,55,57,59,61,63,65,67,69,71,73,75,-1,77,79,81,83,85,87,-1,-1,89,-1,91,93,95,97,99,-1,-1,-1,-1,-1,-1,-1,-1,-1,-1,-1,-1,-1,-1,-1,-1,-1,-1,-1,-1,-1,-1,-1,-1,-1,-1,-1,-1,-1,-1,-1,-1,-1,-1,-1,-1,-1,-1,-1,-1,-1,-1,-1,-1],"loss_changes":[1.4281403E1,2.2232681E1,1.9983063E1,3.3495342E1,3.771136E1,2.789361E0,1.5453288E1,5.5869934E1,2.1182407E1,1.5219688E2,4.0082127E1,4.4966183E0,3.4869397E-1,7.511835E0,1.1085867E1,1.068813E1,3.4289043E1,1.0164246E1,1.0621796E1,4.242294E1,1.2594249E2,7.472505E1,3.3331875E1,0E0,0E0,0E0,1.6567945E-1,4.6253014E0,4.938357E0,6.6002884E0,1.791304E1,7.8971863E0,6.2345533E0,2.5367756E0,1.5336182E1,2.0534325E0,3.3843298E0,2.5696077E0,7.7308655E0,6.5225395E1,1.4751874E1,0E0,1.7283664E2,1.8229378E1,2.6005564E1,3.0543665E2,3.83181E1,2.502389E-1,0E0,0E0,2.2010021E0,0E0,5.266988E-1,5.770179E0,1.20140915E1,1.6438591E1,9.319804E0,0E0,0E0,0E0,0E0,0E0,0E0,0E0,0E0,0E0,0E0,0E0,0E0,0E0,0E0,0E0,0E0,0E0,0E0,0E0,0E0,0E0,0E0,0E0,0E0,0E0,0E0,0E0,0E0,0E0,0E0,0E0,0E0,0E0,0E0,0E0,0E0,0E0,0E0,0E0,0E0,0E0,0E0,0E0,0E0],"parents":[2147483647,0,0,1,1,2,2,3,3,4,4,5,5,6,6,7,7,8,8,9,9,10,10,11,11,12,12,13,13,14,14,15,15,16,16,17,17,18,18,19,19,20,20,21,21,22,22,26,26,27,27,28,28,29,29,30,30,31,31,32,32,33,33,34,34,35,35,36,36,37,37,38,38,39,39,40,40,42,42,43,43,44,44,45,45,46,46,47,47,50,50,52,52,53,53,54,54,55,55,56,56],"right_children":[2,4,6,8,10,12,14,16,18,20,22,24,26,28,30,32,34,36,38,40,42,44,46,-1,-1,-1,48,50,52,54,56,58,60,62,64,66,68,70,72,74,76,-1,78,80,82,84,86,88,-1,-1,90,-1,92,94,96,98,100,-1,-1,-1,-1,-1,-1,-1,-1,-1,-1,-1,-1,-1,-1,-1,-1,-1,-1,-1,-1,-1,-1,-1,-1,-1,-1,-1,-1,-1,-1,-1,-1,-1,-1,-1,-1,-1,-1,-1,-1,-1,-1,-1,-1],"split_conditions":[2.752384E2,-3.4391665E-1,-8.3376665E0,7.722532E1,4.837333E0,1.3276144E1,1.0086427E1,5.869646E1,1.14862E1,4.6060834E0,5.912334E0,8.311245E0,1E0,-1.896E0,2E-1,3.1666667E0,1.835647E1,7.342588E0,3E0,3.3539994E0,1.3036026E1,2.3079347E2,1.1874544E1,1.16730124E-1,7.7030843E-1,7.158995E-4,5.5E0,4.8333335E0,9.587333E0,4.5E0,1.4230248E1,4.814296E1,1.2666667E1,1.5463244E1,4.3333335E0,-1.896E0,4E-1,1.1684467E2,1.9386593E1,1.3692923E2,1.3525925E2,-6.47429E-1,1.5561413E1,4E0,6E0,1.1792404E1,1.2594856E1,1.3363711E1,3.806591E-2,-4.312849E-2,1.4333333E1,-2.8565198E-1,1.8333334E0,3.1066672E2,1.243434E1,1.3608762E1,3.296686E2,2.573782E-1,-2.405873E-1,-3.070839E-1,1.3474053E-1,-1.096294E-1,3.318801E-1,2.0386405E-1,1.8045706E0,-4.009287E-1,5.123599E-2,1.3268323E-1,5.760111E-1,1.2239533E-1,-1.9296171E-1,-5.9108055E-1,-2.2344182E-1,-8.7996475E-2,3.0567104E-1,1.4689764E-1,-2.7543944E-1,3.2143595E0,4.562275E-1,-2.2071014E-1,-9.0052515E-1,1.0341525E-2,1.0314295E0,9.75098E-2,3.8910964E0,-3.8142708E-1,1.9305728E-2,4.2635538E-2,2.7202252E-1,7.2833717E-1,1.025013E-1,1.6928531E-2,2.8677616E-1,-1.6373393E-1,-6.671965E-3,2.821251E-2,-3.5219252E-1,4.385252E-2,6.1043096E-1,-1.3950254E-1,7.342605E-2],"split_indices":[4,1,1,4,1,3,3,4,3,1,1,3,0,1,2,0,3,3,0,1,3,4,3,0,0,0,0,0,1,0,3,4,0,3,0,1,2,4,3,4,4,0,3,0,0,3,3,3,0,0,0,0,0,4,3,3,4,0,0,0,0,0,0,0,0,0,0,0,0,0,0,0,0,0,0,0,0,0,0,0,0,0,0,0,0,0,0,0,0,0,0,0,0,0,0,0,0,0,0,0,0],"split_type":[0,0,0,0,0,0,0,0,0,0,0,0,0,0,0,0,0,0,0,0,0,0,0,0,0,0,0,0,0,0,0,0,0,0,0,0,0,0,0,0,0,0,0,0,0,0,0,0,0,0,0,0,0,0,0,0,0,0,0,0,0,0,0,0,0,0,0,0,0,0,0,0,0,0,0,0,0,0,0,0,0,0,0,0,0,0,0,0,0,0,0,0,0,0,0,0,0,0,0,0,0],"sum_hessian":[9.67E2,7.2E2,2.47E2,8.9E1,6.31E2,9E0,2.38E2,3.5E1,5.4E1,2.12E2,4.19E2,4E0,5E0,1E1,2.28E2,2.9E1,6E0,1E1,4.4E1,2.02E2,1E1,2.9E1,3.9E2,2E0,2E0,1E0,4E0,5E0,5E0,1.23E2,1.05E2,1.3E1,1.6E1,3E0,3E0,3E0,7E0,1.8E1,2.6E1,1.62E2,4E1,2E0,8E0,1.8E1,1.1E1,4.5E1,3.45E2,3E0,1E0,1E0,4E0,2E0,3E0,8.6E1,3.7E1,2E1,8.5E1,1E1,3E0,1.3E1,3E0,2E0,1E0,1E0,2E0,2E0,1E0,5E0,2E0,2E0,1.6E1,1.6E1,1E1,5.9E1,1.03E2,9E0,3.1E1,3E0,5E0,6E0,1.2E1,9E0,2E0,4.4E1,1E0,2.2E1,3.23E2,1E0,2E0,3E0,1E0,1E0,2E0,5E1,3.6E1,1E1,2.7E1,1.4E1,6E0,5.9E1,2.6E1],"tree_param":{"num_deleted":"0","num_feature":"5","num_nodes":"101","size_leaf_vector":"1"}},{"base_weights":[3.4287002E-2,2.54148E-2,1.4525609E0,2.0563988E-1,-4.3303374E-2,7.70264E-1,-1.554821E-1,1.5599558E-1,3.4183435E0,-1.0996053E0,-7.3000486E-3,-6.0479954E-2,9.572619E-1,2.4918494E0,-9.796519E-1,-1.3278108E0,5.881369E-1,1.06136054E-1,-3.7081388E-1,4.4354385E-1,-5.1355153E-1,3.6635492E0,4.958831E-1,-5.0697774E-1,6.613433E-2,9.4903594E-1,-1.6029472E0,3.5748243E-1,-1.3143566E-1,-1.6272261E0,-2.6782882E-1,2.6837708E-2,5.0363237E-1,-3.595501E-1,-1.6820863E-2,3.1109348E-1,3.307432E0,-3.105114E-1,3.0611163E-1,4.4371334E-1,-1.6647149E-2,-9.123178E-1,-2.308185E-1,-2.346937E-2,2.7774814E-1,-4.820495E-1,-1.1058861E-2,-1.1566214E-2,-9.628418E-1,-1.1158391E-1,2.3104994E-1],"categories":[],"categories_nodes":[],"categories_segments":[],"categories_sizes":[],"default_left":[0,0,0,0,0,0,0,0,0,0,0,0,0,0,0,0,0,0,0,0,0,0,0,0,0,0,0,0,0,0,0,0,0,0,0,0,0,0,0,0,0,0,0,0,0,0,0,0,0,0,0],"id":15,"left_children":[1,3,5,7,9,-1,-1,11,13,15,17,19,21,-1,23,25,-1,27,29,31,33,35,37,-1,-1,39,41,43,45,47,49,-1,-1,-1,-1,-1,-1,-1,-1,-1,-1,-1,-1,-1,-1,-1,-1,-1,-1,-1,-1],"loss_changes":[1.2143633E1,1.1935409E1,1.4515406E1,4.1891747E1,2.653718E1,0E0,0E0,4.5676437E1,9.4123604E1,1.8664534E1,2.7914616E1,4.7726433E1,6.810622E1,0E0,2.9297388E0,1.5303013E1,0E0,3.0858784E1,2.0396246E1,4.315008E1,3.440148E1,1.4324576E2,4.0400734E1,0E0,0E0,1.6792953E0,2.1635056E1,6.2228947E1,3.7056362E1,3.0040316E1,1.6497486E1,0E0,0E0,0E0,0E0,0E0,0E0,0E0,0E0,0E0,0E0,0E0,0E0,0E0,0E0,0E0,0E0,0E0,0E0,0E0,0E0],"parents":[2147483647,0,0,1,1,2,2,3,3,4,4,7,7,8,8,9,9,10,10,11,11,12,12,14,14,15,15,17,17,18,18,19,19,20,20,21,21,22,22,25,25,26,26,27,27,28,28,29,29,30,30],"right_children":[2,4,6,8,10,-1,-1,12,14,16,18,20,22,-1,24,26,-1,28,30,32,34,36,38,-1,-1,40,42,44,46,48,50,-1,-1,-1,-1,-1,-1,-1,-1,-1,-1,-1,-1,-1,-1,-1,-1,-1,-1,-1,-1],"split_conditions":[2.2487335E1,1.405845E1,1.7E1,1.4021525E1,1.4332341E1,7.70264E-1,-1.554821E-1,1.4756082E1,4E0,4.2999997E0,1.2435249E1,3.070667E0,1.5176915E1,2.4918494E0,4.5E0,2.6641949E1,5.881369E-1,2.361312E2,1.2941501E1,7E-1,7.7498336E0,1.5081084E1,1.6904001E1,-5.0697774E-1,6.613433E-2,2.3333333E0,1.8293228E2,5.3333335E0,2.4250787E2,5.5E0,2.01415E1,2.6837708E-2,5.0363237E-1,-3.595501E-1,-1.6820863E-2,3.1109348E-1,3.307432E0,-3.105114E-1,3.0611163E-1,4.4371334E-1,-1.6647149E-2,-9.123178E-1,-2.308185E-1,-2.346937E-2,2.7774814E-1,-4.820495E-1,-1.1058861E-2,-1.1566214E-2,-9.628418E-1,-1.1158391E-1,2.3104994E-1],"split_indices":[1,3,0,3,3,0,0,1,0,2,1,1,1,0,0,4,0,4,1,2,1,1,1,0,0,0,4,0,4,0,1,0,0,0,0,0,0,0,0,0,0,0,0,0,0,0,0,0,0,0,0],"split_type":[0,0,0,0,0,0,0,0,0,0,0,0,0,0,0,0,0,0,0,0,0,0,0,0,0,0,0,0,0,0,0,0,0,0,0,0,0,0,0,0,0,0,0,0,0,0,0,0,0,0,0],"sum_hessian":[9.67E2,9.62E2,5E0,2.65E2,6.97E2,3E0,2E0,2.62E2,3E0,2.2E1,6.75E2,2.07E2,5.5E1,1E0,2E0,2.1E1,1E0,5.15E2,1.6E2,9.8E1,1.09E2,7E0,4.8E1,1E0,1E0,2E0,1.9E1,2.5E2,2.65E2,1.1E1,1.49E2,7.7E1,2.1E1,4.3E1,6.6E1,6E0,1E0,1.2E1,3.6E1,1E0,1E0,6E0,1.3E1,1.42E2,1.08E2,1.5E1,2.5E2,6E0,5E0,1.36E2,1.3E1],"tree_param":{"num_deleted":"0","num_feature":"5","num_nodes":"51","size_leaf_vector":"1"}},{"base_weights":[2.9385492E-2,9.253695E-2,-1.411392E-1,-4.1608253E-1,1.8594098E-1,5.217582E-1,-3.536231E-1,-6.4323205E-1,3.0181503E0,8.630316E-1,3.1549573E-2,1.0236799E0,-8.178014E-1,-7.9198194E-1,-1.5870573E-1,-2.4325277E-1,-1.8338139E0,1.6584076E0,9.0859526E-1,5.3984046E-1,4.0732784E0,-9.5355856E-1,7.349118E-2,3.753649E-1,2.525039E0,-5.902673E-1,-5.511096E-1,8.670811E-1,-1.0231028E0,-4.095872E-1,2.5611305E-1,4.5797405E-1,-8.4097695E-1,-2.2203243E0,8.470743E-1,3.2656962E-1,2.8307248E-2,-1.31332725E-2,2.4397562E0,8.881348E-1,8.62896E0,-1.1889709E0,5.278914E-1,4.0570693E0,4.7743373E-2,-1.3763655E0,9.67296E-1,5.8434987E0,6.133052E-1,2.2627258E-1,-7.4791104E-1,1.2184875E0,-1.6951445E-1,-4.3269607E-1,-1.8000554E0,-3.09872E-1,-2.4012096E0,8.94908E-1,-1.9106202E-1,6.9910127E-1,6.726786E-2,-1.0033251E-1,-5.59902E-1,-9.0833026E-1,-4.0989274E-1,-2.4409972E-1,8.743942E-1,3.1635308E-1,-2.8689805E-1,1.060018E0,-3.7433425E-1,1.1280473E0,-3.0381182E-1,3.2546487E0,2.954032E-1,-1.570144E-1,-4.876368E-1,-2.7624315E-1,2.1019244E0,-2.743346E-1,2.5837488E-2,1.2695752E-1,-5.8529425E-1,3.988056E-1,-6.754749E-1,7.381334E-1,2.1836162E0,5.209746E-1,-4.5172662E-1,2.0674445E-1,-1.7435311E-1,1.1434922E-1,-2.621293E-1,-4.2572185E-1,1.8423705E-1,2.6161158E-1,-3.4729627E-1,-6.691861E-1,5.88308E-2,-2.2042345E-1,-1.8067557E-2,-4.4005968E-2,-9.3114656E-1,7.8696616E-2,8.9797086E-1,-1.6174163E-1,2.2751151E-1],"categories":[],"categories_nodes":[],"categories_segments":[],"categories_sizes":[],"default_left":[0,0,0,0,0,0,0,0,0,0,0,0,0,0,0,0,0,0,0,0,0,0,0,0,0,0,0,0,0,0,0,0,0,0,0,0,0,0,0,0,0,0,0,0,0,0,0,0,0,0,0,0,0,0,0,0,0,0,0,0,0,0,0,0,0,0,0,0,0,0,0,0,0,0,0,0,0,0,0,0,0,0,0,0,0,0,0,0,0,0,0,0,0,0,0,0,0,0,0,0,0,0,0,0,0,0,0],"id":16,"left_children":[1,3,5,7,9,11,13,15,17,19,21,23,25,27,29,31,33,-1,35,37,39,41,43,45,47,-1,49,51,53,55,57,59,61,63,65,-1,-1,67,69,71,73,75,-1,77,79,81,83,85,87,89,91,-1,93,95,97,99,101,103,105,-1,-1,-1,-1,-1,-1,-1,-1,-1,-1,-1,-1,-1,-1,-1,-1,-1,-1,-1,-1,-1,-1,-1,-1,-1,-1,-1,-1,-1,-1,-1,-1,-1,-1,-1,-1,-1,-1,-1,-1,-1,-1,-1,-1,-1,-1,-1,-1],"loss_changes":[1.0437339E1,3.366489E1,3.708852E1,8.775063E1,6.2485886E1,4.3867817E1,1.6877617E1,4.907956E1,3.20403E1,1.1296616E2,2.0232784E1,4.47998E1,4.435011E0,2.4277195E1,1.457068E1,3.3497227E1,2.8821747E1,0E0,6.299782E-1,1.0719359E2,1.3744131E2,1.4866556E1,4.7910885E1,3.6586082E1,8.523232E1,0E0,2.6170712E0,2.7180103E1,2.399189E1,1.65337E1,1.5310602E1,1.5670932E1,2.1709265E1,1.1723213E1,1.6106352E1,0E0,0E0,8.1568016E1,9.716391E1,4.2022747E1,5.719458E1,4.6691456E0,0E0,5.0496037E1,1.7325281E1,1.0132116E1,3.3293915E1,6.3682556E0,2.6417778E1,1.8955115E0,2.1803184E0,0E0,7.725895E0,3.1277609E1,2.0205376E1,8.865474E0,5.880932E0,2.8417013E1,1.0984093E1,0E0,0E0,0E0,0E0,0E0,0E0,0E0,0E0,0E0,0E0,0E0,0E0,0E0,0E0,0E0,0E0,0E0,0E0,0E0,0E0,0E0,0E0,0E0,0E0,0E0,0E0,0E0,0E0,0E0,0E0,0E0,0E0,0E0,0E0,0E0,0E0,0E0,0E0,0E0,0E0,0E0,0E0,0E0,0E0,0E0,0E0,0E0,0E0],"parents":[2147483647,0,0,1,1,2,2,3,3,4,4,5,5,6,6,7,7,8,8,9,9,10,10,11,11,12,12,13,13,14,14,15,15,16,16,18,18,19,19,20,20,21,21,22,22,23,23,24,24,26,26,27,27,28,28,29,29,30,30,31,31,32,32,33,33,34,34,37,37,38,38,39,39,40,40,41,41,43,43,44,44,45,45,46,46,47,47,48,48,49,49,50,50,52,52,53,53,54,54,55,55,56,56,57,57,58,58],"right_children":[2,4,6,8,10,12,14,16,18,20,22,24,26,28,30,32,34,-1,36,38,40,42,44,46,48,-1,50,52,54,56,58,60,62,64,66,-1,-1,68,70,72,74,76,-1,78,80,82,84,86,88,90,92,-1,94,96,98,100,102,104,106,-1,-1,-1,-1,-1,-1,-1,-1,-1,-1,-1,-1,-1,-1,-1,-1,-1,-1,-1,-1,-1,-1,-1,-1,-1,-1,-1,-1,-1,-1,-1,-1,-1,-1,-1,-1,-1,-1,-1,-1,-1,-1,-1,-1,-1,-1,-1,-1],"split_conditions":[1.4000001E0,1.2009584E2,1.2276044E2,1.7868586E1,1.9921053E2,2.2682856E1,1.9352162E2,8.648759E1,1E-1,2.167786E1,2.0385556E2,8.454E0,1.8E0,1.5072783E1,4.5E0,1.2852501E0,1.7906157E1,1.6584076E0,1.3776762E1,1.0333333E1,6E-1,1.5333333E1,2.0555989E2,1.3397612E1,1.1831082E1,-5.902673E-1,3.9999995E0,1.3727499E0,1.7455977E2,4.2999997E0,6.6E0,8.311245E0,4.5E0,1.7206668E0,4.8333335E0,3.2656962E-1,2.8307248E-2,1.3608762E1,1.8576918E1,2.289611E1,1.1274834E1,1.6946787E1,5.278914E-1,6E0,2.1192699E2,-1.1980833E0,7.926916E0,1.0285252E1,6.1666665E0,4.3333335E0,6.666667E-1,1.2184875E0,1.1734564E1,3.029E0,1.4333333E1,3.6810834E0,1.8333334E0,6.2E0,1.17E1,6.9910127E-1,6.726786E-2,-1.0033251E-1,-5.59902E-1,-9.0833026E-1,-4.0989274E-1,-2.4409972E-1,8.743942E-1,3.1635308E-1,-2.8689805E-1,1.060018E0,-3.7433425E-1,1.1280473E0,-3.0381182E-1,3.2546487E0,2.954032E-1,-1.570144E-1,-4.876368E-1,-2.7624315E-1,2.1019244E0,-2.743346E-1,2.5837488E-2,1.2695752E-1,-5.8529425E-1,3.988056E-1,-6.754749E-1,7.381334E-1,2.1836162E0,5.209746E-1,-4.5172662E-1,2.0674445E-1,-1.7435311E-1,1.1434922E-1,-2.621293E-1,-4.2572185E-1,1.8423705E-1,2.6161158E-1,-3.4729627E-1,-6.691861E-1,5.88308E-2,-2.2042345E-1,-1.8067557E-2,-4.4005968E-2,-9.3114656E-1,7.8696616E-2,8.9797086E-1,-1.6174163E-1,2.2751151E-1],"split_indices":[2,4,4,1,4,3,4,4,2,3,4,1,2,3,2,1,3,0,3,0,2,0,4,3,1,0,2,1,4,2,2,3,0,1,0,0,0,3,1,3,1,3,0,0,4,1,1,1,0,0,0,0,3,1,0,1,0,2,2,0,0,0,0,0,0,0,0,0,0,0,0,0,0,0,0,0,0,0,0,0,0,0,0,0,0,0,0,0,0,0,0,0,0,0,0,0,0,0,0,0,0,0,0,0,0,0,0],"split_type":[0,0,0,0,0,0,0,0,0,0,0,0,0,0,0,0,0,0,0,0,0,0,0,0,0,0,0,0,0,0,0,0,0,0,0,0,0,0,0,0,0,0,0,0,0,0,0,0,0,0,0,0,0,0,0,0,0,0,0,0,0,0,0,0,0,0,0,0,0,0,0,0,0,0,0,0,0,0,0,0,0,0,0,0,0,0,0,0,0,0,0,0,0,0,0,0,0,0,0,0,0,0,0,0,0,0,0],"sum_hessian":[9.67E2,7.06E2,2.61E2,1.09E2,5.97E2,6.3E1,1.98E2,1.03E2,6E0,1.1E2,4.87E2,4.6E1,1.7E1,6E1,1.38E2,7.8E1,2.5E1,2E0,4E0,1.01E2,9E0,1.9E1,4.68E2,3.3E1,1.3E1,2E0,1.5E1,7E0,5.3E1,8.6E1,5.2E1,3.6E1,4.2E1,2.2E1,3E0,3E0,1E0,7.9E1,2.2E1,6E0,3E0,1.8E1,1E0,2E0,4.66E2,8E0,2.5E1,4E0,9E0,3E0,1.2E1,1E0,6E0,3.1E1,2.2E1,8.3E1,3E0,2.1E1,3.1E1,3E0,3.3E1,2.9E1,1.3E1,1E1,1.2E1,2E0,1E0,3.7E1,4.2E1,1.7E1,5E0,2E0,4E0,2E0,1E0,8E0,1E1,1E0,1E0,1.7E1,4.49E2,2E0,6E0,2.3E1,2E0,2E0,2E0,6E0,3E0,2E0,1E0,1E0,1.1E1,2E0,4E0,1.1E1,2E1,1.8E1,4E0,3E1,5.3E1,1E0,2E0,1.7E1,4E0,2.3E1,8E0],"tree_param":{"num_deleted":"0","num_feature":"5","num_nodes":"107","size_leaf_vector":"1"}},{"base_weights":[3.0530006E-2,4.257486E-2,-7.9328185E-1,1.8902984E-2,9.224125E-1,9.186978E-1,-1.5699434E0,4.369678E-2,-8.8137203E-1,4.463924E0,2.3657353E-1,-1.9884624E-1,6.5819514E-1,-2.086942E0,-2.7271032E-1,1.6498066E-2,4.905891E-1,-1.1635818E0,2.0622294E-1,2.1372936E0,3.607073E-1,-5.3341836E-1,1.055058E0,-6.804153E-1,-1.5004313E-1,-3.0454847E-1,3.1316057E-1,6.909252E-2,-3.162916E-1,6.2826335E-2,1.2302388E0,-1.9138522E0,-5.0391394E-1,5.919911E-1,-2.5839272E-1,-1.9926465E0,1.7439617E-1,2.1499717E0,3.757189E-1,1.6458887E-1,-2.3666598E-2,-9.270564E-2,4.437987E-2,7.958597E-2,-1.734138E-1,9.677499E-2,-4.5248422E-1,-1.3592422E-2,5.067083E-1,-7.7167827E-1,-2.6180196E-1,4.079075E-2,-1.9364625E-1,1.4759589E-2,2.146169E-1,-2.0847283E-1,-8.8287866E-1,-8.290629E-2,3.5040456E-1,8.058255E-1,8.12449E-2,-1.7920834E-1,1.8002029E-1],"categories":[],"categories_nodes":[],"categories_segments":[],"categories_sizes":[],"default_left":[0,0,0,0,0,0,0,0,0,0,0,0,0,0,0,0,0,0,0,0,0,0,0,0,0,0,0,0,0,0,0,0,0,0,0,0,0,0,0,0,0,0,0,0,0,0,0,0,0,0,0,0,0,0,0,0,0,0,0,0,0,0,0],"id":17,"left_children":[1,3,5,7,9,11,13,15,17,19,21,-1,-1,23,25,27,29,31,33,-1,-1,35,37,-1,-1,-1,39,41,43,45,47,49,51,53,-1,55,57,59,61,-1,-1,-1,-1,-1,-1,-1,-1,-1,-1,-1,-1,-1,-1,-1,-1,-1,-1,-1,-1,-1,-1,-1,-1],"loss_changes":[9.638941E0,1.9872742E1,2.0057106E1,2.081958E1,5.966662E1,1.153866E1,6.1375446E0,1.10163965E1,7.913208E0,2.614215E1,1.4427768E1,0E0,0E0,8.773346E-1,2.0578306E0,1.5004329E1,1.6375229E1,8.934166E0,2.9808066E0,0E0,0E0,1.2741862E1,7.3742113E0,0E0,0E0,0E0,3.202269E-1,2.210544E1,1.796433E1,1.4362148E1,1.1195454E1,3.9249535E0,1.1748526E0,2.9970276E-1,0E0,2.8877964E0,4.353654E0,3.3023243E0,2.104931E0,0E0,0E0,0E0,0E0,0E0,0E0,0E0,0E0,0E0,0E0,0E0,0E0,0E0,0E0,0E0,0E0,0E0,0E0,0E0,0E0,0E0,0E0,0E0,0E0],"parents":[2147483647,0,0,1,1,2,2,3,3,4,4,5,5,6,6,7,7,8,8,9,9,10,10,13,13,14,14,15,15,16,16,17,17,18,18,21,21,22,22,26,26,27,27,28,28,29,29,30,30,31,31,32,32,33,33,35,35,36,36,37,37,38,38],"right_children":[2,4,6,8,10,12,14,16,18,20,22,-1,-1,24,26,28,30,32,34,-1,-1,36,38,-1,-1,-1,40,42,44,46,48,50,52,54,-1,56,58,60,62,-1,-1,-1,-1,-1,-1,-1,-1,-1,-1,-1,-1,-1,-1,-1,-1,-1,-1,-1,-1,-1,-1,-1,-1],"split_conditions":[1.5500001E1,8.899999E0,3E0,7.299999E0,9.1E0,9.6233344E-1,2.1E1,4.7000003E0,1.5176915E1,6E0,9.8915E0,-1.9884624E-1,6.5819514E-1,1.7333334E1,1.9164719E1,1.8000003E0,9.083167E0,8E0,2.0148207E2,2.1372936E0,3.607073E-1,1.1199874E2,1.5827721E1,-6.804153E-1,-1.5004313E-1,-3.0454847E-1,7.3333335E0,1.2859091E2,1.5206666E0,1.1E1,1.5561413E1,1.0824834E1,-9.314167E-1,7.3999996E0,-2.5839272E-1,3.1666667E0,6.6666665E0,4.3333335E0,1.584409E1,1.6458887E-1,-2.3666598E-2,-9.270564E-2,4.437987E-2,7.958597E-2,-1.734138E-1,9.677499E-2,-4.5248422E-1,-1.3592422E-2,5.067083E-1,-7.7167827E-1,-2.6180196E-1,4.079075E-2,-1.9364625E-1,1.4759589E-2,2.146169E-1,-2.0847283E-1,-8.8287866E-1,-8.290629E-2,3.5040456E-1,8.058255E-1,8.12449E-2,-1.7920834E-1,1.8002029E-1],"split_indices":[2,2,0,2,2,1,2,2,1,0,1,0,0,0,3,2,1,2,4,0,0,4,3,0,0,0,0,4,1,0,3,1,1,2,0,0,0,0,3,0,0,0,0,0,0,0,0,0,0,0,0,0,0,0,0,0,0,0,0,0,0,0,0],"split_type":[0,0,0,0,0,0,0,0,0,0,0,0,0,0,0,0,0,0,0,0,0,0,0,0,0,0,0,0,0,0,0,0,0,0,0,0,0,0,0,0,0,0,0,0,0,0,0,0,0,0,0,0,0,0,0,0,0,0,0,0,0,0,0],"sum_hessian":[9.67E2,9.54E2,1.3E1,9.3E2,2.4E1,4E0,9E0,9.06E2,2.4E1,3E0,2.1E1,2E0,2E0,6E0,3E0,8.55E2,5.1E1,1.9E1,5E0,1E0,2E0,1.1E1,1E1,5E0,1E0,1E0,2E0,7.39E2,1.16E2,3.3E1,1.8E1,8E0,1.1E1,4E0,1E0,3E0,8E0,3E0,7E0,1E0,1E0,1.27E2,6.12E2,3.6E1,8E1,2.9E1,4E0,5E0,1.3E1,4E0,4E0,2E0,9E0,1E0,3E0,2E0,1E0,6E0,2E0,2E0,1E0,1E0,6E0],"tree_param":{"num_deleted":"0","num_feature":"5","num_nodes":"63","size_leaf_vector":"1"}},{"base_weights":[2.2204863E-2,7.8758344E-2,-1.4230025E-1,-2.805858E-1,1.2980615E-1,8.5351473E-1,-1.8337074E-1,-5.4852754E-1,3.0193058E-1,9.8580845E-2,1.3258191E0,1.1041379E0,2.015455E-1,-2.780321E-1,1.9909483E-1,2.7234137E-1,-7.936214E-1,1.189398E0,-3.9448163E-1,1.9915018E0,7.9861715E-2,-2.5574395E-1,2.5843399E0,1.4736464E0,3.6073305E-2,1.057103E-1,3.381558E-2,-1.6295603E-1,-7.557032E-1,1.3585116E0,-1.4176513E-1,8.814627E-1,-3.7082264E-1,-1.462776E0,-5.032847E-1,1.8647724E-1,1.3410926E0,7.765779E-2,-1.0800605E0,1.2974713E0,-2.5642514E-1,2.0173576E-1,-1.1118748E-1,-3.5909188E-1,9.8472816E-1,4.0138354E0,-2.0598832E-1,7.85315E-2,5.133517E-1,-8.265263E-3,2.3482276E-2,-3.4915206E-1,1.829459E-2,-9.9189276E-1,2.2447045E-1,5.815986E-1,-1.4141679E-1,-8.6838853E-1,3.1828138E-1,3.8849184E-1,1.12308644E-1,-2.5710237E-1,9.888436E-2,-1.3181931E-1,-5.947493E-1,-3.693258E-2,-5.3129715E-1,-8.080223E-2,2.3619811E-1,-8.8779725E-2,2.4162713E-1,-3.6993627E-2,-4.3142924E-1,-5.3258926E-1,6.450288E-1,4.2935032E-2,6.369456E-1,1.7059244E-2,-1.9841148E-1,5.263827E-1,-1.987371E-1,1.6267166E0,2.3934571E-1,-2.4805562E-1,2.4849044E-1,-2.0560627E-1,-5.230096E-2,5.608268E-1,-3.1119261E-2,-3.9291063E-1,-1.2181108E-1,2.1472345E-1,-1.3372204E-1,1.00241765E-1,-2.3521271E-1,-3.603975E-1,2.5913954E-1,3.6296454E-1,-8.920131E-2],"categories":[],"categories_nodes":[],"categories_segments":[],"categories_sizes":[],"default_left":[0,0,0,0,0,0,0,0,0,0,0,0,0,0,0,0,0,0,0,0,0,0,0,0,0,0,0,0,0,0,0,0,0,0,0,0,0,0,0,0,0,0,0,0,0,0,0,0,0,0,0,0,0,0,0,0,0,0,0,0,0,0,0,0,0,0,0,0,0,0,0,0,0,0,0,0,0,0,0,0,0,0,0,0,0,0,0,0,0,0,0,0,0,0,0,0,0,0,0],"id":18,"left_children":[1,3,5,7,9,11,13,15,17,19,21,23,25,27,29,31,33,35,37,39,41,43,45,47,-1,-1,49,51,53,55,57,59,61,63,65,67,-1,69,71,-1,73,75,77,-1,79,81,83,-1,-1,-1,-1,85,87,89,91,-1,93,95,97,-1,-1,-1,-1,-1,-1,-1,-1,-1,-1,-1,-1,-1,-1,-1,-1,-1,-1,-1,-1,-1,-1,-1,-1,-1,-1,-1,-1,-1,-1,-1,-1,-1,-1,-1,-1,-1,-1,-1,-1],"loss_changes":[9.016838E0,1.3262251E1,1.0299367E1,1.4212859E1,2.3471893E1,1.4114513E0,8.70828E0,1.2689911E1,1.8392448E1,2.1703629E1,3.250781E1,2.3677025E0,8.9274034E-2,1.0430807E1,1.9162128E1,6.20334E0,8.589256E0,4.1942802E1,5.586584E0,3.2580917E1,1.4272202E1,1.0519238E1,3.6725655E1,9.913206E-1,0E0,0E0,1.0341337E-2,5.2710986E0,8.788401E0,9.846182E0,1.29790535E1,1.1927409E0,3.0068195E0,6.575094E0,1.665028E1,3.2247188E0,0E0,3.2290995E0,2.2205238E0,0E0,1.843785E1,4.1820312E1,2.2135387E1,0E0,6.2348976E0,2.2853493E1,3.2534945E0,0E0,0E0,0E0,0E0,4.406064E0,1.8264694E1,5.0539284E0,2.9530942E0,0E0,1.484397E0,9.688323E0,1.3533013E1,0E0,0E0,0E0,0E0,0E0,0E0,0E0,0E0,0E0,0E0,0E0,0E0,0E0,0E0,0E0,0E0,0E0,0E0,0E0,0E0,0E0,0E0,0E0,0E0,0E0,0E0,0E0,0E0,0E0,0E0,0E0,0E0,0E0,0E0,0E0,0E0,0E0,0E0,0E0,0E0],"parents":[2147483647,0,0,1,1,2,2,3,3,4,4,5,5,6,6,7,7,8,8,9,9,10,10,11,11,12,12,13,13,14,14,15,15,16,16,17,17,18,18,19,19,20,20,21,21,22,22,23,23,26,26,27,27,28,28,29,29,30,30,31,31,32,32,33,33,34,34,35,35,37,37,38,38,40,40,41,41,42,42,44,44,45,45,46,46,51,51,52,52,53,53,54,54,56,56,57,57,58,58],"right_children":[2,4,6,8,10,12,14,16,18,20,22,24,26,28,30,32,34,36,38,40,42,44,46,48,-1,-1,50,52,54,56,58,60,62,64,66,68,-1,70,72,-1,74,76,78,-1,80,82,84,-1,-1,-1,-1,86,88,90,92,-1,94,96,98,-1,-1,-1,-1,-1,-1,-1,-1,-1,-1,-1,-1,-1,-1,-1,-1,-1,-1,-1,-1,-1,-1,-1,-1,-1,-1,-1,-1,-1,-1,-1,-1,-1,-1,-1,-1,-1,-1,-1,-1],"split_conditions":[2.752384E2,-3.4391665E-1,-8.3376665E0,5.3333335E0,2.710741E2,1.4345898E1,6.8333335E0,4.814296E1,-2.3397498E0,-1.0849991E-1,1.7283749E1,3.113418E2,-9.075166E0,4.5E0,1.3009903E1,-1.2272501E0,1.5072783E1,-3.1397495E0,1.6363178E1,9.333333E0,6.1666665E0,2.3333333E0,2.3588242E1,8.311245E0,3.6073305E-2,1.057103E-1,1E0,3.1066672E2,8.000001E-1,1.4333333E1,2E-1,1.7364803E1,-1.0314167E0,3.1666667E0,-1.421E0,1.1166667E1,1.3410926E0,2E-1,6.6666665E0,1.2974713E0,1.7333334E1,6E0,2.7E0,-3.5909188E-1,4E0,6.8977504E0,4E0,7.85315E-2,5.133517E-1,-8.265263E-3,2.3482276E-2,1.7206668E0,-4.860584E0,1.7555305E1,1.2000002E0,5.815986E-1,1.4666667E1,1.7E1,7E-1,3.8849184E-1,1.12308644E-1,-2.5710237E-1,9.888436E-2,-1.3181931E-1,-5.947493E-1,-3.693258E-2,-5.3129715E-1,-8.080223E-2,2.3619811E-1,-8.8779725E-2,2.4162713E-1,-3.6993627E-2,-4.3142924E-1,-5.3258926E-1,6.450288E-1,4.2935032E-2,6.369456E-1,1.7059244E-2,-1.9841148E-1,5.263827E-1,-1.987371E-1,1.6267166E0,2.3934571E-1,-2.4805562E-1,2.4849044E-1,-2.0560627E-1,-5.230096E-2,5.608268E-1,-3.1119261E-2,-3.9291063E-1,-1.2181108E-1,2.1472345E-1,-1.3372204E-1,1.00241765E-1,-2.3521271E-1,-3.603975E-1,2.5913954E-1,3.6296454E-1,-8.920131E-2],"split_indices":[4,1,1,0,4,3,0,4,1,1,3,4,1,0,3,1,3,1,3,0,0,0,3,3,0,0,0,4,2,0,2,4,1,0,1,0,0,2,0,0,0,0,2,0,0,1,0,0,0,0,0,1,1,3,2,0,0,0,2,0,0,0,0,0,0,0,0,0,0,0,0,0,0,0,0,0,0,0,0,0,0,0,0,0,0,0,0,0,0,0,0,0,0,0,0,0,0,0,0],"split_type":[0,0,0,0,0,0,0,0,0,0,0,0,0,0,0,0,0,0,0,0,0,0,0,0,0,0,0,0,0,0,0,0,0,0,0,0,0,0,0,0,0,0,0,0,0,0,0,0,0,0,0,0,0,0,0,0,0,0,0,0,0,0,0,0,0,0,0,0,0,0,0,0,0,0,0,0,0,0,0,0,0,0,0,0,0,0,0,0,0,0,0,0,0,0,0,0,0,0,0],"sum_hessian":[9.67E2,7.2E2,2.47E2,8.9E1,6.31E2,9E0,2.38E2,6.1E1,2.8E1,6.16E2,1.5E1,6E0,3E0,1.91E2,4.7E1,1.4E1,4.7E1,1.2E1,1.6E1,5E0,6.11E2,7E0,8E0,4E0,2E0,1E0,2E0,1.55E2,3.6E1,1E1,3.7E1,7E0,7E0,1.3E1,3.4E1,1E1,2E0,1E1,6E0,2E0,3E0,3.73E2,2.38E2,4E0,3E0,5E0,3E0,1E0,3E0,1E0,1E0,7.6E1,7.9E1,2.9E1,7E0,7E0,3E0,1.4E1,2.3E1,3E0,4E0,4E0,3E0,5E0,8E0,2.7E1,7E0,6E0,4E0,7E0,3E0,2E0,4E0,2E0,1E0,3.63E2,1E1,1.83E2,5.5E1,2E0,1E0,3E0,2E0,2E0,1E0,2.5E1,5.1E1,4E0,7.5E1,1.8E1,1.1E1,4E0,3E0,2E0,1E0,1.2E1,2E0,9E0,1.4E1],"tree_param":{"num_deleted":"0","num_feature":"5","num_nodes":"99","size_leaf_vector":"1"}},{"base_weights":[2.089286E-2,1.4165382E-2,1.097171E0,8.116114E-2,-8.155441E-2,5.400821E-1,-2.060229E-1,4.5473345E-2,2.2887518E0,-1.2784302E0,-4.5314915E-3,-1.1026726E-1,1.7556954E-2,-3.3167067E-1,1.07321374E-1,5.982238E0,-5.5503064E-1,-3.8902768E-1,-2.7175424E0,3.0152788E0,-3.7077878E-2,1.1058335E0,-5.092181E-1,4.2857733E0,7.213073E-2,2.7033749E0,5.9064513E-1,-8.580116E-1,2.7033234E0,8.609307E-2,-7.681319E-1,-9.4995E-1,1.3111751E-1,1.6844368E0,2.7717903E-1,-1.2533967E-1,4.7230512E-1,6.425638E-1,-4.5413706E-2,-3.333644E-1,9.101919E-2,1.469323E0,3.6747953E-1,8.007362E-2,-3.108398E-2,1.0851655E0,1.3133012E-1,3.7326667E-1,-1.5219611E-1,-4.145027E-1,-6.932425E-2,2.0974721E-1,-8.501664E-2,9.0997644E-2,-8.898938E-2,8.031411E-1,5.948376E-2],"categories":[],"categories_nodes":[],"categories_segments":[],"categories_sizes":[],"default_left":[0,0,0,0,0,0,0,0,0,0,0,0,0,0,0,0,0,0,0,0,0,0,0,0,0,0,0,0,0,0,0,0,0,0,0,0,0,0,0,0,0,0,0,0,0,0,0,0,0,0,0,0,0,0,0,0,0],"id":19,"left_children":[1,3,5,7,9,-1,11,13,15,17,19,-1,-1,21,23,25,27,29,31,33,35,37,39,41,43,-1,-1,-1,45,47,49,-1,-1,-1,51,53,55,-1,-1,-1,-1,-1,-1,-1,-1,-1,-1,-1,-1,-1,-1,-1,-1,-1,-1,-1,-1],"loss_changes":[6.993396E0,6.182165E0,5.8685718E0,4.4566475E1,3.6592396E1,0E0,1.4971067E-1,1.3074614E1,9.785156E1,2.9661598E1,3.6869987E1,0E0,0E0,2.0725899E1,7.0418274E1,3.08853E1,5.2794796E1,2.9480555E0,1.4130478E1,2.691457E1,1.6739006E1,1.2047005E1,3.5069748E1,1.4931641E0,1.639038E1,0E0,0E0,0E0,4.627941E0,6.129214E0,2.6462603E0,0E0,0E0,0E0,9.077757E-1,2.336625E1,3.2699135E1,0E0,0E0,0E0,0E0,0E0,0E0,0E0,0E0,0E0,0E0,0E0,0E0,0E0,0E0,0E0,0E0,0E0,0E0,0E0,0E0],"parents":[2147483647,0,0,1,1,2,2,3,3,4,4,6,6,7,7,8,8,9,9,10,10,13,13,14,14,15,15,16,16,17,17,18,18,19,19,20,20,21,21,22,22,23,23,24,24,28,28,29,29,30,30,34,34,35,35,36,36],"right_children":[2,4,6,8,10,-1,12,14,16,18,20,-1,-1,22,24,26,28,30,32,34,36,38,40,42,44,-1,-1,-1,46,48,50,-1,-1,-1,52,54,56,-1,-1,-1,-1,-1,-1,-1,-1,-1,-1,-1,-1,-1,-1,-1,-1,-1,-1,-1,-1],"split_conditions":[2.2487335E1,8.301917E0,1.7E1,8.0060835E0,8.743583E0,5.400821E-1,1.8E1,1.2074766E1,1.8603087E2,6E0,8.806085E0,-1.1026726E-1,1.7556954E-2,2.9273306E1,1.2229406E1,1E-1,2.2233557E2,2.4385513E2,1.3666667E1,2.0555989E2,4.7000003E0,1.0373334E0,2.2595247E2,6.6666665E0,2.361312E2,2.7033749E0,5.9064513E-1,-8.580116E-1,4E0,1.4689588E1,1.5827721E1,-9.4995E-1,1.3111751E-1,1.6844368E0,1.6666666E0,1.3397612E1,9.951993E1,6.425638E-1,-4.5413706E-2,-3.333644E-1,9.101919E-2,1.469323E0,3.6747953E-1,8.007362E-2,-3.108398E-2,1.0851655E0,1.3133012E-1,3.7326667E-1,-1.5219611E-1,-4.145027E-1,-6.932425E-2,2.0974721E-1,-8.501664E-2,9.0997644E-2,-8.898938E-2,8.031411E-1,5.948376E-2],"split_indices":[1,1,0,1,1,0,0,3,4,0,1,0,0,4,3,2,4,4,0,4,2,1,4,0,4,0,0,0,0,3,3,0,0,0,0,3,4,0,0,0,0,0,0,0,0,0,0,0,0,0,0,0,0,0,0,0,0],"split_type":[0,0,0,0,0,0,0,0,0,0,0,0,0,0,0,0,0,0,0,0,0,0,0,0,0,0,0,0,0,0,0,0,0,0,0,0,0,0,0,0,0,0,0,0,0,0,0,0,0,0,0,0,0,0,0,0,0],"sum_hessian":[9.67E2,9.62E2,5E0,5.66E2,3.96E2,