{"learner":{"attributes":{"scikit_learn":"{\"_estimator_type\": \"regressor\"}"},"feature_names":["pm25_lag_2","temperature_2m_mean","precipitation_sum","wind_speed_10m_max","wind_direction_10m_dominant"],"feature_types":["float","float","float","float","float"],"gradient_booster":{"model":{"gbtree_model_param":{"num_parallel_tree":"1","num_trees":"100"},"iteration_indptr":[0,1,2,3,4,5,6,7,8,9,10,11,12,13,14,15,16,17,18,19,20,21,22,23,24,25,26,27,28,29,30,31,32,33,34,35,36,37,38,39,40,41,42,43,44,45,46,47,48,49,50,51,52,53,54,55,56,57,58,59,60,61,62,63,64,65,66,67,68,69,70,71,72,73,74,75,76,77,78,79,80,81,82,83,84,85,86,87,88,89,90,91,92,93,94,95,96,97,98,99,100],"tree_info":[0,0,0,0,0,0,0,0,0,0,0,0,0,0,0,0,0,0,0,0,0,0,0,0,0,0,0,0,0,0,0,0,0,0,0,0,0,0,0,0,0,0,0,0,0,0,0,0,0,0,0,0,0,0,0,0,0,0,0,0,0,0,0,0,0,0,0,0,0,0,0,0,0,0,0,0,0,0,0,0,0,0,0,0,0,0,0,0,0,0,0,0,0,0,0,0,0,0,0,0],"trees":[{"base_weights":[-1.087534E-7,7.232426E-1,-9.286808E-1,2.3338933E-1,2.4468105E0,-9.984988E-1,7.9480004E-1,-2.6699647E-1,8.2312703E-1,2.0317023E0,4.4525485E0,1.194565E0,-1.0322965E0,2.992451E0,-1.1605234E-1,-9.721921E-1,5.1389728E-2,-1.6413167E-1,1.1673746E0,2.2460055E0,5.7249665E-2,6.5410314E0,2.351539E0,-2.3671027E-1,1.8569885E0,-5.2803403E-1,-1.1587135E0,3.9818695E-1,3.8813434E0,-3.120975E-1,2.9736274E-1,-1.0054129E0,5.717418E-1,-4.736336E-1,5.006833E-1,-4.016248E-1,1.0609291E0,1.6293983E0,1.0714979E-1,2.1137261E0,5.8180103E0,-3.5967758E-1,2.5257993E-1,-2.9892525E-1,7.3176336E0,5.5826607E0,4.7150466E-1,-5.362909E-1,1.4424184E-1,7.2590303E-1,5.487091E-1,-6.4939195E-1,7.28838E-1,-5.8279777E-1,-1.2396736E0,1.3544081E0,1.4418628E0,-5.64365E-1,4.5467684E-1,-2.1444155E-1,-3.4035802E-1,-1.5398905E-1,4.8832247E-1,7.06031E-1,2.4773965E-2,4.2458695E-1,-1.5187159E-1,5.739434E-1,-2.4609698E-1,-2.2336474E-1,5.22835E-1,3.3246577E-1,-9.505517E-2,7.4067223E-1,3.4439397E-1,7.6532245E-1,2.044113E0,1.9076324E-1,-2.5196686E-2,-2.1575819E-1,8.1241824E-2,2.316279E0,6.924184E-2,4.3332243E-1,2.0164032E0,7.314031E-1,-2.2666475E-1,-2.502582E-1,-4.767757E-2,4.7418238E-3,2.1632244E-1,8.233527E-2,-2.1296343E-1,1.3397418E0,4.2877674E-2,4.608977E-2,-2.376958E-1,-4.16391E-1,-2.9671398E-1,9.024182E-2,5.1924187E-1,-1.8479659E-1,3.9241828E-2,2.4878694E-1,-2.127582E-1],"categories":[],"categories_nodes":[],"categories_segments":[],"categories_sizes":[],"default_left":[0,0,0,0,0,0,0,0,0,0,0,0,0,0,0,0,0,0,0,0,0,0,0,0,0,0,0,0,0,0,0,0,0,0,0,0,0,0,0,0,0,0,0,0,0,0,0,0,0,0,0,0,0,0,0,0,0,0,0,0,0,0,0,0,0,0,0,0,0,0,0,0,0,0,0,0,0,0,0,0,0,0,0,0,0,0,0,0,0,0,0,0,0,0,0,0,0,0,0,0,0,0,0,0,0],"id":0,"left_children":[1,3,5,7,9,11,13,15,17,19,21,23,25,27,29,31,33,35,37,39,41,43,45,47,49,51,53,-1,55,57,-1,59,-1,61,63,65,67,69,71,73,75,-1,77,79,81,83,85,87,-1,-1,89,91,93,95,97,99,-1,101,103,-1,-1,-1,-1,-1,-1,-1,-1,-1,-1,-1,-1,-1,-1,-1,-1,-1,-1,-1,-1,-1,-1,-1,-1,-1,-1,-1,-1,-1,-1,-1,-1,-1,-1,-1,-1,-1,-1,-1,-1,-1,-1,-1,-1,-1,-1],"loss_changes":[1.3177998E3,9.3068677E2,1.0415704E2,2.5400266E2,1.9410767E2,6.2456726E1,6.840628E1,1.04678406E2,1.3443686E2,8.619037E1,1.6452332E2,1.2765003E1,5.1278564E1,9.649826E0,5.7361846E0,1.57795105E1,7.619359E1,3.0393276E1,1.4335126E2,7.464282E1,5.4555726E0,1.084259E2,1.3100938E2,1.3326219E0,5.297682E0,2.5640976E1,2.9584534E1,0E0,7.5128937E0,4.5121136E0,0E0,4.5921173E0,0E0,1.3254257E1,1.3459346E2,1.7252947E1,2.8824347E1,5.6208252E1,3.855197E1,5.856549E1,2.135025E0,0E0,2.5045211E0,9.1308284E-1,4.9663574E1,2.7988876E1,3.8037155E1,3.170991E-1,0E0,0E0,3.5601938E-1,8.632668E0,3.2204765E1,1.2774162E1,1.9775269E1,6.6908455E-1,0E0,6.906581E-1,3.204134E0,0E0,0E0,0E0,0E0,0E0,0E0,0E0,0E0,0E0,0E0,0E0,0E0,0E0,0E0,0E0,0E0,0E0,0E0,0E0,0E0,0E0,0E0,0E0,0E0,0E0,0E0,0E0,0E0,0E0,0E0,0E0,0E0,0E0,0E0,0E0,0E0,0E0,0E0,0E0,0E0,0E0,0E0,0E0,0E0,0E0,0E0],"parents":[2147483647,0,0,1,1,2,2,3,3,4,4,5,5,6,6,7,7,8,8,9,9,10,10,11,11,12,12,13,13,14,14,15,15,16,16,17,17,18,18,19,19,20,20,21,21,22,22,23,23,24,24,25,25,26,26,28,28,29,29,31,31,33,33,34,34,35,35,36,36,37,37,38,38,39,39,40,40,42,42,43,43,44,44,45,45,46,46,47,47,50,50,51,51,52,52,53,53,54,54,55,55,57,57,58,58],"right_children":[2,4,6,8,10,12,14,16,18,20,22,24,26,28,30,32,34,36,38,40,42,44,46,48,50,52,54,-1,56,58,-1,60,-1,62,64,66,68,70,72,74,76,-1,78,80,82,84,86,88,-1,-1,90,92,94,96,98,100,-1,102,104,-1,-1,-1,-1,-1,-1,-1,-1,-1,-1,-1,-1,-1,-1,-1,-1,-1,-1,-1,-1,-1,-1,-1,-1,-1,-1,-1,-1,-1,-1,-1,-1,-1,-1,-1,-1,-1,-1,-1,-1,-1,-1,-1,-1,-1,-1],"split_conditions":[2.3659216E2,3.3E0,1.87415E1,1.6E0,9.5E0,8.885877E0,1.2768586E1,9.454526E1,8.837608E1,2.4149532E1,1.5917906E2,1.44E0,2.5399068E2,2.63E0,4.1E0,1.8276918E1,1.02E0,2.83E0,2.1244534E2,2.0939419E1,1.0548002E1,4.46016E1,1.7388409E1,7.771331E0,3.03E0,5.04E0,-3.406417E0,3.9818695E-1,9.387651E0,3.9E0,2.9736274E-1,1.4706668E0,5.717418E-1,1.9556084E1,2.8665001E0,9.387651E0,1.594601E1,-1.5168332E0,4.8789997E0,1.9866467E2,4.4E0,-3.5967758E-1,9.000001E-1,1.154E1,9.4E0,1.8347433E2,4.483167E0,7.4E-1,1.4424184E-1,7.2590303E-1,2.7470444E2,1.1966953E1,5.65E0,1.3276144E1,1.75E0,3.5E0,1.4418628E0,2.0380579E1,6.5E0,-2.1444155E-1,-3.4035802E-1,-1.5398905E-1,4.8832247E-1,7.06031E-1,2.4773965E-2,4.2458695E-1,-1.5187159E-1,5.739434E-1,-2.4609698E-1,-2.2336474E-1,5.22835E-1,3.3246577E-1,-9.505517E-2,7.4067223E-1,3.4439397E-1,7.6532245E-1,2.044113E0,1.9076324E-1,-2.5196686E-2,-2.1575819E-1,8.1241824E-2,2.316279E0,6.924184E-2,4.3332243E-1,2.0164032E0,7.314031E-1,-2.2666475E-1,-2.502582E-1,-4.767757E-2,4.7418238E-3,2.1632244E-1,8.233527E-2,-2.1296343E-1,1.3397418E0,4.2877674E-2,4.608977E-2,-2.376958E-1,-4.16391E-1,-2.9671398E-1,9.024182E-2,5.1924187E-1,-1.8479659E-1,3.9241828E-2,2.4878694E-1,-2.127582E-1],"split_indices":[4,0,1,0,0,3,3,4,4,3,4,0,4,0,2,1,0,0,4,1,4,4,3,3,0,0,1,0,3,0,0,1,0,1,1,3,3,1,1,4,0,0,2,0,2,4,1,0,0,0,4,3,0,3,0,0,0,3,0,0,0,0,0,0,0,0,0,0,0,0,0,0,0,0,0,0,0,0,0,0,0,0,0,0,0,0,0,0,0,0,0,0,0,0,0,0,0,0,0,0,0,0,0,0,0],"split_type":[0,0,0,0,0,0,0,0,0,0,0,0,0,0,0,0,0,0,0,0,0,0,0,0,0,0,0,0,0,0,0,0,0,0,0,0,0,0,0,0,0,0,0,0,0,0,0,0,0,0,0,0,0,0,0,0,0,0,0,0,0,0,0,0,0,0,0,0,0,0,0,0,0,0,0,0,0,0,0,0,0,0,0,0,0,0,0,0,0,0,0,0,0,0,0,0,0,0,0,0,0,0,0,0,0],"sum_hessian":[1.96E3,1.102E3,8.58E2,8.59E2,2.43E2,8.25E2,3.3E1,4.65E2,3.94E2,2.03E2,4E1,1.2E1,8.13E2,9E0,2.4E1,1.44E2,3.21E2,1.02E2,2.92E2,1.83E2,2E1,1.9E1,2.1E1,4E0,8E0,1.64E2,6.49E2,4E0,5E0,2.1E1,3E0,1.43E2,1E0,1.48E2,1.73E2,8.6E1,1.6E1,2.03E2,8.9E1,1.78E2,5E0,2E0,1.8E1,2E0,1.7E1,7E0,1.4E1,3E0,1E0,5E0,3E0,1.5E2,1.4E1,8.1E1,5.68E2,2E0,3E0,1.6E1,5E0,4.6E1,9.7E1,1.46E2,2E0,3.1E1,1.42E2,4E0,8.2E1,1.1E1,5E0,9E0,1.94E2,2.6E1,6.3E1,1.29E2,4.9E1,2E0,3E0,8E0,1E1,1E0,1E0,1.6E1,1E0,2E0,5E0,5E0,9E0,1E0,2E0,1E0,2E0,9E0,1.41E2,1E0,1.3E1,1.8E1,6.3E1,3.54E2,2.14E2,1E0,1E0,1.5E1,1E0,4E0,1E0],"tree_param":{"num_deleted":"0","num_feature":"5","num_nodes":"105","size_leaf_vector":"1"}},{"base_weights":[7.599765E-3,5.163563E-1,-6.456785E-1,2.7220023E-1,2.4594517E0,5.0747466E-1,-7.055805E-1,-1.845755E-1,6.8418723E-1,-9.921854E-1,2.773687E0,-8.9245506E-2,1.198165E0,-4.5993093E-1,-9.12953E-1,-6.797385E-1,4.5733903E-2,4.3111067E-2,8.9119357E-1,-4.00227E-1,-6.0329854E-2,3.8251243E0,1.511208E0,5.6689775E-1,-6.8805116E-1,1.9856504E0,6.213922E-1,-6.547325E-1,-6.822348E-2,-6.4734024E-1,-1.1317947E0,-7.064025E-1,4.8598057E-1,-3.2929963E-1,3.7225005E-1,-2.6325756E-1,7.6758647E-1,1.4061105E0,4.000224E-1,9.8131046E-2,-1.8339448E-1,2.0911987E0,4.5597286E0,1.1673495E0,4.578781E0,-3.3714446E-1,7.8142065E-1,-8.185557E-1,1.3170047E-1,4.030538E-3,6.796429E-1,8.2287276E-1,-3.76572E-2,-4.3018737E-1,-7.276908E-1,1.6108306E-1,-6.2415224E-1,-1.0157793E0,-4.6106994E-1,-1.1463788E0,1.8910676E-2,-2.4085699E-1,-1.2561384E-1,-1.7389035E-1,-2.0324688E-2,5.2613646E-1,1.9760273E-2,1.9763865E-1,-1.24067396E-1,6.302612E-1,1.3558306E-1,3.3791307E-1,1.0164742E0,6.346338E-1,5.6441154E-2,3.20199E-1,1.4848015E0,2.822241E0,9.964187E-1,6.715747E-1,1.886718E-1,2.280542E0,8.848572E-3,-2.8606547E-2,-1.2310846E-1,3.572798E-2,2.7963474E-1,-2.8606547E-2,-2.6268977E-1,2.940352E-2,2.9755098E-1,2.328372E-3,-1.6615128E-2,8.028593E-2,-2.0050955E-1,-2.3979636E-1,-1.0174001E-1,9.163178E-3,3.0211264E-1,-1.05986156E-1,-2.320999E-1,-3.160841E-1,-1.3665868E-1,-1.5101944E-1,1.6198207E-1,-3.472557E-1,3.3632934E-2,-3.871826E-2,6.9423795E-2],"categories":[],"categories_nodes":[],"categories_segments":[],"categories_sizes":[],"default_left":[0,0,0,0,0,0,0,0,0,0,0,0,0,0,0,0,0,0,0,0,0,0,0,0,0,0,0,0,0,0,0,0,0,0,0,0,0,0,0,0,0,0,0,0,0,0,0,0,0,0,0,0,0,0,0,0,0,0,0,0,0,0,0,0,0,0,0,0,0,0,0,0,0,0,0,0,0,0,0,0,0,0,0,0,0,0,0,0,0,0,0,0,0,0,0,0,0,0,0,0,0,0,0,0,0,0,0,0,0],"id":1,"left_children":[1,3,5,7,9,11,13,15,17,19,21,23,25,27,29,31,33,35,37,-1,39,41,43,45,47,49,51,53,55,57,59,61,-1,63,65,67,69,71,73,-1,-1,75,77,79,81,83,85,87,-1,-1,-1,89,91,93,95,97,99,101,103,105,107,-1,-1,-1,-1,-1,-1,-1,-1,-1,-1,-1,-1,-1,-1,-1,-1,-1,-1,-1,-1,-1,-1,-1,-1,-1,-1,-1,-1,-1,-1,-1,-1,-1,-1,-1,-1,-1,-1,-1,-1,-1,-1,-1,-1,-1,-1,-1,-1],"loss_changes":[6.520906E2,5.226142E2,5.9694458E1,1.8473643E2,1.3616089E2,1.7829336E1,4.1198853E1,5.317405E1,6.843828E1,3.4241772E0,1.4421765E2,9.81971E0,7.850132E0,2.8646103E1,2.4959534E1,1.0219467E1,3.918557E1,2.8390554E1,9.8073364E1,0E0,1.053843E0,6.816339E1,5.055996E1,2.5907044E0,2.2714577E0,4.384577E0,1.7572007E0,3.7989502E0,1.616278E1,1.339476E1,4.0661926E0,3.74292E0,0E0,9.716543E0,7.22652E1,1.2745096E1,1.5042507E1,1.015329E2,7.266005E1,0E0,0E0,5.3244614E1,2.2088501E2,2.685527E1,6.853882E1,1.3979197E-2,8.8708687E-1,4.1184044E-1,0E0,0E0,0E0,1.1275411E0,3.6502974E-3,1.0815806E1,4.961426E0,9.90801E0,1.2251043E0,9.402237E-1,6.034254E0,3.4664917E0,1.556433E-1,0E0,0E0,0E0,0E0,0E0,0E0,0E0,0E0,0E0,0E0,0E0,0E0,0E0,0E0,0E0,0E0,0E0,0E0,0E0,0E0,0E0,0E0,0E0,0E0,0E0,0E0,0E0,0E0,0E0,0E0,0E0,0E0,0E0,0E0,0E0,0E0,0E0,0E0,0E0,0E0,0E0,0E0,0E0,0E0,0E0,0E0,0E0,0E0],"parents":[2147483647,0,0,1,1,2,2,3,3,4,4,5,5,6,6,7,7,8,8,9,9,10,10,11,11,12,12,13,13,14,14,15,15,16,16,17,17,18,18,20,20,21,21,22,22,23,23,24,24,25,25,26,26,27,27,28,28,29,29,30,30,31,31,33,33,34,34,35,35,36,36,37,37,38,38,41,41,42,42,43,43,44,44,45,45,46,46,47,47,51,51,52,52,53,53,54,54,55,55,56,56,57,57,58,58,59,59,60,60],"right_children":[2,4,6,8,10,12,14,16,18,20,22,24,26,28,30,32,34,36,38,-1,40,42,44,46,48,50,52,54,56,58,60,62,-1,64,66,68,70,72,74,-1,-1,76,78,80,82,84,86,88,-1,-1,-1,90,92,94,96,98,100,102,104,106,108,-1,-1,-1,-1,-1,-1,-1,-1,-1,-1,-1,-1,-1,-1,-1,-1,-1,-1,-1,-1,-1,-1,-1,-1,-1,-1,-1,-1,-1,-1,-1,-1,-1,-1,-1,-1,-1,-1,-1,-1,-1,-1,-1,-1,-1,-1,-1,-1],"split_conditions":[2.3659216E2,5.25E0,1.097262E1,1.6E0,4.46016E1,2.15E0,2.7520303E2,9.768497E1,8.837608E1,7.73E0,1.7258728E2,4.8331676E0,2.7732816E2,2.2E0,1.6986889E1,1.8276918E1,1.02E0,2.9E0,1.8612444E2,-4.00227E-1,1.8310834E0,5.5102506E0,1.732E1,2.5134036E2,1.6739416E1,7.2E0,1.000256E1,1.5629971E1,2.268E1,1.02E0,1.941025E1,1.7000002E0,4.8598057E-1,3E-1,2.8665001E0,1.0261579E1,2.97E0,1.80625E2,1.2522619E1,9.8131046E-2,-1.8339448E-1,1.4538046E2,9.587333E0,1.5111424E1,2.109305E1,1.44E0,1.02E0,7.2E0,1.3170047E-1,4.030538E-3,6.796429E-1,2.8770715E2,2.33E0,2.5727499E0,2.7362368E1,1.83915E1,2.5134036E2,1.6289415E1,1.8678999E1,1.5500001E1,1.73E0,-2.4085699E-1,-1.2561384E-1,-1.7389035E-1,-2.0324688E-2,5.2613646E-1,1.9760273E-2,1.9763865E-1,-1.24067396E-1,6.302612E-1,1.3558306E-1,3.3791307E-1,1.0164742E0,6.346338E-1,5.6441154E-2,3.20199E-1,1.4848015E0,2.822241E0,9.964187E-1,6.715747E-1,1.886718E-1,2.280542E0,8.848572E-3,-2.8606547E-2,-1.2310846E-1,3.572798E-2,2.7963474E-1,-2.8606547E-2,-2.6268977E-1,2.940352E-2,2.9755098E-1,2.328372E-3,-1.6615128E-2,8.028593E-2,-2.0050955E-1,-2.3979636E-1,-1.0174001E-1,9.163178E-3,3.0211264E-1,-1.05986156E-1,-2.320999E-1,-3.160841E-1,-1.3665868E-1,-1.5101944E-1,1.6198207E-1,-3.472557E-1,3.3632934E-2,-3.871826E-2,6.9423795E-2],"split_indices":[4,0,3,0,4,0,4,4,4,0,4,1,4,0,3,1,0,0,4,0,1,1,0,4,1,3,3,3,3,0,1,2,0,2,1,3,0,4,3,0,0,4,1,3,3,0,0,3,0,0,0,4,0,1,3,1,4,1,1,2,0,0,0,0,0,0,0,0,0,0,0,0,0,0,0,0,0,0,0,0,0,0,0,0,0,0,0,0,0,0,0,0,0,0,0,0,0,0,0,0,0,0,0,0,0,0,0,0,0],"split_type":[0,0,0,0,0,0,0,0,0,0,0,0,0,0,0,0,0,0,0,0,0,0,0,0,0,0,0,0,0,0,0,0,0,0,0,0,0,0,0,0,0,0,0,0,0,0,0,0,0,0,0,0,0,0,0,0,0,0,0,0,0,0,0,0,0,0,0,0,0,0,0,0,0,0,0,0,0,0,0,0,0,0,0,0,0,0,0,0,0,0,0,0,0,0,0,0,0,0,0,0,0,0,0,0,0,0,0,0,0],"sum_hessian":[1.96E3,1.102E3,8.58E2,9.8E2,1.22E2,4.2E1,8.16E2,4.65E2,5.15E2,1E1,1.12E2,2.3E1,1.9E1,3.75E2,4.41E2,1.47E2,3.18E2,1.26E2,3.89E2,7E0,3E0,6E1,5.2E1,1.1E1,1.2E1,7E0,1.2E1,2.5E2,1.25E2,2.01E2,2.4E2,1.46E2,1E0,1.48E2,1.7E2,8.9E1,3.7E1,1.89E2,2E2,2E0,1E0,1.9E1,4.1E1,4.8E1,4E0,2E0,9E0,1.1E1,1E0,1E0,6E0,9E0,3E0,6.3E1,1.87E2,8.9E1,3.6E1,6.6E1,1.35E2,2.37E2,3E0,1.08E2,3.8E1,7.5E1,7.3E1,3E1,1.4E2,1.2E1,7.7E1,6E0,3.1E1,1.67E2,2.2E1,2.1E1,1.79E2,1.5E1,4E0,7E0,3.4E1,1.5E1,3.3E1,2E0,2E0,1E0,1E0,2E0,7E0,1E0,1E1,2E0,7E0,1E0,2E0,1.6E1,4.7E1,1.57E2,3E1,7.8E1,1.1E1,1.4E1,2.2E1,6.1E1,5E0,1.3E2,5E0,2.35E2,2E0,2E0,1E0],"tree_param":{"num_deleted":"0","num_feature":"5","num_nodes":"109","size_leaf_vector":"1"}},{"base_weights":[1.1149011E-2,4.5925146E-1,-3.968227E-1,2.7300116E-1,1.8681481E0,4.81634E-1,-4.422725E-1,-8.9598686E-2,6.47403E-1,8.451936E-3,2.2606568E0,3.0509534E-1,7.4390674E-1,-2.1354969E-1,-6.018082E-1,-4.2759693E-1,1.19241595E-1,6.283448E-2,9.3092406E-1,6.741452E-1,-1.0743562E0,4.694507E0,1.4518833E0,9.10338E-1,7.806066E-2,-3.2310966E-1,6.877033E-1,-3.8371804E-1,-7.1888727E-1,5.656974E-1,-4.7642002E-1,4.3424118E-1,-1.8254338E-1,-2.7729762E-1,8.1448805E-1,1.6167506E0,3.6982155E-1,-3.772408E-1,1.6292248E0,-3.722396E-1,1.3611139E-2,1.1694127E0,6.6253176E0,1.1317102E0,5.3237576E0,2.4632414E-1,1.2945561E0,-5.044482E-2,8.848835E-1,-2.1646982E-1,-6.709206E-1,1.2487272E0,-1.1620852E-1,-4.5290354E-1,3.525164E-1,-8.0244267E-1,-5.244548E-1,-1.7230761E-1,4.0938085E-1,-2.1107875E-1,-1.15484096E-1,1.00110225E-1,6.3734484E-1,-9.874135E-2,3.0071455E-1,-8.689463E-3,-1.9571093E-1,1.0779304E-2,3.737067E-1,2.921315E-1,1.5254891E0,7.96047E-2,1.2506903E0,6.4397626E-2,-1.9707972E-1,-1.1988885E-1,6.1019164E-1,7.108415E-1,-7.9358555E-2,7.228123E-1,2.4212272E0,6.3219625E-1,1.6418189E-1,1.5320402E-1,1.9198071E0,-8.597184E-2,1.7532474E-1,5.2055585E-1,-5.466819E-3,9.423438E-2,-1.4536594E-1,7.830502E-2,2.9267883E-1,-7.293015E-2,6.890498E-1,-2.2364548E-1,-3.249408E-2,7.011548E-1,1.2671056E-1,-2.8787422E-1,1.0405623E-1,9.626559E-3,-1.6280773E-1,-1.2958827E-2,4.1700244E-1,-1.5236302E-1,-2.538604E-1,-2.1135193E-1,-1.16894096E-1],"categories":[],"categories_nodes":[],"categories_segments":[],"categories_sizes":[],"default_left":[0,0,0,0,0,0,0,0,0,0,0,0,0,0,0,0,0,0,0,0,0,0,0,0,0,0,0,0,0,0,0,0,0,0,0,0,0,0,0,0,0,0,0,0,0,0,0,0,0,0,0,0,0,0,0,0,0,0,0,0,0,0,0,0,0,0,0,0,0,0,0,0,0,0,0,0,0,0,0,0,0,0,0,0,0,0,0,0,0,0,0,0,0,0,0,0,0,0,0,0,0,0,0,0,0,0,0,0,0],"id":2,"left_children":[1,3,5,7,9,11,13,15,17,19,21,23,-1,25,27,29,31,33,35,37,39,41,43,45,47,49,51,53,55,57,59,61,63,65,67,69,71,73,75,-1,-1,77,79,81,83,85,87,89,91,93,95,97,99,101,103,105,107,-1,-1,-1,-1,-1,-1,-1,-1,-1,-1,-1,-1,-1,-1,-1,-1,-1,-1,-1,-1,-1,-1,-1,-1,-1,-1,-1,-1,-1,-1,-1,-1,-1,-1,-1,-1,-1,-1,-1,-1,-1,-1,-1,-1,-1,-1,-1,-1,-1,-1,-1,-1],"loss_changes":[3.5867877E2,2.4484093E2,4.121669E1,1.1232992E2,7.9545105E1,1.7232891E1,3.5521698E1,2.9768387E1,6.739665E1,1.5140634E1,1.7034317E2,6.524671E0,0E0,4.0014923E1,1.4406067E1,8.077316E0,2.4890488E1,3.4484493E1,1.048425E2,1.3668654E1,1.5472565E0,1.4199063E2,7.951228E1,2.9977589E0,3.7771592E0,1.3207348E1,1.9989721E1,1.0499815E1,5.6388855E0,8.0701475E0,2.9293442E0,2.1043072E1,2.3606182E1,8.6433735E0,1.4055248E1,2.6933694E2,5.9223534E1,1.2998614E0,6.5610447E0,0E0,0E0,1.6114117E1,6.586902E1,3.590863E1,2.2616684E1,1.2484857E0,4.659218E0,5.216469E0,2.8316021E-2,1.9098238E1,3.4430847E0,2.239867E1,7.752983E0,8.117138E0,7.4499145E0,2.9086914E0,2.5168152E0,0E0,0E0,0E0,0E0,0E0,0E0,0E0,0E0,0E0,0E0,0E0,0E0,0E0,0E0,0E0,0E0,0E0,0E0,0E0,0E0,0E0,0E0,0E0,0E0,0E0,0E0,0E0,0E0,0E0,0E0,0E0,0E0,0E0,0E0,0E0,0E0,0E0,0E0,0E0,0E0,0E0,0E0,0E0,0E0,0E0,0E0,0E0,0E0,0E0,0E0,0E0,0E0],"parents":[2147483647,0,0,1,1,2,2,3,3,4,4,5,5,6,6,7,7,8,8,9,9,10,10,11,11,13,13,14,14,15,15,16,16,17,17,18,18,19,19,20,20,21,21,22,22,23,23,24,24,25,25,26,26,27,27,28,28,29,29,30,30,31,31,32,32,33,33,34,34,35,35,36,36,37,37,38,38,41,41,42,42,43,43,44,44,45,45,46,46,47,47,48,48,49,49,50,50,51,51,52,52,53,53,54,54,55,55,56,56],"right_children":[2,4,6,8,10,12,14,16,18,20,22,24,-1,26,28,30,32,34,36,38,40,42,44,46,48,50,52,54,56,58,60,62,64,66,68,70,72,74,76,-1,-1,78,80,82,84,86,88,90,92,94,96,98,100,102,104,106,108,-1,-1,-1,-1,-1,-1,-1,-1,-1,-1,-1,-1,-1,-1,-1,-1,-1,-1,-1,-1,-1,-1,-1,-1,-1,-1,-1,-1,-1,-1,-1,-1,-1,-1,-1,-1,-1,-1,-1,-1,-1,-1,-1,-1,-1,-1,-1,-1,-1,-1,-1,-1],"split_conditions":[2.1756554E2,5.25E0,1.097262E1,1.65E0,7.95742E1,9.4E0,2.6010718E2,9.768497E1,1.0640259E2,1.6645864E1,1.4295361E2,-3.175167E0,7.4390674E-1,4.33E0,1.5995712E1,9.565437E0,1.0454001E1,1.1962333E1,8.310251E0,4.46016E1,7.73E0,5.5102506E0,1.732E1,2.13E0,1.9556084E1,1.9E0,1.9416653E1,1.7122747E1,1.95E0,6E-1,9E-1,8.8E0,1.9556084E1,1.4706668E0,4.198713E1,5.476916E0,2.2743582E1,1.3838063E1,7.691669E-2,-3.722396E-1,1.3611139E-2,1.3779114E1,1.2429127E1,4E-1,2.4144166E0,2.5134036E2,1.0261579E1,8.145667E0,8.885877E0,1.8000001E0,1.6289415E1,2.4250787E2,2.219554E1,-5.4085E0,3.07E0,-2.13975E0,4.031083E0,-1.7230761E-1,4.0938085E-1,-2.1107875E-1,-1.15484096E-1,1.00110225E-1,6.3734484E-1,-9.874135E-2,3.0071455E-1,-8.689463E-3,-1.9571093E-1,1.0779304E-2,3.737067E-1,2.921315E-1,1.5254891E0,7.96047E-2,1.2506903E0,6.4397626E-2,-1.9707972E-1,-1.1988885E-1,6.1019164E-1,7.108415E-1,-7.9358555E-2,7.228123E-1,2.4212272E0,6.3219625E-1,1.6418189E-1,1.5320402E-1,1.9198071E0,-8.597184E-2,1.7532474E-1,5.2055585E-1,-5.466819E-3,9.423438E-2,-1.4536594E-1,7.830502E-2,2.9267883E-1,-7.293015E-2,6.890498E-1,-2.2364548E-1,-3.249408E-2,7.011548E-1,1.2671056E-1,-2.8787422E-1,1.0405623E-1,9.626559E-3,-1.6280773E-1,-1.2958827E-2,4.1700244E-1,-1.5236302E-1,-2.538604E-1,-2.1135193E-1,-1.16894096E-1],"split_indices":[4,0,3,0,4,2,4,4,4,3,4,1,0,0,3,3,1,1,1,4,0,1,0,0,1,2,3,1,0,2,0,2,1,1,4,1,1,4,1,0,0,3,3,2,1,4,3,1,3,2,1,4,3,1,0,1,1,0,0,0,0,0,0,0,0,0,0,0,0,0,0,0,0,0,0,0,0,0,0,0,0,0,0,0,0,0,0,0,0,0,0,0,0,0,0,0,0,0,0,0,0,0,0,0,0,0,0,0,0],"split_type":[0,0,0,0,0,0,0,0,0,0,0,0,0,0,0,0,0,0,0,0,0,0,0,0,0,0,0,0,0,0,0,0,0,0,0,0,0,0,0,0,0,0,0,0,0,0,0,0,0,0,0,0,0,0,0,0,0,0,0,0,0,0,0,0,0,0,0,0,0,0,0,0,0,0,0,0,0,0,0,0,0,0,0,0,0,0,0,0,0,0,0,0,0,0,0,0,0,0,0,0,0,0,0,0,0,0,0,0,0],"sum_hessian":[1.96E3,9.34E2,1.026E3,8.26E2,1.08E2,5E1,9.76E2,4.2E2,4.06E2,1.9E1,8.9E1,4.7E1,3E0,4.02E2,5.74E2,1.6E2,2.6E2,1.33E2,2.73E2,1.2E1,7E0,2.1E1,6.8E1,1.2E1,3.5E1,3.59E2,4.3E1,2.02E2,3.72E2,7E0,1.53E2,1.27E2,1.33E2,9.2E1,4.1E1,1.22E2,1.51E2,6E0,6E0,6E0,1E0,8E0,1.3E1,6.4E1,4E0,5E0,7E0,3.1E1,4E0,2.76E2,8.3E1,2.5E1,1.8E1,1.85E2,1.7E1,2.58E2,1.14E2,3E0,4E0,4.2E1,1.11E2,1.21E2,6E0,1.19E2,1.4E1,5.6E1,3.6E1,1.5E1,2.6E1,1.04E2,1.8E1,1.48E2,3E0,2E0,4E0,1E0,5E0,4E0,4E0,4E0,9E0,2.3E1,4.1E1,1E0,3E0,2E0,3E0,5E0,2E0,1.7E1,1.4E1,1E0,3E0,2.74E2,2E0,7.3E1,1E1,1E1,1.5E1,6E0,1.2E1,2.9E1,1.56E2,1.3E1,4E0,3.5E1,2.23E2,4.7E1,6.7E1],"tree_param":{"num_deleted":"0","num_feature":"5","num_nodes":"109","size_leaf_vector":"1"}},{"base_weights":[1.4438906E-2,3.4038833E-1,-2.7277294E-1,1.3058528E-1,1.0309517E0,1.2044572E-1,-3.3690938E-1,-2.272896E-1,3.2127213E-1,1.198142E0,-5.626608E-1,-8.687672E-2,1.0450964E0,-2.2076751E-1,-4.852929E-1,-2.7559093E-1,7.375521E-1,2.8822178E-1,2.7795534E0,9.7281706E-1,2.5557883E0,6.528943E-1,-7.2497684E-1,3.159127E-1,-4.2732114E-1,3.819905E-1,1.9748878E0,-2.6900262E-1,3.3167383E-1,-1.3338241E-1,-5.470574E-1,-3.0397967E-1,8.58576E-1,1.847463E-1,5.390932E-1,5.6859565E-1,-2.5937151E-2,1.9173312E-1,1.1069993E0,8.65129E-1,9.9781615E-1,4.0594397E0,8.6958027E-1,-1.976452E-2,3.1356698E-1,-2.4709402E-1,-1.130362E0,1.5057094E0,8.62443E-2,7.025328E-2,-5.6263447E-1,-1.644987E-1,6.2051105E-1,8.6275375E-1,3.7054338E0,-1.9466778E-2,-3.4905398E-1,9.687821E-1,-3.2122844E-1,-3.099277E-1,1.261781E-1,-4.8926967E-1,-7.2441757E-1,-1.7071494E-1,-4.5981474E-2,1.3100551E0,-2.1493469E-1,-1.5176573E-1,1.8431298E-1,8.4657334E-2,4.5960996E-1,3.6437574E-1,-4.9728174E-2,2.3826015E-1,1.0404763E0,7.3151124E-1,1.9469072E0,-1.6921599E-1,8.6253023E-1,-1.7348611E-1,1.1828016E-1,-4.0186945E-1,-1.445E-1,1.9193749E-1,6.211456E-1,2.849535E-1,-1.0879144E-2,-4.958571E-2,5.0516987E-1,-1.7387733E-1,4.532302E-2,3.6277026E-1,1.0500595E-1,-2.0261301E-1,4.46408E-1,1.3480972E0,2.0111476E-1,-2.6917724E-2,7.830071E-1,-1.9313236E-1,-8.8397846E-2,1.3108446E-1,7.7497834E-1,7.144052E-2,-1.400554E-1,-1.7704034E-1,-3.143701E-2,3.8353732E-1,7.4692154E-3,-1.5143976E-1,1.16450146E-1,-1.7377008E-1,-2.4574064E-1],"categories":[],"categories_nodes":[],"categories_segments":[],"categories_sizes":[],"default_left":[0,0,0,0,0,0,0,0,0,0,0,0,0,0,0,0,0,0,0,0,0,0,0,0,0,0,0,0,0,0,0,0,0,0,0,0,0,0,0,0,0,0,0,0,0,0,0,0,0,0,0,0,0,0,0,0,0,0,0,0,0,0,0,0,0,0,0,0,0,0,0,0,0,0,0,0,0,0,0,0,0,0,0,0,0,0,0,0,0,0,0,0,0,0,0,0,0,0,0,0,0,0,0,0,0,0,0,0,0,0,0,0,0],"id":3,"left_children":[1,3,5,7,9,11,13,15,17,19,21,23,25,27,29,31,33,35,37,39,41,43,45,47,49,51,53,55,57,59,61,63,65,67,-1,69,71,-1,-1,73,-1,75,77,-1,-1,79,81,83,85,87,89,-1,91,93,95,97,99,101,103,105,107,109,111,-1,-1,-1,-1,-1,-1,-1,-1,-1,-1,-1,-1,-1,-1,-1,-1,-1,-1,-1,-1,-1,-1,-1,-1,-1,-1,-1,-1,-1,-1,-1,-1,-1,-1,-1,-1,-1,-1,-1,-1,-1,-1,-1,-1,-1,-1,-1,-1,-1,-1],"loss_changes":[1.8367488E2,1.3301222E2,2.6344666E1,4.82519E1,5.769159E1,2.827082E1,1.5351349E1,1.1667633E1,3.665376E1,5.6860504E1,4.6167192E0,1.6727411E1,1.5892464E1,1.354599E1,8.469116E0,7.8274193E0,6.6958914E0,4.018012E1,9.334206E0,3.9696365E1,6.492766E1,9.1485107E-1,3.4014997E0,1.51726265E1,4.4832077E0,4.1125493E0,1.7973717E1,9.2818985E0,1.7365948E1,2.788557E0,3.0688019E0,9.10087E0,3.628234E1,2.9812527E0,0E0,6.606749E1,3.766743E1,0E0,0E0,2.7156487E1,0E0,3.9330215E1,4.1874245E1,0E0,0E0,2.3521423E0,7.118645E-1,3.0767689E0,5.112753E0,5.9794736E0,7.1687317E-1,0E0,1.8061657E0,8.698988E0,6.5567207E0,2.1295145E1,5.4532814E0,1.6902578E1,1.8217521E0,2.0074742E0,2.885762E0,3.6706276E0,6.256523E-1,0E0,0E0,0E0,0E0,0E0,0E0,0E0,0E0,0E0,0E0,0E0,0E0,0E0,0E0,0E0,0E0,0E0,0E0,0E0,0E0,0E0,0E0,0E0,0E0,0E0,0E0,0E0,0E0,0E0,0E0,0E0,0E0,0E0,0E0,0E0,0E0,0E0,0E0,0E0,0E0,0E0,0E0,0E0,0E0,0E0,0E0,0E0,0E0,0E0,0E0],"parents":[2147483647,0,0,1,1,2,2,3,3,4,4,5,5,6,6,7,7,8,8,9,9,10,10,11,11,12,12,13,13,14,14,15,15,16,16,17,17,18,18,19,19,20,20,21,21,22,22,23,23,24,24,25,25,26,26,27,27,28,28,29,29,30,30,31,31,32,32,33,33,35,35,36,36,39,39,41,41,42,42,45,45,46,46,47,47,48,48,49,49,50,50,52,52,53,53,54,54,55,55,56,56,57,57,58,58,59,59,60,60,61,61,62,62],"right_children":[2,4,6,8,10,12,14,16,18,20,22,24,26,28,30,32,34,36,38,40,42,44,46,48,50,52,54,56,58,60,62,64,66,68,-1,70,72,-1,-1,74,-1,76,78,-1,-1,80,82,84,86,88,90,-1,92,94,96,98,100,102,104,106,108,110,112,-1,-1,-1,-1,-1,-1,-1,-1,-1,-1,-1,-1,-1,-1,-1,-1,-1,-1,-1,-1,-1,-1,-1,-1,-1,-1,-1,-1,-1,-1,-1,-1,-1,-1,-1,-1,-1,-1,-1,-1,-1,-1,-1,-1,-1,-1,-1,-1,-1,-1],"split_conditions":[2.1602725E2,3.3E0,1.3004922E1,9.102666E1,2.4766848E1,1.7318583E1,2.760494E2,1.8276918E1,2.2743582E1,1.01E1,3.7E0,4.42275E0,3.07E0,5.04E0,-3.175167E0,2.95E0,3E-1,1.1256084E1,1.081073E2,2.0939419E1,9.44775E0,3.51E0,3.4999998E0,2.4094548E2,1.000256E1,6.2E-1,1.2620554E1,1.623596E1,6.6977515E0,1.73E0,2.219554E1,1E-1,2.97E0,5.2076275E1,5.390932E-1,2.04E0,1.1553159E2,1.9173312E-1,1.1069993E0,2.3857979E1,9.9781615E-1,7.3581676E0,1.4535248E1,-1.976452E-2,3.1356698E-1,2.9500786E1,1.8435687E2,2.27E0,-9.045999E0,9.904906E0,1.2979984E1,-1.644987E-1,1.03E0,8.000001E-1,8.47E0,1.61198E1,1.5373335E0,5.893584E0,5.82E0,3.112057E2,1.8E0,1.1400001E1,2.8290002E0,-1.7071494E-1,-4.5981474E-2,1.3100551E0,-2.1493469E-1,-1.5176573E-1,1.8431298E-1,8.4657334E-2,4.5960996E-1,3.6437574E-1,-4.9728174E-2,2.3826015E-1,1.0404763E0,7.3151124E-1,1.9469072E0,-1.6921599E-1,8.6253023E-1,-1.7348611E-1,1.1828016E-1,-4.0186945E-1,-1.445E-1,1.9193749E-1,6.211456E-1,2.849535E-1,-1.0879144E-2,-4.958571E-2,5.0516987E-1,-1.7387733E-1,4.532302E-2,3.6277026E-1,1.0500595E-1,-2.0261301E-1,4.46408E-1,1.3480972E0,2.0111476E-1,-2.6917724E-2,7.830071E-1,-1.9313236E-1,-8.8397846E-2,1.3108446E-1,7.7497834E-1,7.144052E-2,-1.400554E-1,-1.7704034E-1,-3.143701E-2,3.8353732E-1,7.4692154E-3,-1.5143976E-1,1.16450146E-1,-1.7377008E-1,-2.4574064E-1],"split_indices":[4,0,3,4,3,1,4,1,1,0,0,1,0,0,1,0,2,1,4,1,1,0,2,4,3,0,3,3,1,0,3,2,0,4,0,0,4,0,0,3,0,1,1,0,0,3,4,0,1,3,3,0,0,2,0,3,1,1,0,4,0,2,1,0,0,0,0,0,0,0,0,0,0,0,0,0,0,0,0,0,0,0,0,0,0,0,0,0,0,0,0,0,0,0,0,0,0,0,0,0,0,0,0,0,0,0,0,0,0,0,0,0,0],"split_type":[0,0,0,0,0,0,0,0,0,0,0,0,0,0,0,0,0,0,0,0,0,0,0,0,0,0,0,0,0,0,0,0,0,0,0,0,0,0,0,0,0,0,0,0,0,0,0,0,0,0,0,0,0,0,0,0,0,0,0,0,0,0,0,0,0,0,0,0,0,0,0,0,0,0,0,0,0,0,0,0,0,0,0,0,0,0,0,0,0,0,0,0,0,0,0,0,0,0,0,0,0,0,0,0,0,0,0,0,0,0,0,0,0],"sum_hessian":[1.96E3,9.18E2,1.042E3,7.05E2,2.13E2,1.46E2,8.96E2,2.45E2,4.6E2,1.93E2,2E1,1.2E2,2.6E1,5.04E2,3.92E2,2.34E2,1.1E1,4.55E2,5E0,1.67E2,2.6E1,2E0,1.8E1,5.5E1,6.5E1,1.6E1,1E1,4.64E2,4E1,5.9E1,3.33E2,2.29E2,5E0,8E0,3E0,2.4E2,2.15E2,2E0,3E0,1.61E2,6E0,1.3E1,1.3E1,1E0,1E0,9E0,9E0,8E0,4.7E1,1.4E1,5.1E1,3E0,1.3E1,7E0,3E0,1.13E2,3.51E2,2E1,2E1,3.5E1,2.4E1,2.54E2,7.9E1,8.2E1,1.47E2,1E0,4E0,3E0,5E0,1.86E2,5.4E1,2.1E1,1.94E2,1.58E2,3E0,9E0,4E0,8E0,5E0,6E0,3E0,6E0,3E0,4E0,4E0,5E0,4.2E1,1.3E1,1E0,5E1,1E0,3E0,1E1,2E0,5E0,2E0,1E0,1.11E2,2E0,5.3E1,2.98E2,1.6E1,4E0,4E0,1.6E1,1.4E1,2.1E1,1E0,2.3E1,2.5E2,4E0,3.4E1,4.5E1],"tree_param":{"num_deleted":"0","num_feature":"5","num_nodes":"113","size_leaf_vector":"1"}},{"base_weights":[1.6990814E-2,2.955559E-1,-1.6763197E-1,-9.124568E-2,5.4440576E-1,-2.5990033E-1,1.1131247E-1,-2.1039614E-1,3.0776703E-1,3.9353764E-1,1.5094701E0,-1.375039E-1,-3.850567E-1,8.055994E-2,9.202365E-1,-2.3764019E-1,1.101256E0,9.4180055E-2,1.4642252E0,2.7736172E-1,1.3615276E0,2.8662195E0,7.3054856E-1,2.5342733E-2,-3.6252144E-1,-8.104413E-1,-3.4725097E-1,4.616635E-2,1.7122933E0,1.8867587E-1,-3.165034E-1,5.5583215E-1,-1.734694E-2,-6.0477126E-2,8.026652E-1,2.5273873E-2,1.7615263E0,-1.6144885E-1,6.0879457E-1,2.697085E0,1.3618463E-1,8.9862025E-1,3.8556979E0,3.9268134E0,2.9076242E-1,3.2080653E0,-3.6436167E-2,-3.7970516E-1,5.27152E-1,-6.5225995E-1,-4.3988243E-1,1.6432321E0,-3.6124152E-1,2.2964917E-1,-1.2531203E-1,1.7570025E0,-2.879179E-1,1.3448057E-1,-1.3969755E-1,-5.188091E-2,-1.3455671E-1,1.8022694E-2,-2.5828816E-2,5.357345E-2,-1.6472769E-1,-9.994287E-2,3.8107082E-1,6.3251925E-1,1.0949557E-1,2.1018961E-2,-2.798891E-1,-1.4142469E-1,2.7893564E-1,1.3246932E0,3.1205857E-1,-2.3191096E-1,1.6681278E-1,6.73617E-1,-4.469891E-2,2.429214E-1,1.4669122E0,-1.437241E-1,1.5444171E0,8.3325154E-1,2.2637146E-2,2.7467376E-1,1.0656877E0,-9.649222E-2,6.534228E-2,-1.4115004E-1,-5.4358218E-2,3.552905E-1,-2.1664454E-1,-1.17437854E-1,-2.4860057E-1,7.986893E-2,6.5958554E-1,-8.0636345E-2,-1.3711227E-1,-1.2447364E-1,9.8689005E-2,-5.76749E-2,2.4730381E-1,3.8038965E-2,-1.269887E-1],"categories":[],"categories_nodes":[],"categories_segments":[],"categories_sizes":[],"default_left":[0,0,0,0,0,0,0,0,0,0,0,0,0,0,0,0,0,0,0,0,0,0,0,0,0,0,0,0,0,0,0,0,0,0,0,0,0,0,0,0,0,0,0,0,0,0,0,0,0,0,0,0,0,0,0,0,0,0,0,0,0,0,0,0,0,0,0,0,0,0,0,0,0,0,0,0,0,0,0,0,0,0,0,0,0,0,0,0,0,0,0,0,0,0,0,0,0,0,0,0,0,0,0,0,0],"id":4,"left_children":[1,3,5,7,9,11,13,15,17,19,21,23,25,27,-1,29,31,33,35,37,39,41,43,45,47,49,51,53,55,57,59,-1,61,63,65,-1,67,69,71,73,75,77,79,81,83,85,87,89,91,93,-1,95,97,99,101,-1,103,-1,-1,-1,-1,-1,-1,-1,-1,-1,-1,-1,-1,-1,-1,-1,-1,-1,-1,-1,-1,-1,-1,-1,-1,-1,-1,-1,-1,-1,-1,-1,-1,-1,-1,-1,-1,-1,-1,-1,-1,-1,-1,-1,-1,-1,-1,-1,-1],"loss_changes":[1.00902725E2,7.532149E1,3.0399471E1,1.4660315E1,6.871034E1,1.3534737E1,2.6480093E1,8.730833E0,1.7399412E1,4.606715E1,6.554137E1,1.6498692E1,6.762474E0,1.630833E1,0E0,7.8933306E0,4.2353888E0,6.7324533E0,4.364561E0,5.3909702E1,7.16394E1,4.1313828E1,5.7896484E1,5.1632664E1,3.0895767E0,2.67453E0,1.1844173E1,9.058755E0,5.1424072E1,6.493575E0,3.6562881E0,0E0,2.1140475E-2,6.0551634E0,6.264948E0,0E0,3.5902424E0,2.864376E1,7.3599945E1,5.5203568E1,9.591688E0,1.3032642E1,4.328389E1,2.9369682E1,2.0135952E1,6.932678E-1,1.8778017E1,3.2671776E0,4.1391506E0,1.0558329E0,0E0,1.7089672E0,3.4376717E0,9.034447E0,9.630092E0,0E0,3.3438796E-1,0E0,0E0,0E0,0E0,0E0,0E0,0E0,0E0,0E0,0E0,0E0,0E0,0E0,0E0,0E0,0E0,0E0,0E0,0E0,0E0,0E0,0E0,0E0,0E0,0E0,0E0,0E0,0E0,0E0,0E0,0E0,0E0,0E0,0E0,0E0,0E0,0E0,0E0,0E0,0E0,0E0,0E0,0E0,0E0,0E0,0E0,0E0,0E0],"parents":[2147483647,0,0,1,1,2,2,3,3,4,4,5,5,6,6,7,7,8,8,9,9,10,10,11,11,12,12,13,13,15,15,16,16,17,17,18,18,19,19,20,20,21,21,22,22,23,23,24,24,25,25,26,26,27,27,28,28,29,29,30,30,32,32,33,33,34,34,36,36,37,37,38,38,39,39,40,40,41,41,42,42,43,43,44,44,45,45,46,46,47,47,48,48,49,49,51,51,52,52,53,53,54,54,56,56],"right_children":[2,4,6,8,10,12,14,16,18,20,22,24,26,28,-1,30,32,34,36,38,40,42,44,46,48,50,52,54,56,58,60,-1,62,64,66,-1,68,70,72,74,76,78,80,82,84,86,88,90,92,94,-1,96,98,100,102,-1,104,-1,-1,-1,-1,-1,-1,-1,-1,-1,-1,-1,-1,-1,-1,-1,-1,-1,-1,-1,-1,-1,-1,-1,-1,-1,-1,-1,-1,-1,-1,-1,-1,-1,-1,-1,-1,-1,-1,-1,-1,-1,-1,-1,-1,-1,-1,-1,-1],"split_conditions":[2.0048473E2,9.768497E1,2.52E0,1.3541501E1,5.55E0,1.7873554E1,2.2743582E1,8.47E0,8.648759E1,1.9435817E2,1.5111424E1,9.212335E0,2.1149829E2,1.732E1,9.202365E-1,1.0799999E1,2E-1,4.4999995E0,1.52E0,1.503835E1,9.670666E0,1.097262E1,1.1130755E2,2.0586272E2,1.1400001E1,2.0996344E2,2.1244534E2,2.5275845E2,2.1480249E2,7.247434E1,1.4706668E0,5.5583215E-1,9.5E0,1.7193533E1,2.289798E1,2.5273873E-2,1.9556084E1,1.3896187E1,2.4144166E0,1.9817485E2,1.3699833E1,1.4846979E2,1.1273606E2,5.5102506E0,5.65E0,8.2E-1,1.23E0,1.6739416E1,1.33E0,1.17E0,-4.3988243E-1,1.77E0,2.6939374E2,2.083468E2,1.9556084E1,1.7570025E0,2.2102497E0,1.3448057E-1,-1.3969755E-1,-5.188091E-2,-1.3455671E-1,1.8022694E-2,-2.5828816E-2,5.357345E-2,-1.6472769E-1,-9.994287E-2,3.8107082E-1,6.3251925E-1,1.0949557E-1,2.1018961E-2,-2.798891E-1,-1.4142469E-1,2.7893564E-1,1.3246932E0,3.1205857E-1,-2.3191096E-1,1.6681278E-1,6.73617E-1,-4.469891E-2,2.429214E-1,1.4669122E0,-1.437241E-1,1.5444171E0,8.3325154E-1,2.2637146E-2,2.7467376E-1,1.0656877E0,-9.649222E-2,6.534228E-2,-1.4115004E-1,-5.4358218E-2,3.552905E-1,-2.1664454E-1,-1.17437854E-1,-2.4860057E-1,7.986893E-2,6.5958554E-1,-8.0636345E-2,-1.3711227E-1,-1.2447364E-1,9.8689005E-2,-5.76749E-2,2.4730381E-1,3.8038965E-2,-1.269887E-1],"split_indices":[4,4,0,1,0,3,1,0,4,4,3,1,4,0,0,3,2,2,0,3,1,3,4,4,2,4,4,4,4,4,1,0,0,3,4,0,1,3,1,4,1,4,4,1,0,0,0,1,0,0,0,0,4,4,1,0,1,0,0,0,0,0,0,0,0,0,0,0,0,0,0,0,0,0,0,0,0,0,0,0,0,0,0,0,0,0,0,0,0,0,0,0,0,0,0,0,0,0,0,0,0,0,0,0,0],"split_type":[0,0,0,0,0,0,0,0,0,0,0,0,0,0,0,0,0,0,0,0,0,0,0,0,0,0,0,0,0,0,0,0,0,0,0,0,0,0,0,0,0,0,0,0,0,0,0,0,0,0,0,0,0,0,0,0,0,0,0,0,0,0,0,0,0,0,0,0,0,0,0,0,0,0,0,0,0,0,0,0,0,0,0,0,0,0,0,0,0,0,0,0,0,0,0,0,0,0,0,0,0,0,0,0,0],"sum_hessian":[1.96E3,7.81E2,1.179E3,3.06E2,4.75E2,8.86E2,2.93E2,2.36E2,7E1,4.12E2,6.3E1,4.49E2,4.37E2,2.91E2,2E0,2.32E2,4E0,6E1,1E1,3.69E2,4.3E1,2.2E1,4.1E1,2.61E2,1.88E2,3.4E1,4.03E2,2.86E2,5E0,3.6E1,1.96E2,2E0,2E0,5E1,1E1,2E0,8E0,1.59E2,2.1E2,2E1,2.3E1,8E0,1.4E1,4E0,3.7E1,4E0,2.57E2,1.85E2,3E0,2.9E1,5E0,2E0,4.01E2,1.38E2,1.48E2,1E0,4E0,2.6E1,1E1,9.5E1,1.01E2,1E0,1E0,3.4E1,1.6E1,3E0,7E0,6E0,2E0,1.23E2,3.6E1,4.8E1,1.62E2,9E0,1.1E1,7E0,1.6E1,3E0,5E0,4E0,1E1,1E0,3E0,2E0,3.5E1,1E0,3E0,1.21E2,1.36E2,1.26E2,5.9E1,2E0,1E0,1.3E1,1.6E1,1E0,1E0,2.06E2,1.95E2,1.8E1,1.2E2,1.39E2,9E0,1E0,3E0],"tree_param":{"num_deleted":"0","num_feature":"5","num_nodes":"105","size_leaf_vector":"1"}},{"base_weights":[1.7533299E-2,2.2066073E-1,-1.1257803E-1,4.9094404E-3,5.1184374E-1,-1.2048951E-1,1.476614E0,-7.0391506E-2,2.3066163E0,3.1373386E0,4.528115E-1,-1.2694378E-1,1.8265519E0,1.4934521E0,-2.193325E-1,-2.0819984E-1,4.2825356E-1,3.637869E0,-7.4698724E-2,3.3475246E0,-5.9243143E-2,5.368974E-1,-6.066184E-1,-2.528302E-1,-4.7616642E-2,-8.352614E-3,7.3618925E-1,3.233312E-2,-9.8416254E-2,5.169051E-2,-4.257677E-1,4.0194025E0,2.2169177E-1,7.3570687E-1,2.1244936E0,-3.1542116E-1,6.7650485E-1,-9.6135765E-1,6.321535E-1,3.4266767E-1,1.0419794E0,1.3635954E-1,-6.725176E-1,1.051734E-2,-2.6996303E-1,4.4376865E-2,-2.0177566E-1,-4.9293313E-2,3.6856356E-1,-1.4144744E-1,3.8888925E-1,1.5867785E0,-1.5900472E-1,-3.387791E-2,2.4637781E-1,-4.029718E-1,6.3329697E-1,4.3137398E-2,2.4184369E-1,-2.7884586E-2,-4.0472636E-1,2.3885785E-1,2.1005346E-2,1.7198834E-1,-5.7051115E-2,-5.1761705E-2,4.0868315E-1,-2.456066E-1,-6.643707E-2,2.0087212E-1,-1.8930202E-2,-8.3151534E-2,1.1989677E-1,6.5180406E-2,-3.125856E-2,-2.4003825E-1,-4.990291E-2],"categories":[],"categories_nodes":[],"categories_segments":[],"categories_sizes":[],"default_left":[0,0,0,0,0,0,0,0,0,0,0,0,0,0,0,0,0,0,0,0,0,0,0,0,0,0,0,0,0,0,0,0,0,0,0,0,0,0,0,0,0,0,0,0,0,0,0,0,0,0,0,0,0,0,0,0,0,0,0,0,0,0,0,0,0,0,0,0,0,0,0,0,0,0,0,0,0],"id":5,"left_children":[1,3,5,7,9,11,13,15,17,19,21,23,25,-1,27,29,31,33,35,-1,37,39,41,43,45,-1,-1,-1,-1,47,49,51,53,55,-1,-1,57,59,61,63,65,-1,67,69,71,73,75,-1,-1,-1,-1,-1,-1,-1,-1,-1,-1,-1,-1,-1,-1,-1,-1,-1,-1,-1,-1,-1,-1,-1,-1,-1,-1,-1,-1,-1,-1],"loss_changes":[5.185246E1,4.8119987E1,1.521506E1,7.65968E1,4.910573E1,1.5198849E1,3.672262E1,2.9500233E1,4.4653587E1,1.8014124E2,2.883229E1,1.185158E1,4.7222004E0,0E0,2.1317616E-1,1.9020714E1,6.8095795E1,8.473955E1,5.113507E0,0E0,4.3500395E0,2.877922E1,1.9839754E0,2.0737972E0,1.0361542E1,0E0,0E0,0E0,0E0,3.934904E1,1.5020496E1,3.168898E1,1.7948471E1,1.99904E1,0E0,0E0,1.6032875E-1,8.8472915E-1,3.1310177E-1,2.6652555E1,3.213366E1,0E0,1.3351316E0,1.4492849E0,2.1912594E0,1.1787189E1,5.654827E0,0E0,0E0,0E0,0E0,0E0,0E0,0E0,0E0,0E0,0E0,0E0,0E0,0E0,0E0,0E0,0E0,0E0,0E0,0E0,0E0,0E0,0E0,0E0,0E0,0E0,0E0,0E0,0E0,0E0,0E0],"parents":[2147483647,0,0,1,1,2,2,3,3,4,4,5,5,6,6,7,7,8,8,9,9,10,10,11,11,12,12,14,14,15,15,16,16,17,17,18,18,20,20,21,21,22,22,23,23,24,24,29,29,30,30,31,31,32,32,33,33,36,36,37,37,38,38,39,39,40,40,42,42,43,43,44,44,45,45,46,46],"right_children":[2,4,6,8,10,12,14,16,18,20,22,24,26,-1,28,30,32,34,36,-1,38,40,42,44,46,-1,-1,-1,-1,48,50,52,54,56,-1,-1,58,60,62,64,66,-1,68,70,72,74,76,-1,-1,-1,-1,-1,-1,-1,-1,-1,-1,-1,-1,-1,-1,-1,-1,-1,-1,-1,-1,-1,-1,-1,-1,-1,-1,-1,-1,-1,-1],"split_conditions":[1.9866467E2,2.04E0,1.732E1,1.949579E2,2.08E0,2.2743582E1,2.1480249E2,1.5149835E1,8.000001E-1,1E-1,2.4766848E1,1.27E0,1.63E0,1.4934521E0,2.2102497E0,3.6748335E0,1.5222747E1,3E-1,1.5E0,3.3475246E0,-5.71E-1,5.25E0,1E-1,-3.8480833E0,1.9296133E1,-8.352614E-3,7.3618925E-1,3.233312E-2,-9.8416254E-2,2.6477501E0,2.804305E1,1.67E0,1.83915E1,8.145667E0,2.1244936E0,-3.1542116E-1,8.2E-1,-1.1480833E0,1.7566504E1,1.5081084E1,7.95742E1,1.3635954E-1,1.4208165E1,1.108572E1,3.5807443E2,2.5275845E2,2.0586272E2,-4.9293313E-2,3.6856356E-1,-1.4144744E-1,3.8888925E-1,1.5867785E0,-1.5900472E-1,-3.387791E-2,2.4637781E-1,-4.029718E-1,6.3329697E-1,4.3137398E-2,2.4184369E-1,-2.7884586E-2,-4.0472636E-1,2.3885785E-1,2.1005346E-2,1.7198834E-1,-5.7051115E-2,-5.1761705E-2,4.0868315E-1,-2.456066E-1,-6.643707E-2,2.0087212E-1,-1.8930202E-2,-8.3151534E-2,1.1989677E-1,6.5180406E-2,-3.125856E-2,-2.4003825E-1,-4.990291E-2],"split_indices":[4,0,0,4,0,1,4,1,2,2,3,0,0,0,1,1,1,2,2,0,1,0,2,1,3,0,0,0,0,1,3,0,1,1,0,0,0,1,1,1,4,0,1,3,4,4,4,0,0,0,0,0,0,0,0,0,0,0,0,0,0,0,0,0,0,0,0,0,0,0,0,0,0,0,0,0,0],"split_type":[0,0,0,0,0,0,0,0,0,0,0,0,0,0,0,0,0,0,0,0,0,0,0,0,0,0,0,0,0,0,0,0,0,0,0,0,0,0,0,0,0,0,0,0,0,0,0,0,0,0,0,0,0,0,0,0,0,0,0,0,0,0,0,0,0,0,0,0,0,0,0,0,0,0,0,0,0],"sum_hessian":[1.96E3,7.65E2,1.195E3,4.4E2,3.25E2,1.19E3,5E0,4.27E2,1.3E1,6E0,3.19E2,1.187E3,3E0,1E0,4E0,3.35E2,9.2E1,8E0,5E0,1E0,5E0,2.96E2,2.3E1,4.58E2,7.29E2,1E0,2E0,1E0,3E0,1.53E2,1.82E2,4E0,8.8E1,5E0,3E0,2E0,3E0,2E0,3E0,2.15E2,8.1E1,1E0,2.2E1,2.8E1,4.3E2,4.57E2,2.72E2,1.3E2,2.3E1,1.78E2,4E0,3E0,1E0,5.7E1,3.1E1,2E0,3E0,1E0,2E0,1E0,1E0,2E0,1E0,1.5E2,6.5E1,1.7E1,6.4E1,1.6E1,6E0,2E0,2.6E1,4.26E2,4E0,2.11E2,2.46E2,1.4E1,2.58E2],"tree_param":{"num_deleted":"0","num_feature":"5","num_nodes":"77","size_leaf_vector":"1"}},{"base_weights":[1.7434059E-2,-1.9427526E-1,8.618136E-2,-2.0105718E-1,9.5333123E-1,2.547151E-1,-3.8539834E-2,-3.2849488E-1,-1.4745905E-1,5.284816E-1,-9.948253E-2,3.0105958E0,2.367275E-1,-4.7774598E-2,1.2715245E0,-1.6394068E-1,-7.25848E-1,1.3034332E0,-1.8197615E-1,1.9328092E0,-2.810038E-1,-1.6953903E-1,3.4540775E-1,-5.73432E-2,1.1086496E0,1.2694342E0,-1.6674939E-1,-2.2653085E-1,1.4105036E0,-8.371943E-1,2.4328466E-1,1.0397958E0,4.993562E-1,-1.0904105E-1,-2.4678627E-1,-2.1077673E-1,8.432502E-2,2.300873E-2,-3.4316072E-1,5.708338E-1,-1.394433E-3,-1.0965683E-2,-2.641639E-1,5.8895135E-1,3.742067E-1,2.7483149E-2,-2.5424197E-1,1.7954117E-1,-8.0401205E-2,-3.652208E-2,9.010854E-1,-3.3420718E-1,-1.7196836E-1,-9.021859E-2,3.6290067E-1,-2.4155371E-1,3.5466185E-1,-1.0747375E-2,-9.945797E-2,-3.998026E-2,-9.1456376E-2,-6.9877125E-2,1.46809E-1,-1.3782154E-1,3.4108732E-2,1.0462833E-1,8.99905E-1,-4.6374965E-2,5.194923E-1,2.3825308E-2,-4.9713884E-2,-2.4722344E-1,-5.233344E-2,-7.099736E-3,1.4387739E-1,-3.278003E-2,-1.03375144E-1],"categories":[],"categories_nodes":[],"categories_segments":[],"categories_sizes":[],"default_left":[0,0,0,0,0,0,0,0,0,0,0,0,0,0,0,0,0,0,0,0,0,0,0,0,0,0,0,0,0,0,0,0,0,0,0,0,0,0,0,0,0,0,0,0,0,0,0,0,0,0,0,0,0,0,0,0,0,0,0,0,0,0,0,0,0,0,0,0,0,0,0,0,0,0,0,0,0],"id":6,"left_children":[1,3,5,7,9,11,13,15,17,-1,-1,19,21,23,25,27,29,31,33,-1,35,37,39,41,43,-1,45,47,49,51,53,-1,55,57,59,-1,-1,61,63,65,67,69,71,-1,73,-1,75,-1,-1,-1,-1,-1,-1,-1,-1,-1,-1,-1,-1,-1,-1,-1,-1,-1,-1,-1,-1,-1,-1,-1,-1,-1,-1,-1,-1,-1,-1],"loss_changes":[2.8558006E1,3.9352894E0,3.1140038E1,3.2233334E0,3.6999133E0,3.0517502E1,1.03683605E1,9.100448E0,1.7214516E1,0E0,0E0,4.699884E1,2.7742584E1,9.435936E0,2.6248669E1,1.0272542E1,4.62796E0,1.2180109E1,1.5424328E0,0E0,9.0838915E-1,4.454148E0,3.8699028E1,8.063833E0,3.6585493E0,0E0,1.363141E-1,3.5135026E0,1.012982E1,2.0651379E0,2.9924114E0,0E0,7.187499E0,2.56188E0,1.1129446E0,0E0,0E0,7.7527223E0,3.769723E0,1.6076822E2,5.2302074E1,9.635926E0,7.592435E0,0E0,2.2099799E-1,0E0,1.4737755E-2,0E0,0E0,0E0,0E0,0E0,0E0,0E0,0E0,0E0,0E0,0E0,0E0,0E0,0E0,0E0,0E0,0E0,0E0,0E0,0E0,0E0,0E0,0E0,0E0,0E0,0E0,0E0,0E0,0E0,0E0],"parents":[2147483647,0,0,1,1,2,2,3,3,4,4,5,5,6,6,7,7,8,8,11,11,12,12,13,13,14,14,15,15,16,16,17,17,18,18,20,20,21,21,22,22,23,23,24,24,26,26,27,27,28,28,29,29,30,30,32,32,33,33,34,34,37,37,38,38,39,39,40,40,41,41,42,42,44,44,46,46],"right_children":[2,4,6,8,10,12,14,16,18,-1,-1,20,22,24,26,28,30,32,34,-1,36,38,40,42,44,-1,46,48,50,52,54,-1,56,58,60,-1,-1,62,64,66,68,70,72,-1,74,-1,76,-1,-1,-1,-1,-1,-1,-1,-1,-1,-1,-1,-1,-1,-1,-1,-1,-1,-1,-1,-1,-1,-1,-1,-1,-1,-1,-1,-1,-1,-1],"split_conditions":[1.02E0,1.9904E1,2.0048473E2,1.9435817E2,9.4E-1,1.03E0,1.732E1,1.6124841E2,1.9866467E2,5.284816E-1,-9.948253E-2,8.644166E-1,5.010899E1,2.1481085E1,2.1480249E2,1.5774579E2,2.2346113E1,5.5E-1,2.6939374E2,1.9328092E0,5.612334E0,1.5315873E1,1.6000001E0,2.3665035E1,2.083468E2,1.2694342E0,2.2102497E0,-2.13975E0,4.7E-1,7.5415015E0,4.031083E0,1.0397958E0,7.4E-1,1.4000001E0,2.8290002E0,-2.1077673E-1,8.432502E-2,4E-1,4.3264347E1,2.0858265E1,1.9124832E1,1.0624833E1,2.1957286E2,5.8895135E-1,1.63E0,2.7483149E-2,2.788E1,1.7954117E-1,-8.0401205E-2,-3.652208E-2,9.010854E-1,-3.3420718E-1,-1.7196836E-1,-9.021859E-2,3.6290067E-1,-2.4155371E-1,3.5466185E-1,-1.0747375E-2,-9.945797E-2,-3.998026E-2,-9.1456376E-2,-6.9877125E-2,1.46809E-1,-1.3782154E-1,3.4108732E-2,1.0462833E-1,8.99905E-1,-4.6374965E-2,5.194923E-1,2.3825308E-2,-4.9713884E-2,-2.4722344E-1,-5.233344E-2,-7.099736E-3,1.4387739E-1,-3.278003E-2,-1.03375144E-1],"split_indices":[0,1,4,4,0,0,0,4,4,0,0,1,4,1,4,4,3,0,4,0,1,3,2,3,4,0,1,1,0,1,1,0,0,2,1,0,0,2,4,3,1,1,4,0,0,0,0,0,0,0,0,0,0,0,0,0,0,0,0,0,0,0,0,0,0,0,0,0,0,0,0,0,0,0,0,0,0],"split_type":[0,0,0,0,0,0,0,0,0,0,0,0,0,0,0,0,0,0,0,0,0,0,0,0,0,0,0,0,0,0,0,0,0,0,0,0,0,0,0,0,0,0,0,0,0,0,0,0,0,0,0,0,0,0,0,0,0,0,0,0,0,0,0,0,0,0,0,0,0,0,0,0,0,0,0,0,0],"sum_hessian":[1.96E3,4.8E2,1.48E3,4.78E2,2E0,6.29E2,8.51E2,1.4E2,3.38E2,1E0,1E0,3E0,6.26E2,8.46E2,5E0,1E2,4E1,7E0,3.31E2,1E0,2E0,1.32E2,4.94E2,8.4E2,6E0,1E0,4E0,9.7E1,3E0,3.6E1,4E0,1E0,6E0,1.57E2,1.74E2,1E0,1E0,6.3E1,6.9E1,2.99E2,1.95E2,6.87E2,1.53E2,2E0,4E0,1E0,3E0,4E0,9.3E1,2E0,1E0,1.6E1,2E1,3E0,1E0,2E0,4E0,1.19E2,3.8E1,6E1,1.14E2,4.1E1,2.2E1,5.5E1,1.4E1,2.75E2,2.4E1,1.8E2,1.5E1,4.34E2,2.53E2,2E1,1.33E2,1E0,3E0,2E0,1E0],"tree_param":{"num_deleted":"0","num_feature":"5","num_nodes":"77","size_leaf_vector":"1"}},{"base_weights":[1.57167E-2,8.345658E-2,-1.1115742E-1,1.1781274E-1,-3.610931E-1,-1.1791904E-1,1.4607832E0,4.943376E-2,3.653279E-1,2.3579569E-1,-5.0946873E-1,5.185019E-1,-1.2817644E-1,5.36019E-1,1.2133345E-1,1.6213709E-1,-1.1325988E-1,1.0287796E0,2.3829171E-1,-4.0317386E-1,1.1334074E0,-1.2893498E0,-3.060073E-1,-9.6709535E-2,6.3482505E-1,-1.5353033E-1,1.2787941E-1,-1.1716875E-1,3.6113775E-1,-2.3318195E-1,2.9003865E-1,8.3298105E-1,3.2312348E0,-7.7138543E-1,3.6784425E-1,-2.459877E-1,1.6820428E-1,-4.9435355E-2,-1.4496841E0,6.901369E-1,-3.52256E-1,2.7256474E-1,8.309045E-1,-1.3062881E-1,-3.9217976E-1,1.2998664E-2,3.0444562E-1,-5.4660108E-2,1.9766444E-1,1.7333959E-1,-8.718854E-2,-1.5414828E-1,-3.8981054E-2,3.0182594E-1,-2.9303163E-2,1.0982462E0,1.9866805E-1,2.5578862E-1,1.1982671E0,-4.6349987E-1,-4.5792833E-2,7.421065E-2,3.5026333E-1,2.5214085E-1,-1.2097462E-1,-5.316619E-1,-1.737622E-1,3.787358E-1,-6.8174176E-2,-2.0617655E-1,-7.776885E-2,1.5195115E-1,-1.5668774E-2,3.1318024E-1,8.096903E-2,6.8151556E-2,-4.3091632E-2,-1.2806591E-1,2.1188447E-1,1.06859766E-1,-3.1738374E-2,2.4387155E-2,1.5624796E-1],"categories":[],"categories_nodes":[],"categories_segments":[],"categories_sizes":[],"default_left":[0,0,0,0,0,0,0,0,0,0,0,0,0,0,0,0,0,0,0,0,0,0,0,0,0,0,0,0,0,0,0,0,0,0,0,0,0,0,0,0,0,0,0,0,0,0,0,0,0,0,0,0,0,0,0,0,0,0,0,0,0,0,0,0,0,0,0,0,0,0,0,0,0,0,0,0,0,0,0,0,0,0,0],"id":7,"left_children":[1,3,5,7,9,11,13,15,17,19,21,23,25,-1,-1,27,29,31,33,35,-1,37,39,-1,41,43,45,47,49,51,53,55,57,59,61,-1,63,-1,65,67,69,71,73,75,77,79,81,-1,-1,-1,-1,-1,-1,-1,-1,-1,-1,-1,-1,-1,-1,-1,-1,-1,-1,-1,-1,-1,-1,-1,-1,-1,-1,-1,-1,-1,-1,-1,-1,-1,-1,-1,-1],"loss_changes":[1.6862968E1,1.9576735E1,7.4317713E0,2.008864E1,8.267992E0,4.51204E0,3.10297E-1,1.7107624E1,2.141542E1,4.452735E1,1.1347454E1,1.280581E0,4.3757753E0,0E0,0E0,3.0668022E1,1.8542831E1,1.4989185E1,2.8668697E1,4.186332E0,0E0,2.4657116E0,3.0073276E0,0E0,4.8384285E-1,3.2881508E0,1.2333702E0,1.1727642E1,4.563826E1,8.480946E0,2.4529102E1,1.6407461E1,2.0389576E0,1.1730866E1,1.8305616E1,0E0,3.4122617E0,0E0,2.623251E0,1.861989E0,1.6293445E0,4.0636432E-1,4.3531322E-1,2.6347618E0,2.3220654E0,1.5869403E0,1.1165378E0,0E0,0E0,0E0,0E0,0E0,0E0,0E0,0E0,0E0,0E0,0E0,0E0,0E0,0E0,0E0,0E0,0E0,0E0,0E0,0E0,0E0,0E0,0E0,0E0,0E0,0E0,0E0,0E0,0E0,0E0,0E0,0E0,0E0,0E0,0E0,0E0],"parents":[2147483647,0,0,1,1,2,2,3,3,4,4,5,5,6,6,7,7,8,8,9,9,10,10,11,11,12,12,15,15,16,16,17,17,18,18,19,19,21,21,22,22,24,24,25,25,26,26,27,27,28,28,29,29,30,30,31,31,32,32,33,33,34,34,36,36,38,38,39,39,40,40,41,41,42,42,43,43,44,44,45,45,46,46],"right_children":[2,4,6,8,10,12,14,16,18,20,22,24,26,-1,-1,28,30,32,34,36,-1,38,40,-1,42,44,46,48,50,52,54,56,58,60,62,-1,64,-1,66,68,70,72,74,76,78,80,82,-1,-1,-1,-1,-1,-1,-1,-1,-1,-1,-1,-1,-1,-1,-1,-1,-1,-1,-1,-1,-1,-1,-1,-1,-1,-1,-1,-1,-1,-1,-1,-1,-1,-1,-1,-1],"split_conditions":[2.5399068E2,2.636616E1,2.09E1,3.3E0,1.5662254E2,8.885877E0,3.45E0,1.1256084E1,3.7E0,1.4538046E2,1.888732E2,7.4E-1,1.6739416E1,5.36019E-1,1.2133345E-1,1.3622107E2,1.8553999E1,4.9E0,4.03E0,1.33E0,1.1334074E0,9.4E-1,1.901334E2,-9.6709535E-2,2.8770715E2,1.4208165E1,4E-1,9.84775E0,2.1000001E0,1.3541501E1,1.536364E2,9.565437E0,3.33E0,4E-1,6.3E0,-2.459877E-1,2.804305E1,-4.9435355E-2,4.33E0,1.25E0,2.7748037E1,2.2E0,3.328001E2,-8.381416E0,6.37E0,1.7318583E1,2.8532156E2,-5.4660108E-2,1.9766444E-1,1.7333959E-1,-8.718854E-2,-1.5414828E-1,-3.8981054E-2,3.0182594E-1,-2.9303163E-2,1.0982462E0,1.9866805E-1,2.5578862E-1,1.1982671E0,-4.6349987E-1,-4.5792833E-2,7.421065E-2,3.5026333E-1,2.5214085E-1,-1.2097462E-1,-5.316619E-1,-1.737622E-1,3.787358E-1,-6.8174176E-2,-2.0617655E-1,-7.776885E-2,1.5195115E-1,-1.5668774E-2,3.1318024E-1,8.096903E-2,6.8151556E-2,-4.3091632E-2,-1.2806591E-1,2.1188447E-1,1.06859766E-1,-3.1738374E-2,2.4387155E-2,1.5624796E-1],"split_indices":[4,3,2,0,4,3,0,1,0,4,4,0,1,0,0,4,1,2,0,0,0,0,4,0,4,1,2,1,2,1,4,3,0,2,2,0,3,0,0,0,3,0,4,1,0,1,4,0,0,0,0,0,0,0,0,0,0,0,0,0,0,0,0,0,0,0,0,0,0,0,0,0,0,0,0,0,0,0,0,0,0,0,0],"split_type":[0,0,0,0,0,0,0,0,0,0,0,0,0,0,0,0,0,0,0,0,0,0,0,0,0,0,0,0,0,0,0,0,0,0,0,0,0,0,0,0,0,0,0,0,0,0,0,0,0,0,0,0,0,0,0,0,0,0,0,0,0,0,0,0,0,0,0,0,0,0,0,0,0,0,0,0,0,0,0,0,0,0,0],"sum_hessian":[1.96E3,1.278E3,6.82E2,1.187E3,9.1E1,6.8E2,2E0,9.31E2,2.56E2,1.8E1,7.3E1,1E1,6.7E2,1E0,1E0,5.5E2,3.81E2,4E1,2.16E2,1.6E1,2E0,1.4E1,5.9E1,1E0,9E0,6.1E2,6E1,2.29E2,3.21E2,2.94E2,8.7E1,3.8E1,2E0,2.4E1,1.92E2,9E0,7E0,2E0,1.2E1,2E0,5.7E1,4E0,5E0,5.58E2,5.2E1,3.7E1,2.3E1,2.12E2,1.7E1,2.41E2,8E1,7.8E1,2.16E2,3E1,5.7E1,1E0,3.7E1,1E0,1E0,1E1,1.4E1,1.68E2,2.4E1,3E0,4E0,8E0,4E0,1E0,1E0,1.1E1,4.6E1,2E0,2E0,3E0,2E0,1.9E1,5.39E2,5.1E1,1E0,9E0,2.8E1,1.2E1,1.1E1],"tree_param":{"num_deleted":"0","num_feature":"5","num_nodes":"83","size_leaf_vector":"1"}},{"base_weights":[1.3408999E-2,7.418052E-3,1.181501E0,1.3557425E-1,-4.168954E-2,-3.7093878E-2,1.7090551E0,1.4911104E-2,1.2015265E0,-3.9157522E-1,-1.757359E-2,1.4887588E-1,-8.9250475E-2,5.987157E-1,-1.6393304E-3,-2.3848958E-2,1.236151E0,2.4589217E0,-2.9552653E-1,-1.3643369E-1,-8.5772884E-1,1.6662203E0,-3.9477818E-2,5.7978846E-2,9.015298E-3,-2.072755E-1,1.628012E-1,4.9681717E-1,1.2083642E0,3.900365E0,-3.8542318E-1,-6.979562E-1,9.0672594E-1,-4.93018E-1,2.63385E0,-1.0192413E0,3.1299174E-1,1.4057527E-1,5.2996535E0,-4.758844E-2,6.617491E-1,-4.0881995E-2,-3.0667013E-1,1.4247033E-1,-5.0099343E-2,5.599696E-1,-1.7777883E-1,2.8501293E-1,1.624776E0,-1.9535954E-1,3.408494E-1,3.5295154E-3,-3.37372E-1,-1.6742781E-1,1.3798144E-1,1.3243378E0,5.84335E-2,-4.8019204E-1,-2.3181029E-1,-3.5016674E-1,7.399488E-1,2.9974344E0,-3.476075E-1,-1.2015652E-2,-1.938308E-1,6.5552235E-2,3.8705817E-1],"categories":[],"categories_nodes":[],"categories_segments":[],"categories_sizes":[],"default_left":[0,0,0,0,0,0,0,0,0,0,0,0,0,0,0,0,0,0,0,0,0,0,0,0,0,0,0,0,0,0,0,0,0,0,0,0,0,0,0,0,0,0,0,0,0,0,0,0,0,0,0,0,0,0,0,0,0,0,0,0,0,0,0,0,0,0,0],"id":8,"left_children":[1,3,5,7,9,11,13,15,17,19,21,23,-1,-1,-1,25,27,29,31,33,35,37,39,-1,-1,41,43,45,-1,47,49,51,-1,53,55,57,-1,59,61,63,65,-1,-1,-1,-1,-1,-1,-1,-1,-1,-1,-1,-1,-1,-1,-1,-1,-1,-1,-1,-1,-1,-1,-1,-1,-1,-1],"loss_changes":[1.371427E1,1.2290452E1,6.4921446E0,6.9566124E1,1.1907328E1,2.3800261E-1,3.4513416E0,2.308179E1,1.0425797E2,1.0706078E1,4.8824055E1,1.0015085E-2,0E0,0E0,0E0,1.6227652E1,2.895918E1,1.2450218E2,3.6825756E1,6.056892E1,1.0888687E1,9.349161E1,7.459221E0,0E0,0E0,1.3690146E1,2.4267912E1,2.0505001E1,0E0,8.4282135E1,5.188273E0,7.279932E0,0E0,3.605404E0,2.95414E1,3.0633354E0,0E0,4.242279E1,1.6308313E2,5.801772E0,3.8963761E0,0E0,0E0,0E0,0E0,0E0,0E0,0E0,0E0,0E0,0E0,0E0,0E0,0E0,0E0,0E0,0E0,0E0,0E0,0E0,0E0,0E0,0E0,0E0,0E0,0E0,0E0],"parents":[2147483647,0,0,1,1,2,2,3,3,4,4,5,5,6,6,7,7,8,8,9,9,10,10,11,11,15,15,16,16,17,17,18,18,19,19,20,20,21,21,22,22,25,25,26,26,27,27,29,29,30,30,31,31,33,33,34,34,35,35,37,37,38,38,39,39,40,40],"right_children":[2,4,6,8,10,12,14,16,18,20,22,24,-1,-1,-1,26,28,30,32,34,36,38,40,-1,-1,42,44,46,-1,48,50,52,-1,54,56,58,-1,60,62,64,66,-1,-1,-1,-1,-1,-1,-1,-1,-1,-1,-1,-1,-1,-1,-1,-1,-1,-1,-1,-1,-1,-1,-1,-1,-1,-1],"split_conditions":[2.2743582E1,1.6247073E2,1.4002582E2,1.5069131E2,1.80625E2,3E0,2.083468E2,9.5E0,7E-1,2.8999999E0,1.8293228E2,2.6E0,-8.9250475E-2,5.987157E-1,-1.6393304E-3,4E-1,4.7999997E0,1.5222747E1,2.5630886E1,1.5000001E0,1.9629E1,2.0519999E1,1.37E1,5.7978846E-2,9.015298E-3,1.4295361E2,1.6928614E1,1.085E1,1.2083642E0,1.15199995E1,1E-1,2.29E0,9.0672594E-1,2.3313995E1,9.587333E0,3.487333E0,3.1299174E-1,1.2726917E1,4.3E0,1.07E1,1.36206665E1,-4.0881995E-2,-3.0667013E-1,1.4247033E-1,-5.0099343E-2,5.599696E-1,-1.7777883E-1,2.8501293E-1,1.624776E0,-1.9535954E-1,3.408494E-1,3.5295154E-3,-3.37372E-1,-1.6742781E-1,1.3798144E-1,1.3243378E0,5.84335E-2,-4.8019204E-1,-2.3181029E-1,-3.5016674E-1,7.399488E-1,2.9974344E0,-3.476075E-1,-1.2015652E-2,-1.938308E-1,6.5552235E-2,3.8705817E-1],"split_indices":[1,4,4,4,4,0,4,0,2,2,4,0,0,0,0,2,2,1,3,2,1,3,2,0,0,4,3,0,0,3,2,0,0,3,1,1,0,1,0,2,1,0,0,0,0,0,0,0,0,0,0,0,0,0,0,0,0,0,0,0,0,0,0,0,0,0,0],"split_type":[0,0,0,0,0,0,0,0,0,0,0,0,0,0,0,0,0,0,0,0,0,0,0,0,0,0,0,0,0,0,0,0,0,0,0,0,0,0,0,0,0,0,0,0,0,0,0,0,0,0,0,0,0,0,0,0,0,0,0,0,0,0,0,0,0,0,0],"sum_hessian":[1.96E3,1.951E3,9E0,5.4E2,1.411E3,3E0,6E0,4.86E2,5.4E1,9E1,1.321E3,2E0,1E0,5E0,1E0,4.72E2,1.4E1,2.9E1,2.5E1,5.9E1,3.1E1,1.6E1,1.305E3,1E0,1E0,2.38E2,2.34E2,1.2E1,2E0,1.9E1,1E1,2.3E1,2E0,5.3E1,6E0,2.9E1,2E0,1.2E1,4E0,1.291E3,1.4E1,2.2E2,1.8E1,1.2E2,1.14E2,5E0,7E0,7E0,1.2E1,9E0,1E0,9E0,1.4E1,5E1,3E0,3E0,3E0,7E0,2.2E1,8E0,4E0,2E0,2E0,1.276E3,1.5E1,9E0,5E0],"tree_param":{"num_deleted":"0","num_feature":"5","num_nodes":"67","size_leaf_vector":"1"}},{"base_weights":[1.3863136E-2,7.3274514E-3,7.189469E-1,8.513286E-2,-4.193586E-2,3.639531E-2,9.1136193E-1,4.8943967E-2,9.2757237E-1,-4.7628757E-2,1.0903494E0,1.7193228E-1,-7.5862885E-2,1.1552458E0,1.2840748E-2,8.394967E-2,-4.811187E-1,3.117688E0,2.7723712E-1,-5.3441007E-2,5.254565E-1,1.0696898E0,-1.1783359E-1,6.366422E-2,7.6630358E-3,6.211614E-1,4.490368E-1,-1.7723505E-1,8.746022E-2,-5.9444495E-2,2.4356009E-1,7.7651846E-1,-7.740273E-1,2.3145561E0,-2.6434878E-1,2.2355466E0,-9.142084E-2,-2.2960001E-1,-3.484773E-2,1.0427369E-1,1.3417536E0,1.4704853E-2,-9.719811E-2,-4.3041468E-2,2.8920695E-1,-7.8362346E-2,-1.3934255E-3,-4.0465295E-2,7.9613164E-2,5.404469E-1,5.790235E-2,-3.2744706E-1,1.0153205E0,-2.919617E-1,1.2517859E-1,-3.6678928E-1,5.3531694E-1,9.404235E-1,-6.930721E-2,-2.1702726E-1,9.641913E-2,-4.0117167E-2,-4.3778232E-1,1.2898712E-1,-1.3659065E-2,1.7326389E-1,-1.8951109E-1,9.330061E-2,4.7450107E-1,3.1626787E-2,-1.5202583E-2,-2.6737012E-2,7.3683504E-3],"categories":[],"categories_nodes":[],"categories_segments":[],"categories_sizes":[],"default_left":[0,0,0,0,0,0,0,0,0,0,0,0,0,0,0,0,0,0,0,0,0,0,0,0,0,0,0,0,0,0,0,0,0,0,0,0,0,0,0,0,0,0,0,0,0,0,0,0,0,0,0,0,0,0,0,0,0,0,0,0,0,0,0,0,0,0,0,0,0,0,0,0,0],"id":9,"left_children":[1,3,5,7,9,11,13,15,17,19,21,23,-1,25,27,29,31,33,35,37,39,-1,41,-1,-1,43,-1,45,-1,47,49,51,53,-1,55,57,59,61,63,65,67,69,-1,71,-1,-1,-1,-1,-1,-1,-1,-1,-1,-1,-1,-1,-1,-1,-1,-1,-1,-1,-1,-1,-1,-1,-1,-1,-1,-1,-1,-1,-1],"loss_changes":[9.031422E0,7.4548287E0,2.3308287E0,2.2941763E1,7.7290993E0,2.3951256E-1,3.0530548E0,1.3474367E1,4.3289253E1,3.978546E0,1.836372E1,1.8166535E-2,0E0,1.0767956E0,2.635615E-1,1.5577776E1,1.7177816E1,1.1088186E2,1.8253035E1,3.8405628E0,3.9858139E0,0E0,1.4138497E-1,0E0,0E0,1.4078717E0,0E0,4.2265423E-2,0E0,8.832907E0,2.5012005E1,4.753798E1,9.185406E0,0E0,1.1997997E1,9.595945E0,5.9723573E0,1.300926E1,5.3026237E0,3.499699E0,4.9727488E-1,2.9066876E-2,0E0,1.1534747E-2,0E0,0E0,0E0,0E0,0E0,0E0,0E0,0E0,0E0,0E0,0E0,0E0,0E0,0E0,0E0,0E0,0E0,0E0,0E0,0E0,0E0,0E0,0E0,0E0,0E0,0E0,0E0,0E0,0E0],"parents":[2147483647,0,0,1,1,2,2,3,3,4,4,5,5,6,6,7,7,8,8,9,9,10,10,11,11,13,13,14,14,15,15,16,16,17,17,18,18,19,19,20,20,22,22,25,25,27,27,29,29,30,30,31,31,32,32,34,34,35,35,36,36,37,37,38,38,39,39,40,40,41,41,43,43],"right_children":[2,4,6,8,10,12,14,16,18,20,22,24,-1,26,28,30,32,34,36,38,40,-1,42,-1,-1,44,-1,46,-1,48,50,52,54,-1,56,58,60,62,64,66,68,70,-1,72,-1,-1,-1,-1,-1,-1,-1,-1,-1,-1,-1,-1,-1,-1,-1,-1,-1,-1,-1,-1,-1,-1,-1,-1,-1,-1,-1,-1,-1],"split_conditions":[2.2072748E1,1.9866467E2,1.4002582E2,1.9435817E2,1.732E1,3E0,2.083468E2,1.8768608E2,1.0935835E0,1.37E1,2.1480249E2,2.63E0,-7.5862885E-2,2.2743582E1,1.63E0,1.89E0,2.8665001E0,1.9643513E2,1.3910169E1,2.1149829E2,3.28E0,1.0696898E0,2.788E1,6.366422E-2,7.6630358E-3,1.3009903E1,4.490368E-1,1.02E0,8.746022E-2,1.5149835E1,1.92E0,1.914904E2,2.3532547E1,2.3145561E0,2.67E0,8.2E-1,1.5509274E1,5.82E0,2.1414993E2,1.76E1,1.0549834E1,2.2102497E0,-9.719811E-2,1.92E0,2.8920695E-1,-7.8362346E-2,-1.3934255E-3,-4.0465295E-2,7.9613164E-2,5.404469E-1,5.790235E-2,-3.2744706E-1,1.0153205E0,-2.919617E-1,1.2517859E-1,-3.6678928E-1,5.3531694E-1,9.404235E-1,-6.930721E-2,-2.1702726E-1,9.641913E-2,-4.0117167E-2,-4.3778232E-1,1.2898712E-1,-1.3659065E-2,1.7326389E-1,-1.8951109E-1,9.330061E-2,4.7450107E-1,3.1626787E-2,-1.5202583E-2,-2.6737012E-2,7.3683504E-3],"split_indices":[1,4,4,4,0,0,4,4,1,2,4,0,0,1,0,0,1,4,3,4,0,0,0,0,0,3,0,0,0,1,0,4,3,0,0,0,3,0,4,2,1,1,0,0,0,0,0,0,0,0,0,0,0,0,0,0,0,0,0,0,0,0,0,0,0,0,0,0,0,0,0,0,0],"split_type":[0,0,0,0,0,0,0,0,0,0,0,0,0,0,0,0,0,0,0,0,0,0,0,0,0,0,0,0,0,0,0,0,0,0,0,0,0,0,0,0,0,0,0,0,0,0,0,0,0,0,0,0,0,0,0,0,0,0,0,0,0,0,0,0,0,0,0,0,0,0,0,0,0],"sum_hessian":[1.96E3,1.943E3,1.7E1,7.53E2,1.19E3,4E0,1.3E1,7.23E2,3E1,1.185E3,5E0,3E0,1E0,1E1,3E0,6.79E2,4.4E1,6E0,2.4E1,1.174E3,1.1E1,1E0,4E0,2E0,1E0,5E0,5E0,2E0,1E0,3.58E2,3.21E2,8E0,3.6E1,2E0,4E0,3E0,2.1E1,1.11E2,1.063E3,8E0,3E0,3E0,1E0,2E0,3E0,1E0,1E0,2.91E2,6.7E1,9E0,3.12E2,5E0,3E0,3.1E1,5E0,3E0,1E0,2E0,1E0,8E0,1.3E1,1.04E2,7E0,2.3E1,1.04E3,5E0,3E0,1E0,2E0,1E0,2E0,1E0,1E0],"tree_param":{"num_deleted":"0","num_feature":"5","num_nodes":"73","size_leaf_vector":"1"}},{"base_weights":[1.2912839E-2,4.4450033E-3,4.0934697E-1,5.030898E-2,-5.451267E-2,8.606747E-2,6.347505E-1,7.0245992E-3,6.392326E-1,-2.1349269E-1,1.4643071E-2,-3.2713366E-1,6.4346063E-1,7.321201E-1,-2.9087678E-1,-1.1390661E-2,7.6252484E-1,1.0588928E0,-8.301517E-1,-6.472505E-2,-3.629221E-1,1.2760684E0,-4.609334E-2,-4.948578E-1,9.0097964E-2,1.0222468E0,-3.2859865E-1,8.2086885E-1,-1.0357825E-1,-1.6200274E-1,3.110819E-2,2.8870082E-2,-2.6293653E-1,5.561474E-1,8.26381E-1,2.8101306E0,1.336712E-1,-4.046283E-2,-1.3788875E0,4.7564678E-2,-3.5612807E-1,-5.173576E-1,1.5366465E-1,3.896306E0,3.4189075E-1,-2.9689074E-2,-8.6360776E-1,-6.100809E-1,-9.945893E-2,7.796967E-2,-5.3135317E-2,-6.660801E-2,1.3155068E0,-1.512875E-1,3.4181E-3,4.439331E-1,1.0351648E0,-6.448346E-2,1.787324E-2,-1.6705254E-2,6.291852E-2,-2.7314525E-3,-1.337897E-1,4.0439457E-1,-8.460981E-2,-1.2067246E-1,1.2646779E0,-1.7334701E-2,5.470006E-1,-7.3596545E-2,1.1482281E-1,-1.20211564E-1,-4.7200355E-1,-1.3673696E-2,6.4640754E-1,-2.2991575E-1,-8.8682435E-2,-2.3839852E-1,-3.3736594E-2,3.95579E-1,-9.896495E-2,2.0248404E-1,1.8430768E0,2.3765582E-1,-4.1845664E-2,-3.3049833E-2,5.0299566E-2,-3.4071255E-1,-3.1051354E-2,-2.0819972E-1,-2.8573502E-2,9.101272E-4,-4.566665E-2,-1.1844278E-3,-2.2726465E-2,5.020667E-1,1.5568677E-1,1.6282293E-1,1.9619633E-2,4.2812604E-1,2.2378774E-1],"categories":[],"categories_nodes":[],"categories_segments":[],"categories_sizes":[],"default_left":[0,0,0,0,0,0,0,0,0,0,0,0,0,0,0,0,0,0,0,0,0,0,0,0,0,0,0,0,0,0,0,0,0,0,0,0,0,0,0,0,0,0,0,0,0,0,0,0,0,0,0,0,0,0,0,0,0,0,0,0,0,0,0,0,0,0,0,0,0,0,0,0,0,0,0,0,0,0,0,0,0,0,0,0,0,0,0,0,0,0,0,0,0,0,0,0,0,0,0,0,0],"id":10,"left_children":[1,3,5,7,9,11,13,15,17,19,21,23,25,27,29,31,33,35,37,39,41,43,45,47,49,51,53,55,57,-1,-1,59,61,63,-1,65,67,69,71,73,75,77,79,81,83,85,87,89,91,-1,93,-1,95,-1,-1,97,99,-1,-1,-1,-1,-1,-1,-1,-1,-1,-1,-1,-1,-1,-1,-1,-1,-1,-1,-1,-1,-1,-1,-1,-1,-1,-1,-1,-1,-1,-1,-1,-1,-1,-1,-1,-1,-1,-1,-1,-1,-1,-1,-1,-1],"loss_changes":[6.5811377E0,5.1971903E0,2.9329705E0,2.7551489E1,9.2494E0,4.3561764E0,2.376028E0,1.4032721E1,4.6510574E1,5.6452284E0,4.50315E1,8.143636E-1,3.2815301E0,1.7167015E0,3.5089675E-1,9.983103E0,8.334918E0,9.3600784E1,7.3108263E0,4.238021E0,1.0211475E1,6.4757614E1,7.497777E0,3.0379462E-1,1.110944E-1,2.4814525E0,1.8494853E-1,1.1559734E0,6.731616E-2,0E0,0E0,1.3010168E1,6.31431E0,1.564527E1,0E0,9.199304E1,1.2721549E1,7.874747E-1,1.2716999E0,1.8547167E1,6.672869E-1,1.0914181E1,1.733399E1,4.652854E1,4.66249E0,8.769722E0,2.1575193E0,1.9312453E-1,1.6685339E-2,0E0,3.0386932E-3,0E0,5.5751705E-1,0E0,0E0,3.0113196E-1,2.956047E-1,0E0,0E0,0E0,0E0,0E0,0E0,0E0,0E0,0E0,0E0,0E0,0E0,0E0,0E0,0E0,0E0,0E0,0E0,0E0,0E0,0E0,0E0,0E0,0E0,0E0,0E0,0E0,0E0,0E0,0E0,0E0,0E0,0E0,0E0,0E0,0E0,0E0,0E0,0E0,0E0,0E0,0E0,0E0,0E0],"parents":[2147483647,0,0,1,1,2,2,3,3,4,4,5,5,6,6,7,7,8,8,9,9,10,10,11,11,12,12,13,13,14,14,15,15,16,16,17,17,18,18,19,19,20,20,21,21,22,22,23,23,24,24,25,25,26,26,27,27,28,28,31,31,32,32,33,33,35,35,36,36,37,37,38,38,39,39,40,40,41,41,42,42,43,43,44,44,45,45,46,46,47,47,48,48,50,50,52,52,55,55,56,56],"right_children":[2,4,6,8,10,12,14,16,18,20,22,24,26,28,30,32,34,36,38,40,42,44,46,48,50,52,54,56,58,-1,-1,60,62,64,-1,66,68,70,72,74,76,78,80,82,84,86,88,90,92,-1,94,-1,96,-1,-1,98,100,-1,-1,-1,-1,-1,-1,-1,-1,-1,-1,-1,-1,-1,-1,-1,-1,-1,-1,-1,-1,-1,-1,-1,-1,-1,-1,-1,-1,-1,-1,-1,-1,-1,-1,-1,-1,-1,-1,-1,-1,-1,-1,-1,-1],"split_conditions":[2.0939419E1,1.7727943E1,2.2E0,1.7294992E1,2.4810834E0,1.5188415E1,1.8751125E1,1.01E1,2.4999998E0,1.44E0,2.8665001E0,2.2072748E1,2.13E0,1.01E1,3.07E0,1.6394829E1,4.9E0,2.2316602E2,1.57E0,1.0935835E0,3.5E0,1.9435817E2,1.28E1,1.57E0,1.14E0,1.02E0,1E-1,2.95E0,1.085E1,-1.6200274E-1,3.110819E-2,6E-1,5.358167E0,4E-1,8.26381E-1,1.081073E2,5.04E0,7.6000004E0,4.2000003E0,9.9566674E-1,1.2269167E0,2.4149667E2,3.75E0,1.6124841E2,3E-1,2.35E0,1.732E1,2.1480249E2,1.92E0,7.796967E-2,1.63E0,-6.660801E-2,1.85E0,-1.512875E-1,3.4181E-3,2.77E0,2.111025E1,-6.448346E-2,1.787324E-2,-1.6705254E-2,6.291852E-2,-2.7314525E-3,-1.337897E-1,4.0439457E-1,-8.460981E-2,-1.2067246E-1,1.2646779E0,-1.7334701E-2,5.470006E-1,-7.3596545E-2,1.1482281E-1,-1.20211564E-1,-4.7200355E-1,-1.3673696E-2,6.4640754E-1,-2.2991575E-1,-8.8682435E-2,-2.3839852E-1,-3.3736594E-2,3.95579E-1,-9.896495E-2,2.0248404E-1,1.8430768E0,2.3765582E-1,-4.1845664E-2,-3.3049833E-2,5.0299566E-2,-3.4071255E-1,-3.1051354E-2,-2.0819972E-1,-2.8573502E-2,9.101272E-4,-4.566665E-2,-1.1844278E-3,-2.2726465E-2,5.020667E-1,1.5568677E-1,1.6282293E-1,1.9619633E-2,4.2812604E-1,2.2378774E-1],"split_indices":[1,3,0,3,1,3,3,0,2,0,1,1,0,0,0,3,2,4,0,1,0,4,0,0,0,0,2,0,0,0,0,2,1,2,0,4,0,2,2,1,1,4,0,4,2,0,0,4,0,0,0,0,0,0,0,0,1,0,0,0,0,0,0,0,0,0,0,0,0,0,0,0,0,0,0,0,0,0,0,0,0,0,0,0,0,0,0,0,0,0,0,0,0,0,0,0,0,0,0,0,0],"split_type":[0,0,0,0,0,0,0,0,0,0,0,0,0,0,0,0,0,0,0,0,0,0,0,0,0,0,0,0,0,0,0,0,0,0,0,0,0,0,0,0,0,0,0,0,0,0,0,0,0,0,0,0,0,0,0,0,0,0,0,0,0,0,0,0,0,0,0,0,0,0,0,0,0,0,0,0,0,0,0,0,0,0,0,0,0,0,0,0,0,0,0,0,0,0,0,0,0,0,0,0,0],"sum_hessian":[1.96E3,1.92E3,4E1,1.08E3,8.4E2,1.7E1,2.3E1,1.007E3,7.3E1,2.54E2,5.86E2,1E1,7E0,2.1E1,2E0,9.84E2,2.3E1,5.7E1,1.6E1,1.28E2,1.26E2,2.6E1,5.6E2,7E0,3E0,5E0,2E0,1.9E1,2E0,1E0,1E0,8.49E2,1.35E2,2.2E1,1E0,1.9E1,3.8E1,7E0,9E0,9.3E1,3.5E1,9.7E1,2.9E1,6E0,2E1,5.5E2,1E1,5E0,2E0,1E0,2E0,1E0,4E0,1E0,1E0,8E0,1.1E1,1E0,1E0,5.79E2,2.7E2,5.7E1,7.8E1,1.1E1,1.1E1,6E0,1.3E1,3.5E1,3E0,5E0,2E0,2E0,7E0,9E1,3E0,3E0,3.2E1,5.7E1,4E1,8E0,2.1E1,3E0,3E0,1E1,1E1,3.91E2,1.59E2,7E0,3E0,4E0,1E0,1E0,1E0,1E0,1E0,2E0,2E0,6E0,2E0,3E0,8E0],"tree_param":{"num_deleted":"0","num_feature":"5","num_nodes":"101","size_leaf_vector":"1"}},{"base_weights":[1.172979E-2,3.739023E-2,-7.7581264E-2,9.6239105E-2,-2.5416622E-2,4.1618618E-1,-9.1275945E-2,6.938427E-2,2.7025564E0,-9.685909E-2,3.4331924E-1,2.483827E-1,1.0681534E-1,-1.6015941E-1,-2.573487E-2,1.6457106E-1,-2.1702006E-1,4.837892E0,4.5377627E-1,-7.8280084E-2,-6.794445E-1,1.5249993E-1,1.7772012E0,-1.0275304E-1,2.5310698E-1,5.617934E-1,-1.8070894E-1,-8.060062E-2,9.2986025E-2,-8.2061596E-2,2.7324256E-1,-2.42277E-1,7.024238E-1,1.4334673E-2,1.9256005E0,-1.4674717E-1,1.245451E0,-8.702945E-2,9.8205E-1,-3.4978712E-1,-4.224074E-1,7.975973E-1,4.153944E-3,2.81246E-1,2.1596212E0,1.3268531E-2,-4.9946904E-2,8.7222524E-2,1.5385187E-2,1.7159045E-1,2.6843986E-1,-1.9336268E-1,7.273279E-1,3.7093216E-3,-3.068885E-1,7.0630056E-1,4.511393E-2,-1.664912E-2,-3.7110806E-1,3.781446E-1,3.4621652E-2,2.1936312E-2,-1.364956E-1,4.7350118E-1,8.6951785E-2,-3.0566132E-2,1.1896561E-1,-3.8450237E-2,8.13438E-1,-1.970874E-1,-4.931241E-2,4.1090474E-1,-6.952222E-2,1.215267E-1,-6.9655664E-2,-5.884477E-2,1.5172826E-1,7.5520504E-1,1.0996828E-1,-1.5484715E-2,7.895933E-2,-6.9546826E-2,-1.2985857E-3,3.6107397E-1,-3.3776432E-2,1.8071372E-2,-4.1318417E-2,-5.909819E-2,-1.6681524E-1,6.776007E-3,5.161734E-1,1.7716923E-3,1.954098E-1],"categories":[],"categories_nodes":[],"categories_segments":[],"categories_sizes":[],"default_left":[0,0,0,0,0,0,0,0,0,0,0,0,0,0,0,0,0,0,0,0,0,0,0,0,0,0,0,0,0,0,0,0,0,0,0,0,0,0,0,0,0,0,0,0,0,0,0,0,0,0,0,0,0,0,0,0,0,0,0,0,0,0,0,0,0,0,0,0,0,0,0,0,0,0,0,0,0,0,0,0,0,0,0,0,0,0,0,0,0,0,0,0,0],"id":11,"left_children":[1,3,5,7,9,11,13,15,17,19,21,-1,23,25,27,29,31,33,35,37,39,41,43,45,47,49,51,53,55,57,59,61,-1,-1,-1,-1,63,65,67,-1,69,71,73,75,77,-1,-1,-1,-1,79,-1,81,83,85,87,89,91,-1,-1,-1,-1,-1,-1,-1,-1,-1,-1,-1,-1,-1,-1,-1,-1,-1,-1,-1,-1,-1,-1,-1,-1,-1,-1,-1,-1,-1,-1,-1,-1,-1,-1,-1,-1],"loss_changes":[4.497044E0,5.635322E0,2.9997385E0,5.4896378E1,1.9474684E1,1.4401872E0,1.9236534E0,2.1300003E1,3.6219883E1,6.646779E0,3.256246E1,0E0,2.712723E-1,3.187368E0,1.4405112E0,1.5728362E1,1.316781E1,2.9981667E1,4.3417044E0,5.6610727E0,1.8834743E0,1.0236331E1,7.401779E0,4.4836E-2,2.3067445E-2,6.261008E-1,2.4731202E0,2.8819642E0,2.0233817E0,5.4539485E0,6.327449E1,1.3048302E1,0E0,0E0,0E0,0E0,4.9686575E-1,4.32978E0,9.947626E0,0E0,7.3931694E-1,1.209479E1,8.4326515E0,5.2793384E-1,6.1329536E0,0E0,0E0,0E0,0E0,9.537438E-2,0E0,1.4603195E0,1.3355439E0,8.957698E-1,1.0131061E0,3.4285154E0,1.5649803E0,0E0,0E0,0E0,0E0,0E0,0E0,0E0,0E0,0E0,0E0,0E0,0E0,0E0,0E0,0E0,0E0,0E0,0E0,0E0,0E0,0E0,0E0,0E0,0E0,0E0,0E0,0E0,0E0,0E0,0E0,0E0,0E0,0E0,0E0,0E0,0E0],"parents":[2147483647,0,0,1,1,2,2,3,3,4,4,5,5,6,6,7,7,8,8,9,9,10,10,12,12,13,13,14,14,15,15,16,16,17,17,18,18,19,19,20,20,21,21,22,22,23,23,24,24,25,25,26,26,27,27,28,28,29,29,30,30,31,31,36,36,37,37,38,38,40,40,41,41,42,42,43,43,44,44,49,49,51,51,52,52,53,53,54,54,55,55,56,56],"right_children":[2,4,6,8,10,12,14,16,18,20,22,-1,24,26,28,30,32,34,36,38,40,42,44,46,48,50,52,54,56,58,60,62,-1,-1,-1,-1,64,66,68,-1,70,72,74,76,78,-1,-1,-1,-1,80,-1,82,84,86,88,90,92,-1,-1,-1,-1,-1,-1,-1,-1,-1,-1,-1,-1,-1,-1,-1,-1,-1,-1,-1,-1,-1,-1,-1,-1,-1,-1,-1,-1,-1,-1,-1,-1,-1,-1,-1,-1],"split_conditions":[2.7953458E2,8.310251E0,-9.045999E0,8.145667E0,4.6E0,1.3276144E1,1E-1,2.1999998E0,1.8612444E2,3.9000003E0,1.9124832E1,2.483827E-1,1.4205182E1,8.885877E0,8.906084E0,1.2989864E2,1.28E1,1.58E0,2.35E0,3.7000003E0,4.1E0,1.0284771E2,1.0495713E1,1.3358861E1,2.25E0,8.587338E0,1.01E1,4.104E0,9.212335E0,1.2588224E2,1.8293228E2,1.7644168E0,7.024238E-1,1.4334673E-2,1.9256005E0,-1.4674717E-1,4.5E0,2.2072748E1,1.27E0,-3.4978712E-1,1.8899143E1,1.3100001E1,6.7000003E0,3.5E0,2.111025E1,1.3268531E-2,-4.9946904E-2,8.7222524E-2,1.5385187E-2,2.35E0,2.6843986E-1,3.402948E2,1.085E1,2.268E1,1.85E0,1.8E0,3.5377325E2,-1.664912E-2,-3.7110806E-1,3.781446E-1,3.4621652E-2,2.1936312E-2,-1.364956E-1,4.7350118E-1,8.6951785E-2,-3.0566132E-2,1.1896561E-1,-3.8450237E-2,8.13438E-1,-1.970874E-1,-4.931241E-2,4.1090474E-1,-6.952222E-2,1.215267E-1,-6.9655664E-2,-5.884477E-2,1.5172826E-1,7.5520504E-1,1.0996828E-1,-1.5484715E-2,7.895933E-2,-6.9546826E-2,-1.2985857E-3,3.6107397E-1,-3.3776432E-2,1.8071372E-2,-4.1318417E-2,-5.909819E-2,-1.6681524E-1,6.776007E-3,5.161734E-1,1.7716923E-3,1.954098E-1],"split_indices":[4,1,1,1,2,3,2,2,4,2,1,0,3,3,1,4,0,0,0,2,2,4,3,3,0,3,0,1,1,4,4,1,0,0,0,0,0,1,0,0,3,2,2,0,1,0,0,0,0,0,0,4,0,3,0,0,4,0,0,0,0,0,0,0,0,0,0,0,0,0,0,0,0,0,0,0,0,0,0,0,0,0,0,0,0,0,0,0,0,0,0,0,0],"split_type":[0,0,0,0,0,0,0,0,0,0,0,0,0,0,0,0,0,0,0,0,0,0,0,0,0,0,0,0,0,0,0,0,0,0,0,0,0,0,0,0,0,0,0,0,0,0,0,0,0,0,0,0,0,0,0,0,0,0,0,0,0,0,0,0,0,0,0,0,0,0,0,0,0,0,0,0,0,0,0,0,0,0,0,0,0,0,0,0,0,0,0,0,0],"sum_hessian":[1.96E3,1.523E3,4.37E2,7.86E2,7.37E2,1.1E1,4.26E2,7.79E2,7E0,6.18E2,1.19E2,4E0,7E0,2.07E2,2.19E2,5.85E2,1.94E2,3E0,4E0,6E2,1.8E1,1.06E2,1.3E1,3E0,4E0,5E0,2.02E2,1.5E2,6.9E1,1.79E2,4.06E2,1.93E2,1E0,1E0,2E0,2E0,2E0,5.96E2,4E0,5E0,1.3E1,1.9E1,8.7E1,3E0,1E1,1E0,2E0,3E0,1E0,3E0,2E0,2E2,2E0,1.1E2,4E1,4E0,6.5E1,1.76E2,3E0,5.5E1,3.51E2,7.8E1,1.15E2,1E0,1E0,5.79E2,1.7E1,3E0,1E0,6E0,7E0,1.2E1,7E0,3.2E1,5.5E1,1E0,2E0,8E0,2E0,1E0,2E0,1.66E2,3.4E1,1E0,1E0,7.9E1,3.1E1,2.9E1,1.1E1,3E0,1E0,6.2E1,3E0],"tree_param":{"num_deleted":"0","num_feature":"5","num_nodes":"93","size_leaf_vector":"1"}},{"base_weights":[1.1249449E-2,-1.1148773E-1,2.7783003E-2,-2.6104462E-1,-9.103399E-2,-9.598321E-2,4.655192E-2,-1.00561045E-1,3.1074107E-1,-2.961926E-1,2.0662103E-2,7.961114E-1,4.200534E-2,-1.4345716E-1,9.180177E-2,-8.4147025E-3,-9.7501177E-1,7.4952334E-1,-5.3305803E-3,1.37696E0,-8.2457244E-1,9.985693E-2,-1.208373E-2,1.2939481E-1,-1.9886236E-1,-2.5014094E-1,3.5868135E-1,-8.1996255E-2,1.4169668E0,-1.1011773E0,-3.9195776E-1,2.8047794E-1,1.1866629E-3,3.8589358E-1,-3.1764317E-2,2.4714203E-1,8.40301E-1,3.4178764E-2,-4.052364E-1,7.637587E-2,2.1859946E0,-3.9213794E-1,2.7511194E-2,-4.5030294E-3,1.6934574E-1,-4.516765E-2,-1.13947235E-1,-9.7128816E-2,-3.25322E-2,1.8426998E-1,-4.0646005E-2,9.4295405E-2,-7.2137065E-2,9.586369E-2,5.417714E-1,-3.6369067E-1,-1.06080815E-1,-1.4244048E-1,3.3392073E-3,6.1075985E-2,2.7665243E-1,-3.882569E-2,2.0799253E-2,1.8880914E-1,-1.7263056E-3,5.643892E-2,-2.4190752E-2,1.1614527E0,1.2011533E-1,1.5574843E-3,-2.6217207E-1,-7.250693E-3,1.2069743E-1],"categories":[],"categories_nodes":[],"categories_segments":[],"categories_sizes":[],"default_left":[0,0,0,0,0,0,0,0,0,0,0,0,0,0,0,0,0,0,0,0,0,0,0,0,0,0,0,0,0,0,0,0,0,0,0,0,0,0,0,0,0,0,0,0,0,0,0,0,0,0,0,0,0,0,0,0,0,0,0,0,0,0,0,0,0,0,0,0,0,0,0,0,0],"id":12,"left_children":[1,3,5,-1,7,9,11,13,-1,15,17,19,21,23,25,27,29,31,33,35,37,39,41,43,45,47,49,51,53,55,57,-1,-1,59,61,63,-1,-1,-1,65,67,69,71,-1,-1,-1,-1,-1,-1,-1,-1,-1,-1,-1,-1,-1,-1,-1,-1,-1,-1,-1,-1,-1,-1,-1,-1,-1,-1,-1,-1,-1,-1],"loss_changes":[3.9825187E0,3.5363545E0,4.020862E0,0E0,2.5518417E0,5.3307147E0,5.085271E0,1.8862867E0,0E0,1.6401123E1,2.751029E0,9.607751E0,4.67614E0,2.8375719E0,3.9225368E0,6.4090924E0,1.4074192E0,6.8745446E-1,1.4704114E0,1.0570121E1,1.6354563E0,3.5200012E1,1.1643061E1,2.0190096E0,1.2976832E0,1.6310322E-1,3.1140745E0,3.7179918E0,7.034173E-1,1.2328072E0,2.0564526E-1,0E0,0E0,6.9216776E-1,1.3220036E0,4.8693407E-1,0E0,0E0,0E0,1.2561034E1,2.2527275E1,1.3978273E1,1.3588393E1,0E0,0E0,0E0,0E0,0E0,0E0,0E0,0E0,0E0,0E0,0E0,0E0,0E0,0E0,0E0,0E0,0E0,0E0,0E0,0E0,0E0,0E0,0E0,0E0,0E0,0E0,0E0,0E0,0E0,0E0],"parents":[2147483647,0,0,1,1,2,2,4,4,5,5,6,6,7,7,9,9,10,10,11,11,12,12,13,13,14,14,15,15,16,16,17,17,18,18,19,19,20,20,21,21,22,22,23,23,24,24,25,25,26,26,27,27,28,28,29,29,30,30,33,33,34,34,35,35,39,39,40,40,41,41,42,42],"right_children":[2,4,6,-1,8,10,12,14,-1,16,18,20,22,24,26,28,30,32,34,36,38,40,42,44,46,48,50,52,54,56,58,-1,-1,60,62,64,-1,-1,-1,66,68,70,72,-1,-1,-1,-1,-1,-1,-1,-1,-1,-1,-1,-1,-1,-1,-1,-1,-1,-1,-1,-1,-1,-1,-1,-1,-1,-1,-1,-1,-1,-1],"split_conditions":[8E-1,1.0365251E1,-9.605834E-1,-2.6104462E-1,1.4500002E1,2.2918866E2,7.771331E0,2.3188583E1,3.1074107E-1,9.768497E1,2.4149667E2,1.6124841E2,8.310251E0,9.9566674E-1,3.358166E0,5.5999994E0,2.185222E2,-3.8480833E0,8.885877E0,1.4295361E2,1.23E0,8.145667E0,9.44775E0,-2.3558326E-1,1.2000002E0,2.7410498E2,2.6010718E2,1.33E0,1.35E0,2.4E0,1.5000001E0,2.8047794E-1,1.1866629E-3,8.587338E0,3.1005508E2,2.08E0,8.40301E-1,3.4178764E-2,-4.052364E-1,2.3832178E2,1.8612444E2,2E0,6.1999993E0,-4.5030294E-3,1.6934574E-1,-4.516765E-2,-1.13947235E-1,-9.7128816E-2,-3.25322E-2,1.8426998E-1,-4.0646005E-2,9.4295405E-2,-7.2137065E-2,9.586369E-2,5.417714E-1,-3.6369067E-1,-1.06080815E-1,-1.4244048E-1,3.3392073E-3,6.1075985E-2,2.7665243E-1,-3.882569E-2,2.0799253E-2,1.8880914E-1,-1.7263056E-3,5.643892E-2,-2.4190752E-2,1.1614527E0,1.2011533E-1,1.5574843E-3,-2.6217207E-1,-7.250693E-3,1.2069743E-1],"split_indices":[0,3,1,0,2,4,3,3,0,4,4,4,1,1,1,2,4,1,3,4,0,1,1,1,2,4,4,0,0,0,2,0,0,3,4,0,0,0,0,4,4,0,2,0,0,0,0,0,0,0,0,0,0,0,0,0,0,0,0,0,0,0,0,0,0,0,0,0,0,0,0,0,0],"split_type":[0,0,0,0,0,0,0,0,0,0,0,0,0,0,0,0,0,0,0,0,0,0,0,0,0,0,0,0,0,0,0,0,0,0,0,0,0,0,0,0,0,0,0,0,0,0,0,0,0,0,0,0,0,0,0,0,0,0,0,0,0,0,0,0,0,0,0,0,0,0,0,0,0],"sum_hessian":[1.96E3,2.32E2,1.728E3,5E0,2.27E2,2.27E2,1.501E3,2.26E2,1E0,8.3E1,1.44E2,8E0,1.493E3,1.85E2,4.1E1,5.9E1,2.4E1,4E0,1.4E2,6E0,2E0,7.21E2,7.72E2,3.1E1,1.54E2,1.8E1,2.3E1,5.7E1,2E0,1.9E1,5E0,3E0,1E0,8E0,1.32E2,4E0,2E0,1E0,1E0,7.14E2,7E0,7.2E1,7E2,2.4E1,7E0,1.23E2,3.1E1,1.1E1,7E0,1.5E1,8E0,1.6E1,4.1E1,1E0,1E0,1.6E1,3E0,4E0,1E0,7E0,1E0,6.7E1,6.5E1,1E0,3E0,4.17E2,2.97E2,3E0,4E0,4E1,3.2E1,6.16E2,8.4E1],"tree_param":{"num_deleted":"0","num_feature":"5","num_nodes":"73","size_leaf_vector":"1"}},{"base_weights":[9.172259E-3,1.4381176E-2,-3.383453E-1,6.0977796E-3,2.2535403E-1,-2.2859233E-2,-1.1636387E0,3.192231E-2,-1.0019685E-1,1.2461683E0,-3.7994564E-2,2.6412994E-1,-1.0779854E-1,-4.085138E-1,3.343177E-2,1.9817427E-2,5.093661E-1,5.097818E-1,-1.3340321E-1,2.0918882E-1,3.2782893E0,-1.9021355E-1,6.4352584E-1,-3.412214E-1,2.4134545E-1,-4.0205777E-2,9.024612E-2,8.253067E-1,-5.6526095E-1,2.8911319E-2,1.3748176E0,1.7213257E-1,-2.060371E-1,-3.6428124E-1,5.8892614E-1,2.2979973E-1,1.1144587E0,2.8681365E-1,-5.018912E-1,1.3961664E0,-2.1636902E-1,1.05584055E-1,-4.2831433E-1,-7.5075865E-2,5.288534E-1,-2.2402117E-2,5.7125114E-2,1.7210258E-2,1.7485261E-1,2.9932875E-2,4.2256927E-1,-2.6484075E-1,1.5709966E-2,2.967219E-1,-1.2493925E-1,2.0707041E-2,4.3106422E-1,-1.5861376E-1,-2.0221127E-2,-1.2721649E-1,-1.8777966E-2,2.5559303E-1,-1.4840661E-1,-1.7114495E-1,1.24128714E-1,-2.4327116E-1,9.2771605E-2,5.5828744E-1,9.33166E-2,1.8721013E-1,-2.3777366E-1,-1.687774E-1,-5.7337675E-3,-1.2197436E-2,1.9526622E-1],"categories":[],"categories_nodes":[],"categories_segments":[],"categories_sizes":[],"default_left":[0,0,0,0,0,0,0,0,0,0,0,0,0,0,0,0,0,0,0,0,0,0,0,0,0,0,0,0,0,0,0,0,0,0,0,0,0,0,0,0,0,0,0,0,0,0,0,0,0,0,0,0,0,0,0,0,0,0,0,0,0,0,0,0,0,0,0,0,0,0,0,0,0,0,0],"id":13,"left_children":[1,3,5,7,9,11,13,15,17,19,21,-1,23,-1,-1,25,27,29,31,33,35,37,39,41,43,45,47,49,51,53,-1,55,57,59,61,-1,-1,63,65,67,69,-1,71,-1,73,-1,-1,-1,-1,-1,-1,-1,-1,-1,-1,-1,-1,-1,-1,-1,-1,-1,-1,-1,-1,-1,-1,-1,-1,-1,-1,-1,-1,-1,-1],"loss_changes":[3.5546486E0,3.376682E0,7.5240884E0,5.111661E0,1.9671936E1,1.7828599E0,2.172225E0,8.64745E0,7.4408855E0,3.092324E1,6.243088E0,0E0,1.7938141E0,0E0,0E0,6.1840224E0,1.3028691E1,3.7080112E1,7.7139864E0,2.6099827E0,2.638401E0,7.429207E0,7.421196E0,9.355545E-1,1.4043932E0,6.2940035E0,1.0866381E1,1.213142E1,1.8113308E0,8.109298E0,0E0,8.638093E0,1.2489764E1,6.362206E-2,2.4167821E0,0E0,0E0,2.412699E0,7.770243E0,2.4472427E0,3.400086E0,0E0,6.486039E-1,0E0,4.43462E-1,0E0,0E0,0E0,0E0,0E0,0E0,0E0,0E0,0E0,0E0,0E0,0E0,0E0,0E0,0E0,0E0,0E0,0E0,0E0,0E0,0E0,0E0,0E0,0E0,0E0,0E0,0E0,0E0,0E0,0E0],"parents":[2147483647,0,0,1,1,2,2,3,3,4,4,5,5,6,6,7,7,8,8,9,9,10,10,12,12,15,15,16,16,17,17,18,18,19,19,20,20,21,21,22,22,23,23,24,24,25,25,26,26,27,27,28,28,29,29,31,31,32,32,33,33,34,34,37,37,38,38,39,39,40,40,42,42,44,44],"right_children":[2,4,6,8,10,12,14,16,18,20,22,-1,24,-1,-1,26,28,30,32,34,36,38,40,42,44,46,48,50,52,54,-1,56,58,60,62,-1,-1,64,66,68,70,-1,72,-1,74,-1,-1,-1,-1,-1,-1,-1,-1,-1,-1,-1,-1,-1,-1,-1,-1,-1,-1,-1,-1,-1,-1,-1,-1,-1,-1,-1,-1,-1,-1],"split_conditions":[1.5500001E1,8.8E0,3.7E0,2.1E0,1.1130755E2,5.5E-1,1.5458165E1,1.8000001E0,1.1252519E1,9.102666E1,3.9E0,2.6412994E-1,1.2472749E1,-4.085138E-1,3.343177E-2,1.73E0,2.0519999E1,1.108572E1,1.2588224E2,9.5E-1,9.4E-1,1.44E0,1.1400001E1,1.4113653E1,4.46016E1,2.3188583E1,1.3000001E0,1.5995712E1,2.3313995E1,3E0,1.3748176E0,1.2150419E2,1.901334E2,7.499381E1,1.3100001E1,2.2979973E-1,1.1144587E0,7.4E-1,1.4303997E1,1.7566504E1,6.37E0,1.05584055E-1,2.31E1,-7.5075865E-2,1.23E0,-2.2402117E-2,5.7125114E-2,1.7210258E-2,1.7485261E-1,2.9932875E-2,4.2256927E-1,-2.6484075E-1,1.5709966E-2,2.967219E-1,-1.2493925E-1,2.0707041E-2,4.3106422E-1,-1.5861376E-1,-2.0221127E-2,-1.2721649E-1,-1.8777966E-2,2.5559303E-1,-1.4840661E-1,-1.7114495E-1,1.24128714E-1,-2.4327116E-1,9.2771605E-2,5.5828744E-1,9.33166E-2,1.8721013E-1,-2.3777366E-1,-1.687774E-1,-5.7337675E-3,-1.2197436E-2,1.9526622E-1],"split_indices":[2,2,0,2,4,0,1,2,3,4,0,0,1,0,0,0,3,3,4,0,0,0,2,3,4,3,2,3,3,2,0,4,4,4,2,0,0,0,1,1,0,0,2,0,0,0,0,0,0,0,0,0,0,0,0,0,0,0,0,0,0,0,0,0,0,0,0,0,0,0,0,0,0,0,0],"split_type":[0,0,0,0,0,0,0,0,0,0,0,0,0,0,0,0,0,0,0,0,0,0,0,0,0,0,0,0,0,0,0,0,0,0,0,0,0,0,0,0,0,0,0,0,0,0,0,0,0,0,0,0,0,0,0,0,0,0,0,0,0,0,0,0,0,0,0,0,0,0,0,0,0,0,0],"sum_hessian":[1.96E3,1.932E3,2.8E1,1.86E3,7.2E1,2.1E1,7E0,1.497E3,3.63E2,1.4E1,5.8E1,1E0,2E1,6E0,1E0,1.461E3,3.6E1,1.8E1,3.45E2,1E1,4E0,4.8E1,1E1,1.2E1,8E0,7.89E2,6.72E2,2.8E1,8E0,1.7E1,1E0,6.6E1,2.79E2,4E0,6E0,1E0,3E0,1.9E1,2.9E1,5E0,5E0,1E0,1.1E1,3E0,5E0,6.87E2,1.02E2,6.31E2,4.1E1,1.3E1,1.5E1,5E0,3E0,5E0,1.2E1,6.2E1,4E0,8.3E1,1.96E2,3E0,1E0,5E0,1E0,2E0,1.7E1,2.1E1,8E0,3E0,2E0,2E0,3E0,8E0,3E0,1E0,4E0],"tree_param":{"num_deleted":"0","num_feature":"5","num_nodes":"75","size_leaf_vector":"1"}},{"base_weights":[8.402621E-3,-1.17708735E-1,1.861197E-2,1.153006E-1,-3.4293506E-1,-5.8408655E-2,4.6821475E-2,4.1129252E-1,-8.913253E-2,-2.1691826E-1,-7.299372E-1,-2.1402717E-2,-3.4868434E-1,5.419489E-1,2.1343129E-2,-1.4120719E-1,7.3859274E-1,4.632863E-1,-1.718346E-1,-2.6437315E-1,2.2236374E-1,-2.907933E-1,-2.94887E-1,-3.0646758E-2,3.9413765E-1,-1.233991E-1,-9.9963397E-1,1.449817E-1,1.3112494E0,1.8066137E-1,-2.0053292E-2,1.5310019E-1,-3.2254884E-1,8.788626E-1,-7.135004E-3,2.5862053E-1,4.837817E-2,-6.991102E-2,-5.03812E-1,-2.1184364E-1,-2.2734164E-1,-1.6039154E-1,-3.7558544E-2,-6.824856E-2,3.102311E-1,1.47058E-2,-8.160245E-1,-5.923024E-1,-1.4440258E0,-7.408721E-1,3.9394045E-1,2.236295E0,-2.7340505E-1,8.154666E-2,1.5141796E0,-1.6098031E0,-1.2092451E-2,1.18427604E-1,1.3002223E-2,1.6827266E-1,6.209078E-1,4.2848468E-2,-6.855371E-2,6.010543E-2,-6.1131246E-2,-5.599477E-2,4.7792528E-2,-8.617206E-2,-2.5236267E-1,-9.1414176E-2,2.166239E-1,5.066654E-2,-6.944581E-2,-9.050177E-2,-5.358209E-3,-2.4002584E-2,6.985824E-1,-7.25257E-2,4.0118656E-1,-3.2506692E-1,-2.9438937E-2,-8.973212E-2,-2.0671467E-1,-5.3248316E-1,-1.5643793E-1,-3.3763003E-1,3.5198525E-2,6.0483915E-1,5.365682E-2,6.456266E-2,1.4685626E0,9.7167496E-5,-1.477359E-1,9.606226E-4,1.3430628E-1,8.692566E-1,-5.7332937E-2,-6.0649234E-1,-1.9840929E-1,-6.3591175E-2,5.6334734E-3],"categories":[],"categories_nodes":[],"categories_segments":[],"categories_sizes":[],"default_left":[0,0,0,0,0,0,0,0,0,0,0,0,0,0,0,0,0,0,0,0,0,0,0,0,0,0,0,0,0,0,0,0,0,0,0,0,0,0,0,0,0,0,0,0,0,0,0,0,0,0,0,0,0,0,0,0,0,0,0,0,0,0,0,0,0,0,0,0,0,0,0,0,0,0,0,0,0,0,0,0,0,0,0,0,0,0,0,0,0,0,0,0,0,0,0,0,0,0,0,0,0],"id":14,"left_children":[1,3,5,7,9,11,13,15,17,19,21,23,25,27,29,31,33,35,37,39,-1,41,-1,43,-1,45,47,49,51,53,55,57,-1,59,61,-1,63,65,67,69,-1,-1,71,73,75,77,79,81,83,85,87,89,91,93,95,97,99,-1,-1,-1,-1,-1,-1,-1,-1,-1,-1,-1,-1,-1,-1,-1,-1,-1,-1,-1,-1,-1,-1,-1,-1,-1,-1,-1,-1,-1,-1,-1,-1,-1,-1,-1,-1,-1,-1,-1,-1,-1,-1,-1,-1],"loss_changes":[2.5270073E0,7.7540755E0,3.9462101E0,4.45393E0,3.499322E0,5.2238536E0,1.6753803E1,5.5292935E0,2.0898008E0,2.8330996E0,1.7141781E0,5.3846073E0,7.9423604E0,1.9660053E1,8.346558E0,3.463048E0,1.9937305E0,9.510422E-1,1.2843946E0,1.2909696E0,0E0,4.7392035E-1,0E0,5.545567E0,0E0,4.029508E0,1.6789064E0,9.995666E0,3.2860718E1,3.4373222E1,1.2699559E1,2.4813387E-1,0E0,4.897153E0,1.6543186E-1,0E0,1.941054E-1,8.592535E-1,4.160068E-1,4.7301803E0,0E0,0E0,2.3927408E-1,4.569927E0,3.4055294E1,1.2534026E1,1.2380891E0,4.9191236E-2,9.0620136E-1,3.4323545E0,1.1851173E1,7.418102E1,5.3979725E-1,6.9977455E0,4.3015728E1,6.159735E-1,6.180527E0,0E0,0E0,0E0,0E0,0E0,0E0,0E0,0E0,0E0,0E0,0E0,0E0,0E0,0E0,0E0,0E0,0E0,0E0,0E0,0E0,0E0,0E0,0E0,0E0,0E0,0E0,0E0,0E0,0E0,0E0,0E0,0E0,0E0,0E0,0E0,0E0,0E0,0E0,0E0,0E0,0E0,0E0,0E0,0E0],"parents":[2147483647,0,0,1,1,2,2,3,3,4,4,5,5,6,6,7,7,8,8,9,9,10,10,11,11,12,12,13,13,14,14,15,15,16,16,17,17,18,18,19,19,21,21,23,23,25,25,26,26,27,27,28,28,29,29,30,30,31,31,33,33,34,34,36,36,37,37,38,38,39,39,42,42,43,43,44,44,45,45,46,46,47,47,48,48,49,49,50,50,51,51,52,52,53,53,54,54,55,55,56,56],"right_children":[2,4,6,8,10,12,14,16,18,20,22,24,26,28,30,32,34,36,38,40,-1,42,-1,44,-1,46,48,50,52,54,56,58,-1,60,62,-1,64,66,68,70,-1,-1,72,74,76,78,80,82,84,86,88,90,92,94,96,98,100,-1,-1,-1,-1,-1,-1,-1,-1,-1,-1,-1,-1,-1,-1,-1,-1,-1,-1,-1,-1,-1,-1,-1,-1,-1,-1,-1,-1,-1,-1,-1,-1,-1,-1,-1,-1,-1,-1,-1,-1,-1,-1,-1,-1],"split_conditions":[4.3264347E1,2.0685833E0,2.2560835E0,1.4565548E1,3.5433384E1,1.7644168E0,2.8665001E0,-1.3272501E0,9.2E-1,1.8276918E1,1.83E0,8.47E0,2.5E0,2.7144167E0,1.5774579E2,3.770912E1,4.030619E1,-1.3272501E0,2.54E0,4.7E0,2.2236374E-1,1.6179985E1,-2.94887E-1,4.2999997E0,3.9413765E-1,7.73E0,2.0685833E0,1.914904E2,2.5074368E2,1.536364E2,1.5917906E2,-4.698084E0,-3.2254884E-1,3.1730822E1,2.13E0,2.5862053E-1,1.964228E1,2.2E0,1.24833286E-1,3.17E0,-2.2734164E-1,-1.6039154E-1,1E-1,1.4538046E2,2.29E0,3.4E0,1.085E1,4E0,1.8612444E2,2.5727499E0,1.2864649E1,1.5774579E2,1.02E0,1.83915E1,1.5222747E1,7.868584E0,4.5769167E0,1.18427604E-1,1.3002223E-2,1.6827266E-1,6.209078E-1,4.2848468E-2,-6.855371E-2,6.010543E-2,-6.1131246E-2,-5.599477E-2,4.7792528E-2,-8.617206E-2,-2.5236267E-1,-9.1414176E-2,2.166239E-1,5.066654E-2,-6.944581E-2,-9.050177E-2,-5.358209E-3,-2.4002584E-2,6.985824E-1,-7.25257E-2,4.0118656E-1,-3.2506692E-1,-2.9438937E-2,-8.973212E-2,-2.0671467E-1,-5.3248316E-1,-1.5643793E-1,-3.3763003E-1,3.5198525E-2,6.0483915E-1,5.365682E-2,6.456266E-2,1.4685626E0,9.7167496E-5,-1.477359E-1,9.606226E-4,1.3430628E-1,8.692566E-1,-5.7332937E-2,-6.0649234E-1,-1.9840929E-1,-6.3591175E-2,5.6334734E-3],"split_indices":[4,1,1,3,4,1,1,1,0,1,0,0,2,1,4,4,4,1,0,0,0,3,0,2,0,0,1,4,4,4,4,1,0,4,0,0,3,2,1,0,0,0,2,4,0,0,0,2,4,1,3,4,0,1,1,1,1,0,0,0,0,0,0,0,0,0,0,0,0,0,0,0,0,0,0,0,0,0,0,0,0,0,0,0,0,0,0,0,0,0,0,0,0,0,0,0,0,0,0,0,0],"split_type":[0,0,0,0,0,0,0,0,0,0,0,0,0,0,0,0,0,0,0,0,0,0,0,0,0,0,0,0,0,0,0,0,0,0,0,0,0,0,0,0,0,0,0,0,0,0,0,0,0,0,0,0,0,0,0,0,0,0,0,0,0,0,0,0,0,0,0,0,0,0,0,0,0,0,0,0,0,0,0,0,0,0,0,0,0,0,0,0,0,0,0,0,0,0,0,0,0,0,0,0,0],"sum_hessian":[1.96E3,1.46E2,1.814E3,7.2E1,7.4E1,4.86E2,1.328E3,2.9E1,4.3E1,5.7E1,1.7E1,4.32E2,5.4E1,6.4E1,1.264E3,1.1E1,1.8E1,5E0,3.8E1,5.5E1,2E0,7E0,1E1,4.3E2,2E0,4.1E1,1.3E1,4.3E1,2.1E1,2.6E2,1.004E3,9E0,2E0,1.5E1,3E0,2E0,3E0,3E1,8E0,5.1E1,4E0,3E0,4E0,3.88E2,4.2E1,3.5E1,6E0,8E0,5E0,9E0,3.4E1,1.3E1,8E0,2.43E2,1.7E1,4E0,1E3,2E0,7E0,1.3E1,2E0,2E0,1E0,2E0,1E0,2E1,1E1,6E0,2E0,4.7E1,4E0,2E0,2E0,6.8E1,3.2E2,3.6E1,6E0,3E1,5E0,4E0,2E0,3E0,5E0,3E0,2E0,6E0,3E0,3E0,3.1E1,8E0,5E0,4E0,4E0,2.01E2,4.2E1,9E0,8E0,2E0,2E0,1.33E2,8.67E2],"tree_param":{"num_deleted":"0","num_feature":"5","num_nodes":"101","size_leaf_vector":"1"}},{"base_weights":[6.859357E-3,1.0783555E-2,-2.5494528E-1,-1.704291E-3,1.0558776E-1,6.6902693E-3,-9.425749E-1,2.0391E-2,-1.7237045E-1,4.525883E-2,1.0115981E0,2.2436637E-1,-6.421856E-2,-3.8785145E-1,-2.6910222E-1,5.0602283E-2,-9.4764344E-2,4.129085E-2,-3.821324E-1,1.1147422E0,8.697461E-3,1.4014928E0,2.9489135E-2,3.486461E-1,-1.8187179E-1,-1.260222E-1,2.7571965E-2,3.4093246E-2,1.2701403E0,-1.2756619E-1,7.441128E-1,4.1812107E-1,-1.4032004E-3,1.5931578E-1,-4.7318643E-1,1.0638075E0,1.18524276E-1,-7.1015656E-2,2.461366E-1,1.5946718E0,1.2575531E-1,-8.288341E-2,1.7500043E-1,3.8130682E-2,1.6288385E-1,1.1476932E-1,-3.1503636E-1,-1.6536377E-2,2.6403125E-2,7.386154E-1,-6.88581E-2,-7.351255E-2,3.224519E-2,8.453069E-1,8.983567E-2,-3.842365E-2,1.03371814E-1,1.5097578E-1,-2.7369708E-1,-3.61928E-1,-1.07800625E-1,1.415031E-1,-1.1755622E-1,6.760881E-3,-1.2138399E-1,6.6342885E-3,3.2373556E-1,5.0950783E-1,1.3032883E-1,6.896925E-2,1.546383E-3,-1.4549483E-2,3.170829E-2,-5.3211085E-2,2.3632011E-1,-1.1281285E-1,5.3405214E-2],"categories":[],"categories_nodes":[],"categories_segments":[],"categories_sizes":[],"default_left":[0,0,0,0,0,0,0,0,0,0,0,0,0,0,0,0,0,0,0,0,0,0,0,0,0,0,0,0,0,0,0,0,0,0,0,0,0,0,0,0,0,0,0,0,0,0,0,0,0,0,0,0,0,0,0,0,0,0,0,0,0,0,0,0,0,0,0,0,0,0,0,0,0,0,0,0,0],"id":15,"left_children":[1,3,5,7,9,11,13,15,17,19,21,-1,23,-1,25,27,29,31,33,35,37,39,41,43,45,-1,-1,47,49,51,53,-1,55,57,59,-1,61,63,65,67,-1,-1,69,71,-1,73,75,-1,-1,-1,-1,-1,-1,-1,-1,-1,-1,-1,-1,-1,-1,-1,-1,-1,-1,-1,-1,-1,-1,-1,-1,-1,-1,-1,-1,-1,-1],"loss_changes":[2.0174284E0,2.288659E0,5.2236485E0,6.4480143E0,1.2252409E1,1.2042923E0,1.5392356E0,5.2719874E0,8.80011E0,8.279881E0,5.319537E0,0E0,1.083481E0,0E0,2.566161E-1,2.4116776E1,8.76269E0,5.660612E0,4.956188E0,1.653432E1,3.9164448E0,1.2291546E0,2.7081165E-1,2.80963E-1,7.076919E-1,0E0,0E0,5.7049303E0,2.9164625E1,8.420586E0,1.022069E1,0E0,4.2514973E0,5.9877725E0,6.6623E0,0E0,1.2662773E0,4.8464665E0,9.679676E0,2.2460556E-1,0E0,0E0,3.6111116E-2,2.2684887E-2,0E0,1.3193178E0,4.278959E-1,0E0,0E0,0E0,0E0,0E0,0E0,0E0,0E0,0E0,0E0,0E0,0E0,0E0,0E0,0E0,0E0,0E0,0E0,0E0,0E0,0E0,0E0,0E0,0E0,0E0,0E0,0E0,0E0,0E0,0E0],"parents":[2147483647,0,0,1,1,2,2,3,3,4,4,5,5,6,6,7,7,8,8,9,9,10,10,12,12,14,14,15,15,16,16,17,17,18,18,19,19,20,20,21,21,22,22,23,23,24,24,27,27,28,28,29,29,30,30,32,32,33,33,34,34,36,36,37,37,38,38,39,39,42,42,43,43,45,45,46,46],"right_children":[2,4,6,8,10,12,14,16,18,20,22,-1,24,-1,26,28,30,32,34,36,38,40,42,44,46,-1,-1,48,50,52,54,-1,56,58,60,-1,62,64,66,68,-1,-1,70,72,-1,74,76,-1,-1,-1,-1,-1,-1,-1,-1,-1,-1,-1,-1,-1,-1,-1,-1,-1,-1,-1,-1,-1,-1,-1,-1,-1,-1,-1,-1,-1,-1],"split_conditions":[1.5500001E1,4.6E0,3.7E0,2.1999998E0,1.9124832E1,5.5E-1,5.25E0,1.5222747E1,1.83E0,4.7E0,2.4149667E2,2.2436637E-1,1.4113653E1,-3.8785145E-1,1.296025E1,1.4989415E1,7.73E0,1.0261579E1,1.0284771E2,-2.8558332E-1,1.36206665E1,1.8751125E1,9.387651E0,1.0163227E1,5.2076275E1,-1.260222E-1,2.7571965E-2,1.5315873E1,1.8154941E2,2.3832178E2,1.7512333E1,4.1812107E-1,1.52E0,1.2368581E1,2.3999999E0,1.0638075E0,9.7E-1,9.700001E0,4.03E0,6.25E0,1.2575531E-1,-8.288341E-2,5.09E0,1.42E0,1.6288385E-1,2.4379204E1,3.28E0,-1.6536377E-2,2.6403125E-2,7.386154E-1,-6.88581E-2,-7.351255E-2,3.224519E-2,8.453069E-1,8.983567E-2,-3.842365E-2,1.03371814E-1,1.5097578E-1,-2.7369708E-1,-3.61928E-1,-1.07800625E-1,1.415031E-1,-1.1755622E-1,6.760881E-3,-1.2138399E-1,6.6342885E-3,3.2373556E-1,5.0950783E-1,1.3032883E-1,6.896925E-2,1.546383E-3,-1.4549483E-2,3.170829E-2,-5.3211085E-2,2.3632011E-1,-1.1281285E-1,5.3405214E-2],"split_indices":[2,2,0,2,1,0,0,1,0,2,4,0,3,0,1,1,0,3,4,1,1,3,3,3,4,0,0,3,4,4,1,0,0,1,2,0,0,2,0,0,0,0,0,0,0,3,0,0,0,0,0,0,0,0,0,0,0,0,0,0,0,0,0,0,0,0,0,0,0,0,0,0,0,0,0,0,0],"split_type":[0,0,0,0,0,0,0,0,0,0,0,0,0,0,0,0,0,0,0,0,0,0,0,0,0,0,0,0,0,0,0,0,0,0,0,0,0,0,0,0,0,0,0,0,0,0,0,0,0,0,0,0,0,0,0,0,0,0,0,0,0,0,0,0,0,0,0,0,0,0,0,0,0,0,0,0,0],"sum_hessian":[1.96E3,1.932E3,2.8E1,1.708E3,2.24E2,2.1E1,7E0,1.513E3,1.95E2,2.11E2,1.3E1,1E0,2E1,4E0,3E0,1.199E3,3.14E2,9.7E1,9.8E1,6E0,2.05E2,9E0,4E0,4E0,1.6E1,2E0,1E0,1.184E3,1.5E1,3.03E2,1.1E1,2E0,9.5E1,1.4E1,8.4E1,1E0,5E0,1.54E2,5.1E1,7E0,2E0,1E0,3E0,2E0,2E0,5E0,1.1E1,4.46E2,7.38E2,8E0,7E0,2.02E2,1.01E2,1E0,1E1,7E1,2.5E1,1.1E1,3E0,1E1,7.4E1,3E0,2E0,1.21E2,3.3E1,4.1E1,1E1,6E0,1E0,2E0,1E0,1E0,1E0,4E0,1E0,1E1,1E0],"tree_param":{"num_deleted":"0","num_feature":"5","num_nodes":"77","size_leaf_vector":"1"}},{"base_weights":[6.618316E-3,3.5097025E-2,-2.9957512E-2,2.7364024E-3,5.126083E-1,-1.4836979E-1,3.0969149E-2,2.638641E-2,-1.4723411E-1,9.2807573E-1,-3.2237414E-1,-2.054118E-1,2.2693898E-1,9.830921E-1,1.7336434E-2,-1.5019604E-2,2.5727448E-1,-2.4871115E-1,1.3436708E-1,2.5132892E-1,3.1200354E0,-7.4683577E-1,-6.346607E-2,-3.4617445E-1,-7.474673E-2,1.01654105E-1,1.297768E0,6.0837793E-1,-4.9393676E-2,-1.5825382E-1,9.801731E-2,-1.9180585E-3,-4.161745E-1,1.4498874E0,1.8131962E-1,-6.1650187E-2,-7.080732E-1,1.2645863E0,-3.5793606E-2,2.0781418E-2,1.4390274E0,9.7935095E-2,6.726969E0,-1.0661541E0,-8.114934E-2,1.8001296E-1,-1.477029E-1,-1.1823973E-1,-5.315203E-1,-1.278359E-1,5.9103376E-1,5.976408E-1,-1.7124094E-1,6.1026122E-2,4.7842315E-1,1.2461728E-1,-8.083127E-2,-9.036782E-2,-4.7505993E-1,1.5469036E0,5.1266905E-2,-5.2363668E-3,1.8563557E-1,-2.8519237E-2,-4.090985E-1,8.19664E-2,1.4529825E0,1.1798752E-1,-2.0700948E-2,-3.0348381E-2,2.7610084E-1,-3.8332477E-1,-7.719095E-2,-1.8020454E-1,5.643222E-1,1.1529865E-1,-1.04728736E-1,1.4499813E-1,-9.634065E-2,7.094155E-1,-8.247086E-2,-3.822353E-2,8.963946E-2,2.2844143E0,4.7639802E-1,-1.4451127E-1,-3.713859E-1,4.5485976E-3,-5.5512503E-2,-7.096314E-2,1.6441041E-1,-1.00768976E-1,2.7497143E-1,-1.9098899E-1,3.9380338E-2,-5.438443E-2,1.02735385E-1,5.949206E-2,6.188364E-1,-2.2717679E-2,5.070517E-1,-1.6681084E-1,1.2692279E-1,-4.668768E-2,3.2354373E-2,-2.2615774E-1,-9.312325E-3,1.5950501E0,7.8370295E-2,9.520267E-2,-5.635223E-3],"categories":[],"categories_nodes":[],"categories_segments":[],"categories_sizes":[],"default_left":[0,0,0,0,0,0,0,0,0,0,0,0,0,0,0,0,0,0,0,0,0,0,0,0,0,0,0,0,0,0,0,0,0,0,0,0,0,0,0,0,0,0,0,0,0,0,0,0,0,0,0,0,0,0,0,0,0,0,0,0,0,0,0,0,0,0,0,0,0,0,0,0,0,0,0,0,0,0,0,0,0,0,0,0,0,0,0,0,0,0,0,0,0,0,0,0,0,0,0,0,0,0,0,0,0,0,0,0,0,0,0],"id":16,"left_children":[1,3,5,7,9,11,13,15,17,19,21,23,25,27,29,31,33,35,37,39,41,43,45,47,49,51,53,-1,55,57,59,61,63,65,67,69,71,73,75,77,79,81,83,85,87,-1,89,91,93,95,97,99,101,-1,-1,-1,-1,103,105,107,109,-1,-1,-1,-1,-1,-1,-1,-1,-1,-1,-1,-1,-1,-1,-1,-1,-1,-1,-1,-1,-1,-1,-1,-1,-1,-1,-1,-1,-1,-1,-1,-1,-1,-1,-1,-1,-1,-1,-1,-1,-1,-1,-1,-1,-1,-1,-1,-1,-1,-1],"loss_changes":[2.0436926E0,1.7042772E1,6.2018204E0,3.6712804E0,2.4582748E1,6.297859E0,7.3556085E0,8.550642E0,4.0626416E0,6.893573E1,2.5901177E0,4.6458864E0,5.100264E0,8.73038E0,7.963073E0,3.988315E0,1.2056635E1,8.892934E0,7.353382E0,1.0101469E1,1.1924685E2,1.8265753E0,9.8289883E-1,5.091256E0,4.776539E0,4.975024E0,9.755759E-1,0E0,6.232869E-1,3.7637558E0,2.5999063E1,7.108457E0,7.172316E0,3.0619787E1,6.8720646E0,3.003053E0,7.375016E0,6.879499E0,4.6094265E0,5.2160835E0,1.0169484E1,3.5491747E-1,1.0718384E1,6.1206818E-3,4.282963E-2,0E0,1.0567832E0,1.2920961E1,4.751152E0,3.178788E0,5.3709106E0,9.69175E0,5.7238116E0,0E0,0E0,0E0,0E0,1.9182464E0,3.8141546E0,5.677365E1,6.976886E0,0E0,0E0,0E0,0E0,0E0,0E0,0E0,0E0,0E0,0E0,0E0,0E0,0E0,0E0,0E0,0E0,0E0,0E0,0E0,0E0,0E0,0E0,0E0,0E0,0E0,0E0,0E0,0E0,0E0,0E0,0E0,0E0,0E0,0E0,0E0,0E0,0E0,0E0,0E0,0E0,0E0,0E0,0E0,0E0,0E0,0E0,0E0,0E0,0E0,0E0],"parents":[2147483647,0,0,1,1,2,2,3,3,4,4,5,5,6,6,7,7,8,8,9,9,10,10,11,11,12,12,13,13,14,14,15,15,16,16,17,17,18,18,19,19,20,20,21,21,22,22,23,23,24,24,25,25,26,26,28,28,29,29,30,30,31,31,32,32,33,33,34,34,35,35,36,36,37,37,38,38,39,39,40,40,41,41,42,42,43,43,44,44,46,46,47,47,48,48,49,49,50,50,51,51,52,52,57,57,58,58,59,59,60,60],"right_children":[2,4,6,8,10,12,14,16,18,20,22,24,26,28,30,32,34,36,38,40,42,44,46,48,50,52,54,-1,56,58,60,62,64,66,68,70,72,74,76,78,80,82,84,86,88,-1,90,92,94,96,98,100,102,-1,-1,-1,-1,104,106,108,110,-1,-1,-1,-1,-1,-1,-1,-1,-1,-1,-1,-1,-1,-1,-1,-1,-1,-1,-1,-1,-1,-1,-1,-1,-1,-1,-1,-1,-1,-1,-1,-1,-1,-1,-1,-1,-1,-1,-1,-1,-1,-1,-1,-1,-1,-1,-1,-1,-1,-1],"split_conditions":[1.7698677E1,1.7294992E1,2.0037485E1,1.6394829E1,9.212335E0,4.5999994E0,2.0170443E1,1.5509274E1,2.85E0,6.139417E0,1.7419708E2,2.3087158E2,1.7512333E1,2.1414993E2,2.5727499E0,1.5379206E1,1.5546833E1,1.8E0,1.3441544E2,5.04E0,1.52E0,1.6506083E1,1.0549834E1,1.7258728E2,5.55E0,2.8665001E0,2.13E0,6.0837793E-1,7.4E-1,1.9894166E0,2.793583E0,1.5281989E1,3.45E0,2.2678722E2,2.3593677E2,1.73E0,1.9435817E2,2.1435295E1,5.358167E0,1E-1,2.5074368E2,1E-1,2.27E0,1.7418196E1,2.02E0,1.8001296E-1,2.111025E1,1.4454828E2,2.1E0,1.6289415E1,7E-1,1.0935835E0,1.1626916E1,6.1026122E-2,4.7842315E-1,1.2461728E-1,-8.083127E-2,9.9566674E-1,2.3928325E2,2.0892412E1,1.8435687E2,-5.2363668E-3,1.8563557E-1,-2.8519237E-2,-4.090985E-1,8.19664E-2,1.4529825E0,1.1798752E-1,-2.0700948E-2,-3.0348381E-2,2.7610084E-1,-3.8332477E-1,-7.719095E-2,-1.8020454E-1,5.643222E-1,1.1529865E-1,-1.04728736E-1,1.4499813E-1,-9.634065E-2,7.094155E-1,-8.247086E-2,-3.822353E-2,8.963946E-2,2.2844143E0,4.7639802E-1,-1.4451127E-1,-3.713859E-1,4.5485976E-3,-5.5512503E-2,-7.096314E-2,1.6441041E-1,-1.00768976E-1,2.7497143E-1,-1.9098899E-1,3.9380338E-2,-5.438443E-2,1.02735385E-1,5.949206E-2,6.188364E-1,-2.2717679E-2,5.070517E-1,-1.6681084E-1,1.2692279E-1,-4.668768E-2,3.2354373E-2,-2.2615774E-1,-9.312325E-3,1.5950501E0,7.8370295E-2,9.520267E-2,-5.635223E-3],"split_indices":[3,3,3,3,1,2,3,3,0,1,4,4,1,4,1,3,3,0,4,0,0,1,1,4,0,1,0,0,0,1,1,3,0,4,4,0,4,4,1,2,4,2,0,3,0,0,1,4,2,1,2,1,1,0,0,0,0,1,4,3,4,0,0,0,0,0,0,0,0,0,0,0,0,0,0,0,0,0,0,0,0,0,0,0,0,0,0,0,0,0,0,0,0,0,0,0,0,0,0,0,0,0,0,0,0,0,0,0,0,0,0],"split_type":[0,0,0,0,0,0,0,0,0,0,0,0,0,0,0,0,0,0,0,0,0,0,0,0,0,0,0,0,0,0,0,0,0,0,0,0,0,0,0,0,0,0,0,0,0,0,0,0,0,0,0,0,0,0,0,0,0,0,0,0,0,0,0,0,0,0,0,0,0,0,0,0,0,0,0,0,0,0,0,0,0,0,0,0,0,0,0,0,0,0,0,0,0,0,0,0,0,0,0,0,0,0,0,0,0,0,0,0,0,0,0],"sum_hessian":[1.96E3,1.102E3,8.58E2,1.033E3,6.9E1,2.91E2,5.67E2,8.93E2,1.4E2,4.6E1,2.3E1,2.53E2,3.8E1,7E0,5.6E2,7.58E2,1.35E2,1.03E2,3.7E1,3.6E1,1E1,8E0,1.5E1,1.21E2,1.32E2,3.5E1,3E0,3E0,4E0,1.76E2,3.84E2,7.35E2,2.3E1,7E0,1.28E2,7.4E1,2.9E1,4E0,3.3E1,3.1E1,5E0,6E0,4E0,5E0,3E0,1E0,1.4E1,5.5E1,6.6E1,1.23E2,9E0,1.2E1,2.3E1,1E0,2E0,1E0,3E0,1.46E2,3E1,1.1E1,3.73E2,7.18E2,1.7E1,1.8E1,5E0,6E0,1E0,6.9E1,5.9E1,7.2E1,2E0,1.2E1,1.7E1,1E0,3E0,1.4E1,1.9E1,1.3E1,1.8E1,3E0,2E0,3E0,3E0,3E0,1E0,2E0,3E0,2E0,1E0,1.3E1,1E0,4.6E1,9E0,5.7E1,9E0,1.11E2,1.2E1,8E0,1E0,8E0,4E0,1.4E1,9E0,1.1E2,3.6E1,1.8E1,1.2E1,2E0,9E0,7.7E1,2.96E2],"tree_param":{"num_deleted":"0","num_feature":"5","num_nodes":"111","size_leaf_vector":"1"}},{"base_weights":[9.042762E-3,2.8250158E-1,5.6516095E-3,-2.6881048E-1,4.812062E-1,-2.0919594E-1,1.4653468E-2,5.628903E-2,-7.2103953E-1,1.4039727E0,1.8298076E-2,-4.4243503E-1,1.7873445E-1,5.6128956E-2,-1.599244E-2,-4.323229E-2,7.13768E-2,-5.9508745E-2,-2.6495907E-1,4.83475E-2,1.620304E0,-4.5920426E-1,4.931864E-1,-2.2879438E-1,-1.1596669E0,-1.4422512E-1,3.7330183E-1,2.3945825E-2,2.510254E-1,-5.973778E-1,-3.7958026E-3,2.209798E-1,5.8917224E-1,8.058009E-2,-3.6173305E-1,1.546236E-1,8.930623E-1,-2.1379845E-2,-8.2815856E-1,-4.3537116E-1,-4.534063E-1,2.0520578E-1,-2.6831654E-1,3.8742325E-1,1.8932368E-1,5.0367054E-2,-3.5000634E-1,2.089071E0,1.6360639E-1,-1.0335723E0,1.4752251E-1,-2.367661E-2,1.8530864E-1,-7.1757142E-3,7.47865E-2,1.0685667E-1,-2.9544855E-2,2.7737476E-2,3.7414056E-1,-6.448815E-2,5.3774995E-1,-3.5815132E-1,5.6458265E-3,-2.4371684E-1,-4.140577E-2,1.3617069E-1,1.5621544E-3,-1.7128051E-3,2.4738252E-1,3.7478625E-3,1.400242E-1,4.9105708E-2,-1.9172008E-1,8.176899E-1,-6.857643E-2,9.607873E-2,-9.5467E-2,-6.742525E-2,-4.3738362E-1,2.7823856E-1,-3.1778014E-1,9.7930595E-2,-1.1104153E-2,1.9692738E-1,3.2732468E-3],"categories":[],"categories_nodes":[],"categories_segments":[],"categories_sizes":[],"default_left":[0,0,0,0,0,0,0,0,0,0,0,0,0,0,0,0,0,0,0,0,0,0,0,0,0,0,0,0,0,0,0,0,0,0,0,0,0,0,0,0,0,0,0,0,0,0,0,0,0,0,0,0,0,0,0,0,0,0,0,0,0,0,0,0,0,0,0,0,0,0,0,0,0,0,0,0,0,0,0,0,0,0,0,0,0],"id":17,"left_children":[1,3,5,7,9,11,13,15,17,19,21,23,25,27,29,-1,-1,-1,-1,-1,31,33,35,37,39,41,43,45,47,49,51,-1,-1,53,-1,55,57,59,61,63,-1,65,-1,-1,67,69,71,73,75,77,79,81,83,-1,-1,-1,-1,-1,-1,-1,-1,-1,-1,-1,-1,-1,-1,-1,-1,-1,-1,-1,-1,-1,-1,-1,-1,-1,-1,-1,-1,-1,-1,-1,-1],"loss_changes":[1.8169186E0,2.7585115E0,3.7512097E0,1.0697227E0,7.66312E0,7.1365595E0,2.3663292E0,2.1628033E-1,7.907462E-2,1.3520327E0,3.1743572E0,7.24294E0,1.9389616E0,4.9554405E0,7.592135E0,0E0,0E0,0E0,0E0,0E0,7.1606636E-2,2.918079E0,8.095932E-1,4.8306513E0,2.143982E0,3.3290963E0,2.964833E0,6.736216E0,1.765439E1,7.300748E0,3.9519138E0,0E0,0E0,9.411207E-2,0E0,2.9016584E-1,7.351086E-1,1.0919276E1,3.119688E0,4.484102E-1,0E0,4.4528696E-1,0E0,0E0,2.1110334E0,1.0023928E1,6.786572E0,7.999714E0,8.2539215E0,4.4777136E0,9.453434E0,4.452799E0,8.208997E0,0E0,0E0,0E0,0E0,0E0,0E0,0E0,0E0,0E0,0E0,0E0,0E0,0E0,0E0,0E0,0E0,0E0,0E0,0E0,0E0,0E0,0E0,0E0,0E0,0E0,0E0,0E0,0E0,0E0,0E0,0E0,0E0],"parents":[2147483647,0,0,1,1,2,2,3,3,4,4,5,5,6,6,7,7,8,8,9,9,10,10,11,11,12,12,13,13,14,14,20,20,21,21,22,22,23,23,24,24,25,25,26,26,27,27,28,28,29,29,30,30,33,33,35,35,36,36,37,37,38,38,39,39,41,41,44,44,45,45,46,46,47,47,48,48,49,49,50,50,51,51,52,52],"right_children":[2,4,6,8,10,12,14,16,18,20,22,24,26,28,30,-1,-1,-1,-1,-1,32,34,36,38,40,42,44,46,48,50,52,-1,-1,54,-1,56,58,60,62,64,-1,66,-1,-1,68,70,72,74,76,78,80,82,84,-1,-1,-1,-1,-1,-1,-1,-1,-1,-1,-1,-1,-1,-1,-1,-1,-1,-1,-1,-1,-1,-1,-1,-1,-1,-1,-1,-1,-1,-1,-1,-1],"split_conditions":[8.287822E0,1.75E0,1.0163227E1,1.23E0,2.63E0,2.1414993E2,2.083468E2,9.587333E0,1.44E0,7.2E0,1E-1,9.904906E0,5.358167E0,1.9435817E2,2.1083426E2,-4.323229E-2,7.13768E-2,-5.9508745E-2,-2.6495907E-1,4.83475E-2,2.2E0,4.7E0,1.6E0,1.536364E2,1.42E0,9.565437E0,6.289417E0,1.8768608E2,1.15199995E1,3.3E0,1.7122747E1,2.209798E-1,5.8917224E-1,3.9E0,-3.6173305E-1,1.6498333E0,3.03E0,1.5069131E2,3E-1,1.000256E1,-4.534063E-1,8.885877E0,-2.6831654E-1,3.8742325E-1,9.904906E0,1.80625E2,1.38E0,3E0,2.7E0,1.02E0,6.37E0,2.1602725E2,1.3779114E1,-7.1757142E-3,7.47865E-2,1.0685667E-1,-2.9544855E-2,2.7737476E-2,3.7414056E-1,-6.448815E-2,5.3774995E-1,-3.5815132E-1,5.6458265E-3,-2.4371684E-1,-4.140577E-2,1.3617069E-1,1.5621544E-3,-1.7128051E-3,2.4738252E-1,3.7478625E-3,1.400242E-1,4.9105708E-2,-1.9172008E-1,8.176899E-1,-6.857643E-2,9.607873E-2,-9.5467E-2,-6.742525E-2,-4.3738362E-1,2.7823856E-1,-3.1778014E-1,9.7930595E-2,-1.1104153E-2,1.9692738E-1,3.2732468E-3],"split_indices":[3,0,3,0,0,4,4,1,0,3,2,3,1,4,4,0,0,0,0,0,0,0,2,4,0,3,1,4,3,0,1,0,0,0,0,1,0,4,2,3,0,3,0,0,3,4,0,0,0,0,0,4,3,0,0,0,0,0,0,0,0,0,0,0,0,0,0,0,0,0,0,0,0,0,0,0,0,0,0,0,0,0,0,0,0],"split_type":[0,0,0,0,0,0,0,0,0,0,0,0,0,0,0,0,0,0,0,0,0,0,0,0,0,0,0,0,0,0,0,0,0,0,0,0,0,0,0,0,0,0,0,0,0,0,0,0,0,0,0,0,0,0,0,0,0,0,0,0,0,0,0,0,0,0,0,0,0,0,0,0,0,0,0,0,0,0,0,0,0,0,0,0,0],"sum_hessian":[1.96E3,2.3E1,1.937E3,6E0,1.7E1,7.7E1,1.86E3,4E0,2E0,5E0,1.2E1,4.8E1,2.9E1,7.9E2,1.07E3,2E0,2E0,1E0,1E0,1E0,4E0,6E0,6E0,3.8E1,1E1,1.1E1,1.8E1,6.79E2,1.11E2,2.1E1,1.049E3,2E0,2E0,4E0,2E0,4E0,2E0,2.9E1,9E0,4E0,6E0,8E0,3E0,2E0,1.6E1,6.35E2,4.4E1,4E0,1.07E2,1.3E1,8E0,9.5E2,9.9E1,3E0,1E0,2E0,2E0,1E0,1E0,2.7E1,2E0,6E0,3E0,1E0,3E0,3E0,5E0,1.3E1,3E0,5.83E2,5.2E1,1.6E1,2.8E1,3E0,1E0,8.1E1,2.6E1,5E0,8E0,5E0,3E0,3.4E1,9.16E2,2.6E1,7.3E1],"tree_param":{"num_deleted":"0","num_feature":"5","num_nodes":"85","size_leaf_vector":"1"}},{"base_weights":[6.90387E-3,3.6091052E-2,-2.9966796E-2,2.5871368E-2,1.4214566E0,-2.2877242E-2,-6.3525385E-1,5.318235E-2,-7.241905E-2,-1.3782729E-1,2.1249876E0,-2.270772E-1,-1.0067855E-3,-8.555481E-2,-8.58617E-1,3.726678E-2,6.0071677E-1,-8.696083E-2,5.0391626E-1,1.0608068E0,5.3546464E-1,-1.1739066E-2,-7.8831846E-1,-3.965402E-2,1.8613476E-1,3.1058408E-2,-5.492753E-2,-3.337715E-1,-1.1700245E-1,1.2299282E-1,-2.9775167E-2,-1.8959123E-1,1.0077202E0,5.475669E-1,-1.08748E-1,-1.4279291E-1,1.0312704E0,1.12527E0,-8.995108E-2,-1.6941303E0,-1.9227679E-1,3.4533214E-2,-1.5078117E-1,2.0513196E0,1.1239787E-1,2.191732E-2,2.3080172E-1,-8.562577E-2,-1.3324383E-3,3.6936924E-2,-1.3931619E-1,4.5535412E-1,-1.2543851E-1,-3.57966E-2,7.8236836E-1,3.8344061E-3,-7.008507E-2,3.7958255E-1,8.448916E-2,5.089851E-1,-8.83156E-2,-4.7684062E-2,1.083423E-1,-5.6832093E-1,-1.9863515E-1,-9.593966E-2,1.5691841E-2,-2.314545E-3,2.110485E-1,-7.462642E-2,1.9513805E-3,7.757711E-1,-1.3052345E-2,1.579728E-1,-1.6077377E-2],"categories":[],"categories_nodes":[],"categories_segments":[],"categories_sizes":[],"default_left":[0,0,0,0,0,0,0,0,0,0,0,0,0,0,0,0,0,0,0,0,0,0,0,0,0,0,0,0,0,0,0,0,0,0,0,0,0,0,0,0,0,0,0,0,0,0,0,0,0,0,0,0,0,0,0,0,0,0,0,0,0,0,0,0,0,0,0,0,0,0,0,0,0,0,0],"id":18,"left_children":[1,3,5,7,9,11,13,15,17,-1,19,21,23,25,27,29,31,33,-1,-1,35,37,39,41,43,-1,-1,-1,-1,45,47,49,51,53,55,-1,57,59,61,63,65,67,69,71,73,-1,-1,-1,-1,-1,-1,-1,-1,-1,-1,-1,-1,-1,-1,-1,-1,-1,-1,-1,-1,-1,-1,-1,-1,-1,-1,-1,-1,-1,-1],"loss_changes":[2.1114132E0,1.54662285E1,3.70595E0,2.924487E0,1.1562334E1,3.8315535E0,1.1543665E0,7.4022164E0,6.184649E0,0E0,1.1563814E1,1.0021847E1,5.6198034E0,9.272538E-2,3.9912558E-1,4.768125E0,7.9108496E0,3.3221424E0,0E0,0E0,2.4967737E0,5.5258136E0,1.2091996E1,5.3144827E0,1.8061317E1,0E0,0E0,0E0,0E0,1.1692022E1,3.01674E0,8.305707E-1,1.2272474E1,1.1303254E1,3.478115E0,0E0,1.6991758E-1,3.7439218E0,1.8625624E0,6.058407E-1,4.845732E-1,1.0943029E1,3.9773588E0,5.711811E0,8.89685E0,0E0,0E0,0E0,0E0,0E0,0E0,0E0,0E0,0E0,0E0,0E0,0E0,0E0,0E0,0E0,0E0,0E0,0E0,0E0,0E0,0E0,0E0,0E0,0E0,0E0,0E0,0E0,0E0,0E0,0E0],"parents":[2147483647,0,0,1,1,2,2,3,3,4,4,5,5,6,6,7,7,8,8,10,10,11,11,12,12,13,13,14,14,15,15,16,16,17,17,20,20,21,21,22,22,23,23,24,24,29,29,30,30,31,31,32,32,33,33,34,34,36,36,37,37,38,38,39,39,40,40,41,41,42,42,43,43,44,44],"right_children":[2,4,6,8,10,12,14,16,18,-1,20,22,24,26,28,30,32,34,-1,-1,36,38,40,42,44,-1,-1,-1,-1,46,48,50,52,54,56,-1,58,60,62,64,66,68,70,72,74,-1,-1,-1,-1,-1,-1,-1,-1,-1,-1,-1,-1,-1,-1,-1,-1,-1,-1,-1,-1,-1,-1,-1,-1,-1,-1,-1,-1,-1,-1],"split_conditions":[8.310251E0,8.145667E0,1.28E1,2.1E0,1.77E0,9.44775E0,1.0454001E1,1.8000001E0,1.483E1,-1.3782729E-1,1.8612444E2,2.25E0,2.1322214E1,1.483E1,1.7108224E2,2.3832178E2,3.560833E-1,1.1252519E1,5.0391626E-1,1.0608068E0,2.35E0,5.5E-1,1.8154941E2,1.5995712E1,9.84775E0,3.1058408E-2,-5.492753E-2,-3.337715E-1,-1.1700245E-1,2.3246986E2,2.4839546E2,1.12E0,5.476916E0,1.0636766E1,1.75E0,-1.4279291E-1,4.5E0,8.906084E0,3.204E2,5.04E0,2.4001488E2,1.5725037E1,2.3317433E2,2.3532547E1,1.8435687E2,2.191732E-2,2.3080172E-1,-8.562577E-2,-1.3324383E-3,3.6936924E-2,-1.3931619E-1,4.5535412E-1,-1.2543851E-1,-3.57966E-2,7.8236836E-1,3.8344061E-3,-7.008507E-2,3.7958255E-1,8.448916E-2,5.089851E-1,-8.83156E-2,-4.7684062E-2,1.083423E-1,-5.6832093E-1,-1.9863515E-1,-9.593966E-2,1.5691841E-2,-2.314545E-3,2.110485E-1,-7.462642E-2,1.9513805E-3,7.757711E-1,-1.3052345E-2,1.579728E-1,-1.6077377E-2],"split_indices":[1,1,0,2,0,1,1,2,0,0,4,0,3,0,4,4,1,3,0,0,0,0,4,3,1,0,0,0,0,4,4,0,1,3,0,0,0,1,4,0,4,3,4,3,4,0,0,0,0,0,0,0,0,0,0,0,0,0,0,0,0,0,0,0,0,0,0,0,0,0,0,0,0,0,0],"split_type":[0,0,0,0,0,0,0,0,0,0,0,0,0,0,0,0,0,0,0,0,0,0,0,0,0,0,0,0,0,0,0,0,0,0,0,0,0,0,0,0,0,0,0,0,0,0,0,0,0,0,0,0,0,0,0,0,0,0,0,0,0,0,0,0,0,0,0,0,0,0,0,0,0,0,0],"sum_hessian":[1.96E3,1.094E3,8.66E2,1.087E3,7E0,8.57E2,9E0,8.51E2,2.36E2,2E0,5E0,8.2E1,7.75E2,3E0,6E0,8.28E2,2.3E1,2.35E2,1E0,2E0,3E0,6E1,2.2E1,6.43E2,1.32E2,1E0,2E0,3E0,3E0,3.63E2,4.65E2,8E0,1.5E1,7E0,2.28E2,1E0,2E0,3E0,5.7E1,8E0,1.4E1,3.86E2,2.57E2,4E0,1.28E2,3.38E2,2.5E1,4.1E1,4.24E2,4E0,4E0,1.1E1,4E0,6E0,1E0,1.16E2,1.12E2,1E0,1E0,2E0,1E0,5E1,7E0,6E0,2E0,9E0,5E0,3.64E2,2.2E1,1.58E2,9.9E1,3E0,1E0,3.6E1,9.2E1],"tree_param":{"num_deleted":"0","num_feature":"5","num_nodes":"75","size_leaf_vector":"1"}},{"base_weights":[6.3737296E-3,1.4601437E-2,-9.993145E-2,7.633176E-3,5.590058E-1,1.4002967E-1,-2.33317E-1,-3.681635E-2,3.3360418E-2,8.995597E-1,-8.469001E-1,5.777E-1,-2.4011743E-1,-4.605714E-1,1.4344925E-1,-1.7636648E-1,5.964235E-2,1.9264545E-1,-2.689269E-2,-2.1019785E-1,1.1290361E0,-2.7939835E-1,-7.6378375E-2,-1.6573478E-1,1.6350822E0,3.9474958E-1,-6.147519E-1,-5.626138E-1,5.005577E-1,6.716896E-1,-5.139916E-2,1.656576E-1,-2.8783336E-1,8.1698793E-1,4.1689996E-2,1.6090219E0,1.502191E-1,-1.09572E0,-1.9067833E-2,1.376534E0,-1.4543976E-1,-7.306562E-1,2.9206353E-1,8.533063E-2,7.962085E-1,-2.6679695E-1,1.6191553E0,-2.6334557E-1,-8.6954236E-1,-6.9853854E-1,7.8124024E-2,5.8448267E-1,-5.359229E-2,-2.7220023E-1,1.05731554E-1,-2.8587694E-3,2.908174E-1,-2.1214293E-1,-4.0792618E-2,-1.2562032E-1,5.667938E-1,2.3943512E-2,-8.8982835E-2,-1.0089717E-1,9.6976906E-1,-7.782574E-4,1.5812168E-1,2.9455638E-2,-5.151658E-1,-1.6744077E-1,-2.5108864E-3,1.7430615E-1,6.6080683E-1,1.082772E-2,-2.5933892E-1,-4.565776E-3,2.0399155E-1,-1.9940133E-1,1.3169965E-1,-2.3758702E-1,1.369056E-1,7.091932E-1,-9.229669E-2,-1.7002127E-1,7.727362E-2,-3.1483752E-1,-2.9975628E-2,1.3430034E-1,-2.3870872E-1,-1.3609573E-1,2.101893E-1,1.2016059E-2,-1.350375E-1,2.5281194E-1,-6.891466E-3],"categories":[],"categories_nodes":[],"categories_segments":[],"categories_sizes":[],"default_left":[0,0,0,0,0,0,0,0,0,0,0,0,0,0,0,0,0,0,0,0,0,0,0,0,0,0,0,0,0,0,0,0,0,0,0,0,0,0,0,0,0,0,0,0,0,0,0,0,0,0,0,0,0,0,0,0,0,0,0,0,0,0,0,0,0,0,0,0,0,0,0,0,0,0,0,0,0,0,0,0,0,0,0,0,0,0,0,0,0,0,0,0,0,0,0],"id":19,"left_children":[1,3,5,7,9,11,13,15,17,19,21,23,25,27,29,31,33,35,37,-1,39,-1,-1,41,43,45,47,49,51,-1,53,55,57,59,61,63,65,67,69,71,-1,73,75,77,-1,79,81,83,85,87,89,-1,-1,91,93,-1,-1,-1,-1,-1,-1,-1,-1,-1,-1,-1,-1,-1,-1,-1,-1,-1,-1,-1,-1,-1,-1,-1,-1,-1,-1,-1,-1,-1,-1,-1,-1,-1,-1,-1,-1,-1,-1,-1,-1],"loss_changes":[1.7166439E0,6.9037914E0,4.5457067E0,2.0584993E0,1.1773931E1,8.624051E0,7.857652E0,8.894663E0,1.0946238E1,7.7681036E0,1.2923956E-2,1.9137264E1,6.902278E0,5.8719444E0,1.4405861E1,1.034126E1,5.282029E0,1.8566986E1,6.90402E0,0E0,7.4575024E0,0E0,0E0,4.0926995E0,1.5564663E1,9.342E0,1.3826399E0,4.5833645E0,6.2477703E0,0E0,1.1737031E0,9.443076E0,1.2893652E1,1.271698E1,4.963052E0,2.9512337E1,1.756576E1,4.620673E0,4.741623E0,8.578455E0,0E0,7.493744E-1,1.0831267E0,1.6180485E0,0E0,3.3995607E0,6.4678183E0,1.5683776E0,1.2798157E0,5.144781E0,3.6281881E0,0E0,0E0,7.958362E-1,1.9163771E0,0E0,0E0,0E0,0E0,0E0,0E0,0E0,0E0,0E0,0E0,0E0,0E0,0E0,0E0,0E0,0E0,0E0,0E0,0E0,0E0,0E0,0E0,0E0,0E0,0E0,0E0,0E0,0E0,0E0,0E0,0E0,0E0,0E0,0E0,0E0,0E0,0E0,0E0,0E0,0E0],"parents":[2147483647,0,0,1,1,2,2,3,3,4,4,5,5,6,6,7,7,8,8,9,9,10,10,11,11,12,12,13,13,