{"learner":{"attributes":{"scikit_learn":"{\"_estimator_type\": \"regressor\"}"},"feature_names":["pm25_rolling_2d","temperature_2m_mean","precipitation_sum","wind_speed_10m_max","wind_direction_10m_dominant"],"feature_types":["float","float","float","float","float"],"gradient_booster":{"model":{"gbtree_model_param":{"num_parallel_tree":"1","num_trees":"100"},"iteration_indptr":[0,1,2,3,4,5,6,7,8,9,10,11,12,13,14,15,16,17,18,19,20,21,22,23,24,25,26,27,28,29,30,31,32,33,34,35,36,37,38,39,40,41,42,43,44,45,46,47,48,49,50,51,52,53,54,55,56,57,58,59,60,61,62,63,64,65,66,67,68,69,70,71,72,73,74,75,76,77,78,79,80,81,82,83,84,85,86,87,88,89,90,91,92,93,94,95,96,97,98,99,100],"tree_info":[0,0,0,0,0,0,0,0,0,0,0,0,0,0,0,0,0,0,0,0,0,0,0,0,0,0,0,0,0,0,0,0,0,0,0,0,0,0,0,0,0,0,0,0,0,0,0,0,0,0,0,0,0,0,0,0,0,0,0,0,0,0,0,0,0,0,0,0,0,0,0,0,0,0,0,0,0,0,0,0,0,0,0,0,0,0,0,0,0,0,0,0,0,0,0,0,0,0,0,0],"trees":[{"base_weights":[5.0740687E-9,-5.8779335E-1,3.45249E0,-1.1769981E0,1.5422691E-1,4.9328E0,4.221628E-1,-7.999972E-1,-1.6549844E0,8.3814436E-1,-5.6909955E-1,3.6216261E0,7.8366556E0,2.3813229E0,3.99889E-2,-1.0430596E0,-1.76658E-1,-1.3563013E0,-1.791055E0,-5.7868324E-2,1.2308083E0,4.1403252E-1,-7.651258E-1,3.9564888E0,-3.606596E-1,1.6628141E1,5.9970555E0,9.920677E-1,1.488426E0,1.6866562E0,-3.4657356E-1,-1.3424417E0,-8.217081E-1,1.4193304E0,-3.3250034E-1,-2.8810462E-1,-1.3970504E0,-1.7983065E0,-1.6314512E-1,-5.6618255E-1,8.966676E-1,9.7970957E-1,2.6157033E0,1.4078897E-1,1.738847E0,-1.266994E-1,-9.4657767E-1,1.5840709E0,4.4151316E0,-3.769314E-1,5.952287E-1,9.8875675E0,3.1888547E0,2.6934197E0,-3.6490765E-1,2.958244E0,-1.8919332E-1,7.160078E-2,-9.6050537E-1,-4.095104E-1,3.1714115E-1,-4.044471E-1,-2.0058763E-1,4.5425486E-2,2.4951415E0,-2.7389774E-1,-6.5255053E-3,1.3685489E-1,-2.3228826E-1,-4.2460614E-1,1.2814118E-1,-4.6832284E-1,-5.551888E-1,-2.404731E-1,-9.771099E-3,6.44622E-1,1.6978893E-1,4.9753198E-1,1.6931653E-1,9.9345714E-1,2.907991E-1,-5.7791293E-2,1.9516823E-1,-1.5385884E-1,6.1380655E-1,-1.1087771E-1,4.358065E-1,-1.8574518E-1,-3.378703E-1,7.881969E-1,-2.6332945E-1,8.107715E-1,1.4849852E0,3.5885486E-1,-1.2882472E-3,6.514117E-2,3.0951788E0,1.4477111E0,3.8044223E-1,9.774618E-1,6.514117E-2,1.5961736E-2,-2.0753826E-1,1.1899563E0,-1.1414512E-1,-1.9937415E-1,1.9985491E-1,-9.216041E-2,3.6025417E-1,-3.8545558E-1,-6.152681E-2],"categories":[],"categories_nodes":[],"categories_segments":[],"categories_sizes":[],"default_left":[0,0,0,0,0,0,0,0,0,0,0,0,0,0,0,0,0,0,0,0,0,0,0,0,0,0,0,0,0,0,0,0,0,0,0,0,0,0,0,0,0,0,0,0,0,0,0,0,0,0,0,0,0,0,0,0,0,0,0,0,0,0,0,0,0,0,0,0,0,0,0,0,0,0,0,0,0,0,0,0,0,0,0,0,0,0,0,0,0,0,0,0,0,0,0,0,0,0,0,0,0,0,0,0,0,0,0,0,0,0,0],"id":0,"left_children":[1,3,5,7,9,11,13,15,17,19,21,23,25,27,29,31,33,35,37,39,41,43,45,47,49,-1,51,53,-1,55,57,59,61,63,65,67,69,71,-1,73,75,77,79,81,83,85,87,89,91,-1,93,95,97,99,101,103,105,107,109,-1,-1,-1,-1,-1,-1,-1,-1,-1,-1,-1,-1,-1,-1,-1,-1,-1,-1,-1,-1,-1,-1,-1,-1,-1,-1,-1,-1,-1,-1,-1,-1,-1,-1,-1,-1,-1,-1,-1,-1,-1,-1,-1,-1,-1,-1,-1,-1,-1,-1,-1,-1],"loss_changes":[3.8638838E3,7.1150903E2,1.2404905E3,1.6211865E2,3.571525E2,6.7980615E2,6.878884E1,7.693451E1,1.3786865E1,1.3060086E2,6.79614E1,1.747843E2,4.657805E3,4.884414E1,5.0234653E1,2.3151245E1,3.6287983E1,5.212616E0,1.4731445E0,5.5820957E1,8.715567E1,2.1113016E1,3.382225E1,1.2357727E2,1.0166772E1,0E0,5.802892E2,2.6378468E1,0E0,3.6339294E1,1.6499527E1,9.791901E0,1.6264313E1,1.1243621E2,2.3791245E1,2.5244088E0,4.7447815E0,4.4995117E-1,0E0,9.394592E0,1.5346531E1,6.108E1,4.146765E1,8.623897E0,7.966013E0,2.5855963E1,1.2714676E1,5.6240776E1,7.821338E1,0E0,2.1668515E0,9.3332275E1,1.0077353E2,6.2853737E0,9.93537E-1,3.180645E1,3.2891765E0,1.7051579E1,6.106922E0,0E0,0E0,0E0,0E0,0E0,0E0,0E0,0E0,0E0,0E0,0E0,0E0,0E0,0E0,0E0,0E0,0E0,0E0,0E0,0E0,0E0,0E0,0E0,0E0,0E0,0E0,0E0,0E0,0E0,0E0,0E0,0E0,0E0,0E0,0E0,0E0,0E0,0E0,0E0,0E0,0E0,0E0,0E0,0E0,0E0,0E0,0E0,0E0,0E0,0E0,0E0,0E0],"parents":[2147483647,0,0,1,1,2,2,3,3,4,4,5,5,6,6,7,7,8,8,9,9,10,10,11,11,12,12,13,13,14,14,15,15,16,16,17,17,18,18,19,19,20,20,21,21,22,22,23,23,24,24,26,26,27,27,29,29,30,30,31,31,32,32,33,33,34,34,35,35,36,36,37,37,39,39,40,40,41,41,42,42,43,43,44,44,45,45,46,46,47,47,48,48,50,50,51,51,52,52,53,53,54,54,55,55,56,56,57,57,58,58],"right_children":[2,4,6,8,10,12,14,16,18,20,22,24,26,28,30,32,34,36,38,40,42,44,46,48,50,-1,52,54,-1,56,58,60,62,64,66,68,70,72,-1,74,76,78,80,82,84,86,88,90,92,-1,94,96,98,100,102,104,106,108,110,-1,-1,-1,-1,-1,-1,-1,-1,-1,-1,-1,-1,-1,-1,-1,-1,-1,-1,-1,-1,-1,-1,-1,-1,-1,-1,-1,-1,-1,-1,-1,-1,-1,-1,-1,-1,-1,-1,-1,-1,-1,-1,-1,-1,-1,-1,-1,-1,-1,-1,-1,-1],"split_conditions":[4.865E0,2.06E0,2.2442711E2,2.5384218E2,2.181292E2,9.075E0,1.2783802E1,1.75E0,1.584409E1,9.318544E1,1.257426E1,2.4149532E1,2.998335E-1,1.8764418E1,2.3608865E2,1.335E0,1.7650001E0,-9.075166E0,1.9156084E1,3.17E0,3.93E0,3.93E0,2.3677582E2,8.371759E1,1.8484518E2,1.6628141E1,6E-1,1.0239453E1,1.488426E0,6.7519164E0,1.9416653E1,1.48E1,6.800713E1,2.5582806E1,1.2940062E2,1.1159999E1,8.5E0,2.6955E2,-1.6314512E-1,9.0000004E-1,9.3876505E0,1.6188174E2,1.8218275E1,1E-1,2.2627174E2,3.93E0,1.6595179E1,1.7057314E1,5.38E0,-3.769314E-1,5.75E0,9.3876505E0,1.720998E2,6.1E0,2.4422078E2,1.1000001E0,1.061025E1,1.7414474E1,7.143584E0,-4.095104E-1,3.1714115E-1,-4.044471E-1,-2.0058763E-1,4.5425486E-2,2.4951415E0,-2.7389774E-1,-6.5255053E-3,1.3685489E-1,-2.3228826E-1,-4.2460614E-1,1.2814118E-1,-4.6832284E-1,-5.551888E-1,-2.404731E-1,-9.771099E-3,6.44622E-1,1.6978893E-1,4.9753198E-1,1.6931653E-1,9.9345714E-1,2.907991E-1,-5.7791293E-2,1.9516823E-1,-1.5385884E-1,6.1380655E-1,-1.1087771E-1,4.358065E-1,-1.8574518E-1,-3.378703E-1,7.881969E-1,-2.6332945E-1,8.107715E-1,1.4849852E0,3.5885486E-1,-1.2882472E-3,6.514117E-2,3.0951788E0,1.4477111E0,3.8044223E-1,9.774618E-1,6.514117E-2,1.5961736E-2,-2.0753826E-1,1.1899563E0,-1.1414512E-1,-1.9937415E-1,1.9985491E-1,-9.216041E-2,3.6025417E-1,-3.8545558E-1,-6.152681E-2],"split_indices":[0,0,4,4,4,0,3,0,3,4,3,3,1,1,4,0,0,1,1,0,0,0,4,4,4,0,2,3,0,1,3,2,4,3,4,3,2,4,0,2,3,4,3,2,4,0,3,3,0,0,0,3,4,0,4,2,1,3,1,0,0,0,0,0,0,0,0,0,0,0,0,0,0,0,0,0,0,0,0,0,0,0,0,0,0,0,0,0,0,0,0,0,0,0,0,0,0,0,0,0,0,0,0,0,0,0,0,0,0,0,0],"split_type":[0,0,0,0,0,0,0,0,0,0,0,0,0,0,0,0,0,0,0,0,0,0,0,0,0,0,0,0,0,0,0,0,0,0,0,0,0,0,0,0,0,0,0,0,0,0,0,0,0,0,0,0,0,0,0,0,0,0,0,0,0,0,0,0,0,0,0,0,0,0,0,0,0,0,0,0,0,0,0,0,0,0,0,0,0,0,0,0,0,0,0,0,0,0,0,0,0,0,0,0,0,0,0,0,0,0,0,0,0,0,0],"sum_hessian":[1.902E3,1.626E3,2.76E2,9.06E2,7.2E2,1.85E2,9.1E1,5.08E2,3.98E2,3.7E2,3.5E2,1.29E2,5.6E1,1.4E1,7.7E1,3.65E2,1.43E2,1.28E2,2.7E2,1.13E2,2.57E2,5.8E1,2.92E2,1.19E2,1E1,1E0,5.5E1,1E1,4E0,1.4E1,6.3E1,1.53E2,2.12E2,1.2E1,1.31E2,5E0,1.23E2,2.68E2,2E0,7.4E1,3.9E1,2.19E2,3.8E1,4.9E1,9E0,6.5E1,2.27E2,2E1,9.9E1,5E0,5E0,2.2E1,3.3E1,4E0,6E0,8E0,6E0,3.8E1,2.5E1,1.52E2,1E0,4.6E1,1.66E2,1.1E1,1E0,4.5E1,8.6E1,2E0,3E0,1.22E2,1E0,5.4E1,2.14E2,5.1E1,2.3E1,7E0,3.2E1,8.2E1,1.37E2,2.6E1,1.2E1,3E1,1.9E1,1E0,8E0,5.7E1,8E0,8.2E1,1.45E2,1.4E1,6E0,2.5E1,7.4E1,2E0,3E0,1E0,2.1E1,1.7E1,1.6E1,3E0,1E0,3E0,3E0,6E0,2E0,4E0,2E0,2.9E1,9E0,1.7E1,8E0],"tree_param":{"num_deleted":"0","num_feature":"5","num_nodes":"111","size_leaf_vector":"1"}},{"base_weights":[1.6055096E-2,-4.0967408E-1,2.5165796E0,-9.5739895E-1,-1.1369476E-2,3.6207213E0,3.6316392E-1,-7.4922955E-1,-1.2417532E0,4.8251346E-1,-5.17946E-1,2.5926027E0,5.9662952E0,-1.8753413E-2,1.7962916E0,-9.162273E-1,-5.6344545E-1,-1.2560544E0,-1.8109532E-1,-1.5749359E-1,7.8140473E-1,8.653664E-1,-5.983274E-1,3.1918125E0,1.3624969E0,1.4133921E1,4.331854E0,5.568738E-1,-5.5073977E-1,3.0568562E0,4.8702458E-1,-9.293353E-1,2.6957E-1,-8.734531E-1,-4.182644E-1,-1.2804388E0,-5.3447586E-1,-4.0790248E-1,1.0892001E-1,1.595504E0,-3.180005E-1,6.3210064E-1,1.863922E0,3.3738077E-1,1.4532346E0,-3.7342668E-1,-9.3166274E-1,8.166444E-1,3.6423085E0,1.8174247E0,-6.086028E-1,7.0605025E0,2.3814867E0,1.1326665E0,-4.699761E-1,-1.13302305E-1,-1.079091E0,1.7282525E0,4.617698E0,-2.69713E-1,8.949334E-1,-2.83738E-1,1.5151945E-1,-3.0305454E-1,-1.6484594E-1,8.298417E-3,-1.9020675E-1,-2.9569486E-1,-4.0067726E-1,-1.9494346E-1,9.283208E-2,-3.210733E-2,-1.965805E-1,1.6779808E-2,8.721439E-1,-1.712154E-1,1.908234E-1,3.7762943E-1,1.0772148E-1,7.789516E-1,2.5949737E-1,-4.371984E-2,3.25902E-1,4.951841E-1,-1.0769016E-1,-2.0176244E-1,-2.3815883E-4,-1.03162356E-1,-3.3531454E-1,-5.9813242E-2,7.1217203E-1,1.3296525E0,3.6171728E-1,3.5190555E-1,1.2958602E0,-2.8269854E-1,1.3240868E-2,7.4819095E-2,2.318743E0,-3.9752328E-1,8.388937E-1,5.1223266E-1,-6.909444E-2,-2.3321728E-1,1.478726E-1,-1.509641E-1,4.173064E-1,-3.7749276E-1,-1.084385E-1,1.1052661E0,6.2706426E-2,1.6144944E0,3.488773E-1,-1.23534754E-1,3.3292374E-1],"categories":[],"categories_nodes":[],"categories_segments":[],"categories_sizes":[],"default_left":[0,0,0,0,0,0,0,0,0,0,0,0,0,0,0,0,0,0,0,0,0,0,0,0,0,0,0,0,0,0,0,0,0,0,0,0,0,0,0,0,0,0,0,0,0,0,0,0,0,0,0,0,0,0,0,0,0,0,0,0,0,0,0,0,0,0,0,0,0,0,0,0,0,0,0,0,0,0,0,0,0,0,0,0,0,0,0,0,0,0,0,0,0,0,0,0,0,0,0,0,0,0,0,0,0,0,0,0,0,0,0,0,0,0,0],"id":1,"left_children":[1,3,5,7,9,11,13,15,17,19,21,23,25,27,29,31,33,35,37,39,41,43,45,47,49,-1,51,53,55,57,59,61,-1,63,65,67,69,71,-1,73,75,77,79,81,83,85,87,89,91,93,95,97,99,101,103,105,107,109,111,-1,113,-1,-1,-1,-1,-1,-1,-1,-1,-1,-1,-1,-1,-1,-1,-1,-1,-1,-1,-1,-1,-1,-1,-1,-1,-1,-1,-1,-1,-1,-1,-1,-1,-1,-1,-1,-1,-1,-1,-1,-1,-1,-1,-1,-1,-1,-1,-1,-1,-1,-1,-1,-1,-1,-1],"loss_changes":[2.0268625E3,3.5493762E2,6.573014E2,3.961743E1,2.361786E2,4.258413E2,5.2030632E1,1.1831909E1,4.1411133E0,9.156089E1,5.2333496E1,9.0736084E1,3.4947725E3,2.3579855E1,3.1519547E1,5.7830353E0,8.231041E0,4.312683E0,7.6519495E-1,4.3556713E1,5.1511322E1,7.5797405E0,3.2712692E1,8.904578E1,4.056124E1,0E0,2.705664E2,2.2408676E1,9.1225605E0,1.2756851E1,7.0238667E0,5.36438E0,0E0,2.1026497E0,1.2717539E1,3.1383362E0,1.2717478E0,2.275781E-1,0E0,2.608916E1,3.4359856E1,4.8824104E1,2.6294235E1,5.5858E0,4.884802E0,2.9536366E1,1.897226E1,2.420649E1,1.3322559E2,5.2978622E1,2.0021122E0,9.8264404E1,5.444539E1,1.9195047E1,4.527253E0,1.4190696E1,1.8601913E0,2.003089E1,4.2986526E0,0E0,2.983262E0,0E0,0E0,0E0,0E0,0E0,0E0,0E0,0E0,0E0,0E0,0E0,0E0,0E0,0E0,0E0,0E0,0E0,0E0,0E0,0E0,0E0,0E0,0E0,0E0,0E0,0E0,0E0,0E0,0E0,0E0,0E0,0E0,0E0,0E0,0E0,0E0,0E0,0E0,0E0,0E0,0E0,0E0,0E0,0E0,0E0,0E0,0E0,0E0,0E0,0E0,0E0,0E0,0E0,0E0],"parents":[2147483647,0,0,1,1,2,2,3,3,4,4,5,5,6,6,7,7,8,8,9,9,10,10,11,11,12,12,13,13,14,14,15,15,16,16,17,17,18,18,19,19,20,20,21,21,22,22,23,23,24,24,26,26,27,27,28,28,29,29,30,30,31,31,33,33,34,34,35,35,36,36,37,37,39,39,40,40,41,41,42,42,43,43,44,44,45,45,46,46,47,47,48,48,49,49,50,50,51,51,52,52,53,53,54,54,55,55,56,56,57,57,58,58,60,60],"right_children":[2,4,6,8,10,12,14,16,18,20,22,24,26,28,30,32,34,36,38,40,42,44,46,48,50,-1,52,54,56,58,60,62,-1,64,66,68,70,72,-1,74,76,78,80,82,84,86,88,90,92,94,96,98,100,102,104,106,108,110,112,-1,114,-1,-1,-1,-1,-1,-1,-1,-1,-1,-1,-1,-1,-1,-1,-1,-1,-1,-1,-1,-1,-1,-1,-1,-1,-1,-1,-1,-1,-1,-1,-1,-1,-1,-1,-1,-1,-1,-1,-1,-1,-1,-1,-1,-1,-1,-1,-1,-1,-1,-1,-1,-1,-1,-1],"split_conditions":[4.865E0,1.75E0,2.2184917E2,2.602888E2,2.181292E2,9.075E0,1.6581083E1,1.3900001E0,8.900001E0,9.602056E1,1.0086427E1,2E0,2.998335E-1,2.5843326E2,1.288981E1,1.48E1,1.0765435E2,1.673525E1,1.0700001E1,9.511088E0,3.93E0,2.88E0,2.7605304E2,8.371759E1,2.4149532E1,1.4133921E1,6E-1,6.7519164E0,3E-1,1.257426E1,1.8764418E1,2.5969525E2,2.6957E-1,1.6E0,1.5629971E1,-1.9501668E0,1.4000001E0,1.565E0,1.0892001E-1,3E-1,3.3600001E0,5.1685834E0,7E-1,2.83815E2,3.371451E2,2.7849998E0,-3.1355836E0,8.818584E0,2.0196416E2,1.2820666E1,1.8484518E2,7.4503685E1,7.59833E1,1.1000001E0,2.4963947E2,7.8227506E0,1.1970669E1,6.1E0,1.90665E1,-2.69713E-1,1.3036026E1,-2.83738E-1,1.5151945E-1,-3.0305454E-1,-1.6484594E-1,8.298417E-3,-1.9020675E-1,-2.9569486E-1,-4.0067726E-1,-1.9494346E-1,9.283208E-2,-3.210733E-2,-1.965805E-1,1.6779808E-2,8.721439E-1,-1.712154E-1,1.908234E-1,3.7762943E-1,1.0772148E-1,7.789516E-1,2.5949737E-1,-4.371984E-2,3.25902E-1,4.951841E-1,-1.0769016E-1,-2.0176244E-1,-2.3815883E-4,-1.03162356E-1,-3.3531454E-1,-5.9813242E-2,7.1217203E-1,1.3296525E0,3.6171728E-1,3.5190555E-1,1.2958602E0,-2.8269854E-1,1.3240868E-2,7.4819095E-2,2.318743E0,-3.9752328E-1,8.388937E-1,5.1223266E-1,-6.909444E-2,-2.3321728E-1,1.478726E-1,-1.509641E-1,4.173064E-1,-3.7749276E-1,-1.084385E-1,1.1052661E0,6.2706426E-2,1.6144944E0,3.488773E-1,-1.23534754E-1,3.3292374E-1],"split_indices":[0,0,4,4,4,0,1,0,2,4,3,2,1,4,3,2,4,1,2,3,0,0,4,4,3,0,2,1,2,3,1,4,0,2,3,1,2,0,0,2,0,1,2,4,4,0,1,1,4,1,4,4,4,2,4,1,1,0,1,0,3,0,0,0,0,0,0,0,0,0,0,0,0,0,0,0,0,0,0,0,0,0,0,0,0,0,0,0,0,0,0,0,0,0,0,0,0,0,0,0,0,0,0,0,0,0,0,0,0,0,0,0,0,0,0],"split_type":[0,0,0,0,0,0,0,0,0,0,0,0,0,0,0,0,0,0,0,0,0,0,0,0,0,0,0,0,0,0,0,0,0,0,0,0,0,0,0,0,0,0,0,0,0,0,0,0,0,0,0,0,0,0,0,0,0,0,0,0,0,0,0,0,0,0,0,0,0,0,0,0,0,0,0,0,0,0,0,0,0,0,0,0,0,0,0,0,0,0,0,0,0,0,0,0,0,0,0,0,0,0,0,0,0,0,0,0,0,0,0,0,0,0,0],"sum_hessian":[1.902E3,1.626E3,2.76E2,6.84E2,9.42E2,1.82E2,9.4E1,3.97E2,2.87E2,4.77E2,4.65E2,1.28E2,5.4E1,7.5E1,1.9E1,2.07E2,1.9E2,2.83E2,4E0,1.52E2,3.25E2,2.5E1,4.4E2,8.5E1,4.3E1,1E0,5.3E1,3.6E1,3.9E1,9E0,1E1,2.06E2,1E0,5.9E1,1.31E2,2.73E2,1E1,3E0,1E0,1.2E1,1.4E2,2.87E2,3.8E1,1.4E1,1.1E1,2.64E2,1.76E2,1.4E1,7.1E1,3.5E1,8E0,2.1E1,3.2E1,2.3E1,1.3E1,2.2E1,1.7E1,6E0,3E0,2E0,8E0,2.04E2,2E0,4E1,1.9E1,4.3E1,8.8E1,4.6E1,2.27E2,9E0,1E0,2E0,1E0,6E0,6E0,1.11E2,2.9E1,8.6E1,2.01E2,2.1E1,1.7E1,9E0,5E0,1E1,1E0,1.46E2,1.18E2,4.3E1,1.33E2,9E0,5E0,5.3E1,1.8E1,2.9E1,6E0,5E0,3E0,2E0,1.9E1,3E0,2.9E1,1.6E1,7E0,1E1,3E0,1.8E1,4E0,1.3E1,4E0,2E0,4E0,2E0,1E0,1E0,7E0],"tree_param":{"num_deleted":"0","num_feature":"5","num_nodes":"115","size_leaf_vector":"1"}},{"base_weights":[2.4339382E-2,-2.6080567E-1,2.0792453E0,-4.7157004E-1,3.6859578E-1,2.9285E0,2.2639716E-1,-2.128072E-1,-7.4052227E-1,7.881428E-1,-1.4835401E-1,5.011313E0,1.7154447E0,-6.0787983E-2,1.3600446E0,-4.8799884E-1,1.8048884E-2,-5.141847E-1,-8.701155E-1,2.569504E-1,1.099277E0,1.1758109E0,-2.776167E-1,3.43004E0,1.225842E1,2.5030954E0,-8.576337E-2,5.256272E-1,-1.535095E-1,2.9568417E0,2.6596186E-1,-8.249962E-1,-3.6131293E-1,-5.852882E-1,1.1620659E-1,-1.9844186E-1,-6.76022E-1,-8.909697E-1,-4.622434E-1,1.397579E-1,7.9612666E-1,1.638221E0,6.8198246E-1,3.78588E-1,2.0253632E0,1.10717915E-1,-4.955218E-1,1.2858349E0,5.2773814E0,1.2013832E1,4.721332E0,-1.0244004E0,2.9049215E0,-3.2489172E-1,7.002323E-1,-5.2904077E-3,-1.0792174E0,1.097731E0,3.1046382E-1,-4.18467E-1,1.0340841E0,-2.8487143E-1,-1.3071404E-1,-1.100864E-2,-1.9372296E-1,-8.511833E-2,-3.0250934E-1,-1.7787898E-1,6.352293E-2,-1.0392681E-1,1.5083593E-1,-2.3018844E-1,7.767451E-2,-2.3835275E-1,-2.84752E-1,9.635093E-3,-1.9863862E-1,8.103831E-2,-3.397563E-1,7.772912E-1,3.5986322E-1,-1.8023998E-1,2.9086664E-1,2.432565E-1,-1.3419748E-2,1.6248065E-1,6.479872E-1,2.0429192E-1,-1.18711434E-1,-1.6889024E-1,1.329634E-1,-1.1856313E-1,8.9994437E-1,-2.5680114E-2,1.794187E0,2.525835E-1,1.9562105E0,1.5088367E-1,-3.943326E-1,1.284702E0,5.143928E-1,1.962253E-1,-2.7782786E-1,-4.037364E-2,9.688694E-1,-1.1895884E-2,-3.666186E-1,-1.9685824E-1,1.1397434E-2,4.5964018E-2,3.6479953E-1],"categories":[],"categories_nodes":[],"categories_segments":[],"categories_sizes":[],"default_left":[0,0,0,0,0,0,0,0,0,0,0,0,0,0,0,0,0,0,0,0,0,0,0,0,0,0,0,0,0,0,0,0,0,0,0,0,0,0,0,0,0,0,0,0,0,0,0,0,0,0,0,0,0,0,0,0,0,0,0,0,0,0,0,0,0,0,0,0,0,0,0,0,0,0,0,0,0,0,0,0,0,0,0,0,0,0,0,0,0,0,0,0,0,0,0,0,0,0,0,0,0,0,0,0,0,0,0,0,0,0,0],"id":2,"left_children":[1,3,5,7,9,11,13,15,17,19,21,23,25,27,29,31,33,35,37,39,41,43,45,47,49,51,53,-1,55,57,59,61,63,65,67,69,71,73,75,77,-1,79,81,83,85,87,89,91,93,-1,95,97,99,101,-1,103,105,-1,-1,107,109,-1,-1,-1,-1,-1,-1,-1,-1,-1,-1,-1,-1,-1,-1,-1,-1,-1,-1,-1,-1,-1,-1,-1,-1,-1,-1,-1,-1,-1,-1,-1,-1,-1,-1,-1,-1,-1,-1,-1,-1,-1,-1,-1,-1,-1,-1,-1,-1,-1,-1],"loss_changes":[1.1155979E3,2.219737E2,3.6439838E2,8.704474E1,9.120851E1,3.9312756E2,2.417461E1,4.0667793E1,1.7562347E1,3.8060684E1,3.267664E1,6.2261316E2,1.4492441E2,1.0354532E1,2.5419014E1,1.21682205E1,2.0736557E1,1.1414223E1,2.8969421E0,2.4066336E1,3.1717926E1,1.0747026E1,1.4694139E1,1.8730707E2,1.905311E3,1.03614044E2,1.9275444E1,0E0,7.9523315E0,4.3115883E0,5.6899805E0,3.417366E0,1.9735142E1,5.9654694E0,2.051782E1,8.268106E0,1.291346E1,1.3175354E0,2.0963883E0,1.423873E1,0E0,2.3222824E1,3.1569565E1,1.866146E0,4.2780685E-1,1.8463242E1,7.2773056E0,7.033621E1,9.857013E1,0E0,5.7333984E1,4.205044E0,9.758606E1,1.8262589E1,0E0,2.1764318E1,1.1395102E0,0E0,0E0,6.76005E-1,6.1490774E-1,0E0,0E0,0E0,0E0,0E0,0E0,0E0,0E0,0E0,0E0,0E0,0E0,0E0,0E0,0E0,0E0,0E0,0E0,0E0,0E0,0E0,0E0,0E0,0E0,0E0,0E0,0E0,0E0,0E0,0E0,0E0,0E0,0E0,0E0,0E0,0E0,0E0,0E0,0E0,0E0,0E0,0E0,0E0,0E0,0E0,0E0,0E0,0E0,0E0,0E0],"parents":[2147483647,0,0,1,1,2,2,3,3,4,4,5,5,6,6,7,7,8,8,9,9,10,10,11,11,12,12,13,13,14,14,15,15,16,16,17,17,18,18,19,19,20,20,21,21,22,22,23,23,24,24,25,25,26,26,28,28,29,29,30,30,31,31,32,32,33,33,34,34,35,35,36,36,37,37,38,38,39,39,41,41,42,42,43,43,44,44,45,45,46,46,47,47,48,48,50,50,51,51,52,52,53,53,55,55,56,56,59,59,60,60],"right_children":[2,4,6,8,10,12,14,16,18,20,22,24,26,28,30,32,34,36,38,40,42,44,46,48,50,52,54,-1,56,58,60,62,64,66,68,70,72,74,76,78,-1,80,82,84,86,88,90,92,94,-1,96,98,100,102,-1,104,106,-1,-1,108,110,-1,-1,-1,-1,-1,-1,-1,-1,-1,-1,-1,-1,-1,-1,-1,-1,-1,-1,-1,-1,-1,-1,-1,-1,-1,-1,-1,-1,-1,-1,-1,-1,-1,-1,-1,-1,-1,-1,-1,-1,-1,-1,-1,-1,-1,-1,-1,-1,-1,-1],"split_conditions":[5.38E0,2.815E0,2.280505E2,2.3677582E2,2.2282002E2,3E-1,1.6581083E1,1.7249999E0,1.608761E1,1E-1,1.0966713E1,2.1298349E2,1.8484518E2,5.45E0,2.4585156E2,6.800713E1,4.3941982E1,1.6394163E0,2.53E0,2.2743582E1,1.6323528E1,1.458167E0,1.624394E1,1.5043593E2,2.998335E-1,4.3941982E1,8.2E0,5.256272E-1,3.2259454E2,1.90665E1,3.1495462E2,1.6E0,8.931084E0,3.0831664E0,1.3733332E-1,-8.543332E-1,1.7554003E1,2.7102734E2,1.8806337E1,5.0699997E0,7.9612666E-1,1.5206666E0,1.9519166E0,-3.1355836E0,2.865E0,2.6749237E2,2.9168886E1,1.2737332E1,9.3876505E0,1.2013832E1,1.503835E1,-3.1355836E0,1.3962906E2,3.856083E0,7.002323E-1,3.1643893E2,5.575E0,1.097731E0,3.1046382E-1,1.9810251E1,1.8720667E1,-2.8487143E-1,-1.3071404E-1,-1.100864E-2,-1.9372296E-1,-8.511833E-2,-3.0250934E-1,-1.7787898E-1,6.352293E-2,-1.0392681E-1,1.5083593E-1,-2.3018844E-1,7.767451E-2,-2.3835275E-1,-2.84752E-1,9.635093E-3,-1.9863862E-1,8.103831E-2,-3.397563E-1,7.772912E-1,3.5986322E-1,-1.8023998E-1,2.9086664E-1,2.432565E-1,-1.3419748E-2,1.6248065E-1,6.479872E-1,2.0429192E-1,-1.18711434E-1,-1.6889024E-1,1.329634E-1,-1.1856313E-1,8.9994437E-1,-2.5680114E-2,1.794187E0,2.525835E-1,1.9562105E0,1.5088367E-1,-3.943326E-1,1.284702E0,5.143928E-1,1.962253E-1,-2.7782786E-1,-4.037364E-2,9.688694E-1,-1.1895884E-2,-3.666186E-1,-1.9685824E-1,1.1397434E-2,4.5964018E-2,3.6479953E-1],"split_indices":[0,0,4,4,4,2,1,0,3,2,3,4,4,0,4,4,4,1,0,1,3,1,3,4,1,4,2,0,4,1,4,2,1,1,1,1,1,4,3,0,0,1,1,1,0,4,3,1,3,0,3,1,4,1,0,4,0,0,0,1,1,0,0,0,0,0,0,0,0,0,0,0,0,0,0,0,0,0,0,0,0,0,0,0,0,0,0,0,0,0,0,0,0,0,0,0,0,0,0,0,0,0,0,0,0,0,0,0,0,0,0],"split_type":[0,0,0,0,0,0,0,0,0,0,0,0,0,0,0,0,0,0,0,0,0,0,0,0,0,0,0,0,0,0,0,0,0,0,0,0,0,0,0,0,0,0,0,0,0,0,0,0,0,0,0,0,0,0,0,0,0,0,0,0,0,0,0,0,0,0,0,0,0,0,0,0,0,0,0,0,0,0,0,0,0,0,0,0,0,0,0,0,0,0,0,0,0,0,0,0,0,0,0,0,0,0,0,0,0,0,0,0,0,0,0],"sum_hessian":[1.902E3,1.671E3,2.31E2,1.252E3,4.19E2,1.58E2,7.3E1,6.39E2,6.13E2,2.31E2,1.88E2,5.7E1,1.01E2,5.9E1,1.4E1,2.91E2,3.48E2,2.25E2,3.88E2,8.6E1,1.45E2,1.6E1,1.72E2,4.8E1,9E0,7E1,3.1E1,2E0,5.7E1,5E0,9E0,7.8E1,2.13E2,4.8E1,3E2,7.7E1,1.48E2,3.68E2,2E1,8.3E1,3E0,6.2E1,8.3E1,9E0,7E0,6.2E1,1.1E2,2.3E1,2.5E1,1E0,8E0,7E0,6.3E1,2.9E1,2E0,5E1,7E0,3E0,2E0,5E0,4E0,5.8E1,2E1,1E2,1.13E2,2.9E1,1.9E1,3.5E1,2.65E2,6.4E1,1.3E1,1.35E2,1.3E1,1.44E2,2.24E2,6E0,1.4E1,7.6E1,7E0,1.8E1,4.4E1,1.5E1,6.8E1,4E0,5E0,1E0,6E0,2.9E1,3.3E1,1.03E2,7E0,1.2E1,1.1E1,3E0,2.2E1,3E0,5E0,1E0,6E0,2.8E1,3.5E1,1.1E1,1.8E1,4.9E1,1E0,1E0,6E0,3E0,2E0,1E0,3E0],"tree_param":{"num_deleted":"0","num_feature":"5","num_nodes":"111","size_leaf_vector":"1"}},{"base_weights":[2.8908854E-2,-1.7297262E-1,1.6572818E0,-3.316473E-1,2.7723628E-1,2.292516E0,2.0495164E-1,-7.8315124E-2,-4.8726732E-1,6.043638E-1,-5.8625773E-2,4.200069E0,1.1602536E0,-5.980007E-2,1.2685585E0,-2.0393139E-1,7.374515E-1,-3.3305418E-1,-5.7172686E-1,8.9514814E-2,8.897694E-1,2.9523194E-1,-3.2214957E-1,2.8171594E0,1.0003156E1,2.3946414E0,2.244061E-1,3.3119747E-1,-4.207335E-1,2.3044882E0,3.330413E-1,-4.334233E-1,1.7986242E-1,1.7893943E0,-1.8528378E-1,-7.2634584E-1,-2.4744567E-1,-5.974952E-1,-1.3261025E-1,-1.2512068E-2,2.0566602E0,4.6952283E-1,1.3525519E0,1.3608477E-1,1.4836982E0,-1.5853165E-1,-7.1143234E-1,1.1497284E0,4.228256E0,1.0211757E1,3.5503538E0,1.7476777E0,2.334119E0,-7.814532E-1,7.07678E-1,-4.0743107E-1,6.105891E-1,-1.0202702E0,-8.304399E-2,2.855029E0,2.4068128E-1,-3.4143186E-1,8.0601156E-1,-2.0725594E-1,-7.7212475E-2,1.1156402E0,2.584968E-2,-2.2491059E-1,7.366218E-1,2.476316E-1,-1.2685865E-1,-2.4979714E-1,-1.4909865E-1,2.8855616E-1,-8.1965774E-2,-1.8074495E-1,1.1493481E-1,9.179704E-2,-1.3806298E-1,-3.1278174E-2,4.0436047E-1,1.5746886E-1,7.176849E-1,2.4975486E-2,7.0942855E-1,2.3575793E-1,8.0199605E-1,1.5337121E-1,-8.68092E-2,8.9559716E-1,-7.956307E-2,-6.922675E-2,9.40413E-1,-2.3606248E-1,1.2176228E-1,-8.573026E-2,8.702701E-1,1.4048085E0,-9.3357515E-1,2.9125032E-1,1.6259409E0,8.2211435E-1,-2.3680052E-2,-4.0075395E-1,8.41714E-2,4.9985233E-1,-1.553925E-1,3.1482247E-1,-5.658581E-2,-3.313433E-1,-3.936056E-2,8.2353896E-1,-1.178016E-1,9.827439E-1,2.3890172E-1,-1.4272077E-1,9.222043E-3,3.9069414E-2,2.8271964E-1],"categories":[],"categories_nodes":[],"categories_segments":[],"categories_sizes":[],"default_left":[0,0,0,0,0,0,0,0,0,0,0,0,0,0,0,0,0,0,0,0,0,0,0,0,0,0,0,0,0,0,0,0,0,0,0,0,0,0,0,0,0,0,0,0,0,0,0,0,0,0,0,0,0,0,0,0,0,0,0,0,0,0,0,0,0,0,0,0,0,0,0,0,0,0,0,0,0,0,0,0,0,0,0,0,0,0,0,0,0,0,0,0,0,0,0,0,0,0,0,0,0,0,0,0,0,0,0,0,0,0,0,0,0,0,0,0,0,0,0],"id":3,"left_children":[1,3,5,7,9,11,13,15,17,19,21,23,25,27,29,31,33,35,37,39,41,43,45,47,49,51,53,55,57,59,61,63,65,67,69,71,73,75,77,79,81,83,85,87,89,91,93,95,97,-1,99,101,-1,103,105,-1,107,109,111,113,-1,115,117,-1,-1,-1,-1,-1,-1,-1,-1,-1,-1,-1,-1,-1,-1,-1,-1,-1,-1,-1,-1,-1,-1,-1,-1,-1,-1,-1,-1,-1,-1,-1,-1,-1,-1,-1,-1,-1,-1,-1,-1,-1,-1,-1,-1,-1,-1,-1,-1,-1,-1,-1,-1,-1,-1,-1,-1],"loss_changes":[6.258757E2,1.21105804E2,1.9326978E2,4.9359573E1,4.859785E1,3.1046503E2,1.8379322E1,4.9132748E1,9.916794E0,3.2835075E1,2.0516844E1,4.051775E2,1.0689611E2,7.6189227E0,1.18312E1,3.663015E1,6.245409E1,9.146612E0,5.57843E0,1.6282572E1,2.7370468E1,1.7577349E1,7.912614E0,1.0101944E2,1.4301465E3,1.2577792E2,2.6802608E1,1.3100632E1,5.5840764E0,2.6716862E0,2.827244E0,1.1605423E1,5.1407185E1,5.2572853E1,8.75345E0,7.809181E-1,7.40026E0,2.5394897E0,4.307695E0,9.875933E0,8.0067825E-1,5.6173E1,4.8795013E1,1.3555023E1,2.968E1,2.213E1,3.4381924E0,5.6132587E1,9.462799E1,0E0,3.8138794E1,6.730779E1,0E0,1.0972826E1,4.4330048E1,0E0,8.264223E0,6.037512E-1,1.7715889E1,8.563957E-1,0E0,2.1456096E-1,3.3810902E-1,0E0,0E0,0E0,0E0,0E0,0E0,0E0,0E0,0E0,0E0,0E0,0E0,0E0,0E0,0E0,0E0,0E0,0E0,0E0,0E0,0E0,0E0,0E0,0E0,0E0,0E0,0E0,0E0,0E0,0E0,0E0,0E0,0E0,0E0,0E0,0E0,0E0,0E0,0E0,0E0,0E0,0E0,0E0,0E0,0E0,0E0,0E0,0E0,0E0,0E0,0E0,0E0,0E0,0E0,0E0,0E0],"parents":[2147483647,0,0,1,1,2,2,3,3,4,4,5,5,6,6,7,7,8,8,9,9,10,10,11,11,12,12,13,13,14,14,15,15,16,16,17,17,18,18,19,19,20,20,21,21,22,22,23,23,24,24,25,25,26,26,27,27,28,28,29,29,30,30,31,31,32,32,33,33,34,34,35,35,36,36,37,37,38,38,39,39,40,40,41,41,42,42,43,43,44,44,45,45,46,46,47,47,48,48,50,50,51,51,53,53,54,54,56,56,57,57,58,58,59,59,61,61,62,62],"right_children":[2,4,6,8,10,12,14,16,18,20,22,24,26,28,30,32,34,36,38,40,42,44,46,48,50,52,54,56,58,60,62,64,66,68,70,72,74,76,78,80,82,84,86,88,90,92,94,96,98,-1,100,102,-1,104,106,-1,108,110,112,114,-1,116,118,-1,-1,-1,-1,-1,-1,-1,-1,-1,-1,-1,-1,-1,-1,-1,-1,-1,-1,-1,-1,-1,-1,-1,-1,-1,-1,-1,-1,-1,-1,-1,-1,-1,-1,-1,-1,-1,-1,-1,-1,-1,-1,-1,-1,-1,-1,-1,-1,-1,-1,-1,-1,-1,-1,-1,-1],"split_conditions":[5.685E0,2.815E0,2.280505E2,2.05599E2,2.1426363E2,3E-1,1.6581083E1,1.9297676E2,1.5937878E1,1E-1,1.624394E1,2.1298349E2,1.5540018E2,2.5581885E2,2.4585156E2,2E0,9.745667E0,1.21E0,2.53E0,2.2743582E1,1.529651E2,1.5778516E1,1.0000001E0,1.5043593E2,2.998335E-1,1.2975E1,7.48E0,2.3024506E2,7.2E0,1.27279215E1,2.6407367E2,1E-1,2.01E0,-5.46E-1,1.4447172E1,1.448972E1,1.225E0,1.35E1,2.4963947E2,2.1124214E2,1.3004922E1,1.8616497E1,4.45E0,1.29249525E1,5.476916E0,9.000001E-1,2.09E1,1.2737332E1,2.1924562E1,1.0211757E1,1.5124284E1,1.656E1,2.334119E0,2.0288164E1,2.1325253E1,-4.0743107E-1,6.7519164E0,1.4E0,7.3450003E0,1.90665E1,2.4068128E-1,1.9810251E1,1.8720667E1,-2.0725594E-1,-7.7212475E-2,1.1156402E0,2.584968E-2,-2.2491059E-1,7.366218E-1,2.476316E-1,-1.2685865E-1,-2.4979714E-1,-1.4909865E-1,2.8855616E-1,-8.1965774E-2,-1.8074495E-1,1.1493481E-1,9.179704E-2,-1.3806298E-1,-3.1278174E-2,4.0436047E-1,1.5746886E-1,7.176849E-1,2.4975486E-2,7.0942855E-1,2.3575793E-1,8.0199605E-1,1.5337121E-1,-8.68092E-2,8.9559716E-1,-7.956307E-2,-6.922675E-2,9.40413E-1,-2.3606248E-1,1.2176228E-1,-8.573026E-2,8.702701E-1,1.4048085E0,-9.3357515E-1,2.9125032E-1,1.6259409E0,8.2211435E-1,-2.3680052E-2,-4.0075395E-1,8.41714E-2,4.9985233E-1,-1.553925E-1,3.1482247E-1,-5.658581E-2,-3.313433E-1,-3.936056E-2,8.2353896E-1,-1.178016E-1,9.827439E-1,2.3890172E-1,-1.4272077E-1,9.222043E-3,3.9069414E-2,2.8271964E-1],"split_indices":[0,0,4,4,4,2,1,4,3,2,3,4,4,4,4,0,1,0,0,1,4,3,2,4,1,0,0,4,0,3,4,2,0,1,3,3,0,2,4,4,3,1,0,3,1,2,2,1,3,0,3,3,0,3,3,0,1,2,0,1,0,1,1,0,0,0,0,0,0,0,0,0,0,0,0,0,0,0,0,0,0,0,0,0,0,0,0,0,0,0,0,0,0,0,0,0,0,0,0,0,0,0,0,0,0,0,0,0,0,0,0,0,0,0,0,0,0,0,0],"split_type":[0,0,0,0,0,0,0,0,0,0,0,0,0,0,0,0,0,0,0,0,0,0,0,0,0,0,0,0,0,0,0,0,0,0,0,0,0,0,0,0,0,0,0,0,0,0,0,0,0,0,0,0,0,0,0,0,0,0,0,0,0,0,0,0,0,0,0,0,0,0,0,0,0,0,0,0,0,0,0,0,0,0,0,0,0,0,0,0,0,0,0,0,0,0,0,0,0,0,0,0,0,0,0,0,0,0,0,0,0,0,0,0,0,0,0,0,0,0,0],"sum_hessian":[1.902E3,1.693E3,2.09E2,1.252E3,4.41E2,1.45E2,6.4E1,4.77E2,7.75E2,2.23E2,2.18E2,5.3E1,9.2E1,5.2E1,1.2E1,4.14E2,6.3E1,2.76E2,4.99E2,8E1,1.43E2,9.3E1,1.25E2,4.4E1,9E0,3.9E1,5.3E1,2.5E1,2.7E1,5E0,7E0,2.59E2,1.55E2,2.9E1,3.4E1,4.8E1,2.28E2,4.71E2,2.8E1,7.7E1,3E0,7.6E1,6.7E1,8.3E1,1E1,8.9E1,3.6E1,2.1E1,2.3E1,1E0,8E0,3.6E1,3E0,1.7E1,3.6E1,3E0,2.2E1,9E0,1.8E1,3E0,2E0,3E0,4E0,1.04E2,1.55E2,3E0,1.52E2,6E0,2.3E1,6E0,2.8E1,3.1E1,1.7E1,4E0,2.24E2,4.69E2,2E0,1.2E1,1.6E1,7.3E1,4E0,1E0,2E0,6.4E1,1.2E1,4.8E1,1.9E1,4.4E1,3.9E1,5E0,5E0,8.8E1,1E0,3.4E1,2E0,1.2E1,9E0,2.2E1,1E0,4E0,4E0,2.3E1,1.3E1,1.1E1,6E0,2E1,1.6E1,1.4E1,8E0,8E0,1E0,1E0,1.7E1,2E0,1E0,2E0,1E0,1E0,3E0],"tree_param":{"num_deleted":"0","num_feature":"5","num_nodes":"119","size_leaf_vector":"1"}},{"base_weights":[3.2966945E-2,-1.1763042E-1,1.2476287E0,-2.965766E-1,8.848861E-2,3.8498785E0,1.0277127E0,-1.8624564E-1,-4.3658128E-1,4.1758273E-2,1.3100942E0,2.4876261E-1,8.679994E0,1.7268411E0,3.9937115E-1,1.519274E-1,-2.682726E-1,-6.637048E-2,-4.5800906E-1,2.7646229E-2,1.0780445E0,7.824929E-1,3.202151E0,1.2079943E0,-5.2494675E-1,2.7120962E0,7.258076E-1,7.8867984E-1,-5.8721304E-1,-1.9010343E-1,2.6759953E0,-2.2307225E-1,-6.391876E-1,-1.3944824E-1,2.7589083E-1,-4.7167403E-1,3.954111E-2,2.4931724E-1,-1.3841535E-1,5.9530276E-1,7.631797E-1,1.7263882E0,1.2307353E0,-4.0141055E-1,1.8553383E0,-1.7879868E-2,-9.270243E-1,-6.7394954E-1,4.066416E0,-1.3990386E0,1.4139283E0,-3.791985E-1,9.5335656E-1,-2.6751915E-1,-6.396537E-1,-5.2714627E-3,-2.2438242E-1,-4.604036E-2,1.6593109E0,-9.373173E-2,2.2668836E-1,-1.10709E-1,-2.6094255E-1,1.120058E-1,-1.3404763E-1,-1.4628212E-1,-1.0531299E-2,-9.869992E-2,1.6427703E-1,9.6254385E-1,6.353496E-2,6.339985E-2,-6.469177E-2,-8.333125E-2,2.2204572E-1,7.074565E-1,-2.5351884E-2,6.934002E-1,-6.369585E-2,3.1307746E-2,-4.024768E-2,-3.121739E-1,-7.092044E-2,-3.4060845E-1,3.914795E-2,5.2015835E-1,2.0249672E0,1.0514299E-1,-6.0634565E-1,1.2092992E0,3.1615847E-1,4.20253E-1,1.1191543E-2,1.1685635E-1,-2.3259504E-1],"categories":[],"categories_nodes":[],"categories_segments":[],"categories_sizes":[],"default_left":[0,0,0,0,0,0,0,0,0,0,0,0,0,0,0,0,0,0,0,0,0,0,0,0,0,0,0,0,0,0,0,0,0,0,0,0,0,0,0,0,0,0,0,0,0,0,0,0,0,0,0,0,0,0,0,0,0,0,0,0,0,0,0,0,0,0,0,0,0,0,0,0,0,0,0,0,0,0,0,0,0,0,0,0,0,0,0,0,0,0,0,0,0,0,0],"id":4,"left_children":[1,3,5,7,9,11,13,15,17,19,21,23,-1,25,27,29,31,33,35,37,-1,39,41,43,45,47,49,51,53,55,57,59,61,-1,63,65,67,69,71,73,-1,75,-1,-1,77,79,81,83,85,87,89,-1,91,93,-1,-1,-1,-1,-1,-1,-1,-1,-1,-1,-1,-1,-1,-1,-1,-1,-1,-1,-1,-1,-1,-1,-1,-1,-1,-1,-1,-1,-1,-1,-1,-1,-1,-1,-1,-1,-1,-1,-1,-1,-1],"loss_changes":[3.4825278E2,6.2508095E1,1.1622153E2,1.3928986E1,4.4929092E1,1.438056E3,8.497215E1,1.4160065E1,3.1347885E0,3.7993427E1,2.6443642E1,1.1766631E1,0E0,8.876868E1,4.040805E1,8.683962E1,6.731268E0,3.2648988E0,2.5818787E0,2.7937275E1,0E0,6.398967E0,8.893509E-1,1.4019607E1,1.8183465E0,2.1368674E2,7.069922E1,2.6557117E1,1.4247085E1,8.552649E0,9.778765E1,3.2335136E1,2.4203892E0,0E0,1.0825074E0,2.5356903E0,2.2397616E0,3.541804E1,1.1767434E1,3.114272E0,0E0,4.775776E0,0E0,0E0,6.1477985E0,8.50699E-2,1.4612532E-1,5.3446684E0,1.9485522E2,1.3769133E1,2.9675392E1,0E0,2.86422E1,8.976732E0,0E0,0E0,0E0,0E0,0E0,0E0,0E0,0E0,0E0,0E0,0E0,0E0,0E0,0E0,0E0,0E0,0E0,0E0,0E0,0E0,0E0,0E0,0E0,0E0,0E0,0E0,0E0,0E0,0E0,0E0,0E0,0E0,0E0,0E0,0E0,0E0,0E0,0E0,0E0,0E0,0E0],"parents":[2147483647,0,0,1,1,2,2,3,3,4,4,5,5,6,6,7,7,8,8,9,9,10,10,11,11,13,13,14,14,15,15,16,16,17,17,18,18,19,19,21,21,22,22,23,23,24,24,25,25,26,26,27,27,28,28,29,29,30,30,31,31,32,32,34,34,35,35,36,36,37,37,38,38,39,39,41,41,44,44,45,45,46,46,47,47,48,48,49,49,50,50,52,52,53,53],"right_children":[2,4,6,8,10,12,14,16,18,20,22,24,-1,26,28,30,32,34,36,38,-1,40,42,44,46,48,50,52,54,56,58,60,62,-1,64,66,68,70,72,74,-1,76,-1,-1,78,80,82,84,86,88,90,-1,92,94,-1,-1,-1,-1,-1,-1,-1,-1,-1,-1,-1,-1,-1,-1,-1,-1,-1,-1,-1,-1,-1,-1,-1,-1,-1,-1,-1,-1,-1,-1,-1,-1,-1,-1,-1,-1,-1,-1,-1,-1,-1],"split_conditions":[5.685E0,2.06E0,2.998335E-1,2.5384218E2,2.096025E1,9.075E0,1.8648105E2,1.0935835E0,1.1659777E1,3.527449E1,4.07E0,6.1E0,8.679994E0,9.531083E0,2.1096123E1,7.144168E-1,1.935E0,1.2E0,3.549111E2,2.0037648E2,1.0780445E0,1.9917469E1,1.6986889E1,7.2E0,-1.0064166E0,1.17147835E2,1.3541501E1,1.8935833E0,1.4924999E1,1.78E0,1.715E0,1.8499999E0,2E-1,-1.3944824E-1,1.965E0,1.673525E1,2E-1,2.075E0,1.3004922E1,2.15E0,7.631797E-1,6E-1,1.2307353E0,-4.0141055E-1,1.3004922E1,1.4154915E1,8.285E0,9.602056E1,4.8789997E0,1.0520667E1,1.3920666E1,-3.791985E-1,2.5275845E2,2.427265E1,-6.396537E-1,-5.2714627E-3,-2.2438242E-1,-4.604036E-2,1.6593109E0,-9.373173E-2,2.2668836E-1,-1.10709E-1,-2.6094255E-1,1.120058E-1,-1.3404763E-1,-1.4628212E-1,-1.0531299E-2,-9.869992E-2,1.6427703E-1,9.6254385E-1,6.353496E-2,6.339985E-2,-6.469177E-2,-8.333125E-2,2.2204572E-1,7.074565E-1,-2.5351884E-2,6.934002E-1,-6.369585E-2,3.1307746E-2,-4.024768E-2,-3.121739E-1,-7.092044E-2,-3.4060845E-1,3.914795E-2,5.2015835E-1,2.0249672E0,1.0514299E-1,-6.0634565E-1,1.2092992E0,3.1615847E-1,4.20253E-1,1.1191543E-2,1.1685635E-1,-2.3259504E-1],"split_indices":[0,0,1,4,1,0,4,1,3,3,0,0,0,1,3,1,0,0,4,4,0,3,3,3,1,4,1,1,0,0,0,0,2,0,0,1,2,0,3,0,0,2,0,0,3,3,0,4,1,1,1,0,4,3,0,0,0,0,0,0,0,0,0,0,0,0,0,0,0,0,0,0,0,0,0,0,0,0,0,0,0,0,0,0,0,0,0,0,0,0,0,0,0,0,0],"split_type":[0,0,0,0,0,0,0,0,0,0,0,0,0,0,0,0,0,0,0,0,0,0,0,0,0,0,0,0,0,0,0,0,0,0,0,0,0,0,0,0,0,0,0,0,0,0,0,0,0,0,0,0,0,0,0,0,0,0,0,0,0,0,0,0,0,0,0,0,0,0,0,0,0,0,0,0,0,0,0,0,0,0,0,0,0,0,0,0,0,0,0,0,0,0,0],"sum_hessian":[1.902E3,1.693E3,2.09E2,9.06E2,7.87E2,1.5E1,1.94E2,5.08E2,3.98E2,7.59E2,2.8E1,1.4E1,1E0,9.1E1,1.03E2,9.9E1,4.09E2,2.2E1,3.76E2,7.57E2,2E0,2.3E1,5E0,6E0,8E0,4.5E1,4.6E1,7.4E1,2.9E1,8.8E1,1.1E1,3.66E2,4.3E1,1E1,1.2E1,3.66E2,1E1,3.24E2,4.33E2,2.2E1,1E0,3E0,2E0,1E0,5E0,4E0,4E0,1.3E1,3.2E1,1.1E1,3.5E1,5E0,6.9E1,2.5E1,4E0,6.8E1,2E1,6E0,5E0,3.36E2,3E1,2.1E1,2.2E1,1.1E1,1E0,3.53E2,1.3E1,6E0,4E0,3E0,3.21E2,7.8E1,3.55E2,3E0,1.9E1,2E0,1E0,4E0,1E0,2E0,2E0,3E0,1E0,8E0,5E0,1.8E1,1.4E1,3E0,8E0,3E0,3.2E1,4.6E1,2.3E1,1.1E1,1.4E1],"tree_param":{"num_deleted":"0","num_feature":"5","num_nodes":"95","size_leaf_vector":"1"}},{"base_weights":[3.195273E-2,-5.1935833E-2,1.3488702E0,-1.3264135E-1,3.6596385E-1,9.621737E0,9.6056825E-1,-4.9140945E-1,-1.0195689E-1,4.9228397E-1,-5.3896946E-1,-2.694847E-1,7.3779936E0,1.5361469E0,1.5636393E-1,-7.6279536E-2,-5.753515E-1,1.0729307E-1,-2.1002263E-1,8.413923E-1,1.7573291E-1,-1.701929E-1,-1.3616259E0,2.3782255E-4,-1.0795244E-1,1.229812E0,4.9049354E0,-5.7163125E-1,1.3610023E0,8.566859E-2,-7.8597623E-1,-4.9153292E-1,-1.0855856E0,6.5884474E-3,6.402683E-1,-2.564029E-1,-2.7362043E-2,5.26734E-1,2.7353764E0,-1.2399528E0,2.8669423E-1,-6.965794E-1,4.0977663E-1,-5.598148E-1,-1.8907945E-1,1.7222066E0,-5.1107055E-1,1.2955084E-1,1.7745755E0,1.2261338E0,-8.9536947E-1,2.3585962E-1,3.0953896E0,-3.543227E-2,1.5387167E-1,-4.7636855E-2,-2.826326E-1,-7.258159E-2,-2.0522642E-1,-3.7717247E-1,1.4614281E-1,-5.955039E-2,6.197073E-2,1.5934304E0,1.3185954E-1,-8.185331E-2,2.9439522E-2,8.647956E-3,-3.0574903E-1,1.9285728E-1,-4.489343E-1,1.7108254E0,4.1509947E-1,-1.3882774E-1,-4.129219E-1,6.2237594E-2,6.48811E-1,-3.128474E-1,4.0568106E-2,5.327235E-1,-5.3276487E-2,4.2082605E-1,1.7819808E0,1.217605E-1,-5.4039013E-1,7.4453026E-1,-1.3146332E-1,5.6908235E-2,-3.1354412E-1,3.7486532E-1,-2.000139E-1,2.922796E-1,1.1246959E0],"categories":[],"categories_nodes":[],"categories_segments":[],"categories_sizes":[],"default_left":[0,0,0,0,0,0,0,0,0,0,0,0,0,0,0,0,0,0,0,0,0,0,0,0,0,0,0,0,0,0,0,0,0,0,0,0,0,0,0,0,0,0,0,0,0,0,0,0,0,0,0,0,0,0,0,0,0,0,0,0,0,0,0,0,0,0,0,0,0,0,0,0,0,0,0,0,0,0,0,0,0,0,0,0,0,0,0,0,0,0,0,0,0],"id":5,"left_children":[1,3,5,7,9,11,13,15,17,19,21,23,-1,25,27,29,31,33,35,37,39,41,43,-1,-1,45,47,49,51,53,55,57,59,61,63,65,67,69,71,73,75,77,79,-1,-1,81,83,-1,-1,85,87,89,91,-1,-1,-1,-1,-1,-1,-1,-1,-1,-1,-1,-1,-1,-1,-1,-1,-1,-1,-1,-1,-1,-1,-1,-1,-1,-1,-1,-1,-1,-1,-1,-1,-1,-1,-1,-1,-1,-1,-1,-1],"loss_changes":[2.1030267E2,6.0419518E1,3.5696777E2,1.6473808E1,3.3415592E1,7.470633E2,5.0676926E1,4.068041E0,3.1318584E1,2.8032341E1,1.0689812E1,9.797078E-2,0E0,6.0014404E1,4.1995625E1,2.4809484E0,3.6575737E0,2.5329472E1,7.727783E0,7.067009E1,2.1562141E1,8.222934E0,2.8819675E0,0E0,0E0,5.2312256E1,2.0041801E1,1.8558002E1,3.4395718E1,1.6276706E0,2.4209976E-1,3.9677086E0,4.12204E0,1.6364567E1,6.799097E1,4.2703323E0,1.0394767E1,2.5630602E1,6.0296898E1,4.2356396E-1,1.8280806E1,4.1731443E0,1.0745535E1,0E0,0E0,5.4993973E1,1.7293957E1,0E0,0E0,1.1536572E1,4.423731E0,1.1812254E1,6.052017E0,0E0,0E0,0E0,0E0,0E0,0E0,0E0,0E0,0E0,0E0,0E0,0E0,0E0,0E0,0E0,0E0,0E0,0E0,0E0,0E0,0E0,0E0,0E0,0E0,0E0,0E0,0E0,0E0,0E0,0E0,0E0,0E0,0E0,0E0,0E0,0E0,0E0,0E0,0E0,0E0],"parents":[2147483647,0,0,1,1,2,2,3,3,4,4,5,5,6,6,7,7,8,8,9,9,10,10,11,11,13,13,14,14,15,15,16,16,17,17,18,18,19,19,20,20,21,21,22,22,25,25,26,26,27,27,28,28,29,29,30,30,31,31,32,32,33,33,34,34,35,35,36,36,37,37,38,38,39,39,40,40,41,41,42,42,45,45,46,46,49,49,50,50,51,51,52,52],"right_children":[2,4,6,8,10,12,14,16,18,20,22,24,-1,26,28,30,32,34,36,38,40,42,44,-1,-1,46,48,50,52,54,56,58,60,62,64,66,68,70,72,74,76,78,80,-1,-1,82,84,-1,-1,86,88,90,92,-1,-1,-1,-1,-1,-1,-1,-1,-1,-1,-1,-1,-1,-1,-1,-1,-1,-1,-1,-1,-1,-1,-1,-1,-1,-1,-1,-1,-1,-1,-1,-1,-1,-1,-1,-1,-1,-1,-1,-1],"split_conditions":[7.6099997E0,3.8E0,2.998335E-1,4.3941982E1,2.3535301E1,9.075E0,1.6000001E0,1.1525623E1,2.05599E2,1.9866467E2,1.2737332E1,-3.1355836E0,7.3779936E0,1.3000001E0,1.3168583E1,1.4101917E1,3.065E0,1.9297676E2,2.55E0,1.8088144E2,2.0321628E2,2.7475807E1,1.44165E1,2.3782255E-4,-1.0795244E-1,2.1096123E1,4.351917E0,1.5072783E1,5.8999996E0,2.7E0,1.85E0,4.3733326E-1,1.1820667E1,2E0,1.1212135E1,1.7868584E1,3.6950002E0,2.126744E1,1.8484518E2,-1.4251665E0,2.2505037E1,5.45E0,4.8050003E0,-5.598148E-1,-1.8907945E-1,1.964228E1,1.4924999E1,1.2955084E-1,1.7745755E0,1.2940062E2,2.1E0,1.4727365E2,1.2783802E1,-3.543227E-2,1.5387167E-1,-4.7636855E-2,-2.826326E-1,-7.258159E-2,-2.0522642E-1,-3.7717247E-1,1.4614281E-1,-5.955039E-2,6.197073E-2,1.5934304E0,1.3185954E-1,-8.185331E-2,2.9439522E-2,8.647956E-3,-3.0574903E-1,1.9285728E-1,-4.489343E-1,1.7108254E0,4.1509947E-1,-1.3882774E-1,-4.129219E-1,6.2237594E-2,6.48811E-1,-3.128474E-1,4.0568106E-2,5.327235E-1,-5.3276487E-2,4.2082605E-1,1.7819808E0,1.217605E-1,-5.4039013E-1,7.4453026E-1,-1.3146332E-1,5.6908235E-2,-3.1354412E-1,3.7486532E-1,-2.000139E-1,2.922796E-1,1.1246959E0],"split_indices":[0,0,1,4,3,0,2,3,4,4,1,1,0,2,1,1,0,4,0,4,4,3,1,0,0,3,1,3,2,0,0,1,1,0,3,1,0,3,4,1,3,0,0,0,0,3,0,0,0,4,2,4,3,0,0,0,0,0,0,0,0,0,0,0,0,0,0,0,0,0,0,0,0,0,0,0,0,0,0,0,0,0,0,0,0,0,0,0,0,0,0,0,0],"split_type":[0,0,0,0,0,0,0,0,0,0,0,0,0,0,0,0,0,0,0,0,0,0,0,0,0,0,0,0,0,0,0,0,0,0,0,0,0,0,0,0,0,0,0,0,0,0,0,0,0,0,0,0,0,0,0,0,0,0,0,0,0,0,0,0,0,0,0,0,0,0,0,0,0,0,0,0,0,0,0,0,0,0,0,0,0,0,0,0,0,0,0,0,0],"sum_hessian":[1.902E3,1.789E3,1.13E2,1.5E3,2.89E2,4E0,1.09E2,1.17E2,1.383E3,2.54E2,3.5E1,3E0,1E0,6.3E1,4.6E1,2E1,9.7E1,4.71E2,9.12E2,1.2E2,1.34E2,2.5E1,1E1,1E0,2E0,5.9E1,4E0,2.9E1,1.7E1,1.7E1,3E0,8.5E1,1.2E1,3.97E2,7.4E1,7.27E2,1.85E2,1.04E2,1.6E1,9E0,1.25E2,1.3E1,1.2E1,5E0,5E0,4.6E1,1.3E1,1E0,3E0,4E0,2.5E1,1.1E1,6E0,1.2E1,5E0,1E0,2E0,3.8E1,4.7E1,1.1E1,1E0,1.96E2,2.01E2,2E0,7.2E1,6.95E2,3.2E1,1.76E2,9E0,9.9E1,5E0,4E0,1.2E1,2E0,7E0,1.21E2,4E0,9E0,4E0,3E0,9E0,4.4E1,2E0,8E0,5E0,2E0,2E0,3E0,2.2E1,5E0,6E0,2E0,4E0],"tree_param":{"num_deleted":"0","num_feature":"5","num_nodes":"93","size_leaf_vector":"1"}},{"base_weights":[3.0276414E-2,-3.5156794E-2,1.057427E0,-1.20527074E-1,1.6966899E-1,8.189272E0,7.2363925E-1,-1.4108945E-1,3.0946112E-1,3.7833482E-1,-2.1659827E-3,-2.15568E-1,6.271295E0,1.3108382E0,1.5465008E-1,-7.177619E-2,-2.940882E-1,2.1103077E0,-2.0880505E-2,2.2361827E-1,1.0369277E0,2.3447178E-1,-2.155898E-1,2.0213128E-4,-8.636196E-2,1.1116235E0,1.7803829E0,-1.1570077E0,4.2469025E-1,4.9308352E-2,-1.9414973E-1,-2.3583959E-1,-6.968107E-1,3.141985E0,3.521502E-2,-1.563515E-1,1.576124E0,2.6728395E-1,-1.9173226E0,1.8448405E0,1.08435184E-1,1.2415838E-1,2.2811713E0,-9.299392E-1,-1.5913223E-1,1.358578E0,-4.5925653E-1,-1.9061981E0,-3.3984765E-1,1.3813382E0,1.428641E-1,-1.4757155E-2,1.15727745E-1,-4.3327395E-2,-1.0720792E-1,-7.531118E-2,1.503857E-1,-2.6988247E-1,-8.5804425E-2,3.5147097E-2,1.1170558E0,-9.017141E-2,1.5638614E-1,-1.0647486E-1,3.0870184E-1,6.394071E-1,2.0417818E-1,9.953686E-2,-3.2220823E-1,-2.610916E-1,-7.587563E-1,2.826358E-1,9.7340876E-1,-4.7771516E-1,2.1070373E-1,-3.5054907E-1,7.1907476E-2,1.3695753E0,1.3634683E-1,-4.545516E-1,-1.5632413E-1,-1.8982463E-2,-1.4689805E-1,-5.4557145E-1,4.815953E-1,-1.6446652E-1,-6.3259107E-1,-2.3567428E-1,1.1032376E-1,3.9488485E-1,-7.9059824E-2],"categories":[],"categories_nodes":[],"categories_segments":[],"categories_sizes":[],"default_left":[0,0,0,0,0,0,0,0,0,0,0,0,0,0,0,0,0,0,0,0,0,0,0,0,0,0,0,0,0,0,0,0,0,0,0,0,0,0,0,0,0,0,0,0,0,0,0,0,0,0,0,0,0,0,0,0,0,0,0,0,0,0,0,0,0,0,0,0,0,0,0,0,0,0,0,0,0,0,0,0,0,0,0,0,0,0,0,0,0,0,0],"id":6,"left_children":[1,3,5,7,9,11,13,15,17,19,21,23,-1,25,27,29,31,33,35,37,39,41,43,-1,-1,45,-1,47,49,51,53,55,57,59,61,63,65,67,69,71,73,75,77,79,81,83,-1,85,87,-1,89,-1,-1,-1,-1,-1,-1,-1,-1,-1,-1,-1,-1,-1,-1,-1,-1,-1,-1,-1,-1,-1,-1,-1,-1,-1,-1,-1,-1,-1,-1,-1,-1,-1,-1,-1,-1,-1,-1,-1,-1],"loss_changes":[1.27937355E2,3.132045E1,2.654535E2,1.1219416E1,1.889698E1,5.388458E2,3.6549366E1,1.2778936E1,3.454795E1,2.4019188E1,1.469675E1,6.273557E-2,0E0,4.314361E1,2.0680784E1,1.233777E1,8.655884E0,1.9156788E1,1.1063819E1,1.8648685E1,3.3556297E1,3.0874193E1,6.022573E0,0E0,0E0,3.66661E1,0E0,5.474267E0,5.588468E1,1.3904644E1,3.30826E0,3.8226871E0,3.6581917E0,1.0118008E1,8.0954945E-1,1.14276085E1,5.3832245E-1,1.6882061E1,3.6136723E-1,2.7271408E1,2.334136E1,1.999356E1,2.713115E1,1.8425264E0,4.4997616E0,4.133188E1,0E0,2.1853447E-1,2.1812818E0,0E0,2.228307E1,0E0,0E0,0E0,0E0,0E0,0E0,0E0,0E0,0E0,0E0,0E0,0E0,0E0,0E0,0E0,0E0,0E0,0E0,0E0,0E0,0E0,0E0,0E0,0E0,0E0,0E0,0E0,0E0,0E0,0E0,0E0,0E0,0E0,0E0,0E0,0E0,0E0,0E0,0E0,0E0],"parents":[2147483647,0,0,1,1,2,2,3,3,4,4,5,5,6,6,7,7,8,8,9,9,10,10,11,11,13,13,14,14,15,15,16,16,17,17,18,18,19,19,20,20,21,21,22,22,25,25,27,27,28,28,29,29,30,30,31,31,32,32,33,33,34,34,35,35,36,36,37,37,38,38,39,39,40,40,41,41,42,42,43,43,44,44,45,45,47,47,48,48,50,50],"right_children":[2,4,6,8,10,12,14,16,18,20,22,24,-1,26,28,30,32,34,36,38,40,42,44,-1,-1,46,-1,48,50,52,54,56,58,60,62,64,66,68,70,72,74,76,78,80,82,84,-1,86,88,-1,90,-1,-1,-1,-1,-1,-1,-1,-1,-1,-1,-1,-1,-1,-1,-1,-1,-1,-1,-1,-1,-1,-1,-1,-1,-1,-1,-1,-1,-1,-1,-1,-1,-1,-1,-1,-1,-1,-1,-1,-1],"split_conditions":[7.6099997E0,2.83E0,2.998335E-1,1.8616497E1,1.9866467E2,9.075E0,1.8184198E2,1.08706665E1,1.20695206E2,1.7911176E2,1.6323528E1,-3.1355836E0,6.271295E0,1.8088144E2,2.712333E0,1.7731598E1,2.45E0,2.435E0,2.1626984E1,7.48E0,1.7414474E1,1.6179985E1,1.687398E1,2.0213128E-4,-8.636196E-2,1.0700001E1,1.7803829E0,1E-1,3.2539995E0,8E-1,2.6282465E1,1.35E1,2.3950798E2,4.034414E1,2.695E0,1.0000001E0,2.235E0,1.48E1,4.4706664E0,1.48257065E1,2.3581667E0,2.081961E2,1.624394E1,6.53525E0,2.7605304E2,9.3876505E0,-4.5925653E-1,1.4565548E1,1.7731598E1,1.3813382E0,2E-1,-1.4757155E-2,1.15727745E-1,-4.3327395E-2,-1.0720792E-1,-7.531118E-2,1.503857E-1,-2.6988247E-1,-8.5804425E-2,3.5147097E-2,1.1170558E0,-9.017141E-2,1.5638614E-1,-1.0647486E-1,3.0870184E-1,6.394071E-1,2.0417818E-1,9.953686E-2,-3.2220823E-1,-2.610916E-1,-7.587563E-1,2.826358E-1,9.7340876E-1,-4.7771516E-1,2.1070373E-1,-3.5054907E-1,7.1907476E-2,1.3695753E0,1.3634683E-1,-4.545516E-1,-1.5632413E-1,-1.8982463E-2,-1.4689805E-1,-5.4557145E-1,4.815953E-1,-1.6446652E-1,-6.3259107E-1,-2.3567428E-1,1.1032376E-1,3.9488485E-1,-7.9059824E-2],"split_indices":[0,0,1,1,4,0,4,1,4,4,3,1,0,4,1,3,0,0,3,0,3,3,3,0,0,2,0,2,1,2,3,2,4,4,0,2,0,2,1,3,1,4,3,1,4,3,0,3,3,0,2,0,0,0,0,0,0,0,0,0,0,0,0,0,0,0,0,0,0,0,0,0,0,0,0,0,0,0,0,0,0,0,0,0,0,0,0,0,0,0,0],"split_type":[0,0,0,0,0,0,0,0,0,0,0,0,0,0,0,0,0,0,0,0,0,0,0,0,0,0,0,0,0,0,0,0,0,0,0,0,0,0,0,0,0,0,0,0,0,0,0,0,0,0,0,0,0,0,0,0,0,0,0,0,0,0,0,0,0,0,0,0,0,0,0,0,0,0,0,0,0,0,0,0,0,0,0,0,0,0,0,0,0,0,0],"sum_hessian":[1.902E3,1.789E3,1.13E2,1.263E3,5.26E2,4E0,1.09E2,1.206E3,5.7E1,2.37E2,2.89E2,3E0,1E0,5.3E1,5.6E1,8.31E2,3.75E2,8E0,4.9E1,1.93E2,4.4E1,1.37E2,1.52E2,1E0,2E0,5.2E1,1E0,9E0,4.7E1,4.18E2,4.13E2,3.29E2,4.6E1,5E0,3E0,4.6E1,3E0,1.9E2,3E0,2.3E1,2.1E1,1.31E2,6E0,1E1,1.42E2,4.8E1,4E0,4E0,5E0,2E0,4.5E1,3.24E2,9.4E1,3.18E2,9.5E1,3.23E2,6E0,3E1,1.6E1,1E0,4E0,2E0,1E0,4E1,6E0,1E0,2E0,1.82E2,8E0,2E0,1E0,1.5E1,8E0,5E0,1.6E1,1E1,1.21E2,2E0,4E0,3E0,7E0,1.11E2,3.1E1,3E0,4.5E1,1E0,3E0,3E0,2E0,1.1E1,3.4E1],"tree_param":{"num_deleted":"0","num_feature":"5","num_nodes":"91","size_leaf_vector":"1"}},{"base_weights":[2.6631288E-2,-2.3419205E-2,8.122782E-1,-3.8220435E-2,7.198488E-1,6.9695177E0,5.2501935E-1,3.2909796E-2,-1.6200066E-1,3.4335428E-1,1.7693492E0,-1.7243758E-1,5.3306007E0,-1.6267046E0,6.215628E-1,-2.5247094E-1,8.5532635E-2,3.138735E-1,-1.8669896E-1,2.1720228E-1,5.43496E-1,2.2242725E0,1.1807815E-1,1.7180444E-4,-6.908957E-2,-1.145598E-1,-5.527344E-1,1.3711814E0,1.9972114E-1,1.7066866E-1,-3.4181023E-1,1.9745488E-1,-7.024166E-2,8.959298E-2,1.5070697E0,1.8224489E-2,-2.1900801E-1,1.2576664E-2,5.433456E-1,1.2617629E0,9.2610943E-1,-1.6177977E-2,6.9313146E-2,2.0654848E0,-3.0526653E-1,-1.1269295E0,4.1750088E-1,2.9774194E-3,3.7596276E-1,-1.119565E-1,1.3262533E-1,-6.0451634E-2,8.668308E-2,1.374253E-1,-4.8208002E-2,1.8995938E-1,-4.785267E-2,5.5944693E-1,1.1408508E-2,-3.865033E-2,4.6452742E-2,-5.636962E-2,-1.4019737E-1,-8.040067E-2,1.0851845E-1,2.9149172E-1,-2.3782684E-2,5.0586516E-1,-6.540821E-2,3.8861015E-1,1.5584788E0,-3.8957188E-1,4.035231E-1,-4.999379E-1,-7.623227E-2,1.2514422E0,2.2460807E-2],"categories":[],"categories_nodes":[],"categories_segments":[],"categories_sizes":[],"default_left":[0,0,0,0,0,0,0,0,0,0,0,0,0,0,0,0,0,0,0,0,0,0,0,0,0,0,0,0,0,0,0,0,0,0,0,0,0,0,0,0,0,0,0,0,0,0,0,0,0,0,0,0,0,0,0,0,0,0,0,0,0,0,0,0,0,0,0,0,0,0,0,0,0,0,0,0,0],"id":7,"left_children":[1,3,5,7,9,11,13,15,17,19,21,23,-1,25,27,29,31,33,35,37,-1,39,41,-1,-1,-1,-1,43,45,47,49,51,53,55,57,59,61,63,65,67,-1,-1,-1,69,71,73,75,-1,-1,-1,-1,-1,-1,-1,-1,-1,-1,-1,-1,-1,-1,-1,-1,-1,-1,-1,-1,-1,-1,-1,-1,-1,-1,-1,-1,-1,-1],"loss_changes":[7.484882E1,1.9719809E1,1.9797513E2,1.546606E1,1.3222076E1,3.886993E2,2.3861917E1,1.6781176E1,7.5924606E0,4.6076846E0,6.4981804E0,4.017406E-2,0E0,6.3925934E-1,3.3245506E1,6.636055E0,1.6454704E1,8.428518E0,4.0427284E0,1.7283356E0,0E0,1.9177933E0,7.0751294E-2,0E0,0E0,0E0,0E0,4.4861137E1,2.0405813E1,5.381928E0,3.7069683E0,2.0096928E1,1.894986E1,3.8925645E0,2.5568562E0,1.707584E0,3.9832382E0,1.762341E0,2.7436728E0,3.5081587E0,0E0,0E0,0E0,5.8341743E1,2.141824E1,4.285675E0,7.686145E1,0E0,0E0,0E0,0E0,0E0,0E0,0E0,0E0,0E0,0E0,0E0,0E0,0E0,0E0,0E0,0E0,0E0,0E0,0E0,0E0,0E0,0E0,0E0,0E0,0E0,0E0,0E0,0E0,0E0,0E0],"parents":[2147483647,0,0,1,1,2,2,3,3,4,4,5,5,6,6,7,7,8,8,9,9,10,10,11,11,13,13,14,14,15,15,16,16,17,17,18,18,19,19,21,21,22,22,27,27,28,28,29,29,30,30,31,31,32,32,33,33,34,34,35,35,36,36,37,37,38,38,39,39,43,43,44,44,45,45,46,46],"right_children":[2,4,6,8,10,12,14,16,18,20,22,24,-1,26,28,30,32,34,36,38,-1,40,42,-1,-1,-1,-1,44,46,48,50,52,54,56,58,60,62,64,66,68,-1,-1,-1,70,72,74,76,-1,-1,-1,-1,-1,-1,-1,-1,-1,-1,-1,-1,-1,-1,-1,-1,-1,-1,-1,-1,-1,-1,-1,-1,-1,-1,-1,-1,-1,-1],"split_conditions":[7.6099997E0,2.096025E1,2.998335E-1,2.5384218E2,4.07E0,9.075E0,4.3941982E1,5.507426E1,1.0966713E1,1.9917469E1,6.6000004E0,-3.1355836E0,5.3306007E0,7.965E0,1.6321188E2,1.1368535E1,1.11665E1,4.6400003E0,-3.1355836E0,1E-1,5.43496E-1,1.6986889E1,2.1481085E1,1.7180444E-4,-6.908957E-2,-1.145598E-1,-5.527344E-1,1.8671474E1,2.5727499E0,4.275E0,1.8616497E1,1.20695206E2,1.17147835E2,-3.1355836E0,5.45E0,3.10252E2,3.6950002E0,2.2203997E1,3.15E0,1.5807239E1,9.2610943E-1,-1.6177977E-2,6.9313146E-2,1.2975E1,1.3168583E1,1E-1,3.2539995E0,2.9774194E-3,3.7596276E-1,-1.119565E-1,1.3262533E-1,-6.0451634E-2,8.668308E-2,1.374253E-1,-4.8208002E-2,1.8995938E-1,-4.785267E-2,5.5944693E-1,1.1408508E-2,-3.865033E-2,4.6452742E-2,-5.636962E-2,-1.4019737E-1,-8.040067E-2,1.0851845E-1,2.9149172E-1,-2.3782684E-2,5.0586516E-1,-6.540821E-2,3.8861015E-1,1.5584788E0,-3.8957188E-1,4.035231E-1,-4.999379E-1,-7.623227E-2,1.2514422E0,2.2460807E-2],"split_indices":[0,1,1,4,0,0,4,4,3,3,0,1,0,0,4,3,1,0,1,2,0,3,1,0,0,0,0,3,1,0,1,4,4,1,0,4,0,1,0,3,0,0,0,0,1,2,1,0,0,0,0,0,0,0,0,0,0,0,0,0,0,0,0,0,0,0,0,0,0,0,0,0,0,0,0,0,0],"split_type":[0,0,0,0,0,0,0,0,0,0,0,0,0,0,0,0,0,0,0,0,0,0,0,0,0,0,0,0,0,0,0,0,0,0,0,0,0,0,0,0,0,0,0,0,0,0,0,0,0,0,0,0,0,0,0,0,0,0,0,0,0,0,0,0,0,0,0,0,0,0,0,0,0,0,0,0,0],"sum_hessian":[1.902E3,1.789E3,1.13E2,1.755E3,3.4E1,4E0,1.09E2,1.115E3,6.4E2,2.6E1,8E0,3E0,1E0,4E0,1.05E2,1.73E2,9.42E2,3.1E1,6.09E2,2.5E1,1E0,6E0,2E0,1E0,2E0,1E0,3E0,3.7E1,6.8E1,3E1,1.43E2,5.48E2,3.94E2,2.7E1,4E0,8.3E1,5.26E2,1.6E1,9E0,4E0,2E0,1E0,1E0,2.6E1,1.1E1,9E0,5.9E1,2.7E1,3E0,1.38E2,5E0,1.02E2,4.46E2,5.7E1,3.37E2,8E0,1.9E1,3E0,1E0,4E1,4.3E1,4.69E2,5.7E1,9E0,7E0,5E0,4E0,3E0,1E0,2.2E1,4E0,7E0,4E0,5E0,4E0,4E0,5.5E1],"tree_param":{"num_deleted":"0","num_feature":"5","num_nodes":"77","size_leaf_vector":"1"}},{"base_weights":[2.4186552E-2,-3.2146484E-2,4.7849122E-1,-5.5905752E-2,2.8278416E-1,1.0973402E0,6.54061E-2,-2.849048E-1,-3.1795193E-2,8.600821E-2,1.880649E0,1.7049801E0,3.4726898E-3,7.0833576E-1,-2.2757792E-1,-3.3669457E-1,8.989262E-2,-1.9536859E-1,6.3711395E-3,7.4601865E-1,-6.497152E-2,1.2283044E0,8.0710447E-1,1.0101384E0,4.66127E0,-3.2349825E-1,9.8395145E-1,-1.2176334E-1,1.6322224E0,-1.0476906E0,-9.681259E-2,-1.9790572E-1,-4.3024188E-1,9.8515666E-1,-1.3954169E-1,-3.0681288E-1,7.3146775E-2,2.2669797E-1,-7.337861E-2,1.0664493E0,4.1109008E-1,-1.4668122E-1,1.3207457E0,1.02432966E-1,4.4738683E-1,1.5348218E-1,1.7533174E0,4.5310116E0,1.8228843E0,-4.7267118E-1,-1.3805665E-1,-4.3095946E-1,1.9190898E0,-8.009521E-1,1.4480628E0,2.7483823E0,-2.4604538E-1,2.669445E-1,-1.3373121E0,6.359167E-1,-2.8434253E-1,2.2028792E-1,-6.863001E-2,-1.4907257E-1,-5.412409E-2,-9.605608E-2,4.5810008E-1,-1.5947141E-1,1.3213056E-1,-7.231575E-2,-2.4830408E-1,6.270976E-1,6.3459156E-3,6.046011E-2,8.153663E-1,-1.9811697E-2,-4.8330984E-1,1.8800841E-1,-2.8430986E-1,-6.344769E-2,3.6072394E-1,1.2823738E-1,5.3213555E-1,2.84755E-1,-1.6747141E-1,2.3331368E-1,-6.3733274E-1,8.116116E-1,-4.0211126E-2,1.3175524E0,1.3844721E-1,2.335231E-1,-1.154883E-1,-2.5646907E-1,1.2612791E-1,9.5862716E-1,9.1774465E-4,1.012703E-1,-2.9631293E-1,-1.443398E-1,6.947903E-1,1.0861884E0,2.4093382E-1,-4.8994198E-1,1.4655283E-1,1.8454929E-1,-6.442427E-2,-4.8398224E-1,-4.669285E-2,5.38674E-1,-1.3966575E-1,-1.6520475E-1,9.075165E-2],"categories":[],"categories_nodes":[],"categories_segments":[],"categories_sizes":[],"default_left":[0,0,0,0,0,0,0,0,0,0,0,0,0,0,0,0,0,0,0,0,0,0,0,0,0,0,0,0,0,0,0,0,0,0,0,0,0,0,0,0,0,0,0,0,0,0,0,0,0,0,0,0,0,0,0,0,0,0,0,0,0,0,0,0,0,0,0,0,0,0,0,0,0,0,0,0,0,0,0,0,0,0,0,0,0,0,0,0,0,0,0,0,0,0,0,0,0,0,0,0,0,0,0,0,0,0,0,0,0,0,0,0,0],"id":8,"left_children":[1,3,5,7,9,11,13,15,17,19,21,23,25,27,29,31,33,35,37,39,41,-1,43,45,47,49,51,53,55,57,59,61,63,65,67,69,71,73,75,-1,77,79,81,83,-1,85,87,-1,89,-1,91,93,95,97,99,101,103,105,107,109,111,-1,-1,-1,-1,-1,-1,-1,-1,-1,-1,-1,-1,-1,-1,-1,-1,-1,-1,-1,-1,-1,-1,-1,-1,-1,-1,-1,-1,-1,-1,-1,-1,-1,-1,-1,-1,-1,-1,-1,-1,-1,-1,-1,-1,-1,-1,-1,-1,-1,-1,-1,-1],"loss_changes":[4.8717644E1,1.2691198E1,5.361206E1,8.692503E0,3.725439E1,5.582701E1,2.4083954E1,2.941866E0,8.910001E0,1.0710828E1,2.7589989E1,1.06215775E2,1.02565365E1,3.0875443E1,9.335893E0,1.6286516E0,4.0401516E0,8.102058E0,2.0363863E1,1.7353674E1,1.0157663E1,0E0,4.6684985E0,2.8380093E1,2.6885538E2,5.354953E0,1.1412151E1,2.461641E1,4.050873E1,4.925947E0,1.0761287E1,1.7502518E0,1.2094584E0,3.318094E0,3.8720126E0,6.342703E0,8.346233E0,1.8760462E1,9.497818E0,0E0,6.160183E0,7.5989437E0,1.265254E0,3.8864105E0,0E0,3.293508E1,4.3487366E1,0E0,2.944946E1,0E0,5.2778106E0,1.8031583E0,1.2217701E1,3.7354555E0,1.2834791E1,1.7453262E1,8.948979E0,6.353091E-1,3.009863E0,2.127327E1,9.85725E0,0E0,0E0,0E0,0E0,0E0,0E0,0E0,0E0,0E0,0E0,0E0,0E0,0E0,0E0,0E0,0E0,0E0,0E0,0E0,0E0,0E0,0E0,0E0,0E0,0E0,0E0,0E0,0E0,0E0,0E0,0E0,0E0,0E0,0E0,0E0,0E0,0E0,0E0,0E0,0E0,0E0,0E0,0E0,0E0,0E0,0E0,0E0,0E0,0E0,0E0,0E0,0E0],"parents":[2147483647,0,0,1,1,2,2,3,3,4,4,5,5,6,6,7,7,8,8,9,9,10,10,11,11,12,12,13,13,14,14,15,15,16,16,17,17,18,18,19,19,20,20,22,22,23,23,24,24,25,25,26,26,27,27,28,28,29,29,30,30,31,31,32,32,33,33,34,34,35,35,36,36,37,37,38,38,40,40,41,41,42,42,43,43,45,45,46,46,48,48,50,50,51,51,52,52,53,53,54,54,55,55,56,56,57,57,58,58,59,59,60,60],"right_children":[2,4,6,8,10,12,14,16,18,20,22,24,26,28,30,32,34,36,38,40,42,-1,44,46,48,50,52,54,56,58,60,62,64,66,68,70,72,74,76,-1,78,80,82,84,-1,86,88,-1,90,-1,92,94,96,98,100,102,104,106,108,110,112,-1,-1,-1,-1,-1,-1,-1,-1,-1,-1,-1,-1,-1,-1,-1,-1,-1,-1,-1,-1,-1,-1,-1,-1,-1,-1,-1,-1,-1,-1,-1,-1,-1,-1,-1,-1,-1,-1,-1,-1,-1,-1,-1,-1,-1,-1,-1,-1,-1,-1,-1,-1],"split_conditions":[5.685E0,1.8616497E1,3E-1,1.11E0,4.4999995E0,2.280505E2,1.5540018E2,3.6000001E0,1.1460728E2,1.1460728E2,1.1182875E2,2.1298349E2,8.931084E0,1.20695206E2,5E-1,5.612334E0,1.589247E2,1.7000002E0,2.0647742E2,1.8720667E1,2.2743582E1,1.2283044E0,1.9466501E1,1.5043593E2,2.998335E-1,2.2947401E2,7.2E0,1.43706665E1,8.3185835E0,1.353236E1,1.1000001E0,4.055129E0,1.05E0,8.4000003E-1,1.061025E1,9.602056E1,9.3876505E0,3.3510952E1,5.575E0,1.0664493E0,9.0000004E-1,2.2702845E1,3.325E0,8.900001E0,4.4738683E-1,1.01050005E1,8.3185835E0,4.5310116E0,7.2E0,-4.7267118E-1,2.3677582E2,1.3472372E1,1.3830749E1,5E-1,3.8179108E1,8.45E0,1.1820667E1,5.82E0,1.0975E1,8.3810835E0,6.1000004E0,2.2028792E-1,-6.863001E-2,-1.4907257E-1,-5.412409E-2,-9.605608E-2,4.5810008E-1,-1.5947141E-1,1.3213056E-1,-7.231575E-2,-2.4830408E-1,6.270976E-1,6.3459156E-3,6.046011E-2,8.153663E-1,-1.9811697E-2,-4.8330984E-1,1.8800841E-1,-2.8430986E-1,-6.344769E-2,3.6072394E-1,1.2823738E-1,5.3213555E-1,2.84755E-1,-1.6747141E-1,2.3331368E-1,-6.3733274E-1,8.116116E-1,-4.0211126E-2,1.3175524E0,1.3844721E-1,2.335231E-1,-1.154883E-1,-2.5646907E-1,1.2612791E-1,9.5862716E-1,9.1774465E-4,1.012703E-1,-2.9631293E-1,-1.443398E-1,6.947903E-1,1.0861884E0,2.4093382E-1,-4.8994198E-1,1.4655283E-1,1.8454929E-1,-6.442427E-2,-4.8398224E-1,-4.669285E-2,5.38674E-1,-1.3966575E-1,-1.6520475E-1,9.075165E-2],"split_indices":[0,1,2,0,2,4,4,2,4,4,4,4,1,4,2,1,4,2,4,1,1,0,1,4,1,4,0,1,1,3,2,4,0,0,1,4,3,3,0,0,2,3,0,2,0,0,1,0,0,0,4,3,3,2,4,0,1,0,0,1,2,0,0,0,0,0,0,0,0,0,0,0,0,0,0,0,0,0,0,0,0,0,0,0,0,0,0,0,0,0,0,0,0,0,0,0,0,0,0,0,0,0,0,0,0,0,0,0,0,0,0,0,0],"split_type":[0,0,0,0,0,0,0,0,0,0,0,0,0,0,0,0,0,0,0,0,0,0,0,0,0,0,0,0,0,0,0,0,0,0,0,0,0,0,0,0,0,0,0,0,0,0,0,0,0,0,0,0,0,0,0,0,0,0,0,0,0,0,0,0,0,0,0,0,0,0,0,0,0,0,0,0,0,0,0,0,0,0,0,0,0,0,0,0,0,0,0,0,0,0,0,0,0,0,0,0,0,0,0,0,0,0,0,0,0,0,0,0,0],"sum_hessian":[1.902E3,1.693E3,2.09E2,1.575E3,1.18E2,8.3E1,1.26E2,1.49E2,1.426E3,1.06E2,1.2E1,5.3E1,3E1,3.9E1,8.7E1,1.31E2,1.8E1,2.69E2,1.157E3,1.9E1,8.7E1,3E0,9E0,4.4E1,9E0,2.3E1,7E0,2.1E1,1.8E1,1.1E1,7.6E1,5.4E1,7.7E1,3E0,1.5E1,1.9E2,7.9E1,3.07E2,8.5E2,1E0,1.8E1,8.3E1,4E0,5E0,4E0,2.1E1,2.3E1,1E0,8E0,2E0,2.1E1,3E0,4E0,1.5E1,6E0,1.1E1,7E0,2E0,9E0,1.5E1,6.1E1,1E0,5.3E1,6E1,1.7E1,1E0,2E0,9E0,6E0,1.7E2,2E1,1E0,7.8E1,3.05E2,2E0,8.47E2,3E0,1.6E1,2E0,8E1,3E0,2E0,2E0,2E0,3E0,1.7E1,4E0,1.5E1,8E0,2E0,6E0,4E0,1.7E1,2E0,1E0,2E0,2E0,2E0,1.3E1,2E0,4E0,7E0,4E0,2E0,5E0,1E0,1E0,7E0,2E0,7E0,8E0,4.2E1,1.9E1],"tree_param":{"num_deleted":"0","num_feature":"5","num_nodes":"113","size_leaf_vector":"1"}},{"base_weights":[2.364186E-2,-9.059667E-3,5.369058E-1,-1.8758547E-2,4.7780582E-1,4.980978E0,3.300216E-1,7.097942E-3,-1.7098477E-1,3.688661E-1,6.272634E-1,-1.9270957E-1,3.8513594E0,4.2745134E-1,-9.6563905E-1,-1.6141051E-1,4.3825395E-2,-8.662074E-3,-3.5937077E-1,1.9879867E-1,8.967354E-1,-9.7132735E-2,-4.1095573E-2,-9.6863323E-1,5.23793E-1,-3.6460686E-1,-4.4265583E-1,-1.7328562E-1,3.8799608E-1,3.4843694E-2,8.240274E-1,1.1183884E-1,-5.8570135E-1,-4.917521E-1,4.0340063E-1,1.0186451E-1,4.0786302E-1,5.229678E-1,4.0360767E-1,-1.5044475E-2,-3.448534E-3,-4.6015447E-1,2.962695E-1,8.202853E-1,-1.3825265E-3,-1.4173967E-1,1.0024167E-2,-5.379713E-2,2.122118E-1,-4.9903676E-2,4.739557E-1,2.969918E-2,-2.1451151E-2,3.3467868E-1,-1.8507636E-1,1.4409254E-1,-5.0699804E-2,-4.257728E-2,-3.291789E-1,-1.7267765E-1,2.794944E-1,-4.7352742E-2,5.6826043E-1,6.853747E-2,-4.879236E-2,3.1836465E-2,1.7553383E-1,1.9171537E-1,-5.839409E-2,3.7591037E-1,9.604056E-3,-1.4388335E-1,2.985127E-1],"categories":[],"categories_nodes":[],"categories_segments":[],"categories_sizes":[],"default_left":[0,0,0,0,0,0,0,0,0,0,0,0,0,0,0,0,0,0,0,0,0,0,0,0,0,0,0,0,0,0,0,0,0,0,0,0,0,0,0,0,0,0,0,0,0,0,0,0,0,0,0,0,0,0,0,0,0,0,0,0,0,0,0,0,0,0,0,0,0,0,0,0,0],"id":9,"left_children":[1,3,5,7,9,11,13,15,17,19,-1,21,-1,23,25,27,29,31,33,35,37,-1,39,41,43,45,-1,47,49,51,53,55,57,59,61,63,-1,65,-1,-1,-1,-1,67,69,71,-1,-1,-1,-1,-1,-1,-1,-1,-1,-1,-1,-1,-1,-1,-1,-1,-1,-1,-1,-1,-1,-1,-1,-1,-1,-1,-1,-1],"loss_changes":[3.1945799E1,8.4614315E0,1.0316875E2,6.912892E0,5.379213E0,2.0571935E2,1.429871E1,9.302781E0,7.7946143E0,2.8740253E0,0E0,6.618014E-2,0E0,1.4360975E1,1.9136515E0,1.8222609E0,8.61859E0,9.661164E0,1.2113626E1,2.8994374E0,6.378679E-1,0E0,2.2743037E-4,5.459026E0,1.5105055E1,2.304368E-1,0E0,1.5306787E0,4.2269745E0,8.3374405E0,6.570122E0,1.1981412E1,5.292736E0,1.2589384E1,1.5359612E1,9.077604E-1,0E0,9.3336225E-2,0E0,0E0,0E0,0E0,6.2922084E-1,2.1109573E1,1.7631912E1,0E0,0E0,0E0,0E0,0E0,0E0,0E0,0E0,0E0,0E0,0E0,0E0,0E0,0E0,0E0,0E0,0E0,0E0,0E0,0E0,0E0,0E0,0E0,0E0,0E0,0E0,0E0,0E0],"parents":[2147483647,0,0,1,1,2,2,3,3,4,4,5,5,6,6,7,7,8,8,9,9,11,11,13,13,14,14,15,15,16,16,17,17,18,18,19,19,20,20,22,22,23,23,24,24,25,25,27,27,28,28,29,29,30,30,31,31,32,32,33,33,34,34,35,35,37,37,42,42,43,43,44,44],"right_children":[2,4,6,8,10,12,14,16,18,20,-1,22,-1,24,26,28,30,32,34,36,38,-1,40,42,44,46,-1,48,50,52,54,56,58,60,62,64,-1,66,-1,-1,-1,-1,68,70,72,-1,-1,-1,-1,-1,-1,-1,-1,-1,-1,-1,-1,-1,-1,-1,-1,-1,-1,-1,-1,-1,-1,-1,-1,-1,-1,-1,-1],"split_conditions":[7.6099997E0,2.096025E1,2.998335E-1,2.3665035E1,5.5E0,9.075E0,2.5582806E1,1.315E0,1.0000001E0,2.2743582E1,6.272634E-1,8.285E0,3.8513594E0,1.0966713E1,1.3801915E1,3.549111E2,2.334455E1,1.2737332E1,1.25060835E1,2.2415602E1,1E-1,-9.7132735E-2,8.68E0,1.0975E1,2.1E0,9.685E0,-4.4265583E-1,1.48E1,2E-1,1.11665E1,4.995E0,2.602888E2,3.0149999E0,3.527449E1,2.804305E1,1.5807239E1,4.0786302E-1,9.602056E1,4.0360767E-1,-1.5044475E-2,-3.448534E-3,-4.6015447E-1,1.1825E1,2.2442711E2,1.3168583E1,-1.4173967E-1,1.0024167E-2,-5.379713E-2,2.122118E-1,-4.9903676E-2,4.739557E-1,2.969918E-2,-2.1451151E-2,3.3467868E-1,-1.8507636E-1,1.4409254E-1,-5.0699804E-2,-4.257728E-2,-3.291789E-1,-1.7267765E-1,2.794944E-1,-4.7352742E-2,5.6826043E-1,6.853747E-2,-4.879236E-2,3.1836465E-2,1.7553383E-1,1.9171537E-1,-5.839409E-2,3.7591037E-1,9.604056E-3,-1.4388335E-1,2.985127E-1],"split_indices":[0,1,1,3,2,0,3,0,2,1,0,0,0,3,1,4,3,1,1,3,2,0,0,0,2,0,0,2,2,1,0,4,0,3,3,3,0,4,0,0,0,0,0,4,1,0,0,0,0,0,0,0,0,0,0,0,0,0,0,0,0,0,0,0,0,0,0,0,0,0,0,0,0],"split_type":[0,0,0,0,0,0,0,0,0,0,0,0,0,0,0,0,0,0,0,0,0,0,0,0,0,0,0,0,0,0,0,0,0,0,0,0,0,0,0,0,0,0,0,0,0,0,0,0,0,0,0,0,0,0,0,0,0,0,0,0,0,0,0,0,0,0,0,0,0,0,0,0,0],"sum_hessian":[1.902E3,1.789E3,1.13E2,1.755E3,3.4E1,4E0,1.09E2,1.501E3,2.54E2,3.3E1,1E0,3E0,1E0,1.02E2,7E0,2.68E2,1.233E3,1.37E2,1.17E2,2.6E1,7E0,1E0,2E0,6E0,9.6E1,4E0,3E0,2.63E2,5E0,1.22E3,1.3E1,1.14E2,2.3E1,1E2,1.7E1,2.5E1,1E0,5E0,2E0,1E0,1E0,4E0,2E0,6.1E1,3.5E1,3E0,1E0,2.62E2,1E0,4E0,1E0,7.61E2,4.59E2,1.1E1,2E0,4.9E1,6.5E1,1.3E1,1E1,9.5E1,5E0,1.3E1,4E0,1.7E1,8E0,1E0,4E0,1E0,1E0,3.9E1,2.2E1,2.4E1,1.1E1],"tree_param":{"num_deleted":"0","num_feature":"5","num_nodes":"73","size_leaf_vector":"1"}},{"base_weights":[1.9770648E-2,-1.3768644E-2,3.2580072E-1,-3.1577364E-2,2.191713E-1,6.298383E-1,-9.252299E-2,-1.4137113E-1,3.1156254E-3,6.9857016E-2,1.3660346E0,2.1285988E-1,1.543383E0,-8.7200135E-1,1.6456044E-1,-9.471134E-2,-6.5021104E-1,1.0933667E0,-2.4511611E-2,4.833601E-1,-7.2191074E-2,9.081089E-1,6.378515E-1,1.3224727E0,-1.0507808E-1,2.7432559E0,4.5173323E-1,1.9388914E-1,-1.0715048E0,-1.11486994E-1,1.1923884E0,-6.9697425E-2,-9.432177E-1,-7.7177864E-1,3.9370722E-1,-2.3121564E-1,1.8723994E0,2.5396353E-2,-2.219527E-1,2.0394628E0,2.85219E-1,-1.9348465E-1,4.402377E-1,8.6063397E-1,-2.431132E-1,1.7332758E-1,6.627374E0,-6.412312E-1,2.2220083E-1,1.7342715E0,1.6009922E0,1.3756635E0,-2.0186473E-1,9.844294E-2,-3.133092E-2,-1.50207E0,-5.218838E-1,5.696868E-1,-6.427133E-1,1.8743091E0,8.4429465E-2,-4.6133768E-2,5.6197416E-2,-5.8217466E-1,1.3536686E-2,-1.01605326E-1,-3.6348498E-1,2.239104E-1,-9.964128E-2,-2.4799778E-1,5.492005E-1,2.0774467E0,3.6209908E-1,6.790925E-2,-2.2442924E-2,5.4440457E-1,-8.1967674E-2,8.058716E-3,9.0969956E-1,1.3642156E-1,-1.5531318E-1,-3.202269E-2,-3.172725E-1,6.38633E-2,3.2072955E-1,-1.4052673E-1,3.2559565E-1,3.1890213E-2,-1.4129116E-1,-7.33141E-2,9.031858E-1,3.273656E0,-2.9133734E-1,2.4916469E-1,-3.288602E-1,4.5722052E-1,-7.031433E-2,1.0249821E0,1.8208326E-1,6.033617E-2,6.120496E-1,2.5016114E-1,-2.4718983E-1,-8.609104E-2,-4.8542586E-1,-2.740722E-1,-7.745054E-3,-3.0462903E-1,4.1313103E-1,-1.2696527E-1,-4.7032508E-1,7.9066867E-1,3.543893E-1,1.5332736E-1,-3.073319E-1],"categories":[],"categories_nodes":[],"categories_segments":[],"categories_sizes":[],"default_left":[0,0,0,0,0,0,0,0,0,0,0,0,0,0,0,0,0,0,0,0,0,0,0,0,0,0,0,0,0,0,0,0,0,0,0,0,0,0,0,0,0,0,0,0,0,0,0,0,0,0,0,0,0,0,0,0,0,0,0,0,0,0,0,0,0,0,0,0,0,0,0,0,0,0,0,0,0,0,0,0,0,0,0,0,0,0,0,0,0,0,0,0,0,0,0,0,0,0,0,0,0,0,0,0,0,0,0,0,0,0,0,0,0,0,0],"id":10,"left_children":[1,3,5,7,9,11,13,15,17,19,21,23,25,27,29,31,33,35,37,39,41,-1,43,45,47,49,51,53,55,57,59,61,63,65,67,69,71,73,75,77,79,81,83,85,87,89,91,93,95,97,-1,99,101,-1,-1,103,105,107,109,111,113,-1,-1,-1,-1,-1,-1,-1,-1,-1,-1,-1,-1,-1,-1,-1,-1,-1,-1,-1,-1,-1,-1,-1,-1,-1,-1,-1,-1,-1,-1,-1,-1,-1,-1,-1,-1,-1,-1,-1,-1,-1,-1,-1,-1,-1,-1,-1,-1,-1,-1,-1,-1,-1,-1],"loss_changes":[1.9536938E1,7.12551E0,2.3969269E1,6.075913E0,2.0796228E1,4.1192684E1,1.6174772E1,9.031744E0,3.6563114E1,6.4372625E0,1.5002321E1,2.6950855E1,4.3295364E1,4.4607315E0,1.7440422E1,7.4052744E0,4.364868E0,3.138972E1,1.1672633E1,8.051486E0,5.1818333E0,0E0,2.3681302E0,1.0248502E2,1.0670777E1,3.2611763E1,1.1751398E1,1.9447565E-1,3.2391052E0,1.809716E1,9.6637745E0,7.4413404E0,9.944916E0,5.1138897E0,1.2718049E0,1.6246164E1,5.5517754E1,1.906767E1,2.5453182E1,5.913291E0,3.7743409E0,4.908979E0,2.060058E0,3.1959572E0,2.8891402E-1,1.8513124E1,1.082715E2,1.6311588E1,2.2944763E1,2.2581364E1,0E0,5.8335667E0,8.419067E0,0E0,0E0,8.043976E-1,1.7251551E0,2.9555042E1,5.0216665E0,1.1070747E0,3.362254E0,0E0,0E0,0E0,0E0,0E0,0E0,0E0,0E0,0E0,0E0,0E0,0E0,0E0,0E0,0E0,0E0,0E0,0E0,0E0,0E0,0E0,0E0,0E0,0E0,0E0,0E0,0E0,0E0,0E0,0E0,0E0,0E0,0E0,0E0,0E0,0E0,0E0,0E0,0E0,0E0,0E0,0E0,0E0,0E0,0E0,0E0,0E0,0E0,0E0,0E0,0E0,0E0,0E0,0E0],"parents":[2147483647,0,0,1,1,2,2,3,3,4,4,5,5,6,6,7,7,8,8,9,9,10,10,11,11,12,12,13,13,14,14,15,15,16,16,17,17,18,18,19,19,20,20,22,22,23,23,24,24,25,25,26,26,27,27,28,28,29,29,30,30,31,31,32,32,33,33,34,34,35,35,36,36,37,37,38,38,39,39,40,40,41,41,42,42,43,43,44,44,45,45,46,46,47,47,48,48,49,49,51,51,52,52,55,55,56,56,57,57,58,58,59,59,60,60],"right_children":[2,4,6,8,10,12,14,16,18,20,22,24,26,28,30,32,34,36,38,40,42,-1,44,46,48,50,52,54,56,58,60,62,64,66,68,70,72,74,76,78,80,82,84,86,88,90,92,94,96,98,-1,100,102,-1,-1,104,106,108,110,112,114,-1,-1,-1,-1,-1,-1,-1,-1,-1,-1,-1,-1,-1,-1,-1,-1,-1,-1,-1,-1,-1,-1,-1,-1,-1,-1,-1,-1,-1,-1,-1,-1,-1,-1,-1,-1,-1,-1,-1,-1,-1,-1,-1,-1,-1,-1,-1,-1,-1,-1,-1,-1,-1,-1],"split_conditions":[5.9849997E0,1.8616497E1,9.651917E0,1.5043593E2,4.4999995E0,5.476916E0,1.3541501E1,1.3962906E2,1.6104431E2,1.4141083E2,1.1182875E2,1.3602501E0,1.757744E1,1.5043593E2,5.8999996E0,5.38E0,2.1829777E1,1.1659777E1,2.1000001E0,1.8720667E1,1.7935081E1,9.081089E-1,1.8888851E1,9.075E0,2.712333E0,1.5509274E1,1.720998E2,7.0649996E0,2.207299E2,3E-1,2.3330333E2,2.4999998E0,1.3324863E1,2.21E0,2.83E0,5.2E0,1.1841756E1,2.3950798E2,1.1212135E1,2.415E0,1.7388409E1,4.995E0,2.096025E1,9.3876505E0,1.915E0,5.3524995E-1,9.685E0,1.2475961E1,3.2539995E0,7.965E0,1.6009922E0,7.965E0,6.7519164E0,9.844294E-2,-3.133092E-2,1.0520667E1,2.095203E1,1.2413476E1,1.2315001E1,1.4649834E1,1.0400001E1,-4.6133768E-2,5.6197416E-2,-5.8217466E-1,1.3536686E-2,-1.01605326E-1,-3.6348498E-1,2.239104E-1,-9.964128E-2,-2.4799778E-1,5.492005E-1,2.0774467E0,3.6209908E-1,6.790925E-2,-2.2442924E-2,5.4440457E-1,-8.1967674E-2,8.058716E-3,9.0969956E-1,1.3642156E-1,-1.5531318E-1,-3.202269E-2,-3.172725E-1,6.38633E-2,3.2072955E-1,-1.4052673E-1,3.2559565E-1,3.1890213E-2,-1.4129116E-1,-7.33141E-2,9.031858E-1,3.273656E0,-2.9133734E-1,2.4916469E-1,-3.288602E-1,4.5722052E-1,-7.031433E-2,1.0249821E0,1.8208326E-1,6.033617E-2,6.120496E-1,2.5016114E-1,-2.4718983E-1,-8.609104E-2,-4.8542586E-1,-2.740722E-1,-7.745054E-3,-3.0462903E-1,4.1313103E-1,-1.2696527E-1,-4.7032508E-1,7.9066867E-1,3.543893E-1,1.5332736E-1,-3.073319E-1],"split_indices":[0,1,1,4,2,1,1,4,4,4,4,1,3,4,2,0,3,3,2,1,3,0,3,0,1,3,4,0,4,2,4,2,3,0,0,0,3,4,3,0,3,0,1,3,0,1,0,3,1,0,0,0,1,0,0,1,3,3,0,1,2,0,0,0,0,0,0,0,0,0,0,0,0,0,0,0,0,0,0,0,0,0,0,0,0,0,0,0,0,0,0,0,0,0,0,0,0,0,0,0,0,0,0,0,0,0,0,0,0,0,0,0,0,0,0],"split_type":[0,0,0,0,0,0,0,0,0,0,0,0,0,0,0,0,0,0,0,0,0,0,0,0,0,0,0,0,0,0,0,0,0,0,0,0,0,0,0,0,0,0,0,0,0,0,0,0,0,0,0,0,0,0,0,0,0,0,0,0,0,0,0,0,0,0,0,0,0,0,0,0,0,0,0,0,0,0,0,0,0,0,0,0,0,0,0,0,0,0,0,0,0,0,0,0,0,0,0,0,0,0,0,0,0,0,0,0,0,0,0,0,0,0,0],"sum_hessian":[1.902E3,1.715E3,1.87E2,1.594E3,1.21E2,1.08E2,7.9E1,3.82E2,1.212E3,1.08E2,1.3E1,7.5E1,3.3E1,1.9E1,6E1,3.51E2,3.1E1,2.9E1,1.183E3,2.7E1,8.1E1,3E0,1E1,1.6E1,5.9E1,1.5E1,1.8E1,3E0,1.6E1,4.8E1,1.2E1,3.42E2,9E0,2.8E1,3E0,1.1E1,1.8E1,9.45E2,2.38E2,2E0,2.5E1,6.6E1,1.5E1,8E0,2E0,1.4E1,2E0,2.2E1,3.7E1,1.2E1,3E0,7E0,1.1E1,2E0,1E0,8E0,8E0,2.1E1,2.7E1,7E0,5E0,2.58E2,8.4E1,4E0,5E0,1.5E1,1.3E1,2E0,1E0,9E0,2E0,1E0,1.7E1,3.14E2,6.31E2,5E0,2.33E2,1E0,1E0,2.1E1,4E0,6.1E1,5E0,1.2E1,3E0,1E0,7E0,1E0,1E0,1.3E1,1E0,1E0,1E0,5E0,1.7E1,9E0,2.8E1,4E0,8E0,3E0,4E0,4E0,7E0,1E0,7E0,4E0,4E0,7E0,1.4E1,2.3E1,4E0,2E0,5E0,4E0,1E0],"tree_param":{"num_deleted":"0","num_feature":"5","num_nodes":"115","size_leaf_vector":"1"}},{"base_weights":[1.9927759E-2,-1.8209945E-3,3.6124656E-1,-2.672907E-2,1.0371591E-1,3.6230886E0,2.0969693E-1,2.1757197E-2,-9.4213694E-2,-5.484806E-2,2.2935994E-1,-1.0881749E-1,2.782607E0,-1.1023675E0,2.696085E-1,4.39179E-3,1.050964E0,-1.4034861E-1,1.4636683E-1,-2.7815858E-1,1.3917504E-1,1.5971478E0,1.5294653E-1,-7.15657E-2,1.3944904E-2,-8.493765E-2,-4.6624616E-1,3.932456E-1,-4.0080023E-1,2.7977034E-1,-3.3662416E-2,3.2927022E0,-1.7500141E-1,-6.53453E-2,-2.669926E-1,5.7020533E-1,6.289957E-2,8.537871E-1,-4.3544987E-1,1.4647735E0,3.4074176E-2,1.1001562E0,-3.9407635E-1,1.0996841E-1,1.6523784E0,-1.7906429E-3,8.06585E-3,-6.577897E-1,4.761504E-1,-5.714659E-3,-6.7278844E-1,3.7275434E-2,1.2060122E0,5.360921E-3,-6.2341843E-2,1.8118771E0,-1.6552599E-1,1.3506625E-2,-9.875623E-2,-3.650555E-2,2.235913E-1,-1.5798022E-1,-3.8958136E-2,6.563032E-2,6.060537E-1,1.5943238E-1,-4.8192954E-3,3.5678777E-1,-6.4096384E-2,-1.2778253E-2,-2.3078398E-1,-1.1735099E-1,7.471614E-1,-3.4997794E-1,4.009696E-2,3.1192333E-1,-2.6663682E-1,4.9898975E-2,-2.2824675E-1,1.0147114E0,1.1228624E-1,-3.1146955E-1,5.8663134E-2,1.6450754E-1,-3.315301E-1,4.5048305E-1,-1.0593578E-1],"categories":[],"categories_nodes":[],"categories_segments":[],"categories_sizes":[],"default_left":[0,0,0,0,0,0,0,0,0,0,0,0,0,0,0,0,0,0,0,0,0,0,0,0,0,0,0,0,0,0,0,0,0,0,0,0,0,0,0,0,0,0,0,0,0,0,0,0,0,0,0,0,0,0,0,0,0,0,0,0,0,0,0,0,0,0,0,0,0,0,0,0,0,0,0,0,0,0,0,0,0,0,0,0,0,0,0],"id":11,"left_children":[1,3,5,7,9,11,13,15,17,19,21,23,-1,25,27,29,31,33,35,37,39,41,43,-1,45,-1,-1,47,49,51,53,55,57,59,61,63,65,67,69,71,73,-1,75,77,79,-1,-1,81,83,85,-1,-1,-1,-1,-1,-1,-1,-1,-1,-1,-1,-1,-1,-1,-1,-1,-1,-1,-1,-1,-1,-1,-1,-1,-1,-1,-1,-1,-1,-1,-1,-1,-1,-1,-1,-1,-1],"loss_changes":[1.4127118E1,4.7081833E0,5.5593964E1,4.7432895E0,6.8261137E0,1.0647798E2,8.94407E0,1.5079855E1,6.746637E0,6.624477E0,1.9718533E1,6.703283E-2,0E0,1.4105902E0,8.943677E0,8.717726E0,3.9052334E1,4.817402E0,3.4310453E0,1.3012991E1,1.1374456E1,4.2664284E1,1.1546875E1,0E0,9.336041E-4,0E0,0E0,8.155434E0,1.2357738E1,5.8250454E1,6.5637083E0,5.6133812E1,3.5406613E-1,1.4751365E1,6.6601353E0,7.7112556E0,3.0793605E0,3.4772902E0,8.229497E0,1.2396787E1,9.362449E0,0E0,5.1800923E0,8.862623E0,9.789459E0,0E0,0E0,2.4755278E0,1.0197031E1,8.38502E0,0E0,0E0,0E0,0E0,0E0,0E0,0E0,0E0,0E0,0E0,0E0,0E0,0E0,0E0,0E0,0E0,0E0,0E0,0E0,0E0,0E0,0E0,0E0,0E0,0E0,0E0,0E0,0E0,0E0,0E0,0E0,0E0,0E0,0E0,0E0,0E0,0E0],"parents":[2147483647,0,0,1,1,2,2,3,3,4,4,5,5,6,6,7,7,8,8,9,9,10,10,11,11,13,13,14,14,15,15,16,16,17,17,18,18,19,19,20,20,21,21,22,22,24,24,27,27,28,28,29,29,30,30,31,31,32,32,33,33,34,34,35,35,36,36,37,37,38,38,39,39,40,40,42,42,43,43,44,44,47,47,48,48,49,49],"right_children":[2,4,6,8,10,12,14,16,18,20,22,24,-1,26,28,30,32,34,36,38,40,42,44,-1,46,-1,-1,48,50,52,54,56,58,60,62,64,66,68,70,72,74,-1,76,78,80,-1,-1,82,84,86,-1,-1,-1,-1,-1,-1,-1,-1,-1,-1,-1,-1,-1,-1,-1,-1,-1,-1,-1,-1,-1,-1,-1,-1,-1,-1,-1,-1,-1,-1,-1,-1,-1,-1,-1,-1,-1],"split_conditions":[7.6099997E0,3.58E0,2.998335E-1,8.931084E0,5.5123334E0,9.075E0,4.3941982E1,8.664416E0,1.7958166E1,1.5459054E1,6.47275E0,8.285E0,2.782607E0,8.454E0,2.3219301E1,1.2261158E1,2.05599E2,2.13E0,1.20695206E2,3.8179108E1,1.5807239E1,2.2184917E2,2.8277763E1,-7.15657E-2,8.68E0,-8.493765E-2,-4.6624616E-1,1.1013882E1,1.4924999E1,3.6000001E0,2.1000001E0,1.875E0,2E-1,2.06E0,1.5141414E1,1.10509605E2,1.8189417E1,5.38E0,1.2665E0,1.17147835E2,4.3941982E1,1.1001562E0,5.6748333E0,2.440046E1,2.856334E1,-1.7906429E-3,8.06585E-3,9.000001E-1,1.5500001E1,2.4149532E1,-6.7278844E-1,3.7275434E-2,1.2060122E0,5.360921E-3,-6.2341843E-2,1.8118771E0,-1.6552599E-1,1.3506625E-2,-9.875623E-2,-3.650555E-2,2.235913E-1,-1.5798022E-1,-3.8958136E-2,6.563032E-2,6.060537E-1,1.5943238E-1,-4.8192954E-3,3.5678777E-1,-6.4096384E-2,-1.2778253E-2,-2.3078398E-1,-1.1735099E-1,7.471614E-1,-3.4997794E-1,4.009696E-2,3.1192333E-1,-2.6663682E-1,4.9898975E-2,-2.2824675E-1,1.0147114E0,1.1228624E-1,-3.1146955E-1,5.8663134E-2,1.6450754E-1,-3.315301E-1,4.5048305E-1,-1.0593578E-1],"split_indices":[0,0,1,1,1,0,4,1,1,3,1,0,0,1,3,3,4,0,4,4,3,4,3,0,0,0,0,3,0,2,2,0,2,0,3,4,1,0,1,4,4,0,1,3,3,0,0,2,2,3,0,0,0,0,0,0,0,0,0,0,0,0,0,0,0,0,0,0,0,0,0,0,0,0,0,0,0,0,0,0,0,0,0,0,0,0,0],"split_type":[0,0,0,0,0,0,0,0,0,0,0,0,0,0,0,0,0,0,0,0,0,0,0,0,0,0,0,0,0,0,0,0,0,0,0,0,0,0,0,0,0,0,0,0,0,0,0,0,0,0,0,0,0,0,0,0,0,0,0,0,0,0,0,0,0,0,0,0,0,0,0,0,0,0,0,0,0,0,0,0,0,0,0,0,0,0,0],"sum_hessian":[1.902E3,1.789E3,1.13E2,1.448E3,3.41E2,4E0,1.09E2,8.43E2,6.05E2,1.51E2,1.9E2,3E0,1E0,4E0,1.05E2,8.3E2,1.3E1,5.08E2,9.7E1,7E1,8.1E1,9E0,1.81E2,1E0,2E0,2E0,2E0,8.9E1,1.6E1,1E2,7.3E2,4E0,9E0,3.2E2,1.88E2,1.5E1,8.2E1,8E0,6.2E1,5E0,7.6E1,4E0,5E0,1.77E2,4E0,1E0,1E0,6E0,8.3E1,1.4E1,2E0,9.7E1,3E0,5.64E2,1.66E2,2E0,2E0,4E0,5E0,3E2,2E1,6.4E1,1.24E2,1.3E1,2E0,1.1E1,7.1E1,6E0,2E0,2.9E1,3.3E1,2E0,3E0,5E0,7.1E1,1E0,4E0,1.67E2,1E1,1E0,3E0,4E0,2E0,8E1,3E0,2E0,1.2E1],"tree_param":{"num_deleted":"0","num_feature":"5","num_nodes":"87","size_leaf_vector":"1"}},{"base_weights":[1.786171E-2,-1.566938E-2,1.3665839E-1,-5.9028875E-2,4.838426E-2,2.206356E-1,-1.2312255E-1,-2.1903808E-1,-1.3259537E-2,2.5920162E-1,-6.579739E-2,4.143057E-1,1.0333647E-2,-8.359331E-1,-7.822473E-2,3.4684625E-2,-4.040703E-1,1.7322909E0,-3.0040182E-2,1.9713658E-1,3.4217823E0,9.16903E-2,-2.14339E-1,-2.1145639E-1,6.2291616E-1,-2.2401485E-1,2.9140422E-1,-3.2425624E-1,-6.921821E-2,-1.9156756E-1,2.2692E-1,-8.665965E-2,2.4493966E-1,-1.0833046E0,-3.4258744E-1,1.297288E0,-4.3599855E-2,6.659332E-1,4.8476405E-2,-8.797559E-2,2.1850328E0,4.7491454E-2,1.2667909E0,-5.251517E-1,-6.5308586E-2,1.3554195E0,-3.2368568E-1,9.097141E-1,-1.3236183E-1,5.5612093E-1,-4.452052E-1,1.202954E0,1.01065196E-1,6.864286E-1,-2.5330892E-1,1.504444E0,4.5443177E-3,4.9038543E-3,-8.8073835E-2,1.02462195E-1,-4.0516563E-2,-1.4014238E-1,-4.4484216E-1,-7.071322E-2,-1.854707E-1,1.0715598E0,-9.807492E-2,-9.689569E-2,-3.5031147E-3,1.2697959E-1,6.288424E-1,-1.7398788E-1,3.5389796E-2,-4.5498796E-3,1.6484264E-1,-2.1000446E-1,-1.9486805E-2,-3.27906E-2,5.8084947E-1,4.6897177E-2,5.630416E-1,2.0219503E-1,-1.4563996E-1,1.8832015E-1,8.6333364E-1,8.883485E-2,-5.6657284E-1,2.3109175E-2,7.0003563E-1,-3.0580235E-1,-6.476863E-3,-1.4283848E-1,1.0946685E0,-6.6031665E-2,2.9339045E-1,-1.7085403E-1,3.4283775E-1,-1.11799754E-1,-1.7478246E-2,5.1324964E-1,1.3279203E-1,-5.2871823E-2,2.1803111E-1],"categories":[],"categories_nodes":[],"categories_segments":[],"categories_sizes":[],"default_left":[0,0,0,0,0,0,0,0,0,0,0,0,0,0,0,0,0,0,0,0,0,0,0,0,0,0,0,0,0,0,0,0,0,0,0,0,0,0,0,0,0,0,0,0,0,0,0,0,0,0,0,0,0,0,0,0,0,0,0,0,0,0,0,0,0,0,0,0,0,0,0,0,0,0,0,0,0,0,0,0,0,0,0,0,0,0,0,0,0,0,0,0,0,0,0,0,0,0,0,0,0,0,0],"id":12,"left_children":[1,3,5,7,9,11,13,15,17,19,21,23,25,27,29,31,33,-1,35,37,39,41,43,45,47,49,51,-1,-1,53,55,57,59,61,63,65,67,69,71,-1,-1,73,-1,75,77,79,81,83,85,87,89,91,93,95,97,99,101,-1,-1,-1,-1,-1,-1,-1,-1,-1,-1,-1,-1,-1,-1,-1,-1,-1,-1,-1,-1,-1,-1,-1,-1,-1,-1,-1,-1,-1,-1,-1,-1,-1,-1,-1,-1,-1,-1,-1,-1,-1,-1,-1,-1,-1,-1],"loss_changes":[7.582517E0,4.127197E0,9.167933E0,6.48573E0,1.4459937E1,1.2906875E1,3.2309837E0,9.262549E0,6.7185585E1,4.0741714E1,9.143108E0,2.1670906E1,1.0143153E1,6.399827E-1,3.4328947E0,2.164339E0,4.389654E0,0E0,1.2457277E1,1.4463526E1,5.952068E1,3.449024E1,9.276133E0,7.8244033E0,2.6980324E1,1.4742503E1,1.2023668E1,0E0,0E0,4.0769033E0,7.6636004E0,1.1557517E0,1.1840707E0,1.522749E0,2.9770756E0,2.7028355E1,6.087754E0,1.646606E1,7.0119057E0,0E0,0E0,5.952983E0,0E0,5.1851616E0,1.2274702E1,1.5821848E0,6.7833457E0,4.8139526E1,2.689671E1,1.5998795E1,1.603005E1,5.102057E1,1.6831755E1,3.5166686E0,1.5613513E0,1.19291306E-1,3.2616866E0,0E0,0E0,0E0,0E0,0E0,0E0,0E0,0E0,0E0,0E0,0E0,0E0,0E0,0E0,0E0,0E0,0E0,0E0,0E0,0E0,0E0,0E0,0E0,0E0,0E0,0E0,0E0,0E0,0E0,0E0,0E0,0E0,0E0,0E0,0E0,0E0,0E0,0E0,0E0,0E0,0E0,0E0,0E0,0E0,0E0,0E0],"parents":[2147483647,0,0,1,1,2,2,3,3,4,4,5,5,6,6,7,7,8,8,9,9,10,10,11,11,12,12,13,13,14,14,15,15,16,16,18,18,19,19,20,20,21,21,22,22,23,23,24,24,25,25,26,26,29,29,30,30,31,31,32,32,33,33,34,34,35,35,36,36,37,37,38,38,41,41,43,43,44,44,45,45,46,46,47,47,48,48,49,49,50,50,51,51,52,52,53,53,54,54,55,55,56,56],"right_children":[2,4,6,8,10,12,14,16,18,20,22,24,26,28,30,32,34,-1,36,38,40,42,44,46,48,50,52,-1,-1,54,56,58,60,62,64,66,68,70,72,-1,-1,74,-1,76,78,80,82,84,86,88,90,92,94,96,98,100,102,-1,-1,-1,-1,-1,-1,-1,-1,-1,-1,-1,-1,-1,-1,-1,-1,-1,-1,-1,-1,-1,-1,-1,-1,-1,-1,-1,-1,-1,-1,-1,-1,-1,-1,-1,-1,-1,-1,-1,-1,-1,-1,-1,-1,-1,-1],"split_conditions":[3.725E0,5E-1,2.4585156E2,1.5711313E2,1.6394829E1,7.0000005E-1,2.4963947E2,1.715E0,1.589247E2,1.6323528E1,1.875E0,1.2413476E1,9.3915E0,1.01050005E1,8.000001E-1,1.4649999E0,9.3876505E0,1.7322909E0,1.6188174E2,3.0831664E0,1.1500001E0,1.8600001E0,2.2849998E0,3.775E0,1.91588E1,1.5206666E0,1.11665E1,-3.2425624E-1,-6.921821E-2,9.511088E0,2.5275845E2,1.375E0,1.3697749E1,1.3715207E2,2.7849998E0,5.1685834E0,1.9435817E2,3.9000003E0,5.243584E0,-8.797559E-2,2.1850328E0,1.75E0,1.2667909E0,2.3950798E2,3.527449E1,1.0935835E0,3.8179108E1,8.68E0,1.0975E1,1.2665E0,5.9849997E0,2.095203E1,7.4E0,2.7411243E2,1.8913708E1,5.476916E0,1.9466501E1,4.9038543E-3,-8.8073835E-2,1.02462195E-1,-4.0516563E-2,-1.4014238E-1,-4.4484216E-1,-7.071322E-2,-1.854707E-1,1.0715598E0,-9.807492E-2,-9.689569E-2,-3.5031147E-3,1.2697959E-1,6.288424E-1,-1.7398788E-1,3.5389796E-2,-4.5498796E-3,1.6484264E-1,-2.1000446E-1,-1.9486805E-2,-3.27906E-2,5.8084947E-1,4.6897177E-2,5.630416E-1,2.0219503E-1,-1.4563996E-1,1.8832015E-1,8.6333364E-1,8.883485E-2,-5.6657284E-1,2.3109175E-2,7.0003563E-1,-3.0580235E-1,-6.476863E-3,-1.4283848E-1,1.0946685E0,-6.6031665E-2,2.9339045E-1,-1.7085403E-1,3.4283775E-1,-1.11799754E-1,-1.7478246E-2,5.1324964E-1,1.3279203E-1,-5.2871823E-2,2.1803111E-1],"split_indices":[0,2,4,4,3,2,4,0,4,3,0,3,1,0,2,0,3,0,4,1,0,0,0,0,3,1,1,0,0,3,4,0,1,4,0,1,4,2,1,0,0,0,0,4,3,1,4,0,0,1,0,3,2,4,3,1,1,0,0,0,0,0,0,0,0,0,0,0,0,0,0,0,0,0,0,0,0,0,0,0,0,0,0,0,0,0,0,0,0,0,0,0,0,0,0,0,0,0,0,0,0,0,0],"split_type":[0,0,0,0,0,0,0,0,0,0,0,0,0,0,0,0,0,0,0,0,0,0,0,0,0,0,0,0,0,0,0,0,0,0,0,0,0,0,0,0,0,0,0,0,0,0,0,0,0,0,0,0,0,0,0,0,0,0,0,0,0,0,0,0,0,0,0,0,0,0,0,0,0,0,0,0,0,0,0,0,0,0,0,0,0,0,0,0,0,0,0,0,0,0,0,0,0,0,0,0,0,0,0],"sum_hessian":[1.902E3,1.484E3,4.18E2,8.85E2,5.99E2,3.16E2,1.02E2,1.96E2,6.89E2,2.1E2,3.89E2,1.64E2,1.52E2,5E0,9.7E1,8.3E1,1.13E2,1E0,6.88E2,2.07E2,3E0,1.89E2,2E2,4.1E1,1.23E2,8.3E1,6.9E1,3E0,2E0,7.1E1,2.6E1,5.3E1,3E1,8E0,1.05E2,6E0,6.82E2,4.9E1,1.58E2,2E0,1E0,1.88E2,1E0,6.4E1,1.36E2,2E0,3.9E1,8.9E1,3.4E1,1.8E1,6.5E1,1.1E1,5.8E1,4E0,6.7E1,3E0,2.3E1,3.6E1,1.7E1,2.4E1,6E0,4E0,4E0,7.7E1,2.8E1,2E0,4E0,6.9E1,6.13E2,4.3E1,6E0,1.5E1,1.43E2,1.68E2,2E1,4.6E1,1.8E1,1.34E2,2E0,1E0,1E0,5E0,3.4E1,7.9E1,1E1,2.8E1,6E0,1.5E1,3E0,2.7E1,3.8E1,7E0,4E0,4.3E1,1.5E1,1E0,3E0,4.1E1,2.6E1,2E0,1E0,1.9E1,4E0],"tree_param":{"num_deleted":"0","num_feature":"5","num_nodes":"103","size_leaf_vector":"1"}},{"base_weights":[1.7492058E-2,-1.7217353E-1,3.2883704E-2,-7.895053E-3,-3.0897105E-1,1.779716E-2,2.613715E-1,4.1105527E-2,-1.0506091E0,-1.8073744E-1,-6.2716854E-1,9.639713E-2,-2.052926E-2,3.7005942E0,1.2912372E-1,-3.53678E-2,7.8624237E-1,-7.329748E-2,-3.9947665E-1,-2.3925756E-1,2.7144307E-1,-8.8198966E-1,4.487533E-2,5.1106494E-2,8.6765385E-1,-2.5187617E-2,8.4235895E-1,-3.4130972E-2,2.2357156E0,8.1440866E-1,3.2976624E-2,-9.788913E-2,4.4306052E-1,1.2938199E0,-4.578257E-2,-1.5120637E-1,-4.611638E-1,5.9181E-1,-1.0589484E-1,-6.3438214E-2,-9.943943E-1,2.016135E-1,-5.9351313E-1,9.619035E-2,-4.439075E-1,2.5474925E0,1.4100835E-1,-2.9702514E-1,-1.2317046E-2,9.896084E-2,3.7346762E-1,-3.8984872E-2,2.3625934E-2,9.8692787E-1,6.527584E-2,-5.22771E-2,5.238748E-1,-1.1098676E-2,-1.478285E-1,-2.1722335E-2,1.6231197E-1,7.524172E-2,4.6736684E-1,3.300512E-2,-7.4528895E-2,-4.108025E-2,-1.8782295E-1,2.784568E-1,8.270036E-2,-6.507832E-2,3.6531117E-2,-3.5049477E-1,-8.025341E-2,-3.691959E-2,-2.1279222E-1,-1.5963756E-2,6.560609E-2,-2.0503639E-1,3.4416264E-1,-1.7964909E-2,1.1583482E0,-5.058513E-1,1.5547687E-1,-1.8838288E-2,-2.6845434E-1,2.6271614E-1,-5.4642996E-3,-1.597563E-1,1.9565801E-1,7.84385E-2,-8.544002E-2,4.0769133E-1,-8.16956E-2],"categories":[],"categories_nodes":[],"categories_segments":[],"categories_sizes":[],"default_left":[0,0,0,0,0,0,0,0,0,0,0,0,0,0,0,0,0,0,0,0,0,0,0,0,0,0,0,0,0,0,0,0,0,0,0,0,0,0,0,0,0,0,0,0,0,0,0,0,0,0,0,0,0,0,0,0,0,0,0,0,0,0,0,0,0,0,0,0,0,0,0,0,0,0,0,0,0,0,0,0,0,0,0,0,0,0,0,0,0,0,0,0,0],"id":13,"left_children":[1,3,5,7,9,11,13,15,17,19,21,23,25,27,29,31,33,-1,-1,35,37,39,41,43,45,47,49,51,-1,53,55,57,59,61,-1,63,65,67,-1,69,71,-1,73,75,77,79,81,83,85,-1,-1,-1,-1,-1,87,89,91,-1,-1,-1,-1,-1,-1,-1,-1,-1,-1,-1,-1,-1,-1,-1,-1,-1,-1,-1,-1,-1,-1,-1,-1,-1,-1,-1,-1,-1,-1,-1,-1,-1,-1,-1,-1],"loss_changes":[5.561023E0,3.2111835E0,6.0656743E0,3.415363E0,3.0693283E0,4.9815683E0,4.909858E1,3.6747258E0,3.5430813E-1,1.5732594E0,3.8071012E0,1.8888103E1,4.491057E0,5.6301983E1,6.9572887E0,1.8081775E0,3.0566862E0,0E0,0E0,9.267638E-1,1.6092165E0,1.4090614E0,3.201513E0,1.149139E1,3.6260193E1,3.8694072E0,8.271117E-1,4.2683117E-2,0E0,2.3892021E1,3.961371E0,1.2561648E0,3.9271212E-1,7.109852E-1,0E0,9.924172E-1,6.628425E-1,2.7584636E-1,0E0,1.1169809E-1,1.4573507E0,0E0,1.306094E-1,8.631569E0,1.71734E1,3.105825E1,1.6038458E1,6.945234E0,5.5567083E0,0E0,0E0,0E0,0E0,0E0,4.2067385E0,5.983533E0,9.678646E0,0E0,0E0,0E0,0E0,0E0,0E0,0E0,0E0,0E0,0E0,0E0,0E0,0E0,0E0,0E0,0E0,0E0,0E0,0E0,0E0,0E0,0E0,0E0,0E0,0E0,0E0,0E0,0E0,0E0,0E0,0E0,0E0,0E0,0E0,0E0,0E0],"parents":[2147483647,0,0,1,1,2,2,3,3,4,4,5,5,6,6,7,7,8,8,9,9,10,10,11,11,12,12,13,13,14,14,15,15,16,16,19,19,20,20,21,21,22,22,23,23,24,24,25,25,26,26,27,27,29,29,30,30,31,31,32,32,33,33,35,35,36,36,37,37,39,39,40,40,42,42,43,43,44,44,45,45,46,46,47,47,48,48,54,54,55,55,56,56],"right_children":[2,4,6,8,10,12,14,16,18,20,22,24,26,28,30,32,34,-1,-1,36,38,40,42,44,46,48,50,52,-1,54,56,58,60,62,-1,64,66,68,-1,70,72,-1,74,76,78,80,82,84,86,-1,-1,-1,-1,-1,88,90,92,-1,-1,-1,-1,-1,-1,-1,-1,-1,-1,-1,-1,-1,-1,-1,-1,-1,-1,-1,-1,-1,-1,-1,-1,-1,-1,-1,-1,-1,-1,-1,-1,-1,-1,-1,-1],"split_conditions":[4.3941982E1,1.4565548E1,7.6099997E0,8.68E0,3.065E0,1.9866467E2,2.998335E-1,4.8050003E0,1.8935833E0,2.4750001E0,1.44165E1,1.9435817E2,2.1481085E1,9.075E0,8.285E0,1.3779114E1,5.38E0,-7.329748E-2,-3.9947665E-1,1.96E0,4.3733326E-1,-2.2064166E0,4.8050003E0,1.8779152E2,1.765E0,2.0462018E2,3.9650002E0,8.285E0,2.2357156E0,1.584409E1,5.8999996E0,4.034414E1,1.2E0,4.865E0,-4.578257E-2,-8.543332E-1,2E-1,-3.9418328E0,-1.0589484E-1,3.17E0,5.45E0,2.016135E-1,1.5058166E1,1.503835E1,4.31E0,1.315E0,1.8499999E0,2.0721119E1,2.05599E2,9.896084E-2,3.7346762E-1,-3.8984872E-2,2.3625934E-2,9.8692787E-1,7.965E0,4E-1,9.599999E0,-1.1098676E-2,-1.478285E-1,-2.1722335E-2,1.6231197E-1,7.524172E-2,4.6736684E-1,3.300512E-2,-7.4528895E-2,-4.108025E-2,-1.8782295E-1,2.784568E-1,8.270036E-2,-6.507832E-2,3.6531117E-2,-3.5049477E-1,-8.025341E-2,-3.691959E-2,-2.1279222E-1,-1.5963756E-2,6.560609E-2,-2.0503639E-1,3.4416264E-1,-1.7964909E-2,1.1583482E0,-5.058513E-1,1.5547687E-1,-1.8838288E-2,-2.6845434E-1,2.6271614E-1,-5.4642996E-3,-1.597563E-1,1.9565801E-1,7.84385E-2,-8.544002E-2,4.0769133E-1,-8.16956E-2],"split_indices":[4,3,0,0,0,4,1,0,1,0,1,4,1,0,0,3,0,0,0,0,1,1,0,4,0,4,0,0,0,3,2,4,0,0,0,1,2,1,0,0,0,0,1,3,0,0,0,3,4,0,0,0,0,0,0,2,2,0,0,0,0,0,0,0,0,0,0,0,0,0,0,0,0,0,0,0,0,0,0,0,0,0,0,0,0,0,0,0,0,0,0,0,0],"split_type":[0,0,0,0,0,0,0,0,0,0,0,0,0,0,0,0,0,0,0,0,0,0,0,0,0,0,0,0,0,0,0,0,0,0,0,0,0,0,0,0,0,0,0,0,0,0,0,0,0,0,0,0,0,0,0,0,0,0,0,0,0,0,0,0,0,0,0,0,0,0,0,0,0,0,0,0,0,0,0,0,0,0,0,0,0,0,0,0,0,0,0,0,0],"sum_hessian":[1.902E3,1.42E2,1.76E3,6.5E1,7.7E1,1.652E3,1.08E2,6.3E1,2E0,5.6E1,2.1E1,5.41E2,1.111E3,3E0,1.05E2,5.8E1,5E0,1E0,1E0,5E1,6E0,1.5E1,6E0,5.12E2,2.9E1,1.106E3,5E0,2E0,1E0,1.2E1,9.3E1,5.2E1,6E0,3E0,2E0,3.7E1,1.3E1,4E0,2E0,2E0,1.3E1,3E0,3E0,4.7E2,4.2E1,8E0,2.1E1,4.9E1,1.057E3,3E0,2E0,1E0,1E0,2E0,1E1,8E1,1.3E1,4.6E1,6E0,1E0,5E0,1E0,2E0,1E1,2.7E1,5E0,8E0,1E0,3E0,1E0,1E0,1E1,3E0,1E0,2E0,2.12E2,2.58E2,3.7E1,5E0,3E0,5E0,3E0,1.8E1,3.6E1,1.3E1,6E0,1.051E3,5E0,5E0,3.4E1,4.6E1,6E0,7E0],"tree_param":{"num_deleted":"0","num_feature":"5","num_nodes":"93","size_leaf_vector":"1"}},{"base_weights":[1.4591521E-2,-1.6675737E-2,7.189311E-2,5.05433E-1,-2.3091957E-2,1.5465583E-1,-1.4861492E-2,8.78271E-1,6.941585E-2,-1.8097128E-1,-1.1685452E-2,5.007602E-2,7.6858354E-1,-7.492231E-1,3.005083E-2,2.0831108E-2,9.838992E-1,-1.1224477E-1,2.7913767E-1,-2.4965045E-1,5.9893917E-2,3.5919563E-3,-1.558026E-1,1.3639994E-1,-4.2016435E-1,1.126951E0,-3.3807385E-1,-1.410387E0,-2.4601194E-1,3.3528057E-1,-5.9996314E-2,3.1596065E-2,1.1127756E0,4.1567165E-2,-6.859254E-2,2.2998406E-2,9.6322805E-2,-4.072069E-1,-1.311327E-1,2.0062156E-1,-1.5539704E-1,-1.092147E-2,2.512757E-1,4.0123075E-1,-3.724131E-1,9.671987E-1,9.044706E-2,-8.449828E-1,-1.4199549E-1,2.287858E0,6.877779E-1,7.0699036E-1,-7.222921E-1,-1.5979217E0,-1.4646632E-2,-5.422525E-1,4.3053083E-2,1.9269364E-1,1.6114048E0,-3.621431E-1,5.130051E-2,3.63456E-1,9.2858076E-2,1.6601158E-2,2.104068E-3,-1.4552641E-1,-3.461733E-2,-2.4820797E-2,-9.068352E-2,-6.524726E-3,1.468901E-1,-3.9146543E-2,5.5919406E-3,4.2207387E-1,4.125368E-2,5.4435674E-2,1.049188E0,-2.739516E-1,-4.826304E-2,4.5902975E-2,1.0890476E0,-3.2179195E-2,8.2851276E-2,-3.3047682E-1,-8.5312195E-2,-7.030561E-2,2.209635E-1,3.0369055E-1,1.1844351E0,7.267434E-1,7.71457E-3,4.335399E-2,3.5916325E-1,-2.6672673E-1,-1.1020876E-2,-5.1152885E-1,-1.4323139E-1,-2.04345E-1,2.2835255E-2,3.568213E-2,-6.1840657E-2,-2.2069259E-2,3.255372E-1,5.5483717E-1,2.7463676E-2,-1.3781957E-1,3.7075573E-1,4.3728313E-1,-1.7943172E-2],"categories":[],"categories_nodes":[],"categories_segments":[],"categories_sizes":[],"default_left":[0,0,0,0,0,0,0,0,0,0,0,0,0,0,0,0,0,0,0,0,0,0,0,0,0,0,0,0,0,0,0,0,0,0,0,0,0,0,0,0,0,0,0,0,0,0,0,0,0,0,0,0,0,0,0,0,0,0,0,0,0,0,0,0,0,0,0,0,0,0,0,0,0,0,0,0,0,0,0,0,0,0,0,0,0,0,0,0,0,0,0,0,0,0,0,0,0,0,0,0,0,0,0,0,0,0,0,0,0],"id":14,"left_children":[1,3,5,7,9,11,13,15,17,19,21,23,25,27,29,-1,31,33,35,37,39,41,43,45,47,49,51,53,55,57,59,-1,61,63,-1,-1,-1,65,67,69,-1,71,73,75,77,79,81,83,85,87,89,91,93,95,-1,97,99,101,103,105,107,-1,-1,-1,-1,-1,-1,-1,-1,-1,-1,-1,-1,-1,-1,-1,-1,-1,-1,-1,-1,-1,-1,-1,-1,-1,-1,-1,-1,-1,-1,-1,-1,-1,-1,-1,-1,-1,-1,-1,-1,-1,-1,-1,-1,-1,-1,-1,-1],"loss_changes":[3.4107351E0,4.1388273E0,4.827289E0,2.3774908E0,2.191322E0,2.2047842E1,1.0873556E1,6.151657E-1,3.3611733E-1,1.3714314E0,2.503934E0,1.2032244E1,2.0210493E1,5.9744244E0,8.567971E0,0E0,6.753998E-1,9.902025E-2,9.351969E-3,1.1416891E0,1.6490808E0,3.701731E0,1.3301287E1,9.456919E0,5.315894E0,1.780035E1,5.7305794E0,1.9647102E0,1.0509391E0,1.2608555E1,8.122921E0,0E0,1.0089922E-1,1.039301E-3,0E0,0E0,0E0,5.5765295E-1,2.8974056E-1,1.038934E0,0E0,3.4415517E0,7.3002796E0,2.0459297E1,8.889912E0,2.7630524E1,8.768902E0,2.276143E0,2.52564E0,1.7180843E1,3.324363E1,9.299383E-1,1.1108251E0,2.653122E-2,0E0,5.671879E-1,1.5688968E-1,1.5524903E1,2.3633327E0,1.0669646E1,2.7744598E1,0E0,0E0,0E0,0E0,0E0,0E0,0E0,0E0,0E0,0E0,0E0,0E0,0E0,0E0,0E0,0E0,0E0,0E0,0E0,0E0,0E0,0E0,0E0,0E0,0E0,0E0,0E0,0E0,0E0,0E0,0E0,0E0,0E0,0E0,0E0,0E0,0E0,0E0,0E0,0E0,0E0,0E0,0E0,0E0,0E0,0E0,0E0,0E0],"parents":[2147483647,0,0,1,1,2,2,3,3,4,4,5,5,6,6,7,7,8,8,9,9,10,10,11,11,12,12,13,13,14,14,16,16,17,17,18,18,19,19,20,20,21,21,22,22,23,23,24,24,25,25,26,26,27,27,28,28,29,29,30,30,32,32,33,33,37,37,38,38,39,39,41,41,42,42,43,43,44,44,45,45,46,46,47,47,48,48,49,49,50,50,51,51,52,52,53,53,55,55,56,56,57,57,58,58,59,59,60,60],"right_children":[2,4,6,8,10,12,14,16,18,20,22,24,26,28,30,-1,32,34,36,38,40,42,44,46,48,50,52,54,56,58,60,-1,62,64,-1,-1,-1,66,68,70,-1,72,74,76,78,80,82,84,86,88,90,92,94,96,-1,98,100,102,104,106,108,-1,-1,-1,-1,-1,-1,-1,-1,-1,-1,-1,-1,-1,-1,-1,-1,-1,-1,-1,-1,-1,-1,-1,-1,-1,-1,-1,-1,-1,-1,-1,-1,-1,-1,-1,-1,-1,-1,-1,-1,-1,-1,-1,-1,-1,-1,-1,-1],"split_conditions":[2.755E0,-8.381416E0,8.3185835E0,1.3276144E1,1E0,5.901918E0,8.931084E0,1.78E0,1.7650001E0,1.9000001E0,2.4750001E0,2.3068108E1,1.0000001E0,2.0278473E2,1.3715207E2,2.0831108E-2,2.0311255E0,1.275E0,-1.0468915E1,2.615991E2,6.2E0,1.7958166E1,1.3715207E2,2.865E0,2.5582806E1,3.38E0,1.2940062E2,5.82E0,1.758481E1,1.2493682E2,1.7765594E2,3.1596065E-2,2.61E0,1.11E0,-6.859254E-2,2.2998406E-2,9.6322805E-2,1.8751125E1,1.2622749E1,3.6000001E0,-1.5539704E-1,1.20695206E2,1.1460728E2,6.1000004E0,1.9945232E2,2.4E0,1.5315873E1,2.4677873E2,3.527449E1,2.375693E2,1.6321188E2,7.965E0,3.6E0,1.4621815E2,-1.4646632E-2,5.29E0,8.664416E0,4.4999995E0,8.68E0,2.5683926E1,1.8484518E2,3.63456E-1,9.2858076E-2,1.6601158E-2,2.104068E-3,-1.4552641E-1,-3.461733E-2,-2.4820797E-2,-9.068352E-2,-6.524726E-3,1.468901E-1,-3.9146543E-2,5.5919406E-3,4.2207387E-1,4.125368E-2,5.4435674E-2,1.049188E0,-2.739516E-1,-4.826304E-2,4.5902975E-2,1.0890476E0,-3.2179195E-2,8.2851276E-2,-3.3047682E-1,-8.5312195E-2,-7.030561E-2,2.209635E-1,3.0369055E-1,1.1844351E0,7.267434E-1,7.71457E-3,4.335399E-2,3.5916325E-1,-2.6672673E-1,-1.1020876E-2,-5.1152885E-1,-1.4323139E-1,-2.04345E-1,2.2835255E-2,3.568213E-2,-6.1840657E-2,-2.2069259E-2,3.255372E-1,5.5483717E-1,2.7463676E-2,-1.3781957E-1,3.7075573E-1,4.3728313E-1,-1.7943172E-2],"split_indices":[0,1,1,3,0,1,1,0,0,2,0,3,2,4,4,0,4,0,1,4,2,1,4,0,3,0,4,0,3,4,4,0,0,0,0,0,0,3,1,2,0,4,4,2,4,2,3,4,3,4,4,0,2,4,0,0,1,2,0,3,4,0,0,0,0,0,0,0,0,0,0,0,0,0,0,0,0,0,0,0,0,0,0,0,0,0,0,0,0,0,0,0,0,0,0,0,0,0,0,0,0,0,0,0,0,0,0,0,0],"split_type":[0,0,0,0,0,0,0,0,0,0,0,0,0,0,0,0,0,0,0,0,0,0,0,0,0,0,0,0,0,0,0,0,0,0,0,0,0,0,0,0,0,0,0,0,0,0,0,0,0,0,0,0,0,0,0,0,0,0,0,0,0,0,0,0,0,0,0,0,0,0,0,0,0,0,0,0,0,0,0,0,0,0,0,0,0,0,0,0,0,0,0,0,0,0,0,0,0,0,0,0,0,0,0,0,0,0,0,0,0],"sum_hessian":[1.902E3,1.231E3,6.71E2,1.4E1,1.217E3,3.43E2,3.28E2,7E0,7E0,8.1E1,1.136E3,2.94E2,4.9E1,1.8E1,3.1E2,1E0,6E0,4E0,3E0,6.3E1,1.8E1,1.028E3,1.08E2,2.49E2,4.5E1,3.7E1,1.2E1,7E0,1.1E1,7E1,2.4E2,1E0,5E0,2E0,2E0,1E0,2E0,2.6E1,3.7E1,1.5E1,3E0,9.72E2,5.6E1,3E1,7.8E1,1.2E1,2.37E2,1.7E1,2.8E1,9E0,2.8E1,3E0,9E0,6E0,1E0,5E0,6E0,6.4E1,6E0,6.4E1,1.76E2,4E0,1E0,1E0,1E0,2E1,6E0,3E1,7E0,9E0,6E0,1.92E2,7.8E2,4E0,5.2E1,2.9E1,1E0,2.1E1,5.7E1,1E1,2E0,1.15E2,1.22E2,1.1E1,6E0,2.6E1,2E0,6E0,3E0,7E0,2.1E1,2E0,1E0,7E0,2E0,5E0,1E0,4E0,1E0,5E0,1E0,5E1,1.4E1,5E0,1E0,6.1E1,3E0,1.2E1,1.64E2],"tree_param":{"num_deleted":"0","num_feature":"5","num_nodes":"109","size_leaf_vector":"1"}},{"base_weights":[1.3055634E-2,6.035559E-2,-2.9179372E-2,4.332932E-2,1.0597466E0,-2.0552257E-2,-8.863848E-1,-3.4957025E-2,1.4395793E-1,2.3642819E-1,1.8879308E0,-3.0058183E-2,1.3281515E0,3.710455E-1,-1.2597204E0,-4.67165E-2,9.3710583E-1,4.2399216E-1,6.6106506E-2,9.4046676E-1,-1.3923395E-1,-6.698673E-1,-1.9538712E-2,6.6017365E-1,5.3906476E-1,-1.6516259E0,-1.070797E-1,-1.2443671E-2,-3.4350368E-1,8.50153E-2,4.489098E-1,2.8729782E-1,4.018973E0,-3.2981068E-1,1.5294386E-1,-2.1616602E-2,3.6348337E-1,-3.4435436E-1,1.3475735E-1,-2.1393774E-1,-1.0007082E0,-1.19544216E-1,2.0865144E-2,-3.563036E-2,2.1996446E-1,-6.4415646E-1,-4.4033393E-1,8.989031E-3,-4.80301E-2,2.0210523E-2,-1.4575142E-1,1.9136645E-1,-6.0516074E-2,-3.8060367E-2,1.8465983E0,-1.6584302E-1,7.44903E-2,1.21874355E-1,1.3853607E-2,-2.7892714E-2,-1.3403994E-1,-4.4790298E-2,7.292916E-2,5.0825752E-2,-1.4335072E-1,-4.0461567E-1,-6.85546E-2,5.1531037E-3,-7.780196E-2,1.6833952E-1,-1.8050626E-3,-2.894185E-1,9.126821E-2],"categories":[],"categories_nodes":[],"categories_segments":[],"categories_sizes":[],"default_left":[0,0,0,0,0,0,0,0,0,0,0,0,0,0,0,0,0,0,0,0,0,0,0,0,0,0,0,0,0,0,0,0,0,0,0,0,0,0,0,0,0,0,0,0,0,0,0,0,0,0,0,0,0,0,0,0,0,0,0,0,0,0,0,0,0,0,0,0,0,0,0,0,0],"id":15,"left_children":[1,3,5,7,9,11,13,15,17,19,-1,21,23,-1,25,27,29,31,33,35,37,39,41,-1,43,45,-1,47,49,-1,-1,51,53,55,57,-1,-1,59,61,63,65,67,69,-1,-1,-1,71,-1,-1,-1,-1,-1,-1,-1,-1,-1,-1,-1,-1,-1,-1,-1,-1,-1,-1,-1,-1,-1,-1,-1,-1,-1,-1],"loss_changes":[3.8034105E0,1.5234361E1,7.421363E0,6.9690485E0,6.314291E1,1.2822138E1,9.48472E0,5.7363896E0,8.408981E0,3.833674E0,0E0,6.6567907E0,3.6326914E0,0E0,2.5947514E0,5.010391E0,1.7695551E0,4.0124092E1,1.0502085E1,1.4600015E0,6.0841644E-1,2.1993527E0,3.946128E0,0E0,7.256739E-1,2.656145E0,0E0,2.7787266E0,3.015273E0,0E0,0E0,1.4187163E1,2.7351864E1,7.227784E0,6.74225E0,0E0,0E0,1.1297393E-1,1.9016883E-1,8.9029145E-1,2.1103783E0,5.3752155E0,1.0111702E1,0E0,0E0,0E0,1.4648278E0,0E0,0E0,0E0,0E0,0E0,0E0,0E0,0E0,0E0,0E0,0E0,0E0,0E0,0E0,0E0,0E0,0E0,0E0,0E0,0E0,0E0,0E0,0E0,0E0,0E0,0E0],"parents":[2147483647,0,0,1,1,2,2,3,3,4,4,5,5,6,6,7,7,8,8,9,9,11,11,12,12,14,14,15,15,16,16,17,17,18,18,19,19,20,20,21,21,22,22,24,24,25,25,27,27,28,28,31,31,32,32,33,33,34,34,37,37,38,38,39,39,40,40,41,41,42,42,46,46],"right_children":[2,4,6,8,10,12,14,16,18,20,-1,22,24,-1,26,28,30,32,34,36,38,40,42,-1,44,46,-1,48,50,-1,-1,52,54,56,58,-1,-1,60,62,64,66,68,70,-1,-1,-1,72,-1,-1,-1,-1,-1,-1,-1,-1,-1,-1,-1,-1,-1,-1,-1,-1,-1,-1,-1,-1,-1,-1,-1,-1,-1,-1],"split_conditions":[1.6595179E1,1.6489416E1,1.4924999E1,2E-1,8.45E0,1.2975E1,1.7388409E1,2.2743582E1,1.6394163E0,3.7144172E0,1.8879308E0,1.6700275E1,1.6188174E2,3.710455E-1,1.8891493E2,1E-1,3.545E0,1.6323528E1,5.243584E0,1.835E0,1.6212332E1,2.25E0,2.4144166E0,6.6017365E-1,4.7769165E0,4.8789997E0,-1.070797E-1,1.6006083E1,1.3962906E2,8.50153E-2,4.489098E-1,1.3679999E1,1.12E0,2.3128606E2,1.08706665E1,-2.1616602E-2,3.6348337E-1,1.1500001E0,1E-1,4.8789997E0,2.3999999E0,1.8E0,2.8352501E0,-3.563036E-2,2.1996446E-1,-6.4415646E-1,1.7505001E1,8.989031E-3,-4.80301E-2,2.0210523E-2,-1.4575142E-1,1.9136645E-1,-6.0516074E-2,-3.8060367E-2,1.8465983E0,-1.6584302E-1,7.44903E-2,1.21874355E-1,1.3853607E-2,-2.7892714E-2,-1.3403994E-1,-4.4790298E-2,7.292916E-2,5.0825752E-2,-1.4335072E-1,-4.0461567E-1,-6.85546E-2,5.1531037E-3,-7.780196E-2,1.6833952E-1,-1.8050626E-3,-2.894185E-1,9.126821E-2],"split_indices":[3,3,0,2,0,0,3,1,1,1,0,3,4,0,4,2,0,3,1,0,1,0,1,0,1,1,0,1,4,0,0,3,0,4,1,0,0,0,2,1,2,0,1,0,0,0,0,0,0,0,0,0,0,0,0,0,0,0,0,0,0,0,0,0,0,0,0,0,0,0,0,0,0],"split_type":[0,0,0,0,0,0,0,0,0,0,0,0,0,0,0,0,0,0,0,0,0,0,0,0,0,0,0,0,0,0,0,0,0,0,0,0,0,0,0,0,0,0,0,0,0,0,0,0,0,0,0,0,0,0,0,0,0,0,0,0,0,0,0,0,0,0,0,0,0,0,0,0,0],"sum_hessian":[1.902E3,8.97E2,1.005E3,8.83E2,1.4E1,9.96E2,9E0,4.97E2,3.86E2,1.3E1,1E0,9.9E2,6E0,1E0,8E0,4.92E2,5E0,8.3E1,3.03E2,4E0,9E0,1.5E1,9.75E2,2E0,4E0,5E0,3E0,4.42E2,5E1,3E0,2E0,8.1E1,2E0,5.4E1,2.49E2,1E0,3E0,5E0,4E0,7E0,8E0,2.8E2,6.95E2,1E0,3E0,3E0,2E0,3.44E2,9.8E1,1.3E1,3.7E1,4.7E1,3.4E1,1E0,1E0,3.9E1,1.5E1,7.3E1,1.76E2,2E0,3E0,1E0,3E0,3E0,4E0,5E0,3E0,1.42E2,1.38E2,3.2E1,6.63E2,1E0,1E0],"tree_param":{"num_deleted":"0","num_feature":"5","num_nodes":"73","size_leaf_vector":"1"}},{"base_weights":[1.136882E-2,3.2102827E-2,-6.2368263E-2,-1.6720459E-1,4.7844775E-2,-1.23414546E-1,5.3418297E-2,-2.9179525E-1,1.5569434E-1,2.227128E-1,2.4690753E-2,5.015389E-1,-1.3927746E-1,2.2750985E-2,3.630594E-1,-1.4885654E-1,-5.945886E-1,2.3943098E-2,6.162348E-1,1.6660894E-1,3.1219797E0,6.613588E-2,-5.6847826E-2,-3.843352E-2,6.278326E-1,-2.5042668E-1,-5.409715E-2,9.54757E-2,-1.0386845E-1,1.1240959E-2,4.260045E-1,3.123408E-2,-3.8277498E-1,2.8947728E-2,-7.9301834E-1,3.298249E-1,-1.983017E-1,1.9526092E-2,6.3443786E-1,1.604741E0,-1.9985004E-1,1.7425503E-1,-1.4396969E-2,1.6871846E-1,-1.2612745E-1,3.2211548E-1,2.4785338E-1,-2.670256E-1,2.4876714E-1,2.722736E-1,-1.0808244E-1,2.0015952E-1,6.642246E-2,-3.5615432E-1,8.240298E-2,2.6876379E-2,-2.1817947E-2,1.5453101E-2,4.5830286E-1,-2.554986E-2,1.3773479E-1,-2.0481585E-1,-8.0372885E-2,-1.7517887E-2,4.9459886E-2,-3.53811E-1,-6.980935E-2,-1.3350714E-2,2.3218714E-1,1.3312505E-3,-1.8135591E-1,1.09216444E-1,-7.248309E-2,3.052495E-1,-1.1949042E-1,-6.8468586E-2,8.271086E-2,1.5232696E-3,-1.2176667E-1,2.7873656E-2,4.634914E-1,-7.921294E-2,-1.1638607E-3,1.1701431E-1,1.774782E-2,-8.2827285E-2,1.1496401E-1,-1.1161233E-1,1.450988E-1,-3.828452E-2,1.6465956E-1,-1.5493961E-2,6.1347917E-2,-1.6909419E-1,-4.6069194E-2,5.8739096E-2,-5.7401672E-2,1.4465979E-1,3.648527E-2],"categories":[],"categories_nodes":[],"categories_segments":[],"categories_sizes":[],"default_left":[0,0,0,0,0,0,0,0,0,0,0,0,0,0,0,0,0,0,0,0,0,0,0,0,0,0,0,0,0,0,0,0,0,0,0,0,0,0,0,0,0,0,0,0,0,0,0,0,0,0,0,0,0,0,0,0,0,0,0,0,0,0,0,0,0,0,0,0,0,0,0,0,0,0,0,0,0,0,0,0,0,0,0,0,0,0,0,0,0,0,0,0,0,0,0,0,0,0,0],"id":16,"left_children":[1,3,5,7,9,11,13,15,17,19,21,23,25,27,29,31,33,35,-1,37,39,41,43,-1,45,47,49,51,53,55,57,59,61,63,65,67,69,71,73,-1,-1,75,77,79,81,83,-1,85,-1,87,89,-1,91,93,95,-1,-1,-1,97,-1,-1,-1,-1,-1,-1,-1,-1,-1,-1,-1,-1,-1,-1,-1,-1,-1,-1,-1,-1,-1,-1,-1,-1,-1,-1,-1,-1,-1,-1,-1,-1,-1,-1,-1,-1,-1,-1,-1,-1],"loss_changes":[2.9114325E0,4.6703053E0,2.9611588E0,4.430522E0,5.573882E0,2.7861738E0,1.3686398E0,3.3306818E0,7.7045197E0,2.5668121E1,4.119841E0,6.370791E-1,2.5238028E0,1.2346292E0,2.8309953E-1,2.3289142E0,3.1161604E0,2.104824E0,0E0,1.092834E1,2.8873806E1,7.03788E0,6.4440374E0,0E0,9.7700596E-2,2.300262E0,2.7251687E0,1.3675672E0,2.332037E0,2.6251199E-2,1.094439E-1,1.6328794E0,6.4397025E-1,9.272557E-2,3.8386955E0,2.195703E0,1.4850962E0,1.1064176E1,1.5438133E1,0E0,0E0,1.414965E1,3.5396538E0,9.976327E0,5.309845E0,4.8377782E-2,0E0,7.8368664E-1,0E0,3.1763668E0,1.7638555E0,0E0,1.3473134E0,7.9620147E-1,9.376435E-1,0E0,0E0,0E0,2.1811724E-2,0E0,0E0,0E0,0E0,0E0,0E0,0E0,0E0,0E0,0E0,0E0,0E0,0E0,0E0,0E0,0E0,0E0,0E0,0E0,0E0,0E0,0E0,0E0,0E0,0E0,0E0,0E0,0E0,0E0,0E0,0E0,0E0,0E0,0E0,0E0,0E0,0E0,0E0,0E0,0E0],"parents":[2147483647,0,0,1,1,2,2,3,3,4,4,5,5,6,6,7,7,8,8,9,9,10,10,11,11,12,12,13,13,14,14,15,15,16,16,17,17,19,19,20,20,21,21,22,22,24,24,25,25,26,26,27,27,28,28,29,29,30,30,31,31,32,32,33,33,34,34,35,35,36,36,37,37,38,38,41,41,42,42,43,43,44,44,45,45,47,47,49,49,50,50,52,52,53,53,54,54,58,58],"right_children":[2,4,6,8,10,12,14,16,18,20,22,24,26,28,30,32,34,36,-1,38,40,42,44,-1,46,48,50,52,54,56,58,60,62,64,66,68,70,72,74,-1,-1,76,78,80,82,84,-1,86,-1,88,90,-1,92,94,96,-1,-1,-1,98,-1,-1,-1,-1,-1,-1,-1,-1,-1,-1,-1,-1,-1,-1,-1,-1,-1,-1,-1,-1,-1,-1,-1,-1,-1,-1,-1,-1,-1,-1,-1,-1,-1,-1,-1,-1,-1,-1,-1,-1],"split_conditions":[2.8078943E2,-1.4251665E0,4E-1,1.8998314E1,1.3602501E0,8.885877E0,1.6581083E1,2.37E0,3.545E0,8.68E0,1.0000001E0,-9.075166E0,3.10252E2,6.6477494E0,9.9571085E0,1E-1,3.8179108E1,6.2571323E1,6.162348E-1,7.144168E-1,9.685E0,8.931084E0,1.3962906E2,-3.843352E-2,8.587338E0,1.2315001E1,-4.7272496E0,1.1753877E1,9.8915E0,2.865E0,2.8621512E2,2.125E0,-5.8834996E0,4E-1,2.207299E2,1.965E0,2.05E0,1.5725037E1,2.0037648E2,1.604741E0,-1.9985004E-1,1.20695206E2,7.48E0,1.3603615E2,1.8374111E1,3.3181042E2,2.4785338E-1,1.9318586E1,2.4876714E-1,1.3237039E1,7.2E0,2.0015952E-1,1.4E0,1.7114204E1,3.276903E2,2.6876379E-2,-2.1817947E-2,1.5453101E-2,5.75E0,-2.554986E-2,1.3773479E-1,-2.0481585E-1,-8.0372885E-2,-1.7517887E-2,4.9459886E-2,-3.53811E-1,-6.980935E-2,-1.3350714E-2,2.3218714E-1,1.3312505E-3,-1.8135591E-1,1.09216444E-1,-7.248309E-2,3.052495E-1,-1.1949042E-1,-6.8468586E-2,8.271086E-2,1.5232696E-3,-1.2176667E-1,2.7873656E-2,4.634914E-1,-7.921294E-2,-1.1638607E-3,1.1701431E-1,1.774782E-2,-8.2827285E-2,1.1496401E-1,-1.1161233E-1,1.450988E-1,-3.828452E-2,1.6465956E-1,-1.5493961E-2,6.1347917E-2,-1.6909419E-1,-4.6069194E-2,5.8739096E-2,-5.7401672E-2,1.4465979E-1,3.648527E-2],"split_indices":[4,1,2,3,1,3,1,0,0,0,2,1,4,1,3,2,4,4,0,1,0,1,4,0,3,0,1,3,1,0,4,0,1,2,4,0,0,3,4,0,0,4,0,4,3,4,0,1,0,3,0,0,2,3,4,0,0,0,0,0,0,0,0,0,0,0,0,0,0,0,0,0,0,0,0,0,0,0,0,0,0,0,0,0,0,0,0,0,0,0,0,0,0,0,0,0,0,0,0],"split_type":[0,0,0,0,0,0,0,0,0,0,0,0,0,0,0,0,0,0,0,0,0,0,0,0,0,0,0,0,0,0,0,0,0,0,0,0,0,0,0,0,0,0,0,0,0,0,0,0,0,0,0,0,0,0,0,0,0,0,0,0,0,0,0,0,0,0,0,0,0,0,0,0,0,0,0,0,0,0,0,0,0,0,0,0,0,0,0,0,0,0,0,0,0,0,0,0,0,0,0],"sum_hessian":[1.902E3,1.485E3,4.17E2,1.08E2,1.377E3,2.73E2,1.44E2,7.8E1,3E1,1.6E2,1.217E3,6E0,2.67E2,1.32E2,1.2E1,5.4E1,2.4E1,2.9E1,1E0,1.58E2,2E0,8.07E2,4.1E2,1E0,5E0,1.15E2,1.52E2,8.4E1,4.8E1,2E0,1E1,3.1E1,2.3E1,6E0,1.8E1,1.2E1,1.7E1,1.21E2,3.7E1,1E0,1E0,3.44E2,4.63E2,9.6E1,3.14E2,3E0,2E0,1.14E2,1E0,2.1E1,1.31E2,3E0,8.1E1,2E1,2.8E1,1E0,1E0,1E0,9E0,2.5E1,6E0,5E0,1.8E1,4E0,2E0,1E1,8E0,7E0,5E0,1.2E1,5E0,5.2E1,6.9E1,2.7E1,1E1,6.9E1,2.75E2,4.42E2,2.1E1,9.2E1,4E0,1.47E2,1.67E2,2E0,1E0,1.13E2,1E0,5E0,1.6E1,1.28E2,3E0,4.4E1,3.7E1,9E0,1.1E1,2E1,8E0,8E0,1E0],"tree_param":{"num_deleted":"0","num_feature":"5","num_nodes":"99","size_leaf_vector":"1"}},{"base_weights":[9.55646E-3,4.051948E-2,-3.9484788E-2,2.672704E-2,4.3875396E-1,-2.7447294E-2,-1.0101345E0,3.554703E-2,-5.5229515E-1,2.43959E-1,2.08222E0,-4.936499E-2,6.184419E-1,-5.120915E-1,-5.671851E-1,2.8670669E-2,6.151875E-1,2.883126E-1,-8.3312154E-1,-1.4876178E-1,5.655737E-1,7.6367307E-1,1.03822485E-1,-3.2950237E-2,-4.6094525E-1,1.793444E0,3.6518237E-1,-1.0958393E-1,-3.4223762E-1,3.7624463E-2,-4.8320463E-1,5.155501E-1,-6.6118054E-2,2.0824017E-1,1.3323814E-2,-2.183801E-1,-1.1900375E0,-3.0048504E-1,4.1946015E-1,7.769937E-2,1.6909972E0,-4.195205E-2,7.28446E-1,5.203011E-1,-6.052803E-1,8.30626E-1,-1.6987252E-1,-3.4589452E-1,5.528413E-1,-8.901547E-2,9.584299E-2,6.627985E-3,1.138504E-1,-3.862029E-1,2.7946368E-2,-1.7248386E-1,3.429561E-1,-8.905661E-3,2.1352781E-2,-8.021427E-2,3.993595E-3,-4.6844614E-1,-1.2846483E-1,-1.2251032E-1,6.93622E-2,3.325285E-2,1.456155E-1,7.9245545E-2,-5.193754E-2,8.785505E-1,-1.5680228E-1,-1.4486129E-2,2.4422033E-1,6.094346E-1,-1.3338895E-2,2.930508E-1,1.275326E-2,-3.1178874E-1,-1.3090977E-1,-1.9824563E-1,2.5298357E-2,4.4791454E-1,7.341661E-2],"categories":[],"categories_nodes":[],"categories_segments":[],"categories_sizes":[],"default_left":[0,0,0,0,0,0,0,0,0,0,0,0,0,0,0,0,0,0,0,0,0,0,0,0,0,0,0,0,0,0,0,0,0,0,0,0,0,0,0,0,0,0,0,0,0,0,0,0,0,0,0,0,0,0,0,0,0,0,0,0,0,0,0,0,0,0,0,0,0,0,0,0,0,0,0,0,0,0,0,0,0,0,0],"id":17,"left_children":[1,3,5,7,9,11,13,15,17,19,21,23,25,-1,27,29,31,33,35,37,39,-1,-1,41,43,45,47,49,-1,51,53,-1,55,-1,57,59,61,63,65,67,69,71,73,75,77,-1,-1,79,81,-1,-1,-1,-1,-1,-1,-1,-1,-1,-1,-1,-1,-1,-1,-1,-1,-1,-1,-1,-1,-1,-1,-1,-1,-1,-1,-1,-1,-1,-1,-1,-1,-1,-1],"loss_changes":[2.8912387E0,6.3981667E0,8.583523E0,5.785402E0,1.1977444E1,1.0350548E1,1.809803E0,4.4185777E0,4.253302E0,4.631108E0,2.3368587E0,4.754539E0,6.4869986E0,0E0,1.7123697E0,5.064313E0,9.885634E0,5.4873294E-1,2.5924635E0,1.5916538E0,1.0849916E1,0E0,0E0,4.6912436E0,4.1388903E0,1.0773478E1,2.9934635E0,4.9625418E-1,0E0,5.742077E0,8.9258995E0,0E0,6.195226E0,0E0,1.2065624E-2,7.167795E-2,1.5951719E0,8.974632E-1,2.7580738E-2,7.472339E-1,1.7967218E1,3.6889381E0,8.147144E0,8.309854E-1,1.3059616E0,0E0,0E0,7.3316264E-1,4.5594487E0,0E0,0E0,0E0,0E0,0E0,0E0,0E0,0E0,0E0,0E0,0E0,0E0,0E0,0E0,0E0,0E0,0E0,0E0,0E0,0E0,0E0,0E0,0E0,0E0,0E0,0E0,0E0,0E0,0E0,0E0,0E0,0E0,0E0,0E0],"parents":[2147483647,0,0,1,1,2,2,3,3,4,4,5,5,6,6,7,7,8,8,9,9,10,10,11,11,12,12,14,14,15,15,16,16,17,17,18,18,19,19,20,20,23,23,24,24,25,25,26,26,27,27,29,29,30,30,32,32,34,34,35,35,36,36,37,37,38,38,39,39,40,40,41,41,42,42,43,43,44,44,47,47,48,48],"right_children":[2,4,6,8,10,12,14,16,18,20,22,24,26,-1,28,30,32,34,36,38,40,-1,-1,42,44,46,48,50,-1,52,54,-1,56,-1,58,60,62,64,66,68,70,72,74,76,78,-1,-1,80,82,-1,-1,-1,-1,-1,-1,-1,-1,-1,-1,-1,-1,-1,-1,-1,-1,-1,-1,-1,-1,-1,-1,-1,-1,-1,-1,-1,-1,-1,-1,-1,-1,-1,-1],"split_conditions":[1.835647E1,1.8043148E1,1.4924999E1,1.8E1,2.6999996E0,9.685E0,2.1325253E1,1.2975E1,-7.626665E-1,1E-1,1.35E1,7.3450003E0,2.7998333E0,-5.120915E-1,2.314103E1,1.047E1,1.6188174E2,9.6E-1,1.7455977E2,1.7641499E1,2.83E0,7.6367307E-1,1.03822485E-1,6.69E0,3.3789997E0,1.0975E1,2.0364674E1,8.454E0,-3.4223762E-1,7.2E0,1.4518013E2,5.155501E-1,1.5995712E1,2.0824017E-1,1.325E0,1.5000001E0,2.3024506E2,3.190297E2,1.685E0,9.745667E0,4.31E0,2.096025E1,7.0649996E0,8.45E0,4E-1,8.30626E-1,-1.6987252E-1,7.043583E0,2.1829777E1,-8.901547E-2,9.584299E-2,6.627985E-3,1.138504E-1,-3.862029E-1,2.7946368E-2,-1.7248386E-1,3.429561E-1,-8.905661E-3,2.1352781E-2,-8.021427E-2,3.993595E-3,-4.6844614E-1,-1.2846483E-1,-1.2251032E-1,6.93622E-2,3.325285E-2,1.456155E-1,7.9245545E-2,-5.193754E-2,8.785505E-1,-1.5680228E-1,-1.4486129E-2,2.4422033E-1,6.094346E-1,-1.3338895E-2,2.930508E-1,1.275326E-2,-3.1178874E-1,-1.3090977E-1,-1.9824563E-1,2.5298357E-2,4.4791454E-1,7.341661E-2],"split_indices":[3,3,0,3,2,0,3,0,1,2,2,0,1,0,3,0,4,0,4,1,0,0,0,0,1,0,3,1,0,0,4,0,3,0,0,2,4,4,0,1,0,1,0,0,2,0,0,1,3,0,0,0,0,0,0,0,0,0,0,0,0,0,0,0,0,0,0,0,0,0,0,0,0,0,0,0,0,0,0,0,0,0,0],"split_type":[0,0,0,0,0,0,0,0,0,0,0,0,0,0,0,0,0,0,0,0,0,0,0,0,0,0,0,0,0,0,0,0,0,0,0,0,0,0,0,0,0,0,0,0,0,0,0,0,0,0,0,0,0,0,0,0,0,0,0,0,0,0,0,0,0,0,0,0,0,0,0,0,0,0,0,0,0,0,0,0,0,0,0],"sum_hessian":[1.902E3,1.166E3,7.36E2,1.128E3,3.8E1,7.28E2,8E0,1.112E3,1.6E1,3.5E1,3E0,7.05E2,2.3E1,2E0,6E0,1.1E3,1.2E1,4E0,1.2E1,1.6E1,1.9E1,2E0,1E0,6.79E2,2.6E1,3E0,2E1,4E0,2E0,1.082E3,1.8E1,4E0,8E0,1E0,3E0,5E0,7E0,1.3E1,3E0,1.4E1,5E0,6.72E2,7E0,3E0,2.3E1,2E0,1E0,4E0,1.6E1,3E0,1E0,1.036E3,4.6E1,7E0,1.1E1,6E0,2E0,2E0,1E0,4E0,1E0,4E0,3E0,1.1E1,2E0,1E0,2E0,8E0,6E0,3E0,2E0,6.68E2,4E0,2E0,5E0,1E0,2E0,5E0,1.8E1,2E0,2E0,3E0,1.3E1],"tree_param":{"num_deleted":"0","num_feature":"5",